tree
version=v2
num_class=1
num_tree_per_iteration=1
label_index=0
max_feature_idx=5
objective=binary sigmoid:1
feature_names=follow_count fans_count location mileage car_like date_delta
feature_infos=[0:911] [0:959] 5:4:20:32:13:15:14:16:7:11:9:19:37:51:38:26:12:27:35:3:39:24:48:22:53:57:33:61:68:69:23:72:56:122:77:17:25:62:6:133:84:64:46:29:100:194:192:105:66:98:101:107:28:96:87:81:104:91:164:193:108:75:71:162:21:42:31:97:121:67:82:41:58:59:180:156:149:30:176:88:93:247:137:54:86:240:10:89:34:63:50:49:131:99:118:120:229:43:195:136:171:78:212:217:127:175:125:238:1:141:145:85:8:76:44:55:65:103:183:83:150:167:168:172:179:60:181:114:185:189:191:199:213:227:36:233:268:112:110:102:73:223:218:119:111:135:95:169:170:139:210:209:178:198:109:184:153:147:228:254:18:154:232:79:252:158:262:47:253:246:257:265:113:202:243:278:239:235:216:230:224:142:94:160:166:155:140:70:177:148:146:128:106:126 [100:137840] 18:1:35:42:414:5:17:28:33:130:71:12:236:0:3:45:69:58:61:208:81:25:136:134:390:19:56:110:16:31:2:47:15:53:24:94:190:11:23:59:77:118:57:54:87:72:22:117:50:52:7:143:36:101:93:105:46:131:129:98:137:182:43:125:100:292:106:108:4:75:128:316:152:89:104:14:41:20:124:88:115:111:153:40:51:13:97:123:107:260:32:92:132:48:29:133:170:222:227:85:34:229:160:159:147:80:240:120:119:109:234:270:218:10:192:313:157:261:21:79:82:189:241:194:178:200:235:343:142:223:127:416:370:65:193:121:224:163:112:73:321:126:360:150:148:91:83:350:272:168:345:331:68:171:386:202:197:27:60:304:380:371:225:207:164:273:145:44:216:436:74:358:99:494:205:221:62:361:233:341:196:363:237:206:175:276:76:317:326:312:275:281:388:144:174:384:248:179:246:446:336:184:185:378:231:114:299:298:294:39:306:30:26:329:255:253:249:467:415:395:440:78:351:161:433:165:445:84:177:6:180:381:219:198:203:64:210:425:212:122 [0:4622]
tree_sizes=519 593 437 537 803 436

Tree=0
num_leaves=4
num_cat=2
split_feature=4 3 2
split_gain=25.1681 1.42622 0.861518
threshold=0 9290.0000000000018 1
decision_type=5 2 5
left_child=-1 2 -2
right_child=1 -3 -4
leaf_value=-1.8708094690975319 -1.8919118640260453 -1.8914731889246952 -1.913470895837091
leaf_count=944 106 223 2993
internal_value=0 -0.0635524 -0.0677963
internal_count=4266 3322 3099
cat_boundaries=0 13 20
cat_threshold=8398904 604521985 33554560 256 4 1073741824 65536 4096 0 0 0 0 1073741888 50331648 0 131072 2049 0 0 1
shrinkage=1


Tree=1
num_leaves=5
num_cat=2
split_feature=4 2 3 3
split_gain=24.977 0.942675 0.63165 0.00674369
threshold=0 1 9290.0000000000018 1795.0000000000002
decision_type=5 5 2 2
left_child=-1 3 -3 -2
right_child=1 2 -4 -5
leaf_value=0.0214977862949631 -0 -0.020606054104411228 0.00028275587728057326 0.00079631109949804214
leaf_count=938 111 2895 215 107
internal_value=0 -0.0636144 -0.0665115 0.00207108
internal_count=4266 3328 3110 218
cat_boundaries=0 13 20
cat_threshold=8413240 604521984 35651712 256 4 1077936128 65536 4096 0 0 0 0 1073741888 52428800 65568 131073 2049 0 0 1
shrinkage=0.3


Tree=2
num_leaves=3
num_cat=1
split_feature=4 3
split_gain=23.7148 1.22064
threshold=0 9545.0000000000018
decision_type=5 2
left_child=-1 -2
right_child=1 -3
leaf_value=0.021133442851664835 -0.019566957114472035 0.00086383455773546562
leaf_count=980 3070 216
internal_value=0 -0.0613981
internal_count=4266 3286
cat_boundaries=0 13
cat_threshold=12609592 604505601 33554560 256 4 1077936128 65536 4096 0 0 0 0 1073741888
shrinkage=0.3


Tree=3
num_leaves=4
num_cat=2
split_feature=4 3 2
split_gain=22.6304 1.18157 1.03561
threshold=0 9290.0000000000018 1
decision_type=5 2 5
left_child=-1 2 -2
right_child=1 -3 -4
leaf_value=0.021430857599819633 0.00073660307645427613 0.00089552410811712102 -0.019343104218554619
leaf_count=912 222 229 2903
internal_value=0 -0.0575367 -0.0614379
internal_count=4266 3354 3125
cat_boundaries=0 13 20
cat_threshold=8413232 604521985 2097536 256 4 1077936128 65536 4096 0 0 0 0 1073741888 50331648 67174432 131072 2049 32 0 5
shrinkage=0.3


Tree=4
num_leaves=8
num_cat=2
split_feature=3 2 2 1 5 5 1
split_gain=7.76733 0.89065 0.702042 0.229639 0.142528 0.0638779 0.00197796
threshold=2475.0000000000005 0 1 1.0000000180025095e-35 2732.0000000000005 4016.5000000000005 12.500000000000002
decision_type=2 5 5 2 2 2 2
left_child=1 5 6 -4 -3 -1 -2
right_child=2 4 3 -5 -6 -7 -8
leaf_value=0.0018423002908553394 -0.00081368526460475605 6.9095050074699666e-06 -0.00010573791877659125 0.013435389165599004 -0.012115369748249396 -0.0005045200364828358 0
leaf_count=118 113 123 107 1567 2025 108 105
internal_value=0 -0.0352069 0.0404057 0.0435534 -0.0394833 0.00384483 -0.00254593
internal_count=4266 2374 1892 1674 2148 226 218
cat_boundaries=0 4 11
cat_threshold=150994944 35717632 131361 67108864 12587072 35651656 1050880 32 32 0 4
shrinkage=0.3


Tree=5
num_leaves=3
num_cat=1
split_feature=4 3
split_gain=21.6144 1.00425
threshold=0 9290.0000000000018
decision_type=5 2
left_child=-1 -2
right_child=1 -3
leaf_value=0.020726909993144884 -0.018112255527883751 0.00073943258386135362
leaf_count=910 3127 229
internal_value=0 -0.0569325
internal_count=4266 3356
cat_boundaries=0 13
cat_threshold=4218928 638076416 35651712 256 4 1077936128 65536 4096 0 0 0 0 1073741888
shrinkage=0.3



feature importances:
mileage=7
location=5
car_like=5
fans_count=2
date_delta=2

pandas_categorical:null
