tree
version=v2
num_class=1
num_tree_per_iteration=1
label_index=0
max_feature_idx=5
objective=binary sigmoid:1
feature_names=follow_count fans_count location mileage car_like date_delta
feature_infos=[0:911] [0:959] 5:4:20:32:13:15:14:16:7:11:9:19:37:51:38:26:12:27:35:3:39:24:48:22:53:57:33:61:68:69:23:72:56:122:77:17:25:62:6:133:84:64:46:29:100:194:192:105:66:98:101:107:28:96:87:81:104:91:164:193:108:75:71:162:21:42:31:97:121:67:82:41:58:59:180:156:149:30:176:88:93:247:137:54:86:240:10:89:34:63:50:49:131:99:118:120:229:43:195:136:171:78:212:217:127:175:125:238:1:141:145:85:8:76:44:55:65:103:183:83:150:167:168:172:179:60:181:114:185:189:191:199:213:227:36:233:268:112:110:102:73:223:218:119:111:135:95:169:170:139:210:209:178:198:109:184:153:147:228:254:18:154:232:79:252:158:262:47:253:246:257:265:113:202:243:278:239:235:216:230:224:142:94:160:166:155:140:70:177:148:146:128:106:126 [100:137840] 18:1:35:42:414:5:17:28:33:130:71:12:236:0:3:45:69:58:61:208:81:25:136:134:390:19:56:110:16:31:2:47:15:53:24:94:190:11:23:59:77:118:57:54:87:72:22:117:50:52:7:143:36:101:93:105:46:131:129:98:137:182:43:125:100:292:106:108:4:75:128:316:152:89:104:14:41:20:124:88:115:111:153:40:51:13:97:123:107:260:32:92:132:48:29:133:170:222:227:85:34:229:160:159:147:80:240:120:119:109:234:270:218:10:192:313:157:261:21:79:82:189:241:194:178:200:235:343:142:223:127:416:370:65:193:121:224:163:112:73:321:126:360:150:148:91:83:350:272:168:345:331:68:171:386:202:197:27:60:304:380:371:225:207:164:273:145:44:216:436:74:358:99:494:205:221:62:361:233:341:196:363:237:206:175:276:76:317:326:312:275:281:388:144:174:384:248:179:246:446:336:184:185:378:231:114:299:298:294:39:306:30:26:329:255:253:249:467:415:395:440:78:351:161:433:165:445:84:177:6:180:381:219:198:203:64:210:425:212:122 [0:4622]
tree_sizes=701 499 400 497 648 528 611 594 505 609 496 567 568 505 593 589

Tree=0
num_leaves=7
num_cat=2
split_feature=3 2 2 5 0 5
split_gain=0.191812 0.0183439 0.0176571 0.0091885 0.00762681 0.000101962
threshold=2475.0000000000005 0 1 2732.0000000000005 79.500000000000014 4543.5000000000009
decision_type=2 5 5 2 2 2
left_child=2 -2 -1 -4 -3 -5
right_child=1 4 3 5 -6 -7
leaf_value=-1.892470015257022 -1.892470015257022 -1.892119235326913 -1.892470015257022 -1.8928380769062376 -1.892470015257022 -1.892470015257022
leaf_count=101 103 1560 116 1891 94 99
internal_value=0 0.00103048 -0.00109012 -0.0011813 0.00113013 -0.0012263
internal_count=3964 1757 2207 2106 1654 1990
cat_boundaries=0 5 9
cat_threshold=4194368 72 16 32 32 16777216 33554432 288 67108864
shrinkage=1


Tree=1
num_leaves=4
num_cat=2
split_feature=4 2 3
split_gain=0.649163 0.023113 0.00890672
threshold=0 1 9290.0000000000018
decision_type=5 5 2
left_child=-1 -2 -3
right_child=1 2 -4
leaf_value=0.00059302772459064452 0 -0.00060644964517111879 0
leaf_count=883 230 2654 197
internal_value=0 -0.00192554 -0.00199501
internal_count=3964 3081 2851
cat_boundaries=0 13 20
cat_threshold=8415288 604521984 2097280 256 4 1077936128 65536 4096 0 0 0 0 1073741888 52428800 65568 131333 1 0 4 1
shrinkage=0.3


Tree=2
num_leaves=4
num_cat=0
split_feature=3 5 1
split_gain=0.207828 0.00870472 0.00737398
threshold=2475.0000000000005 3574.5000000000005 1.0000000180025095e-35
decision_type=2 2 2
left_child=1 -1 -2
right_child=2 -3 -4
leaf_value=0 -0 -0.00034487660616572383 0.00034290014785209752
leaf_count=559 109 1620 1676
internal_value=0 -0.00110384 0.00110441
internal_count=3964 2179 1785
shrinkage=0.3


Tree=3
num_leaves=4
num_cat=2
split_feature=4 2 5
split_gain=0.679143 0.0210194 0.0015704
threshold=0 1 2124.0000000000005
decision_type=5 5 2
left_child=-1 -2 -3
right_child=1 2 -4
leaf_value=0.00060138991310020983 0 0 -0.00061600217518351021
leaf_count=872 220 127 2745
internal_value=0 -0.00198701 -0.00204844
internal_count=3964 3092 2872
cat_boundaries=0 13 20
cat_threshold=8413240 604505601 2097280 256 4 1077936128 65536 4096 0 0 0 0 1073741888 60817408 65568 1 2049 0 0 5
shrinkage=0.3


Tree=4
num_leaves=7
num_cat=2
split_feature=3 2 2 5 5 0
split_gain=0.193376 0.0217867 0.019141 0.000493191 0.000198706 0.000132076
threshold=2475.0000000000005 0 1 3654.5000000000005 2732.0000000000005 79.500000000000014
decision_type=2 5 5 2 2 2
left_child=1 3 -2 -1 -3 -4
right_child=2 4 5 -5 -6 -7
leaf_value=2.2848590892725881e-05 -0 0 0.00035348755956606003 -0 -0.00035058614551033317 -0
leaf_count=95 103 114 1569 151 1840 92
internal_value=0 -0.00105214 0.00107781 0 -0.0011674 0.00117742
internal_count=3964 2200 1764 246 1954 1661
cat_boundaries=0 4 9
cat_threshold=151060480 35717632 288 67108864 4198464 33554496 0 32 32
shrinkage=0.3


Tree=5
num_leaves=6
num_cat=0
split_feature=3 5 0 5 5
split_gain=0.204592 0.0235111 0.00155015 0.000462111 6.12944e-05
threshold=3085.0000000000005 3291.5000000000005 80.500000000000014 4548.0000000000009 2387.5000000000005
decision_type=2 2 2 2 2
left_child=1 4 -2 -3 -1
right_child=2 3 -4 -5 -6
leaf_value=-0 0.00032814400237291149 -0.00036794341462770177 -0 0 8.0536165119929315e-06
leaf_count=94 1326 2008 97 98 341
internal_value=0 -0.0011055 0.00108539 -0.00122419 0
internal_count=3964 2541 1423 2106 435
shrinkage=0.3


Tree=6
num_leaves=6
num_cat=2
split_feature=3 2 2 5 5
split_gain=0.191157 0.0429025 0.00713382 0.00280583 0.000377903
threshold=3085.0000000000005 0 1 3640.5000000000005 4336.5000000000009
decision_type=2 5 5 2 2
left_child=1 3 -2 -1 -5
right_child=2 -3 -4 4 -6
leaf_value=6.0119611696624686e-05 -0 -0.00039692454844120309 0.00031068811065337491 -1.9999517234727053e-05 0
leaf_count=190 126 2041 1310 174 123
internal_value=0 -0.00111973 0.000994341 8.46087e-05 -0
internal_count=3964 2528 1436 487 297
cat_boundaries=0 4 7
cat_threshold=167845888 102826625 288 67110913 8917056 2097344 1048576
shrinkage=0.3


Tree=7
num_leaves=6
num_cat=2
split_feature=5 2 2 5 1
split_gain=0.161407 0.020106 0.00837319 0.00115131 9.95425e-05
threshold=3557.5000000000005 0 1 4543.5000000000009 1.0000000180025095e-35
decision_type=2 5 5 2 2
left_child=2 4 -1 -3 -2
right_child=1 3 -4 -5 -6
leaf_value=-0 -0 -0.00032292065713483573 0.00031227114870129724 0 1.0263700836796295e-05
leaf_count=146 100 2063 1277 103 275
internal_value=0 -0.000953188 0.000992517 -0.00106991 0
internal_count=3964 2541 1423 2166 375
cat_boundaries=0 7 11
cat_threshold=34603520 2097155 131104 0 0 0 4 5247048 1073741888 0 16
shrinkage=0.3


Tree=8
num_leaves=4
num_cat=2
split_feature=4 2 5
split_gain=0.648994 0.0222389 0.00326365
threshold=0 1 2206.0000000000005
decision_type=5 5 2
left_child=-1 -2 -3
right_child=1 2 -4
leaf_value=0.00058126298137801372 0 0 -0.00061195356107458245
leaf_count=938 225 139 2662
internal_value=0 -0.00196438 -0.00203002
internal_count=3964 3026 2801
cat_boundaries=0 13 20
cat_threshold=2160091192 603997697 33554816 256 4 1077936128 65536 4096 0 0 0 0 1073741888 16777216 65570 131105 1 32 0 1
shrinkage=0.3


Tree=9
num_leaves=6
num_cat=2
split_feature=5 2 2 1 1
split_gain=0.146482 0.0242945 0.0154215 0.00820879 0.000270104
threshold=3618.5000000000005 0 1 29.500000000000004 1.0000000180025095e-35
decision_type=2 5 5 2 2
left_child=2 4 -1 -3 -2
right_child=1 3 -4 -5 -6
leaf_value=-0 -0 -0.00032905859036532761 0.0003114981249610838 0 1.8702187802449547e-05
leaf_count=235 138 1848 1309 116 318
internal_value=0 -0.000906457 0.000947039 -0.00105183 2.66492e-05
internal_count=3964 2420 1544 1964 456
cat_boundaries=0 7 11
cat_threshold=51515400 18874371 131104 0 0 0 4 80760904 16777280 1048576 16
shrinkage=0.3


Tree=10
num_leaves=4
num_cat=2
split_feature=4 2 3
split_gain=0.646432 0.0247709 0.0226768
threshold=0 1 9290.0000000000018
decision_type=5 5 2
left_child=-1 -2 -3
right_child=1 2 -4
leaf_value=0.00056782633190012946 0 -0.00064060937241575892 0
leaf_count=921 244 2611 188
internal_value=0 -0.00199996 -0.00207169
internal_count=3964 3043 2799
cat_boundaries=0 13 20
cat_threshold=46145592 67651073 33554816 256 4 1077936128 65536 4096 0 0 0 0 1073741888 58720256 65570 1 1 0 0 5
shrinkage=0.3


Tree=11
num_leaves=5
num_cat=3
split_feature=4 3 2 4
split_gain=0.635542 0.0323334 0.0141992 0.000312173
threshold=0 9290.0000000000018 1 2
decision_type=5 2 5 5
left_child=3 2 -2 -1
right_child=1 -3 -4 -5
leaf_value=-0 0 0 -0.00061200407668904734 0.00058831469360141149
leaf_count=100 103 204 2757 800
internal_value=0 -0.00190117 -0.0019988 0.00195987
internal_count=3964 3064 2860 900
cat_boundaries=0 13 20 22
cat_threshold=41959472 638076432 33554816 256 4 1077936128 65536 4096 0 0 0 0 1073741888 16777216 65536 131072 1 0 0 1 33554432 33570832
shrinkage=0.3


Tree=12
num_leaves=5
num_cat=2
split_feature=4 2 3 5
split_gain=0.666564 0.0251837 0.013878 0.0016903
threshold=0 1 11905.000000000002 2257.0000000000005
decision_type=5 5 2 2
left_child=-1 -2 3 -3
right_child=1 2 -4 -5
leaf_value=0.00056314276962469588 0 0 0 -0.00065612728194637624
leaf_count=778 245 127 113 2701
internal_value=0 -0.00207398 -0.00214438 -0.00218237
internal_count=3964 3186 2941 2828
cat_boundaries=0 13 20
cat_threshold=8405040 637552128 33554560 256 4 1073741824 65536 4096 0 0 0 0 1073741888 18874368 604045442 131073 2048 0 0 5
shrinkage=0.3


Tree=13
num_leaves=4
num_cat=2
split_feature=4 2 5
split_gain=0.615408 0.0259043 0.00204463
threshold=0 1 2206.0000000000005
decision_type=5 5 2
left_child=-1 -2 -3
right_child=1 2 -4
leaf_value=0.0005525691986235945 0 0 -0.00061163724357656902
leaf_count=892 218 149 2705
internal_value=0 -0.00195597 -0.00203247
internal_count=3964 3072 2854
cat_boundaries=0 13 20
cat_threshold=33554488 603997697 33554816 256 4 1077936128 65536 4096 0 0 0 0 1073741888 60817408 65568 131073 2048 0 0 1
shrinkage=0.3


Tree=14
num_leaves=6
num_cat=2
split_feature=5 2 2 1 1
split_gain=0.152544 0.0241206 0.00922986 0.00249116 0.000499599
threshold=3557.5000000000005 0 1 29.500000000000004 5.5000000000000009
decision_type=2 5 5 2 2
left_child=2 4 -1 -3 -2
right_child=1 3 -4 -5 -6
leaf_value=-0 -0 -0.00031086322415383702 0.00031988991705218003 0 2.4734988622727808e-05
leaf_count=118 302 1934 1322 136 152
internal_value=0 -0.000872756 0.00101419 -0.0010218 3.03618e-05
internal_count=3964 2524 1440 2070 454
cat_boundaries=0 7 11
cat_threshold=51388424 18874369 131104 0 0 0 4 4231232 64 0 16
shrinkage=0.3


Tree=15
num_leaves=6
num_cat=2
split_feature=5 2 2 1 1
split_gain=0.153481 0.027077 0.0158637 0.0031931 8.20209e-05
threshold=3618.5000000000005 0 1 29.500000000000004 5.5000000000000009
decision_type=2 5 5 2 2
left_child=2 4 -1 -3 -2
right_child=1 3 -4 -5 -6
leaf_value=-0 -0 -0.00033594570136089274 0.00031287424581018464 0 1.4223608304897291e-05
leaf_count=290 222 1974 1253 119 106
internal_value=0 -0.000948401 0.000949293 -0.00110275 3.58127e-05
internal_count=3964 2421 1543 2093 328
cat_boundaries=0 3 7
cat_threshold=51380224 18874369 131104 4198496 16777416 0 16
shrinkage=0.3



feature importances:
location=21
date_delta=19
mileage=9
fans_count=8
car_like=8
follow_count=3

pandas_categorical:null
