tree
version=v2
num_class=1
num_tree_per_iteration=1
label_index=0
max_feature_idx=8
objective=binary sigmoid:1
feature_names=follow_count fans_count gender location level properties mileage car_like date_delta
feature_infos=[0:911] [0:827] 2:1 5:32:4:20:13:15:14:11:7:16:9:37:51:19:38:12:26:39:35:57:27:24:3:48:53:22:33:68:56:23:61:69:72:122:17:77:62:25:6:100:133:64:194:46:107:84:192:98:75:31:91:28:29:162:96:164:87:105:66:193:101:82:71:104:49:108:41:42:67:81:120:59:137:88:34:240:89:121:229:30:176:21:180:247:50:93:99:8:238:156:136:149:131:118:217:125:97:171:43:86:85:44:54:141:145:36:112:58:195:18:63:191:10:103:175:268:1:127:212:210:147:254:185:179:172:168:126:102:78:76:119:55:45:74:60:65:252:165:196:106:153:109:110:166:167:95:170:73:190:83:183:184:140:128:227:218:228:265:230:47:143:114:146:148:111:150:202:233:225:201:219:186:246:243:189:224:216:235:40:70:199:198:237:232:160:262:115:263:116:181:117:154:155:135:158:253:163:169:267:173:132:249:291 1:2:3:4:5 1:2:5 [70:290600] 18:1:35:42:414:5:17:28:45:130:236:33:3:0:12:69:58:71:208:134:81:25:390:61:56:2:19:110:16:136:15:24:11:31:23:118:94:47:190:53:77:59:57:7:22:87:72:105:143:50:36:43:52:117:54:101:129:75:46:131:182:40:108:14:316:152:125:93:41:92:32:4:128:133:260:20:51:100:132:137:106:124:160:104:111:153:89:10:292:115:88:120:126:107:80:97:147:98:48:157:240:222:29:123:331:200:270:227:109:170:163:159:194:142:34:261:371:13:79:224:119:343:178:91:85:192:416:99:112:127:21:313:164:175:350:150:189:26:73:237:193:229:196:360:197:276:272:380:223:60:370:65:171:6:312:184:83:207:82:216:218:234:221:62:378:148:341:384:494:202:273:249:44:296:275:363:76:144:145:446:68:205:436:74:326:168:321:329:233:174:121:122:235:27:304:388:474:241:248:386:433:8:381:299:330:336:317:415:467:345:348:401:306:78:398:294:351:483:445:361:411:440:425:367:84:185:179:177:198:30:206:534:210:55:63:64:219:90 [0:4626]
tree_sizes=587 750 757 710 742 756 746 775 808 747 806 805 756 561 849 772 768 812 851 769 792 798 762 769 836 780 893 843 832 842 818 824 871 863 813 841 813 805 877 846 836 862 862 762 828 726 833 761 930 817 781 833 842 740 738 826 792 699 835 845 883

Tree=0
num_leaves=5
num_cat=2
split_feature=7 6 3 8
split_gain=129.871 6.0291 3.71451 1.27932
threshold=0 4945.0000000000009 1 4566.5000000000009
decision_type=5 2 5 2
left_child=-1 2 -2 -4
right_child=1 -3 3 -5
leaf_value=-1.7421552136391527 -1.9004017910958988 -1.9004017910958988 -2.0149980618792411 -1.9004017910958988
leaf_count=847 111 551 2547 54
internal_value=0 -0.271055 -0.306192 -0.316885
internal_count=4110 3263 2712 2601
cat_boundaries=0 13 20
cat_threshold=2160066608 603981313 33620096 256 4 1077936128 65536 4096 0 0 0 0 1073741888 419430400 0 0 17 0 0 1
shrinkage=1


Tree=1
num_leaves=8
num_cat=3
split_feature=7 3 8 7 1 8 1
split_gain=100.356 6.06324 3.30806 1.39389 0.96836 0.133378 0.0769996
threshold=0 1 2318.0000000000005 2 1.0000000180025095e-35 4556.5000000000009 2.5000000000000004
decision_type=5 5 2 5 2 2 2
left_child=4 6 -3 -4 -1 -5 -2
right_child=1 2 3 5 -6 -7 -8
leaf_value=0 -0 0 0 -0.099767762282527594 0.15144953012383855 -0 0.0054919065900128705
leaf_count=58 136 171 254 2505 710 61 215
internal_value=0 -0.221892 -0.250824 -0.26956 0.414915 -0.277967 0
internal_count=4110 3342 2991 2820 768 2566 351
cat_boundaries=0 13 20 25
cat_threshold=4195504 67110400 33620096 256 4 1077936128 65536 4096 0 0 0 0 1073741888 419495944 539033600 131104 1 0 0 1 262144 2113537 8192 524288 16
shrinkage=0.35


Tree=2
num_leaves=8
num_cat=3
split_feature=7 8 3 8 7 8 6
split_gain=79.8085 7.20441 2.40362 1.52725 0.501196 0.0152813 0.00386013
threshold=0 2933.5000000000005 1 4566.5000000000009 2 1556.0000000000002 10485.000000000002
decision_type=5 2 5 2 5 2 2
left_child=-1 5 -3 4 -4 -2 -7
right_child=1 2 3 -5 -6 6 -8
leaf_value=0.13420220249086542 -0 0 -0 0 -0.088962214206771195 0.0029346239765406356 -0
leaf_count=691 59 245 233 59 2422 346 55
internal_value=0 -0.186138 -0.225678 -0.237804 -0.249056 0.00332234 0.00757198
internal_count=4110 3419 2959 2714 2655 460 401
cat_boundaries=0 13 20 25
cat_threshold=12582928 604243456 128 0 4 1073741824 65536 4096 0 0 0 0 1073741888 180486152 539033600 0 0 0 0 3 2147487744 2113537 32 4352 16809985
shrinkage=0.35


Tree=3
num_leaves=8
num_cat=4
split_feature=7 6 8 8 3 2 3
split_gain=70.0519 4.59341 2.28798 1.65567 1.38439 0.539214 0.0360388
threshold=0 4035.0000000000005 4401.5000000000009 4560.5000000000009 1 2 3
decision_type=5 2 2 2 5 1 5
left_child=2 3 -1 4 -2 -6 -3
right_child=1 6 -4 -5 5 -7 -8
leaf_value=0.12749344085718722 0 0.0037096003548778831 -0 0 -0.085005588356758532 0 -0
leaf_count=790 102 214 61 72 2295 64 512
internal_value=0 -0.183636 0.344504 -0.220004 -0.228762 -0.234652 0
internal_count=4110 3259 851 2533 2461 2359 726
cat_boundaries=0 13 20 21 23
cat_threshold=12583984 637535744 65920 256 4 1077936128 65536 4096 0 0 0 0 1073741888 411041792 0 2080 0 0 0 1 4 1697792 33554433
shrinkage=0.35


Tree=4
num_leaves=8
num_cat=6
split_feature=7 6 3 2 7 3 3
split_gain=55.5918 4.16341 1.82662 1.48104 0.779217 0.00106545 0.000602708
threshold=0 4220.0000000000009 1 2 3 4 5
decision_type=5 2 5 1 5 5 5
left_child=-1 2 -2 4 -4 -3 -7
right_child=1 5 3 -5 -6 6 -8
leaf_value=0.11110624954454623 0 -0 -0 0 -0.078695977766041245 -0 0.00076703199512314821
leaf_count=742 238 101 416 58 1925 115 515
internal_value=0 -0.155584 -0.190969 -0.2025 -0.21457 0 0.00170635
internal_count=4110 3368 2637 2399 2341 731 630
cat_boundaries=0 13 20 21 27 29 31
cat_threshold=1044 67372032 8608 0 4 1073741824 65536 4096 0 0 0 0 1073741888 151195648 538968064 0 2064 0 0 1 4 268767232 136856065 1073741824 4096 33 4194304 640 73 595984 2097154
shrinkage=0.35


Tree=5
num_leaves=8
num_cat=3
split_feature=7 8 7 3 1 1 1
split_gain=41.616 5.04946 1.854 1.34883 0.619435 0.224266 0.0377897
threshold=0 2933.5000000000005 1 2 1.0000000180025095e-35 74.500000000000014 68.500000000000014
decision_type=5 2 5 5 2 2 2
left_child=4 6 -3 -4 -1 -5 -2
right_child=1 2 3 5 -6 -7 -8
leaf_value=0 0.0041469568814636861 0 0 -0.073280461257157842 0.099673386098986239 -0 -0
leaf_count=67 378 579 239 2000 726 54 67
internal_value=0 -0.134313 -0.171592 -0.189173 0.272453 -0.202698 0.00495757
internal_count=4110 3317 2872 2293 793 2054 445
cat_boundaries=0 13 18 21
cat_threshold=2160067604 201377280 65664 0 4 1073741824 65536 4096 0 0 0 0 1073741888 344072 539238403 8448 268439552 16810497 189399040 570490880 32
shrinkage=0.35


Tree=6
num_leaves=9
num_cat=2
split_feature=8 6 3 3 8 0 8 1
split_gain=18.7423 4.50305 2.66697 1.92548 0.411768 0.223092 0.123426 0.0200779
threshold=3618.5000000000005 3605.0000000000005 0 1 4560.5000000000009 94.500000000000014 3868.5000000000005 1.5000000000000002
decision_type=2 2 5 5 2 2 2 2
left_child=2 3 -1 -2 -5 -4 -3 -8
right_child=1 6 5 4 -6 -7 7 -9
leaf_value=-0 0 -0 0.073085699331720627 -0.056521887592841318 0 0 -0 0.008816249391296941
leaf_count=377 249 156 1151 1690 60 58 74 295
internal_value=0 -0.091669 0.179035 -0.137596 -0.154009 0.201084 0.0134142 0.0236713
internal_count=4110 2524 1586 1999 1750 1209 525 369
cat_boundaries=0 4 8
cat_threshold=2219835488 16777290 256 2064 33751048 2621441 32 67108864
shrinkage=0.35


Tree=7
num_leaves=8
num_cat=5
split_feature=7 6 3 1 7 3 3
split_gain=35.253 4.00583 1.68887 0.567458 0.52116 0.145813 0.000102243
threshold=0 3385.0000000000005 1 1.0000000180025095e-35 2 3 4
decision_type=5 2 5 2 5 5 5
left_child=3 2 -2 -1 -4 -3 -7
right_child=1 5 4 -5 -6 6 -8
leaf_value=0 0 0.0073954920257175965 0 0.092347232300268464 -0.06508515567687459 0 -0.00046098931105842292
leaf_count=152 255 253 127 663 1935 103 622
internal_value=0 -0.124124 -0.165708 0.250159 -0.178611 0 -0.00117158
internal_count=4110 3295 2317 815 2062 978 725
cat_boundaries=0 13 20 26 28 33
cat_threshold=4120 236987392 33554816 0 4 0 65536 4096 0 0 0 0 1073741888 159453184 2162688 32 2064 0 0 5 2415920128 16384 1073741824 0 32 4194304 18407448 570425344 128 3 0 0 32
shrinkage=0.35


Tree=8
num_leaves=9
num_cat=4
split_feature=7 6 8 8 7 8 3 3
split_gain=25.354 3.58328 1.47672 1.31111 0.733627 0.463627 0.335955 0.201977
threshold=0 3495.0000000000005 2902.5000000000005 4560.5000000000009 1 4505.5000000000009 2 3
decision_type=5 2 2 2 5 2 5 5
left_child=5 2 -2 4 -4 -1 -3 -6
right_child=1 6 3 -5 7 -7 -8 -9
leaf_value=0.082976225880091833 0 0.010909752519429577 0 0 0 -0 -0.001020043650870353 -0.060000983129567212
leaf_count=704 240 384 260 54 128 55 617 1668
internal_value=0 -0.0913085 -0.134056 -0.148645 -0.158819 0.227316 0 -0.166038
internal_count=4110 3351 2350 2110 2056 759 1001 1796
cat_boundaries=0 13 18 20 24
cat_threshold=268439728 520 33554560 0 4 1073741824 65536 4096 0 0 0 0 1073741888 851968 24576 0 256 8 18411568 570425376 134217856 33554496 8224 16
shrinkage=0.35


Tree=9
num_leaves=9
num_cat=2
split_feature=6 8 3 0 3 1 8 6
split_gain=10.8661 2.75338 2.51552 1.51132 1.11701 0.545043 0.35154 0.179358
threshold=2415.0000000000005 3635.5000000000005 0 94.500000000000014 1 1.0000000180025095e-35 4560.5000000000009 1325.0000000000002
decision_type=2 2 5 2 5 2 2 2
left_child=1 7 -2 5 -3 -4 -6 -1
right_child=2 4 3 -5 6 -7 -8 -9
leaf_value=0.0084282247739643525 -0 0 -0 -0 -0.045364260411769171 0.0610209277717529 0 -0
leaf_count=297 216 221 112 77 1352 1462 60 313
internal_value=0 -0.0690083 0.135397 0.154803 -0.1092 0.169236 -0.122179 0.00434804
internal_count=4110 2243 1867 1651 1633 1574 1412 610
cat_boundaries=0 5 9
cat_threshold=8393280 2097224 0 48 32 62919176 539492352 8224 67108864
shrinkage=0.35


Tree=10
num_leaves=9
num_cat=2
split_feature=7 3 8 1 8 1 6 1
split_gain=26.7745 4.33228 1.04818 0.797506 0.729834 0.462517 0.264956 0.0918052
threshold=0 1 2983.5000000000005 70.500000000000014 4375.5000000000009 1.0000000180025095e-35 555.00000000000011 1.0000000180025095e-35
decision_type=5 5 2 2 2 2 2 2
left_child=5 7 -3 4 6 -1 -4 -2
right_child=1 2 3 -5 -6 -7 -8 -9
leaf_value=0 -0 -0 0 0 -0 0.077995554196775743 -0.066359280584183139 0.0059018423405266538
leaf_count=190 121 395 81 63 402 721 1634 503
internal_value=0 -0.115637 -0.152759 -0.169681 -0.175869 0.210342 -0.186632 0.00371247
internal_count=4110 3199 2575 2180 2117 911 1715 624
cat_boundaries=0 13 20
cat_threshold=9175056 69551107 33554464 268959748 4 0 65536 0 0 0 0 0 1073741888 440619016 572588544 8224 4113 0 0 7
shrinkage=0.35


Tree=11
num_leaves=9
num_cat=3
split_feature=7 3 8 7 8 1 8 6
split_gain=20.621 2.73515 1.77229 0.75287 0.738126 0.44426 0.381057 0.306635
threshold=0 1 2206.0000000000005 2 4478.5000000000009 1.0000000180025095e-35 4385.5000000000009 555.00000000000011
decision_type=5 5 2 5 2 2 2 2
left_child=4 -2 -3 -4 5 -1 7 -5
right_child=1 2 3 6 -6 -7 -8 -9
leaf_value=0 0 0 0 0 -0 0.071716753423175336 -0 -0.055925211591488035
leaf_count=118 386 151 242 103 59 671 389 1991
internal_value=0 -0.0961573 -0.122479 -0.139532 0.188908 0.199293 -0.146203 -0.156386
internal_count=4110 3262 2876 2725 848 789 2483 2094
cat_boundaries=0 13 21 26
cat_threshold=4152 67144192 33620128 256 260 1077936128 65536 4096 0 0 0 0 1073741888 297816072 536887296 256 0 0 0 1 65536 41943040 2121728 8192 20971520 512
shrinkage=0.35


Tree=12
num_leaves=9
num_cat=2
split_feature=6 3 3 0 8 8 1 8
split_gain=6.91922 3.01775 2.0214 1.48784 0.383776 0.3925 0.334154 0.0770024
threshold=2415.0000000000005 0 1 94.500000000000014 2636.5000000000005 4560.5000000000009 1.0000000180025095e-35 3625.0000000000005
decision_type=2 5 5 2 2 2 2 2
left_child=1 7 -2 6 -3 -6 -4 -1
right_child=2 4 3 -5 5 -7 -8 -9
leaf_value=0.0091417685541139021 -0 0 -0 -0 -0.038714771261564945 0 0.050981234775781807 -0
leaf_count=134 215 75 115 76 1618 56 1474 347
internal_value=0 -0.0534199 0.108253 0.126729 -0.0980129 -0.105585 0.141835 0.0191686
internal_count=4110 2230 1880 1665 1749 1674 1589 481
cat_boundaries=0 4 9
cat_threshold=163778560 36241473 288 67108880 2148008000 1076363336 0 48 32
shrinkage=0.35


Tree=13
num_leaves=5
num_cat=2
split_feature=7 6 7 1
split_gain=18.6954 2.17608 1.30715 0.89538
threshold=0 5445.0000000000009 1 1.0000000180025095e-35
decision_type=5 2 5 2
left_child=3 2 -2 -1
right_child=1 -3 -4 -5
leaf_value=-0 0 0 -0.048544713724923957 0.067003554853142383
leaf_count=257 477 577 2033 766
internal_value=0 -0.0964449 -0.124128 0.176263
internal_count=4110 3087 2510 1023
cat_boundaries=0 13 18
cat_threshold=787596 538995210 33619968 256 532 4194304 0 4096 0 0 0 0 1073741888 2420183058 557057 1073742080 4718592 16777217
shrinkage=0.35


Tree=14
num_leaves=9
num_cat=4
split_feature=7 3 8 8 7 8 7 6
split_gain=15.403 2.93016 1.72219 0.645184 0.631073 0.185927 0.0183341 0.00449745
threshold=0 1 4370.5000000000009 1896.0000000000002 2 3696.5000000000005 3 2565.0000000000005
decision_type=5 5 2 2 5 2 5 2
left_child=6 5 3 -3 -5 -2 -1 -7
right_child=1 2 -4 4 -6 7 -8 -9
leaf_value=0 0.0083723812355798021 0 0 0 -0.050494995149790035 -0.0013248266873612552 0.061812655512186537 0
leaf_count=201 337 72 369 103 2133 320 448 127
internal_value=0 -0.0813141 -0.114591 -0.133614 -0.13958 0.00128515 0.168473 -0
internal_count=4110 3461 2677 2308 2236 784 649 447
cat_boundaries=0 13 21 26 33
cat_threshold=4100 33817090 33554720 0 4 1077936128 65536 4096 0 0 0 0 1073741888 197275784 587203104 2321 4097 0 0 3 65536 8406016 16384 8192 256 272 4100 262144 33554688 0 0 0 65536
shrinkage=0.35


Tree=15
num_leaves=9
num_cat=2
split_feature=8 3 3 8 0 1 6 6
split_gain=5.17045 1.87541 1.2397 1.05065 0.742859 0.351472 0.16128 0.0463165
threshold=3635.5000000000005 0 1 4385.5000000000009 80.500000000000014 29.500000000000004 1595.0000000000002 1795.0000000000002
decision_type=2 5 5 2 2 2 2 2
left_child=2 6 -1 5 -4 -3 -2 -5
right_child=1 3 4 7 -6 -7 -8 -9
leaf_value=-0 -0 -0.034036695999755243 0.046874399634466449 -0 -0 0 0.0095266591575426472 0.0043405036165172104
leaf_count=478 291 1305 1078 359 67 104 306 122
internal_value=0 -0.0320403 0.106109 -0.0709129 0.123134 -0.0911908 0.0145996 0
internal_count=4110 2487 1623 1890 1145 1409 597 481
cat_boundaries=0 7 11
cat_threshold=55803912 1660944387 32 67108864 0 0 1 2219868256 1091043530 0 16
shrinkage=0.35


Tree=16
num_leaves=8
num_cat=3
split_feature=7 3 7 1 6 6 6
split_gain=16.3509 2.46128 0.925955 0.382777 0.280574 0.169788 0.084548
threshold=0 1 2 48.500000000000007 315.00000000000006 3525.0000000000005 6400.0000000000009
decision_type=5 5 5 2 2 2 2
left_child=3 5 -3 -1 -4 -2 -6
right_child=1 2 4 -5 6 -7 -8
leaf_value=0.067352699515422471 -0 0 0 0 -0.044581238089136534 0.0081023639866543585 -0
leaf_count=756 450 436 58 57 1834 222 297
internal_value=0 -0.0715653 -0.102488 0.182796 -0.11629 0.00124966 -0.121766
internal_count=4110 3297 2625 813 2189 672 2131
cat_boundaries=0 13 20 28
cat_threshold=33554468 69214728 160 16777216 4 0 65536 0 0 0 0 0 1073741888 84959368 536936448 256 2065 0 0 1 2148028418 2050 1073741824 268439552 545 0 0 4096
shrinkage=0.35


Tree=17
num_leaves=9
num_cat=4
split_feature=7 3 7 8 8 6 1 3
split_gain=13.3548 3.33653 1.5925 0.482272 0.387515 0.382282 0.187025 0.0375756
threshold=0 1 2 2753.0000000000005 4556.5000000000009 11400.000000000002 2.5000000000000004 3
decision_type=5 5 5 2 2 2 2 5
left_child=-1 6 -3 -4 5 -5 -2 -8
right_child=1 2 3 4 -6 -7 7 -9
leaf_value=0.056592200421181786 -0 0 -0 -0.052652134247870137 0 0 -0 0.0093987659396509229
leaf_count=413 400 423 256 1873 56 86 234 369
internal_value=0 -0.0729858 -0.112221 -0.130947 -0.141756 -0.145608 0.00703096 0.0242359
internal_count=4110 3697 2694 2271 2015 1959 1003 603
cat_boundaries=0 13 21 26 28
cat_threshold=0 263680 65536 268435456 4 0 65536 0 0 0 0 0 1073741888 433668616 553846273 16777224 2049 0 0 1 65536 2193641522 2048 1073741856 0 1 1572872 1
shrinkage=0.35


Tree=18
num_leaves=9
num_cat=4
split_feature=7 6 3 7 1 3 1 0
split_gain=11.1507 2.85068 2.95037 1.17099 0.669928 0.297592 0.0901248 0.0764552
threshold=0 4220.0000000000009 1 2 35.500000000000007 3 1.0000000180025095e-35 79.500000000000014
decision_type=5 2 5 5 2 5 2 2
left_child=-1 2 6 -4 -5 -3 -2 -7
right_child=1 5 3 4 -6 7 -8 -9
leaf_value=0.057997095378520332 -0 -0 0 -0.051999998047965512 0 0.012316425034270953 0.0059618986679302426 -0
leaf_count=516 126 104 364 1833 81 680 324 82
internal_value=0 -0.0463044 -0.0906055 -0.122556 -0.138552 0.0140528 0.00284833 0.0309236
internal_count=4110 3594 2728 2278 1914 866 450 762
cat_boundaries=0 13 20 26 28
cat_threshold=268435476 67108866 33562624 0 4 0 65536 0 0 0 0 0 1073741888 159453184 1092682336 2080 2065 0 0 1 2147816448 536889857 1073741824 4608 1 4194304 66176 2621472
shrinkage=0.35


Tree=19
num_leaves=8
num_cat=3
split_feature=7 3 7 1 8 8 1
split_gain=10.9413 2.6797 1.25815 0.616387 0.557745 0.240824 0.21176
threshold=0 1 2 1.0000000180025095e-35 1972.5000000000002 4462.5000000000009 2.5000000000000004
decision_type=5 5 5 2 2 2 2
left_child=3 6 -3 -1 -4 -6 -2
right_child=1 2 4 -5 5 -7 -8
leaf_value=-0 -0 0 0 0.056031696817007169 -0.04459941057796344 0 0.009110197496650688
leaf_count=228 275 380 86 692 1788 150 511
internal_value=0 -0.0600516 -0.0975416 0.147757 -0.114525 -0.123639 0.00774953
internal_count=4110 3190 2404 920 2024 1938 786
cat_boundaries=0 13 20 25
cat_threshold=2181304456 2188288 33620224 524544 268 0 0 0 0 0 0 0 1073741888 289612288 1644758019 33 67115024 0 0 3 8932384 33554441 1073741856 268435456 545
shrinkage=0.35


Tree=20
num_leaves=9
num_cat=3
split_feature=7 8 6 7 1 1 3 6
split_gain=9.89399 2.09531 1.17193 0.912575 0.771126 0.517768 0.459859 0.0807286
threshold=0 2933.5000000000005 4220.0000000000009 1 35.500000000000007 48.500000000000007 2 12215.000000000002
decision_type=5 2 2 5 2 2 5 2
left_child=5 7 3 -3 6 -1 -5 -2
right_child=1 2 -4 4 -6 -7 -8 -9
leaf_value=0.055300555659212484 0.0061848832159960652 0 0 0 0 -0 -0.044948428200164051 -0
leaf_count=704 403 351 586 104 58 54 1789 61
internal_value=0 -0.0490516 -0.0818676 -0.101493 -0.113292 0.148113 -0.124276 0.0083012
internal_count=4110 3352 2888 2302 1951 758 1893 464
cat_boundaries=0 13 18 21
cat_threshold=2147746816 201351170 65920 0 4 0 65536 0 0 0 0 0 1073741888 589840 538968080 33562656 4211456 265 4325384 64 32
shrinkage=0.35


Tree=21
num_leaves=8
num_cat=5
split_feature=7 3 7 7 1 1 3
split_gain=8.76399 2.73835 1.25739 0.434274 0.263285 0.0728731 0.0545842
threshold=0 1 2 3 4.5000000000000009 74.500000000000014 4
decision_type=5 5 5 5 2 2 5
left_child=-1 3 -3 -2 -5 -4 -6
right_child=1 2 5 4 6 -7 -8
leaf_value=0.048082101984053584 -0 0 -0.039869489208506206 -0 -0 -0 0.016863189569540048
leaf_count=625 212 243 1950 488 148 56 388
internal_value=0 -0.0505434 -0.0933974 0.00903523 0.0342574 -0.110043 0.046073
internal_count=4110 3485 2249 1236 1024 2006 536
cat_boundaries=0 13 20 28 36 38
cat_threshold=46139404 67633664 1107296256 4194304 772 0 0 0 0 0 0 0 1073741888 144433288 556286977 8192 2065 0 0 3 2148025472 35072 32 268435456 32776 0 0 4096 2164817921 21004289 32 20480 64 0 0 4096 8978432 1
shrinkage=0.35


Tree=22
num_leaves=8
num_cat=4
split_feature=7 3 6 1 7 3 6
split_gain=7.36934 2.69255 0.912023 0.702802 0.405401 0.143517 0.00267383
threshold=0 1 5805.0000000000009 3.5000000000000004 2 3 555.00000000000011
decision_type=5 5 2 2 5 5 2
left_child=5 3 4 6 -3 -1 -2
right_child=1 2 -4 -5 -6 -7 -8
leaf_value=-0 0 0 0 0.017064699123506662 -0.038205241062746392 0.045376123707575544 -0.0010267409253894892
leaf_count=110 59 241 430 411 1903 673 283
internal_value=0 -0.0469234 -0.0869111 0.01618 -0.104033 0.12441 -0
internal_count=4110 3327 2574 753 2144 783 342
cat_boundaries=0 13 20 25 28
cat_threshold=327680 2433033 0 20971520 33300 0 0 4096 0 0 0 0 1073741888 458252288 1661469184 33 4112 0 0 3 675968 0 1107296256 528896 1 1097728 524296 32
shrinkage=0.35


Tree=23
num_leaves=9
num_cat=2
split_feature=3 6 0 3 1 8 6 6
split_gain=3.34844 2.4259 1.7976 0.496529 0.555356 0.234588 0.404136 0.157163
threshold=0 2035.0000000000002 35.500000000000007 1 40.500000000000007 3618.5000000000005 315.00000000000006 1405.0000000000002
decision_type=5 2 2 5 2 2 2 2
left_child=-1 5 3 -3 -5 7 -7 -2
right_child=1 2 -4 4 -6 6 -8 -9
leaf_value=-0.01478164995739231 0.0078767503039918422 -0 -0 0.049328823178535229 -0 0 -0.014698681560037534 -0
leaf_count=786 258 127 251 1271 85 121 1060 151
internal_value=0 0.0705313 0.106317 0.126587 0.131695 -0 -0.0250231 0.00274624
internal_count=4110 3324 1734 1483 1356 1590 1181 409
cat_boundaries=0 7 9
cat_threshold=2751987776 1074266312 9707669 16784180 32 20 5 25170432 2097152
shrinkage=0.35


Tree=24
num_leaves=9
num_cat=4
split_feature=7 3 8 7 6 8 7 8
split_gain=7.51335 2.23694 1.49234 0.334064 0.236921 0.102006 0.0197414 0.0282679
threshold=0 1 4360.5000000000009 2 2245.0000000000005 4505.5000000000009 3 3291.5000000000005
decision_type=5 5 2 5 2 2 5 2
left_child=5 4 3 -3 6 -1 -2 -8
right_child=1 2 -4 -5 -6 -7 7 -9
leaf_value=0.040827131018621919 0 0 0 -0.041848855818439293 0.0091245411299793865 -0 0 -0.0043724737098602756
leaf_count=816 110 105 328 1785 489 77 75 325
internal_value=0 -0.0621342 -0.09673 -0.116516 0 0.111872 -0 -0.00775524
internal_count=4110 3217 2218 1890 999 893 510 400
cat_boundaries=0 13 20 26 29
cat_threshold=302062600 235225090 32 16777216 33284 1073741824 0 4096 0 0 0 0 1073741888 496644232 589381794 256 2048 0 0 5 2148007936 2048 0 268435456 40 4194304 393218 8 131072
shrinkage=0.35


Tree=25
num_leaves=9
num_cat=3
split_feature=7 8 8 1 6 7 2 8
split_gain=6.15303 1.74252 1.84379 0.739957 0.543248 0.418606 0.620255 0.170945
threshold=0 2933.5000000000005 4355.5000000000009 70.500000000000014 11400.000000000002 1 2 1482.0000000000002
decision_type=5 2 2 2 2 5 1 2
left_child=-1 7 3 4 5 -3 -7 -2
right_child=1 2 -4 -5 -6 6 -8 -9
leaf_value=0.041322011486699485 -0 0 0 0 0 -0.04434939921768917 0 0.0086202516987778591
leaf_count=835 58 216 519 84 72 1830 60 436
internal_value=0 -0.035641 -0.0695375 -0.0957602 -0.1047 -0.111471 -0.117384 0.0100997
internal_count=4110 3275 2781 2262 2178 2106 1890 494
cat_boundaries=0 13 17 18
cat_threshold=4198424 538985987 1073815584 285212930 12 4194304 0 0 0 0 0 0 1073741888 2155954176 201588992 0 20992 4
shrinkage=0.35


Tree=26
num_leaves=9
num_cat=4
split_feature=7 7 3 1 7 6 6 6
split_gain=6.2457 3.5299 1.21804 1.0396 1.10979 0.399431 0.245863 0.20153
threshold=0 1 2 1.0000000180025095e-35 3 14805.000000000002 4035.0000000000005 565.00000000000011
decision_type=5 5 5 2 5 2 2 2
left_child=-1 6 -3 -4 -5 -6 7 -2
right_child=1 2 3 4 5 -7 -8 -9
leaf_value=-0.023819221224431468 0 -0 -0 -0 0.060326173325337608 -0 0 -0.012727257761378388
leaf_count=820 146 227 347 242 1426 55 183 664
internal_value=0 0.0900885 0.127154 0.139794 0.153433 0.164398 -0.00231299 -0.0265929
internal_count=4110 3290 2297 2070 1723 1481 993 810
cat_boundaries=0 10 18 25 35
cat_threshold=286785665 17826816 813828096 539002928 33554755 0 1073807360 0 16 16 2151923722 6562578 16777632 1073763840 16810016 1073741825 0 65536 2164264960 1091108872 0 528 0 0 4 4 167804928 1073750016 4194306 12 4194304 0 0 0 268435456
shrinkage=0.35


Tree=27
num_leaves=9
num_cat=6
split_feature=7 3 7 3 8 1 7 2
split_gain=6.02685 2.14593 0.89962 0.51853 0.276628 0.183571 0.172284 0.110273
threshold=0 1 2 3 4375.5000000000009 2.5000000000000004 4 5
decision_type=5 5 5 5 2 2 5 1
left_child=3 5 -3 -1 7 -2 -5 -4
right_child=1 2 4 6 -6 -7 -8 -9
leaf_value=-0 -0 0 -0.038014811339658824 -0 0 0.0085126721125810354 0.041102974957078091 0
leaf_count=110 248 438 1834 103 230 416 672 59
internal_value=0 -0.053179 -0.0858873 0.102184 -0.0999654 0.00615729 0.111234 -0.106864
internal_count=4110 3225 2561 885 2123 664 775 1893
cat_boundaries=0 13 20 26 29 36 37
cat_threshold=268439576 286730 65664 524292 780 1073741824 65536 0 0 268435456 0 0 1073741888 532760576 1610760192 8497 1 0 0 3 2147502118 2097408 1073750016 272634370 0 4194304 67135488 8 16 0 262144 128 0 0 0 65536 4
shrinkage=0.35


Tree=28
num_leaves=9
num_cat=4
split_feature=7 3 6 8 7 6 7 6
split_gain=5.57079 2.31595 0.525864 0.506998 0.430039 0.395224 0.360163 0.2224
threshold=0 1 13975.000000000002 2723.5000000000005 2 315.00000000000006 3 1195.0000000000002
decision_type=5 5 2 2 5 2 5 2
left_child=2 6 4 -3 -1 -5 -2 -8
right_child=1 3 -4 5 -6 -7 7 -9
leaf_value=-0 -0 0 -0 0 0.040941913941569638 -0.037205279763112657 -0 0.014327525509882795
leaf_count=243 322 179 57 75 454 1736 309 735
internal_value=0 -0.0502612 0.0993657 -0.0909523 0.109587 -0.101139 0.00327214 0.0306807
internal_count=4110 3356 754 1990 697 1811 1366 1044
cat_boundaries=0 13 20 27 32
cat_threshold=276842624 573080065 32 260 772 0 65536 4096 0 0 0 0 1073741888 421036072 1646346849 2321 2321 0 0 3 18432 2621952 32 256 768 0 65536 16814119 218104840 0 4194304 64
shrinkage=0.35


Tree=29
num_leaves=9
num_cat=3
split_feature=7 7 0 1 7 0 6 6
split_gain=5.11855 2.31909 0.912468 0.578934 0.723396 0.109678 0.112895 0.0594563
threshold=0 1 40.500000000000007 1.0000000180025095e-35 2 5.5000000000000009 605.00000000000011 3475.0000000000005
decision_type=5 5 2 2 5 2 2 2
left_child=-1 5 3 -3 -5 6 -2 -8
right_child=1 2 -4 4 -6 -7 7 -9
leaf_value=-0.022990230691423339 0 -0 -0 -0 0.04657426303076255 0 -0.010406807421162583 0
leaf_count=753 155 498 188 109 1717 232 384 74
internal_value=0 0.078311 0.106266 0.118201 0.126871 -0 -0.0179437 -0.0260293
internal_count=4110 3357 2512 2324 1826 845 613 458
cat_boundaries=0 10 16 26
cat_threshold=2165374981 17858560 813828096 539008304 50364483 0 0 4096 16 16 277402624 205523227 1090527264 1073742336 524304 1077936129 0 33554432 0 4210688 12 0 0 0 0 268435456
shrinkage=0.35


Tree=30
num_leaves=9
num_cat=4
split_feature=7 3 7 8 1 2 1 8
split_gain=4.87877 1.65821 0.837124 0.626506 0.407256 0.351659 0.377492 0.364267
threshold=0 1 2 1972.5000000000002 42.500000000000007 3 74.500000000000014 4379.5000000000009
decision_type=5 5 5 2 2 1 2 2
left_child=4 -2 -3 -4 -1 6 7 -5
right_child=1 2 3 5 -6 -7 -8 -9
leaf_value=0.035548945776366178 0 0 0 -0.0410781830131682 -0 0 0 0
leaf_count=651 785 411 79 1666 71 58 92 297
internal_value=0 -0.0482888 -0.0773051 -0.091288 0.0922945 -0.101316 -0.105639 -0.110926
internal_count=4110 3388 2603 2192 722 2113 2055 1963
cat_boundaries=0 13 20 26 27
cat_threshold=528412 168296449 33628288 268435456 33285 1073741824 65536 0 0 268435456 0 0 1073741888 163788808 537067520 2353 6161 32 0 3 2147601408 543179266 1073741856 4608 8 4194304 4
shrinkage=0.35


Tree=31
num_leaves=9
num_cat=4
split_feature=7 3 8 8 6 7 6 7
split_gain=4.6942 1.60494 1.25132 0.709266 0.503594 0.430009 0.220073 0.122869
threshold=0 1 4355.5000000000009 4040.5000000000005 16605.000000000004 2 555.00000000000011 3
decision_type=5 5 2 2 2 5 2 5
left_child=3 7 4 -1 5 -3 -7 -2
right_child=1 2 -4 -5 -6 6 -8 -9
leaf_value=0.039358523838082388 -0 0 0 -0 0 0 -0.038388216279203684 0.0064955126303723344
leaf_count=550 130 106 405 401 60 65 1589 804
internal_value=0 -0.0370646 -0.0708721 0.0968016 -0.0921872 -0.0992239 -0.104131 0.00413147
internal_count=4110 3159 2225 951 1820 1760 1654 934
cat_boundaries=0 13 20 25 28
cat_threshold=655524 639631624 160 16388 32772 0 0 4096 0 0 0 0 1073741888 160465048 572719105 256 2064 32 0 3 1024 134268928 0 268435456 40 33558531 16777218 536870912
shrinkage=0.35


Tree=32
num_leaves=9
num_cat=4
split_feature=7 3 7 1 3 1 8 8
split_gain=4.35307 3.46223 2.45371 0.775276 0.454211 0.199234 0.00276423 0.0283071
threshold=0 1 2 1.0000000180025095e-35 3 19.500000000000004 4355.5000000000009 3059.5000000000005
decision_type=5 5 5 2 5 2 2 2
left_child=4 5 6 -4 -1 -2 7 -3
right_child=1 2 3 -5 -6 -7 -8 -9
leaf_value=0 -0.011450628196762191 0 -0 0.050654187936767632 -0.028565124702474957 0 0 -0.0033538416034610808
leaf_count=101 473 107 423 1527 817 128 125 409
internal_value=0 0.0624191 0.101526 0.131642 -0.0717929 -0.020385 -0 -0.00279346
internal_count=4110 3192 2591 1950 918 601 641 516
cat_boundaries=0 10 17 25 28
cat_threshold=18169861 87031808 813697152 555780144 587202626 0 1073741824 4096 16 16 3020948032 1224736776 135276945 2596 32 20 4 12615864 172526608 16777472 268965376 565 4194304 0 65536 8704 1 16
shrinkage=0.35


Tree=33
num_leaves=9
num_cat=5
split_feature=7 3 7 3 6 8 7 0
split_gain=4.2651 1.42015 0.848653 0.625965 0.398655 0.362225 0.264929 0.132649
threshold=0 1 2 3 10285.000000000002 4478.5000000000009 4 40.500000000000007
decision_type=5 5 5 5 2 2 5 2
left_child=3 6 -3 -1 5 -4 -2 -8
right_child=1 2 4 -5 -6 -7 7 -9
leaf_value=-0 -0 0 -0.032534143518430904 0.038189739297413074 0 0 0.011930899740228972 -0
leaf_count=178 210 217 1679 691 110 119 840 66
internal_value=0 -0.0291208 -0.0634365 0.0973279 -0.0787269 -0.0872845 0.00552442 0.0271516
internal_count=4110 3241 2125 869 1908 1798 1116 906
cat_boundaries=0 13 20 26 28 34
cat_threshold=2147549186 9736 33554688 4194308 4 0 65536 4096 0 0 0 0 1073741888 160481824 587399680 134220072 2064 0 0 3 276830208 541097984 0 256 0 4194304 68157472 2097160 285216801 553680896 2048 32 33088 1073741824
shrinkage=0.35


Tree=34
num_leaves=9
num_cat=5
split_feature=7 6 3 7 3 6 7 1
split_gain=3.79729 1.30145 0.640999 0.586771 0.440896 0.478065 0.0987812 0.00231687
threshold=0 4985.0000000000009 1 2 3 9030.0000000000018 4 16.500000000000004
decision_type=5 2 5 5 5 2 5 2
left_child=4 2 -2 -4 -1 6 -6 -3
right_child=1 7 3 -5 5 -7 -8 -9
leaf_value=-0 0 -0 0 -0.032812279330467022 -0 -0 0.034251991452916984 0.00091481207819164845
leaf_count=122 335 253 316 1738 113 61 798 374
internal_value=0 -0.045321 -0.0725727 -0.0829473 0.0778256 0.0864837 0.0963939 0
internal_count=4110 3016 2389 2054 1094 972 911 627
cat_boundaries=0 13 17 22 24 27
cat_threshold=8716298 136848393 33554688 21496068 4 0 0 0 0 0 0 0 1073741888 318767696 36241408 0 16 306724864 32768 1073741824 20992 569 25088 35651584 8388608 134225920 256
shrinkage=0.35


Tree=35
num_leaves=9
num_cat=4
split_feature=7 3 7 8 7 1 8 1
split_gain=2.94714 1.86747 0.970994 0.561551 0.391293 0.319351 0.182614 0.370741
threshold=0 1 2 1896.0000000000002 3 67.500000000000014 4040.5000000000005 29.500000000000004
decision_type=5 5 5 2 5 2 2 2
left_child=6 4 -3 -4 -2 -5 7 -1
right_child=1 2 3 5 -6 -7 -8 -9
leaf_value=0.033103828272831495 -0 0 0 -0.034359813721193552 0.012543795267534378 0 0 -0
leaf_count=420 226 322 75 1795 733 105 362 72
internal_value=0 -0.0278064 -0.0672096 -0.0831693 0.014618 -0.0929498 0.0791723 0.0873509
internal_count=4110 3256 2297 1975 959 1900 854 492
cat_boundaries=0 13 20 25 30
cat_threshold=458812 134498816 32 16642 40 0 0 0 0 268435456 0 0 1073741888 197743232 50331681 8481 67108881 0 0 1 37788672 258 1073938432 268435456 33296 54530051 16778240 139264 0 33088
shrinkage=0.35


Tree=36
num_leaves=9
num_cat=4
split_feature=7 3 7 8 8 1 8 7
split_gain=3.38905 1.291 1.09524 0.679347 0.55926 0.357359 0.276693 0.190688
threshold=0 1 2 2397.0000000000005 4224.5000000000009 74.500000000000014 4543.5000000000009 3
decision_type=5 5 5 2 2 2 2 5
left_child=4 7 -3 -4 -1 6 -5 -2
right_child=1 2 3 5 -6 -7 -8 -9
leaf_value=0.033565110990620657 -0 0 0 -0.035476997405142138 -0 0 0 0.0079979584575534685
leaf_count=356 117 565 155 1954 108 72 63 720
internal_value=0 -0.0341738 -0.0614388 -0.080534 0.0839736 -0.0924864 -0.0975853 0.00169755
internal_count=4110 3646 2809 2244 464 2089 2017 837
cat_boundaries=0 13 20 30 33
cat_threshold=4325376 36352 128 0 0 4194304 0 0 0 0 0 0 1073741888 327762440 33620545 9 67108865 0 0 1 268750882 2113536 32 0 528 0 0 0 0 268435456 266274 0 32
shrinkage=0.35


Tree=37
num_leaves=9
num_cat=3
split_feature=3 6 0 3 3 0 6 1
split_gain=1.55563 1.44018 0.879935 0.665243 0.252768 0.170559 0.0768116 0.0437205
threshold=0 2035.0000000000002 94.500000000000014 1 2 1.0000000180025095e-35 555.00000000000011 62.500000000000007
decision_type=5 2 2 5 5 2 2 2
left_child=5 4 3 -3 -2 -1 -6 -7
right_child=1 2 -4 -5 6 7 -8 -9
leaf_value=0 0.00073557597432517775 -0 -0 0.033794472466727662 0 -0.014593552570391599 -0.010888814015574901 0
leaf_count=369 370 162 55 1245 203 806 829 71
internal_value=0 0.0445645 0.0750491 0.0874313 -0 -0.0316022 -0.0259809 -0.0397138
internal_count=4110 2864 1462 1407 1402 1246 1032 877
cat_boundaries=0 7 11 15
cat_threshold=2751496808 1226833928 9707668 16779812 544 20 4 8400896 536936448 0 16 25243648 537460737 32 67108880
shrinkage=0.35


Tree=38
num_leaves=9
num_cat=5
split_feature=7 3 3 7 6 1 7 0
split_gain=3.10761 1.73906 0.77834 0.357829 0.29301 0.273344 0.0809783 0.096641
threshold=0 1 2 3 315.00000000000006 1.0000000180025095e-35 4 21.500000000000004
decision_type=5 5 5 5 2 2 5 2
left_child=2 6 -1 -3 -5 -4 -2 -8
right_child=1 3 5 4 -6 -7 7 -9
leaf_value=-0 -0 0 -0 0 -0.030415510292630839 0.033318556188081189 0.0079931222198386647 -0
leaf_count=107 255 101 151 76 2076 539 662 143
internal_value=0 -0.0410547 0.073048 -0.0749242 -0.0809967 0.0875065 0.00272826 0.0149094
internal_count=4110 3313 797 2253 2152 690 1060 805
cat_boundaries=0 13 20 23 28 36
cat_threshold=723076 100990985 288 16777220 288 1073741824 0 0 0 268435456 0 0 1073741888 256950400 556286985 2073 67108864 32 0 1 68206592 524296 16 4194304 4194560 1073741824 268435456 521 323260449 553648128 131072 0 0 0 0 4096
shrinkage=0.35


Tree=39
num_leaves=9
num_cat=3
split_feature=7 3 7 0 6 6 0 6
split_gain=3.01345 2.08547 2.05829 0.244129 0.0981962 0.0494082 0.0186975 0.0674296
threshold=0 1 2 89.000000000000014 9565.0000000000018 655.00000000000011 24.500000000000004 5155.0000000000009
decision_type=5 5 5 2 2 2 2 2
left_child=4 5 -3 -4 -1 -2 7 -7
right_child=1 2 3 -5 -6 6 -8 -9
leaf_value=-0.022003282099714146 0 -0 0.039355180586540264 -0 0 -0.0078137871702503928 0 0
leaf_count=669 56 687 2097 55 67 341 71 67
internal_value=0 0.0537793 0.0817032 0.107428 -0.0579488 -0.00786098 -0.0146687 -0.0166758
internal_count=4110 3374 2839 2152 736 535 479 408
cat_boundaries=0 10 17 23
cat_threshold=17825797 17866753 1887438848 539003954 33587522 0 65536 0 16 268435472 2751463488 1746927818 9707653 804 32 20 4 37917752 709362456 33554432 1077936640 16777216 1
shrinkage=0.35


Tree=40
num_leaves=9
num_cat=3
split_feature=7 7 1 0 7 8 8 0
split_gain=3.10326 1.86429 1.71522 0.62491 0.366686 0.137959 0.127741 0.117237
threshold=0 1 2.5000000000000004 39.500000000000007 2 4486.5000000000009 4335.5000000000009 1.0000000180025095e-35
decision_type=5 5 2 2 5 2 2 2
left_child=5 6 -3 4 -4 -1 7 -2
right_child=1 2 3 -5 -6 -7 -8 -9
leaf_value=-0.023758938993707384 0 -0 -0 -0 0.042670807133471482 0 0 -0.0092903390782020281
leaf_count=976 189 840 123 179 1078 63 187 475
internal_value=0 0.0506591 0.0824369 0.109201 0.118226 -0.0631003 -0 -0.0186652
internal_count=4110 3071 2220 1380 1201 1039 851 664
cat_boundaries=0 10 18 23
cat_threshold=2203976705 17850368 813697024 539002912 536870994 1073741824 65536 4096 16 16 114716 40111635 139296 1073747728 33554436 1 0 65536 268435458 134217728 0 0 32
shrinkage=0.35


Tree=41
num_leaves=9
num_cat=3
split_feature=7 7 8 7 1 6 8 8
split_gain=2.19097 1.54621 0.418255 0.258282 0.423908 0.132436 0.0846931 0.0804289
threshold=0 1 1556.0000000000002 2 1.5000000000000002 5445.0000000000009 3291.5000000000005 4360.5000000000009
decision_type=5 5 2 5 2 2 2 2
left_child=-1 5 -3 -4 -5 6 -2 -8
right_child=1 2 3 4 -6 -7 7 -9
leaf_value=-0.01882089094974923 0 -0 -0 -0 0.034311138521333114 0 -0.010251394505861036 0
leaf_count=928 101 56 374 431 1206 230 586 198
internal_value=0 0.0425074 0.0736408 0.0814148 0.087652 -0 -0.0187203 -0.0244449
internal_count=4110 3182 2067 2011 1637 1115 885 784
cat_boundaries=0 10 18 28
cat_threshold=287047681 554959360 1904224512 543196208 33554754 0 0 0 16 16 4246568 107513115 131200 1073762816 524344 1073741825 0 4096 200720 18432 65536 268435458 16777733 4194304 0 0 0 268435456
shrinkage=0.35


Tree=42
num_leaves=9
num_cat=5
split_feature=7 3 0 7 8 8 3 7
split_gain=2.12632 1.29549 1.79145 1.06087 0.425718 0.318245 0.303359 0.114558
threshold=0 1 1.0000000180025095e-35 2 4471.5000000000009 2076.0000000000005 3 4
decision_type=5 5 2 5 2 2 5 5
left_child=6 -2 7 -4 5 -5 -1 -3
right_child=1 2 3 4 -6 -7 -8 -9
leaf_value=-0 0.00057927445376738712 -0 0 0 0 -0.04122142323131496 0.024852935383985378 0.0064038201749128214
leaf_count=103 962 201 233 76 83 1400 433 619
internal_value=0 -0.0327704 -0.0612613 -0.0911823 -0.105135 -0.113021 0.0625332 0
internal_count=4110 3574 2612 1792 1559 1476 536 820
cat_boundaries=0 13 20 25 28 33
cat_threshold=8519684 134267136 0 16390 544 1077936128 0 4096 0 0 0 0 1073741888 193654792 553796106 313 1 0 0 3 37750912 606076930 1073741856 20971520 32768 1105920 32 8192 16779296 622854154 32 4194304 64
shrinkage=0.35


Tree=43
num_leaves=9
num_cat=2
split_feature=6 3 3 0 1 8 1 6
split_gain=1.51657 1.07152 0.997732 1.00001 0.155587 0.088629 0.0681759 0.0353892
threshold=2035.0000000000002 0 1 40.500000000000007 26.500000000000004 4556.5000000000009 40.500000000000007 1405.0000000000002
decision_type=2 5 5 2 2 2 2 2
left_child=1 7 -2 6 5 -3 -4 -1
right_child=2 4 3 -5 -6 -7 -8 -9
leaf_value=0.0036908009789414454 -0 -0.024253285654194868 0.029081614099712102 -0 0 0 0 -0
leaf_count=314 351 1439 1442 225 56 62 104 117
internal_value=0 -0.0337876 0.0436091 0.0631009 -0.0621777 -0.0671148 0.0809064 0
internal_count=4110 1988 2122 1771 1557 1501 1546 431
cat_boundaries=0 4 11
cat_threshold=163656192 539033601 8480 67108880 2290094656 537460808 8208 48 32 0 4
shrinkage=0.35


Tree=44
num_leaves=9
num_cat=4
split_feature=7 3 7 3 6 1 1 1
split_gain=2.17829 1.05353 0.563131 0.542641 0.233096 0.217743 0.151227 0.0956161
threshold=0 1 2 3 345.00000000000006 74.500000000000014 19.500000000000004 3.5000000000000004
decision_type=5 5 5 5 2 2 2 2
left_child=3 7 -3 -1 -4 -6 -5 -2
right_child=1 2 4 6 5 -7 -8 -9
leaf_value=-0 -0 0 0 0.027071165929438326 -0.028529300153810031 0 -0 0.0059127251512679849
leaf_count=216 330 345 58 651 1921 113 90 386
internal_value=0 -0.0368345 -0.0604647 0.0579596 -0.0719742 -0.077226 0.0711216 0
internal_count=4110 3153 2437 957 2092 2034 741 716
cat_boundaries=0 13 20 26 29
cat_threshold=268697608 69492744 1073741824 4210690 268 4194304 0 0 0 0 0 0 1073741888 188833920 1091059720 8240 1 0 0 2 13229072 0 32 524800 545 1073741824 201908240 2621448 8192
shrinkage=0.35


Tree=45
num_leaves=8
num_cat=3
split_feature=7 8 8 7 0 1 2
split_gain=1.92664 0.791411 0.732196 0.642641 0.334193 0.230177 0.12208
threshold=0 2723.5000000000005 4355.5000000000009 1 9.5000000000000018 15.500000000000002 2
decision_type=5 2 2 5 2 2 1
left_child=4 -2 3 -3 5 -1 -5
right_child=1 2 -4 6 -6 -7 -8
leaf_value=0.024645536808981471 0 0 0 -0.029874239376852366 -0 -0 0
leaf_count=732 331 403 476 1777 273 58 60
internal_value=0 -0.0348047 -0.0541244 -0.0687142 0.0534546 0.0650352 -0.0812113
internal_count=4110 3047 2716 2240 1063 790 1837
cat_boundaries=0 13 19 20
cat_threshold=459830 134234626 0 272629764 4 1073741824 65536 4096 0 0 0 0 1073741888 8407040 6325504 73728 21248 16810248 4194304 4
shrinkage=0.35


Tree=46
num_leaves=9
num_cat=4
split_feature=7 3 8 1 6 7 0 7
split_gain=2.00741 1.50848 0.895423 0.45725 0.308598 0.170255 0.113356 0.154132
threshold=0 1 4335.5000000000009 1.0000000180025095e-35 555.00000000000011 2 87.000000000000014 3
decision_type=5 5 2 2 2 5 2 5
left_child=3 5 4 -1 -3 -2 7 -6
right_child=1 2 -4 -5 6 -7 -8 -9
leaf_value=-0 -0 0 0 0.024336706649842547 0 0.0074133067924105666 0 -0.032686973693345542
leaf_count=189 222 76 392 526 173 907 70 1555
internal_value=0 -0.0348158 -0.067565 0.0573519 -0.0841002 0.00293792 -0.0886088 -0.090887
internal_count=4110 3395 2266 715 1874 1129 1798 1728
cat_boundaries=0 13 20 25 29
cat_threshold=2151814184 272896 128 4 280 0 0 0 0 268435456 0 0 1073741888 499733136 1107951626 10536 67112977 0 0 3 34979845 16777216 131104 0 64 327680 2097152 8192 16386
shrinkage=0.35


Tree=47
num_leaves=7
num_cat=4
split_feature=7 3 7 3 0 1
split_gain=2.84878 1.6354 1.69048 0.0507814 0.00153085 0.000570655
threshold=0 1 2 3 1.5000000000000002 21.500000000000004
decision_type=5 5 5 5 2 2
left_child=3 4 5 -1 -2 -3
right_child=1 2 -4 -5 -6 -7
leaf_value=0 -0.00078607702666520177 -0.00044878397743414427 0.036466763459618856 -0.018207344098820639 0 0
leaf_count=124 211 645 1976 754 288 112
internal_value=0 0.0569763 0.0800675 -0.0492971 -0 -0
internal_count=4110 3232 2733 878 499 757
cat_boundaries=0 10 17 27 29
cat_threshold=26218659 152043520 813697056 539001888 33554498 4194304 65536 0 16 16 2147483728 1076494346 9699476 2592 0 4 4 4556800 541624858 33685888 512 16810016 1073741825 0 65536 0 268435456 1048720 524288
shrinkage=0.35


Tree=48
num_leaves=9
num_cat=4
split_feature=7 3 7 0 8 7 6 1
split_gain=1.81636 2.31809 1.76268 0.626562 0.226732 0.135722 0.0518829 0.0175571
threshold=0 1 2 34.500000000000007 4523.5000000000009 3 5445.0000000000009 41.500000000000007
decision_type=5 5 5 2 2 5 2 2
left_child=-1 5 6 4 7 -2 -3 -4
right_child=1 2 3 -5 -6 -7 -8 -9
leaf_value=-0.017069975891157309 0 -0.0042882762674681333 0.040893413682201389 -0 -0 -0.0093428552778023113 0 0
leaf_count=724 125 558 1614 164 77 626 167 55
internal_value=0 0.0393066 0.0750551 0.102086 0.112711 -0.0173098 -0 0.115764
internal_count=4110 3386 2635 1910 1746 751 725 1669
cat_boundaries=0 10 17 27 40
cat_threshold=22052885 51380240 813697312 539003952 33554498 1073741825 1073741824 0 16 16 2962243648 1074266184 160702629 16783876 32 20 6 2457862144 140510986 33685632 528900 16777217 0 65536 69632 0 268435456 2415919104 1032 128 0 0 0 0 4096 0 0 0 0 1073741824
shrinkage=0.35


Tree=49
num_leaves=9
num_cat=3
split_feature=7 3 3 6 8 6 0 6
split_gain=1.88907 1.67497 1.08421 0.825582 0.395159 0.364954 0.157682 0.225742
threshold=0 1 2 7145.0000000000009 4375.5000000000009 555.00000000000011 22.500000000000004 1595.0000000000002
decision_type=5 5 5 2 2 2 2 2
left_child=2 6 -1 4 5 -3 7 -2
right_child=1 3 -4 -5 -6 -7 -8 -9
leaf_value=-0 -0 0 0.025459305733547832 0 0 -0.035621977562113175 -0 0.011878713401407941
leaf_count=223 348 83 756 275 300 1566 136 423
internal_value=0 -0.040501 0.0477173 -0.0731835 -0.0890881 -0.0966937 0.00348907 0.0211828
internal_count=4110 3131 979 2224 1949 1649 907 771
cat_boundaries=0 13 20 22
cat_threshold=33554446 136872458 33554720 268436230 257 1073741824 0 4096 0 0 0 0 1073741888 58761368 50462755 257 67108865 0 0 1 17883152 33554440
shrinkage=0.35


Tree=50
num_leaves=9
num_cat=1
split_feature=7 8 8 0 8 1 6 6
split_gain=1.92227 1.55248 1.01464 0.957404 0.28167 0.250933 0.141365 0.0142489
threshold=0 4335.5000000000009 3618.5000000000005 1.0000000180025095e-35 1896.0000000000002 66.500000000000014 1345.0000000000002 2035.0000000000002
decision_type=5 2 2 2 2 2 2 2
left_child=2 3 -1 7 -5 -6 -3 -2
right_child=1 6 -4 4 5 -7 -8 -9
leaf_value=0.025308275390927139 -0 -0 -0 0 -0.034399502381341852 0 0.0074671909716369587 0.0023701097712007031
leaf_count=357 473 431 415 98 1702 146 255 233
internal_value=0 -0.0439886 0.0441921 -0.0723983 -0.0885181 -0.0933668 0.00147431 0
internal_count=4110 3338 772 2652 1946 1848 686 706
cat_boundaries=0 13
cat_threshold=66724 570426888 8320 0 800 0 0 0 0 0 0 0 1073741888
shrinkage=0.35


Tree=51
num_leaves=9
num_cat=3
split_feature=7 3 8 7 8 1 1 6
split_gain=1.9343 1.54314 0.775901 0.43695 0.524889 0.185475 0.180592 0.0578928
threshold=0 1 4375.5000000000009 2 1972.5000000000002 2.5000000000000004 42.500000000000007 565.00000000000011
decision_type=5 5 2 5 2 2 2 2
left_child=6 5 3 -3 -5 -2 -1 -6
right_child=1 2 -4 4 7 -7 -8 -9
leaf_value=0.020945506174269147 -0 0 0 0 0 0.0081563722159511375 -0 -0.035222455534105315
leaf_count=696 359 259 422 76 85 538 58 1617
internal_value=0 -0.0366492 -0.0683812 -0.0831689 -0.0897893 0.00367381 0.0535727 -0.0993461
internal_count=4110 3356 2459 2037 1778 897 754 1702
cat_boundaries=0 13 20 26
cat_threshold=302317584 35676416 33554432 16777222 532 1073741824 0 0 0 0 0 0 1073741888 290156552 573113346 139265 17 0 0 3 2155891842 0 8192 268456448 0 4194304
shrinkage=0.35


Tree=52
num_leaves=9
num_cat=3
split_feature=7 1 0 7 7 8 6 6
split_gain=1.57702 1.90182 1.10546 0.918213 0.290652 0.280422 0.13782 0.100197
threshold=0 2.5000000000000004 1.0000000180025095e-35 1 2 1779.5000000000002 565.00000000000011 4665.0000000000009
decision_type=5 2 2 5 5 2 2 2
left_child=2 4 -1 -3 -2 -5 -6 -8
right_child=1 3 -4 5 6 -7 7 -9
leaf_value=0 0 -0 -0.028935297121582791 -0 0 0.030727052024252167 -0.015761755000747609 0
leaf_count=401 206 400 717 66 160 1372 728 60
internal_value=0 0.0235539 -0.0565902 0.0646318 -0.0194773 0.0812868 -0.0344039 -0.0412127
internal_count=4110 2992 1118 1838 1154 1438 948 788
cat_boundaries=0 9 17 30
cat_threshold=22810635 18383360 847259648 2119712 334 0 1073741824 0 16 268501008 704914456 0 536870912 16777248 0 0 4096 32768 538976264 0 0 512 0 0 0 0 0 0 0 1073741824
shrinkage=0.35


Tree=53
num_leaves=7
num_cat=3
split_feature=7 3 7 8 1 1
split_gain=1.30717 1.5504 1.21064 0.0999584 0.0436803 0.0266995
threshold=0 1 2 3136.5000000000005 23.500000000000004 1.5000000000000002
decision_type=5 5 5 2 2 2
left_child=-1 3 -3 -2 -5 -4
right_child=1 2 5 4 -6 -7
leaf_value=-0.014680009807711553 0 -0 0 -0.0083765667940706029 0 0.03045675132078067
leaf_count=744 122 656 582 419 61 1526
internal_value=0 0.0329836 0.0615373 -0.0105715 -0.0207016 0.0813814
internal_count=4110 3366 2764 602 480 2108
cat_boundaries=0 9 16 26
cat_threshold=56131585 18883080 838862848 2132000 536871018 0 0 0 16 3020427328 136314954 9707540 6964 0 20 4 2156155008 5802257 8388864 1610617360 16810752 1073741825 65536 0 0 268435456
shrinkage=0.35


Tree=54
num_leaves=8
num_cat=2
split_feature=7 3 6 1 6 1 0
split_gain=1.73924 1.31997 0.631756 0.439999 0.249671 0.281413 0.204678
threshold=0 1 555.00000000000011 1.0000000180025095e-35 9335.0000000000018 67.500000000000014 36.500000000000007
decision_type=5 5 2 2 2 2 2
left_child=3 -2 -3 -1 5 -4 -5
right_child=1 2 4 6 -6 -7 -8
leaf_value=-0 0 0 -0.031966912948319513 0.019850255537640481 0 0 -0
leaf_count=136 625 264 2095 670 194 67 59
internal_value=0 -0.0449674 -0.0701132 0.0377767 -0.0815771 -0.0870682 0.0512559
internal_count=4110 3245 2620 865 2356 2162 729
cat_boundaries=0 13 20
cat_threshold=2156134400 101213185 384 262 32816 0 65536 0 0 268435456 0 0 1073741888 294129672 33619977 139280 67108913 32 0 5
shrinkage=0.35


Tree=55
num_leaves=8
num_cat=4
split_feature=7 3 7 7 0 8 1
split_gain=1.36887 1.75358 1.24073 0.314461 0.227119 0.0505281 0.0274859
threshold=0 1 2 3 79.500000000000014 4478.5000000000009 46.500000000000007
decision_type=5 5 5 5 2 2 2
left_child=5 3 -3 -2 -4 -1 -5
right_child=1 2 4 6 -6 -7 -8
leaf_value=-0.018871440683365517 0 -0 0.030957571508767427 -0.012492177889701906 -0 0 0
leaf_count=885 118 491 1693 682 63 124 54
internal_value=0 0.0269028 0.0626346 -0.0154661 0.0832751 -0.0504327 -0.0332886
internal_count=4110 3101 2247 854 1756 1009 736
cat_boundaries=0 10 17 25 38
cat_threshold=18284675 22020098 1904281600 539003936 74 0 1073741824 0 16 16 2756182112 136839176 135539072 6676 32 20 6 306728960 537444376 0 4608 32784 1077936129 0 4096 268963840 32776 0 0 0 1073741824 0 0 0 0 0 0 1073741824
shrinkage=0.35


Tree=56
num_leaves=9
num_cat=3
split_feature=7 8 6 8 7 1 2 8
split_gain=1.08128 0.9822 0.626046 0.512407 0.385087 0.263491 0.0807126 0.0362451
threshold=0 2723.5000000000005 7255.0000000000009 4355.5000000000009 1 70.500000000000014 2 1482.0000000000002
decision_type=5 2 2 2 5 2 1 2
left_child=2 7 -1 4 -3 6 -6 -2
right_child=1 3 -4 -5 5 -7 -8 -9
leaf_value=0.018848270187065003 -0 0 -0 0 -0.028305105517117075 0 0 0.0036948526020683871
leaf_count=836 62 248 80 523 1929 87 54 291
internal_value=0 -0.0326864 0.0337324 -0.0552243 -0.0660873 -0.073089 -0.0793804 0
internal_count=4110 3194 916 2841 2318 2070 1983 353
cat_boundaries=0 13 20 21
cat_threshold=2454063106 0 1107296256 268980224 16777220 4194304 0 0 0 0 0 0 1073741888 8404992 543736064 8192 512 32768 0 65536 4
shrinkage=0.35


Tree=57
num_leaves=8
num_cat=2
split_feature=3 8 8 3 6 1 1
split_gain=1.4806 0.737114 0.611068 0.427727 0.373734 0.153824 0.0241565
threshold=0 4375.5000000000009 2318.0000000000005 1 555.00000000000011 1.5000000000000002 75.500000000000014
decision_type=5 2 2 5 2 2 2
left_child=5 2 -2 -4 -5 -1 -7
right_child=1 -3 3 4 -6 6 -8
leaf_value=-0 0 0 0 0 -0.030848252071629584 0.012304507457752984 -0
leaf_count=435 180 425 212 92 1787 923 56
internal_value=0 -0.0471522 -0.0630496 -0.0741905 -0.0807328 0.0259826 0.0339126
internal_count=4110 2696 2271 2091 1879 1414 979
cat_boundaries=0 8 13
cat_threshold=164255896 687948807 133416 67108865 0 0 3 65536 2181038656 1073872960 0 32 32
shrinkage=0.35


Tree=58
num_leaves=9
num_cat=3
split_feature=7 3 7 1 6 8 1 6
split_gain=1.40397 0.832375 0.634019 0.352486 0.276609 0.301765 0.137408 0.123484
threshold=0 1 2 1.0000000180025095e-35 345.00000000000006 2753.0000000000005 74.500000000000014 7555.0000000000009
decision_type=5 5 5 2 2 2 2 2
left_child=3 -2 -3 -1 -4 -6 -7 -5
right_child=1 2 4 7 5 6 -8 -9
leaf_value=-0 0 0 0 0.019852327490082446 0 -0.02923424467641203 0 -0
leaf_count=142 630 436 90 518 270 1873 54 97
internal_value=0 -0.0356234 -0.0549405 0.0408274 -0.0679098 -0.0739638 -0.0809606 0.052272
internal_count=4110 3353 2723 757 2287 2197 1927 615
cat_boundaries=0 13 18 24
cat_threshold=34078888 100665352 65792 20971520 1 1073741824 65536 0 0 0 0 0 1073741888 340819968 554319880 8224 67112961 32 2156088320 541327616 33554432 268976640 16810784 4194304
shrinkage=0.35


Tree=59
num_leaves=9
num_cat=3
split_feature=7 7 1 0 7 8 1 1
split_gain=1.36486 0.769588 0.463968 0.393054 0.375479 0.190861 0.18903 0.0760797
threshold=0 1 36.500000000000007 33.500000000000007 2 4505.5000000000009 62.500000000000007 16.500000000000004
decision_type=5 5 2 2 5 2 2 2
left_child=6 7 3 4 -3 -6 -1 -2
right_child=1 2 -4 -5 5 -7 -8 -9
leaf_value=-0.019000770530970049 -0.0052490949574372234 -0 -0 -0 0.028124770487888608 -0 0 0
leaf_count=1098 539 345 249 59 1549 83 58 130
internal_value=0 0.0281078 0.0492207 0.0605465 0.0674556 0.0751636 -0.0477561 -0
internal_count=4110 2954 2285 2036 1977 1632 1156 669
cat_boundaries=0 10 18 23
cat_threshold=18219049 18359296 830605312 2149408 536870986 0 1073807360 0 16 16 51328 71303442 128 1883771664 50889217 1077936129 0 4096 12588032 35735552 1107304704 16777218 288
shrinkage=0.35


Tree=60
num_leaves=9
num_cat=5
split_feature=7 3 7 7 1 0 3 8
split_gain=1.03046 1.98943 1.65023 0.487269 0.346586 0.36422 0.304966 0.261285
threshold=0 1 2 3 68.500000000000014 36.500000000000007 4 2636.5000000000005
decision_type=5 5 5 5 2 2 5 2
left_child=6 3 -3 -2 5 -4 -1 -5
right_child=1 2 4 7 -6 -7 -8 -9
leaf_value=0 0 -0 0.037550858987898186 0 -0 -0 -0.016228455846554159 -0.016988881179604884
leaf_count=126 119 337 1598 101 94 73 802 860
internal_value=0 0.0305538 0.0702622 -0.0143608 0.0950318 0.102347 -0.0352101 -0.0386488
internal_count=4110 3182 2102 1080 1765 1671 928 961
cat_boundaries=0 10 17 27 40 42
cat_threshold=26214433 87040008 813697024 538971184 570458190 1073741825 0 0 16 16 2702841936 1073741931 9699477 820 0 20 4 2181103616 4459536 8320 4608 272 4194304 0 0 0 268435456 2181103752 0 8192 0 0 0 65536 0 0 0 0 0 1073741824 16912896 97
shrinkage=0.35



feature importances:
car_like=122
date_delta=85
location=80
fans_count=70
mileage=69
follow_count=29
gender=7

pandas_categorical:null
