tree
version=v2
num_class=1
num_tree_per_iteration=1
label_index=0
max_feature_idx=6
objective=binary sigmoid:1
feature_names=follow_count fans_count location mileage car_like all_post_count date_delta
feature_infos=[0:911] [0:827] 5:32:4:20:13:15:14:11:7:16:9:37:51:19:38:12:26:39:35:57:27:24:3:48:53:22:33:68:56:23:61:69:72:122:17:77:62:25:6:100:133:64:194:46:107:84:192:98:75:31:91:28:29:162:96:164:87:105:66:193:101:82:71:104:49:108:41:42:67:81:120:59:137:88:34:240:89:121:229:30:176:21:180:247:50:93:99:8:238:156:136:149:131:118:217:125:97:171:43:86:85:44:54:141:145:36:112:58:195:18:63:191:10:103:175:268:1:127:212:210:147:254:185:179:172:168:126:102:78:76:119:55:45:74:60:65:252:165:196:106:153:109:110:166:167:95:170:73:190:83:183:184:140:128:227:218:228:265:230:47:143:114:146:148:111:150:202:233:225:201:219:186:246:243:189:224:216:235:40:70:199:198:237:232:160:262:115:263:116:181:117:154:155:135:158:253:163:169:267:173:132:249:291 [70:290600] 18:1:35:42:414:5:17:28:45:130:236:33:3:0:12:69:58:71:208:134:81:25:390:61:56:2:19:110:16:136:15:24:11:31:23:118:94:47:190:53:77:59:57:7:22:87:72:105:143:50:36:43:52:117:54:101:129:75:46:131:182:40:108:14:316:152:125:93:41:92:32:4:128:133:260:20:51:100:132:137:106:124:160:104:111:153:89:10:292:115:88:120:126:107:80:97:147:98:48:157:240:222:29:123:331:200:270:227:109:170:163:159:194:142:34:261:371:13:79:224:119:343:178:91:85:192:416:99:112:127:21:313:164:175:350:150:189:26:73:237:193:229:196:360:197:276:272:380:223:60:370:65:171:6:312:184:83:207:82:216:218:234:221:62:378:148:341:384:494:202:273:249:44:296:275:363:76:144:145:446:68:205:436:74:326:168:321:329:233:174:121:122:235:27:304:388:474:241:248:386:433:8:381:299:330:336:317:415:467:345:348:401:306:78:398:294:351:483:445:361:411:440:425:367:84:185:179:177:198:30:206:534:210:55:63:64:219:90 [0:2391] [0:4626]
tree_sizes=849 640 742 770 722 843 904 567 561 906 695 773 1034 859 512 655 649 763 794 709 795 659 935 754 966 741 916 777 716 883 783 734 894 939 1100 834 591 616 610 753 769 751 566 981 826 821 747 789 979 695 822 758 777 813 808 857 707 810 739 891 686 711 862 694 817 608 1030 589 840 728 669 850 825 718 786 644 595 688 835 860 480 437 707 496 632 905 595 1032 722 772 662 588 661 886 648 741 761 750 553 917 751 818 687 852 800 529 542 804 693 956 516 661 853 706 746 763 765 855 796 933 916

Tree=0
num_leaves=10
num_cat=0
split_feature=3 6 5 6 0 5 5 3 3
split_gain=46.1772 12.2951 1.84693 1.24957 0.586966 0.353843 0.50596 0.310254 0.0502644
threshold=3405.0000000000005 3635.5000000000005 56.500000000000007 4560.5000000000009 80.500000000000014 1.5000000000000002 35.500000000000007 3165.0000000000005 605.00000000000011
decision_type=2 2 2 2 2 2 2 2 2
left_child=1 5 4 7 -2 8 -7 -3 -1
right_child=2 3 -4 -5 -6 6 -8 -9 -10
leaf_value=-1.9004017910958988 -1.7998017872759144 -2.0110774157130673 -1.9004017910958988 -1.9004017910958988 -1.9004017910958988 -1.8778007001200276 -1.9004017910958988 -1.9004017910958988 -1.9059977230630194
leaf_count=50 916 1394 94 57 53 346 53 51 221
internal_value=0 -0.255872 0.307399 -0.353503 0.327021 0.0143832 0.0489395 -0.363633 -0
internal_count=3235 2172 1063 1502 969 670 399 1445 271
shrinkage=1


Tree=1
num_leaves=7
num_cat=1
split_feature=3 1 2 5 5 3
split_gain=45.7883 8.36706 5.25119 3.62531 1.57535 0.0925099
threshold=2545.0000000000005 2.5000000000000004 0 1.0000000180025095e-35 54.500000000000007 1295.0000000000002
decision_type=2 2 5 2 2 2
left_child=2 -2 5 -3 -5 -1
right_child=1 3 -4 4 -6 -7
leaf_value=0.0095185780556781112 -0.0016773470090416505 -0 -0.08360013870941492 0.1276471011925685 0 -0
leaf_count=113 271 129 1606 909 110 97
internal_value=0 0.310834 -0.240771 0.37562 0.406343 0.0156688
internal_count=3235 1419 1816 1148 1019 210
cat_boundaries=0 4
cat_threshold=146935808 539557888 288 67108864
shrinkage=0.3


Tree=2
num_leaves=8
num_cat=2
split_feature=4 6 6 6 4 1 1
split_gain=122.309 5.53199 4.17154 3.61228 0.979229 2.56453e-07 9.16269e-05
threshold=0 4459.5000000000009 2902.5000000000005 4560.5000000000009 1 14.500000000000002 40.500000000000007
decision_type=5 2 2 2 5 2 2
left_child=1 -1 5 4 -4 -2 -7
right_child=2 -3 3 -5 -6 6 -8
leaf_value=0.20470534232590679 0 -0 -0 0 -0.11867637033850201 -0.00025070407895652559 0
leaf_count=649 153 55 365 49 1772 99 93
internal_value=0 0.621358 -0.315403 -0.358173 -0.374827 -0 -4.23982e-05
internal_count=3235 704 2531 2186 2137 345 192
cat_boundaries=0 13 18
cat_threshold=12587060 100681217 384 256 4 1073741824 65536 4096 0 0 0 0 1073741888 327808 671383552 1073741856 4198400 33536
shrinkage=0.3


Tree=3
num_leaves=9
num_cat=2
split_feature=3 2 2 1 5 3 1 1
split_gain=17.5685 6.1242 4.34194 2.73574 0.593851 0.325422 0.232237 0.0238576
threshold=2415.0000000000005 0 1 1.0000000180025095e-35 5.5000000000000009 315.00000000000006 28.500000000000004 1.5000000000000002
decision_type=2 5 5 2 2 2 2 2
left_child=1 7 6 -4 5 -3 -2 -1
right_child=2 4 3 -5 -6 -7 -8 -9
leaf_value=0 -0.013610207964642159 -0 -0 0.077745494319429814 -0 -0.07645107742799738 0 0.014041639139282795
leaf_count=188 154 87 85 1199 221 1043 50 208
internal_value=0 -0.155211 0.186588 0.22685 -0.222022 -0.24726 -0.0178509 0.0397744
internal_count=3235 1747 1488 1284 1351 1130 204 396
cat_boundaries=0 4 9
cat_threshold=461602816 573112321 288 67108880 8917056 1076363336 256 16 32
shrinkage=0.3


Tree=4
num_leaves=8
num_cat=1
split_feature=2 3 1 5 5 5 5
split_gain=13.9609 9.23782 1.55937 0.706256 0.295485 0.210206 0.026123
threshold=0 4220.0000000000009 1.0000000180025095e-35 13.500000000000002 4.5000000000000009 16.500000000000004 9.5000000000000018
decision_type=5 2 2 2 2 2 2
left_child=2 4 -1 -3 -2 6 -6
right_child=1 3 -4 -5 5 -7 -8
leaf_value=-0 -0.072427145411090299 0.029023073370417877 0.066135723185141909 -0 -0 -0.011659090555603832 0.0046092631021474083
leaf_count=206 1258 338 843 201 153 142 94
internal_value=0 -0.118567 0.187277 0.066248 -0.219469 -0 0.00564639
internal_count=3235 2186 1049 539 1647 389 247
cat_boundaries=0 7
cat_threshold=159625224 573129889 2080 67110929 0 0 1
shrinkage=0.3


Tree=5
num_leaves=9
num_cat=4
split_feature=4 2 6 4 6 6 4 6
split_gain=90.8386 5.55699 2.4638 0.845644 0.658511 0.0618025 0.0199674 0.00935296
threshold=0 1 4379.5000000000009 2 2206.0000000000005 3146.5000000000005 3 4217.5000000000009
decision_type=5 5 2 5 2 2 5 2
left_child=-1 5 3 -3 -5 -2 -4 -7
right_child=1 2 6 4 -6 7 -8 -9
leaf_value=0.16703044841918488 0.0065701303606033072 -0 0 -0 -0.11090332561143171 -0.0024787345497698609 -0.003402326072811373 0
leaf_count=552 73 214 106 98 1639 161 283 109
internal_value=0 -0.257846 -0.299913 -0.335816 -0.347705 0 -0 -0
internal_count=3235 2683 2340 1951 1737 343 389 270
cat_boundaries=0 13 17 23 26
cat_threshold=4194304 603989504 128 0 4 1073741824 65536 4096 0 0 0 0 1073741888 193527816 570490880 0 16 2155937796 35684352 8192 268439552 16 4194304 268697640 2 1073741824
shrinkage=0.3


Tree=6
num_leaves=11
num_cat=2
split_feature=6 2 2 6 6 0 1 0 6 6
split_gain=14.0408 5.23579 3.58003 1.84148 0.483702 0.80998 0.17055 0.1553 0.0579026 0.0190086
threshold=3618.5000000000005 0 1 4385.5000000000009 1556.0000000000002 39.500000000000007 1.5000000000000002 2.5000000000000004 4543.5000000000009 4420.5000000000009
decision_type=2 5 5 2 2 2 2 2 2 2
left_child=2 -2 7 -3 -4 -6 8 -1 9 -5
right_child=1 3 4 6 5 -7 -8 -9 -10 -11
leaf_value=0 0.01532387900800735 -0.063707061817113872 -0 0 0.081246129341483245 0 0.0085860061606551387 -0.0099483201454025408 0 -0.0096269315145177236
leaf_count=78 390 1195 54 56 809 112 127 178 64 172
internal_value=0 -0.108282 0.197992 -0.17248 0.237716 0.255529 0 -0.000113448 -0.0205261 -0.0292455
internal_count=3235 2004 1231 1614 975 921 419 256 292 228
cat_boundaries=0 4 8
cat_threshold=5440008 1612709889 32 67108864 1048680 16777290 0 16
shrinkage=0.3


Tree=7
num_leaves=5
num_cat=2
split_feature=4 3 4 3
split_gain=80.1997 1.64015 0.925559 0.477236
threshold=0 13975.000000000002 1 435.00000000000006
decision_type=5 2 5 2
left_child=-1 2 -2 -4
right_child=1 -3 3 -5
leaf_value=0.15345124439330415 -0 0 -0 -0.087991920145877103
leaf_count=594 350 80 115 2096
internal_value=0 -0.245968 -0.264072 -0.278216
internal_count=3235 2641 2561 2211
cat_boundaries=0 13 19
cat_threshold=268439552 203686912 33554560 0 4 1073741824 65536 4096 0 0 0 0 1073741888 37750800 33595400 1073741824 272630016 544 4194304
shrinkage=0.3


Tree=8
num_leaves=5
num_cat=2
split_feature=4 3 4 3
split_gain=57.7288 3.15242 2.58217 0.188637
threshold=0 6775.0000000000009 1 375.00000000000006
decision_type=5 2 5 2
left_child=-1 2 -2 -4
right_child=1 -3 3 -5
leaf_value=0.13200422894053288 0 0 -0 -0.086904343359382852
leaf_count=513 422 313 109 1878
internal_value=0 -0.20834 -0.244981 -0.274599
internal_count=3235 2722 2409 1987
cat_boundaries=0 13 19
cat_threshold=8388784 67125760 33554560 256 4 1073741824 65536 4096 0 0 0 0 1073741888 2454261768 2098177 0 268959744 16777761 4194304
shrinkage=0.3


Tree=9
num_leaves=12
num_cat=0
split_feature=6 1 0 6 6 6 5 0 0 6 6
split_gain=8.95798 1.75212 2.08804 1.68992 1.40552 0.519654 0.263995 0.847439 0.177602 0.127963 5.4141e-05
threshold=3303.5000000000005 17.500000000000004 1.0000000180025095e-35 3943.5000000000005 4360.5000000000009 1482.0000000000002 35.500000000000007 30.500000000000004 44.500000000000007 4355.5000000000009 4492.5000000000009
decision_type=2 2 2 2 2 2 2 2 2 2 2
left_child=5 2 3 -2 -4 -1 7 -7 -3 -5 -11
right_child=1 8 4 9 -6 6 -8 -9 -10 10 -12
leaf_value=-0 0.027970980313015825 0.011289486480344309 -0.05322125860973137 -0.019171533237702435 0 0.066920234440536852 0 -0 -0 0.00018907465965865917 -0
leaf_count=58 199 265 945 381 232 561 125 102 67 192 108
internal_value=0 -0.0654678 -0.101789 0 -0.150349 0.185285 0.19475 0.205034 0.015585 -0.0524216 0
internal_count=3235 2389 2057 880 1177 846 788 663 332 681 300
shrinkage=0.3


Tree=10
num_leaves=7
num_cat=2
split_feature=4 1 1 4 5 5
split_gain=54.0159 1.65258 0.73169 1.12299 0.391661 0.126631
threshold=0 1.0000000180025095e-35 20.500000000000004 1 13.500000000000002 4.5000000000000009
decision_type=5 2 2 5 2 2
left_child=1 -1 3 -2 5 -4
right_child=2 -3 4 -5 -6 -7
leaf_value=0 0 0.12863778335817694 -0 -0.07733140510359994 -0.013938484686051666 0.011637367738707169
leaf_count=185 231 756 49 1661 257 96
internal_value=0 0.389712 -0.215665 -0.244666 -0 0.0227821
internal_count=3235 941 2294 1892 402 145
cat_boundaries=0 13 18
cat_threshold=2147745840 603980811 33562784 256 4 4194304 65536 4096 0 0 0 0 1073741888 268435468 2359568 131072 4194304 1
shrinkage=0.3


Tree=11
num_leaves=10
num_cat=0
split_feature=6 3 0 5 5 6 6 0 5
split_gain=6.00852 2.83336 0.962959 1.02328 1.02828 0.47163 0.264807 0.00552849 0.000634806
threshold=3635.5000000000005 3605.0000000000005 39.500000000000007 1.5000000000000002 50.500000000000007 4560.5000000000009 3895.0000000000005 9.5000000000000018 22.500000000000004
decision_type=2 2 2 2 2 2 2 2 2
left_child=2 5 3 -1 -5 -2 7 -3 -4
right_child=1 6 8 4 -6 -7 -8 -9 -10
leaf_value=-0 -0.050330635409291211 0 -0.00066299011337005371 0.048993304706534832 -0 0 0.01244300291003053 -0.0019740934700793996 0
leaf_count=353 1504 67 76 665 60 54 280 67 109
internal_value=0 -0.106984 0.0960784 0.117974 0.145038 -0.160014 0.00573556 -0 -0
internal_count=3235 1972 1263 1078 725 1558 414 134 185
shrinkage=0.3


Tree=12
num_leaves=13
num_cat=2
split_feature=2 6 0 2 5 0 6 6 6 6 6 6
split_gain=8.87099 1.95926 1.0729 1.05123 0.871893 0.375512 0.220427 0.101161 0.0963304 0.000526811 0.00681131 7.73479e-05
threshold=0 4375.5000000000009 73.000000000000014 1 1.0000000180025095e-35 66.500000000000014 4335.5000000000009 4492.5000000000009 2318.0000000000005 3441.5000000000005 4355.5000000000009 3648.5000000000005
decision_type=5 2 2 5 2 2 2 2 2 2 2 2
left_child=2 3 4 11 9 6 8 -3 -5 -1 -11 -2
right_child=1 7 -4 5 -6 -7 -8 -9 -10 10 -12 -13
leaf_value=0.00061565082327497253 0.00022458049064857119 0.0097001859255809592 -0 -0 0.064535878873050248 0 0 -0 -0.04655329667142958 -0.0021079935127166663 0 -0
leaf_count=50 144 212 49 82 677 59 67 146 1238 218 102 191
internal_value=0 -0.0754148 0.168303 -0.113985 0.19002 -0.134094 -0.146181 0.0168715 -0.150537 0 -0 0
internal_count=3235 2139 1096 1781 1047 1446 1387 358 1320 370 320 335
cat_boundaries=0 7 9
cat_threshold=433268872 570491009 134359297 67108865 0 0 1 16912 16793634
shrinkage=0.3


Tree=13
num_leaves=10
num_cat=3
split_feature=2 1 2 2 1 0 6 6 0
split_gain=8.10801 2.90842 1.06096 0.572963 0.431163 0.283464 0.111371 0.0762572 0.0351119
threshold=0 1.5000000000000002 1 2 53.500000000000007 1.0000000180025095e-35 4456.5000000000009 3777.5000000000005 80.500000000000014
decision_type=5 2 5 5 2 2 2 2 2
left_child=4 3 -3 -2 5 7 -5 -1 -4
right_child=1 2 8 6 -6 -7 -8 -9 -10
leaf_value=0.0046533116895880909 0.0088264957820410415 -0 0.060927393568846806 -0.018423316055825752 0 -0.039392173851066532 0 -0.0054495281478331966 0
leaf_count=85 110 173 1233 478 76 667 111 245 57
internal_value=0 0.133051 0.179349 -0 -0.10144 -0.117383 -0.0507008 -0 0.193083
internal_count=3235 2162 1463 699 1073 997 589 330 1290
cat_boundaries=0 7 9 11
cat_threshold=3020425824 1075970250 143917189 820 32 20 4 4096 537395201 16781320 17301505
shrinkage=0.3


Tree=14
num_leaves=4
num_cat=3
split_feature=4 2 4
split_gain=38.0475 2.78996 0.609111
threshold=0 1 2
decision_type=5 5 5
left_child=-1 -2 -3
right_child=1 2 -4
leaf_value=0.089985182149150203 0 0 -0.077271524173508202
leaf_count=694 209 123 2209
internal_value=0 -0.216707 -0.243978
internal_count=3235 2541 2332
cat_boundaries=0 13 20 25
cat_threshold=2147483672 69225992 288 256 4 1077936128 65536 4096 0 0 0 0 1073741888 150994944 572588032 134217984 16 0 0 1 12582944 33554432 0 0 16777216
shrinkage=0.3


Tree=15
num_leaves=7
num_cat=1
split_feature=2 3 3 3 1 3
split_gain=7.58672 1.43413 0.968621 0.114282 0.0611281 1.19223e-06
threshold=0 4220.0000000000009 595.00000000000011 17345.000000000004 1.0000000180025095e-35 245.00000000000003
decision_type=5 2 2 2 2 2
left_child=4 2 5 -3 -1 -2
right_child=1 3 -4 -5 -6 -7
leaf_value=0 -0 0.0077685116286392306 -0.035694974950989743 -0 0.05601512413951909 2.8419105590984229e-05
leaf_count=229 58 434 1326 63 953 172
internal_value=0 -0.0514518 -0.0962958 0.00585291 0.172286 0
internal_count=3235 2053 1556 497 1182 230
cat_boundaries=0 7
cat_threshold=181131272 1663762529 131360 67108864 0 0 1
shrinkage=0.3


Tree=16
num_leaves=7
num_cat=3
split_feature=2 1 0 5 2 2
split_gain=7.13414 3.35623 0.481354 0.36779 0.299466 0.00012845
threshold=0 1.0000000180025095e-35 1.0000000180025095e-35 25.500000000000004 1 2
decision_type=5 2 2 2 5 5
left_child=2 -2 5 -3 -4 -1
right_child=1 3 4 -5 -6 -7
leaf_value=0.00028840109026421204 -0.0029227031932022411 0.059643312219718657 0 0 -0.031375872310435836 -0
leaf_count=123 411 1429 117 219 690 246
internal_value=0 0.1437 -0.0747591 0.186202 -0.0965334 0
internal_count=3235 2059 1176 1648 807 369
cat_boundaries=0 7 10 11
cat_threshold=2794983520 1093140584 9437588 548 32 20 6 8916992 16777216 16 32
shrinkage=0.3


Tree=17
num_leaves=8
num_cat=3
split_feature=4 6 2 4 6 6 3
split_gain=33.0948 5.9493 3.08043 1.17608 0.612822 0.174936 0.0704585
threshold=0 2723.5000000000005 1 2 4560.5000000000009 1556.0000000000002 11400.000000000002
decision_type=5 2 5 5 2 2 2
left_child=3 5 -3 -1 6 -2 -4
right_child=1 2 4 -5 -6 -7 -8
leaf_value=0 -0 0 -0.092235295276011237 0.094414218477793035 0 0.011531529729289442 -0
leaf_count=361 50 222 1856 403 53 226 64
internal_value=0 -0.205701 -0.262162 0.271613 -0.286175 0.0165325 -0.302408
internal_count=3235 2471 2195 764 1973 276 1920
cat_boundaries=0 13 20 27
cat_threshold=46923904 2360832 33620096 0 260 1077936128 65536 4096 0 0 0 0 1073741888 172621824 539033664 1 0 0 0 4 46399616 2359296 65536 0 0 1077936128 65536
shrinkage=0.3


Tree=18
num_leaves=8
num_cat=4
split_feature=4 2 3 5 4 4 5
split_gain=28.2087 4.87221 1.17722 0.483315 0.372334 0.368536 0.191809
threshold=0 1 2565.0000000000005 12.500000000000002 2 3 4.5000000000000009
decision_type=5 5 2 2 5 5 2
left_child=4 2 6 -4 -1 -3 -2
right_child=1 5 3 -5 -6 -7 -8
leaf_value=0 -0.015550009357156901 0 0.030448131648875335 -0 0.098820884926526367 -0.069642010982999478 0
leaf_count=426 318 108 187 111 351 1681 53
internal_value=0 -0.160075 0.00524819 0.0791088 0.286513 -0.222123 -0.0361781
internal_count=3235 2458 669 298 777 1789 371
cat_boundaries=0 13 20 28 32
cat_threshold=42730646 100696064 288 0 260 4194304 0 4096 0 0 0 0 1073741888 152653952 1629569088 48 2064 0 0 5 42205186 33587200 256 0 256 0 0 4096 16384 2105344 1073741824 268435968
shrinkage=0.3


Tree=19
num_leaves=6
num_cat=5
split_feature=4 2 4 4 2
split_gain=24.3313 2.90355 0.690127 0.157729 0.00554456
threshold=0 1 2 3 4
decision_type=5 5 5 5 5
left_child=3 4 -3 -1 -2
right_child=1 2 -4 -5 -6
leaf_value=0.09071431723637105 -0 -0 -0.061624760606112008 0 0.0019916379828676845
leaf_count=312 107 323 1908 355 230
internal_value=0 -0.151612 -0.186472 0.269101 0.00260707
internal_count=3235 2568 2231 667 337
cat_boundaries=0 13 20 28 41 46
cat_threshold=33821840 35932675 256 268435456 4 1073741824 65536 0 0 268435456 0 0 1073741888 38408704 1107312640 33 17 32 0 1 8601608 536879360 8192 4194304 0 4194304 0 4096 1168 16898 256 0 4 0 65536 0 0 0 0 0 1073741888 512 33554432 1 0 32
shrinkage=0.3


Tree=20
num_leaves=8
num_cat=3
split_feature=4 4 1 1 0 4 1
split_gain=17.7796 1.5511 0.630295 0.609325 0.527685 0.245476 0.0796522
threshold=0 1 50.500000000000007 4.5000000000000009 10.500000000000002 2 48.500000000000007
decision_type=5 5 2 2 2 5 2
left_child=2 -2 -1 5 -5 -3 -6
right_child=1 3 -4 4 6 -7 -8
leaf_value=0.083491465700107917 -0.047820522591141425 0 0 0.01986542398104587 -0.0068295768109856471 -0.018229962016245806 0
leaf_count=754 717 130 52 388 311 760 123
internal_value=0 -0.0960352 0.256661 -0 0.0289099 -0.0485856 -0
internal_count=3235 2429 806 1712 822 890 434
cat_boundaries=0 13 23 28
cat_threshold=2151940130 538970624 33562784 540928 4 0 65536 0 0 0 0 0 1073741888 318984193 118751234 276957184 543162368 33554497 4194304 0 0 16 16 524296 8 0 0 256
shrinkage=0.3


Tree=21
num_leaves=7
num_cat=3
split_feature=4 3 4 3 4 1
split_gain=18.3916 1.7178 0.651808 0.329249 0.199582 0.0121109
threshold=0 6775.0000000000009 1 595.00000000000011 2 17.500000000000004
decision_type=5 2 5 2 5 2
left_child=4 2 -2 -4 5 -1
right_child=1 -3 3 -5 -6 -7
leaf_value=-0 0 0 -0 -0.056897991575977518 0.074434772526713183 0.0029025446483935779
leaf_count=144 125 318 258 1870 460 60
internal_value=0 -0.135961 -0.167563 -0.174126 0.22577 0
internal_count=3235 2571 2253 2128 664 204
cat_boundaries=0 13 17 22
cat_threshold=2152350852 604244992 8320 0 772 4194304 0 0 0 0 0 0 1073741888 24 40960 0 512 540800 67371008 8320 0 512
shrinkage=0.3


Tree=22
num_leaves=12
num_cat=0
split_feature=6 6 0 1 1 1 6 6 6 6 0
split_gain=0.751063 1.66882 1.09889 0.898474 0.821676 0.758709 0.723783 0.43716 0.219579 0.000717014 0.000496753
threshold=2933.5000000000005 4355.5000000000009 1.0000000180025095e-35 43.500000000000007 1.0000000180025095e-35 74.500000000000014 3303.5000000000005 4505.5000000000009 3324.5000000000005 4560.5000000000009 66.500000000000014
decision_type=2 2 2 2 2 2 2 2 2 2 2
left_child=3 2 4 -1 -2 6 -4 -3 -6 -9 -5
right_child=1 7 5 10 8 -7 -8 9 -10 -11 -12
leaf_value=0.028494873984079454 -0.011365339920263175 0.021940742768050397 0 -0.00058832529144036533 -0 0 -0.03968811550756348 -0.00071258615047390241 0.022671528636810091 0 0
leaf_count=337 282 413 287 66 66 75 1175 110 305 60 59
internal_value=0 -0.0210468 -0.0667538 0.0567416 0 -0.096247 -0.111514 0.0477213 0.0636933 -0 -0
internal_count=3235 2773 2190 462 653 1537 1462 583 371 170 125
shrinkage=0.3


Tree=23
num_leaves=9
num_cat=1
split_feature=2 3 5 3 5 3 3 0
split_gain=5.20682 1.70938 1.84402 0.615464 0.249247 0.40751 0.259695 0.222954
threshold=0 2035.0000000000002 17.500000000000004 4855.0000000000009 4.5000000000000009 565.00000000000011 1365.0000000000002 29.500000000000004
decision_type=5 2 2 2 2 2 2 2
left_child=3 4 7 -1 5 -2 -6 -3
right_child=1 2 -4 -5 6 -7 -8 -9
leaf_value=-0.038304126119368953 0 0.053261878322371899 -0 0 0.014874621374348293 -0.018168457159720604 -0 0
leaf_count=775 225 827 297 191 99 651 97 73
internal_value=0 0.0908732 0.133612 -0.101579 -0 -0.0323219 0.0206253 0.170654
internal_count=3235 2269 1197 966 1072 876 196 900
cat_boundaries=0 7
cat_threshold=2752008272 1610613353 9699600 2612 32 20 4
shrinkage=0.3


Tree=24
num_leaves=13
num_cat=0
split_feature=6 6 1 0 6 6 5 1 6 5 0 1
split_gain=0.932033 1.62947 0.648564 0.433419 0.547292 0.238598 0.25413 0.360809 0.197604 0.139368 0.0381601 0.00189417
threshold=3353.5000000000005 4355.5000000000009 34.500000000000007 1.0000000180025095e-35 3931.5000000000005 1482.0000000000002 1.5000000000000002 4.5000000000000009 4495.5000000000009 62.500000000000007 27.500000000000004 36.500000000000007
decision_type=2 2 2 2 2 2 2 2 2 2 2 2
left_child=5 2 3 4 -2 -1 -7 -8 -3 11 -5 -9
right_child=1 8 -4 10 -6 6 7 9 -10 -11 -12 -13
leaf_value=-0 0.01312827873277231 0.014694931986287831 0 -0.035678120036234502 -0.013266985592864645 -0 -0 0.028023654822037392 -0 -0 -0 0
leaf_count=60 196 369 123 1033 387 194 87 360 175 60 56 135
internal_value=0 -0.0363474 -0.0825865 -0.0984804 -0 0.0461802 0.0570065 0.0693167 0.0315222 0.0828402 -0.116761 0.0883832
internal_count=3235 2339 1795 1672 583 896 836 642 544 555 1089 495
shrinkage=0.3


Tree=25
num_leaves=9
num_cat=0
split_feature=1 5 3 1 3 3 3 3
split_gain=1.60949 2.69357 0.828694 0.444789 0.259335 0.223616 0.120645 0.00637324
threshold=1.5000000000000002 14.500000000000002 3985.0000000000005 3.5000000000000004 555.00000000000011 2605.0000000000005 6025.0000000000009 7900.0000000000009
decision_type=2 2 2 2 2 2 2 2
left_child=2 3 4 -2 -1 -3 -7 -8
right_child=1 5 -4 -5 -6 6 7 -9
leaf_value=0 0 0 0.00151855628572013 0.040031092508341894 -0.027664329555720717 -0.017522707956378711 0.0018893951877900898 -0.0009055691314276273
leaf_count=222 542 143 65 1105 743 211 58 146
internal_value=0 0.0637093 -0.041366 0.116109 -0.0791491 -0.0281877 -0.0462418 0
internal_count=3235 2205 1030 1647 965 558 415 204
shrinkage=0.3


Tree=26
num_leaves=10
num_cat=3
split_feature=4 4 3 3 3 3 4 3 3
split_gain=15.55 0.85815 0.632719 0.151641 0.125491 0.104016 0.08294 0.0135604 0.000626402
threshold=0 1 555.00000000000011 2215.0000000000005 435.00000000000006 10605.000000000002 2 2995.0000000000005 4220.0000000000009
decision_type=5 5 2 2 2 2 5 2 2
left_child=-1 2 -2 4 -3 -4 -5 -8 -9
right_child=1 3 5 6 -6 -7 7 8 -10
leaf_value=0.070041300088172567 0 0 -0.051248541646293569 -0 -0.012208932286897992 -0 0.0084046373263753187 -0 0.00059923900562876612
leaf_count=727 97 51 679 139 767 57 167 201 350
internal_value=0 -0.100029 -0.144856 -0 -0.0296383 -0.165 0.00355502 0.0208299 0
internal_count=3235 2508 833 1675 818 736 857 718 551
cat_boundaries=0 13 22 29
cat_threshold=2189430792 203448330 1073741824 16384 4 1077936128 0 4096 0 0 0 0 1073741888 21250051 587203584 268568736 2097696 352 0 0 0 16 524320 4456464 0 0 8 0 65536
shrinkage=0.3


Tree=27
num_leaves=9
num_cat=1
split_feature=2 1 5 3 3 1 3 3
split_gain=5.87508 1.20321 1.18641 0.222076 0.247642 0.179136 0.00754793 0.0238848
threshold=0 1.0000000180025095e-35 34.500000000000007 2035.0000000000002 1325.0000000000002 67.500000000000014 315.00000000000006 1605.0000000000002
decision_type=5 2 2 2 2 2 2 2
left_child=5 6 3 4 -3 -1 -2 -8
right_child=1 2 -4 -5 -6 -7 7 -9
leaf_value=-0.033230536642494861 0 0.011166290126375739 -0 0.049302931412606568 -0.0051588465733806927 0 -0.0046070013955475438 0
leaf_count=1189 63 351 125 808 240 93 239 127
internal_value=0 0.101472 0.127099 0.14597 0 -0.100052 -0 -0.00731203
internal_count=3235 1953 1524 1399 591 1282 429 366
cat_boundaries=0 7
cat_threshold=2685450344 606344 9707524 16779316 32 16 4
shrinkage=0.3


Tree=28
num_leaves=9
num_cat=0
split_feature=6 6 0 3 3 1 6 6
split_gain=1.86567 2.57639 1.08889 0.913196 0.182886 0.0190265 0.00222547 0.0396282
threshold=3378.0000000000005 4335.5000000000009 10.500000000000002 555.00000000000011 1375.0000000000002 100.50000000000001 4411.5000000000009 4560.5000000000009
decision_type=2 2 2 2 2 2 2 2
left_child=2 3 -1 -2 6 -4 -3 -8
right_child=1 4 5 -5 -6 -7 7 -9
leaf_value=0.032736725512429482 0 0 -0.0032119898703622208 -0.036956354124260675 0.017091726282424089 0 -0.0052574449268136788 0
leaf_count=507 82 107 331 1614 244 60 241 49
internal_value=0 -0.049241 0.0676851 -0.106814 0.0402417 -0 -0 -0.00397471
internal_count=3235 2337 898 1696 641 391 397 290
shrinkage=0.3


Tree=29
num_leaves=11
num_cat=2
split_feature=2 0 6 1 6 2 6 1 0 0
split_gain=3.4689 1.08222 0.716587 0.677702 0.860348 0.429364 0.0517939 0.113315 0.025203 0.0035865
threshold=0 75.500000000000014 3005.5000000000005 28.500000000000004 4456.5000000000009 1 4495.5000000000009 1.0000000180025095e-35 12.500000000000002 39.500000000000007
decision_type=5 2 2 2 2 5 2 2 2 2
left_child=1 6 8 4 5 -4 7 -1 -2 -5
right_child=2 -3 3 9 -6 -7 -8 -9 -10 -11
leaf_value=0 0.0040260060206813789 -0 0 0.0015781343208556562 0 -0.038643704095470063 0 0.038389979965271277 -0 -0
leaf_count=231 147 52 119 79 164 1148 88 1013 127 67
internal_value=0 0.0958546 -0.0565168 -0.0821042 -0.100792 -0.120711 0.11962 0.122112 0 0
internal_count=3235 1384 1851 1577 1431 1267 1332 1244 274 146
cat_boundaries=0 7 10
cat_threshold=432746664 1091256323 2352 67108881 0 0 1 33554432 33554592 8192
shrinkage=0.3


Tree=30
num_leaves=9
num_cat=2
split_feature=2 1 2 5 3 3 1 1
split_gain=5.06913 1.46452 0.860649 0.684565 0.0124503 0.0112116 0.00895309 0.0017833
threshold=0 36.500000000000007 1 26.500000000000004 3405.0000000000005 5695.0000000000009 8.5000000000000018 66.500000000000014
decision_type=5 2 5 2 2 2 2 2
left_child=-1 2 4 -4 6 -6 -2 -3
right_child=1 7 3 -5 5 -7 -8 -9
leaf_value=-0.024967207511102596 -0.0030008235121116457 -0.0010923219770917864 0.050906586155913161 -0 0.0035073264169977617 -0 0 0
leaf_count=762 299 109 1606 88 103 54 75 139
internal_value=0 0.10837 0.134341 0.153881 0 0.00710062 -0.00594097 -0
internal_count=3235 2473 2225 1694 531 157 374 248
cat_boundaries=0 7 12
cat_threshold=2752021056 1091125482 9439364 2084 0 4 4 9594888 0 289 4096 32
shrinkage=0.3


Tree=31
num_leaves=8
num_cat=3
split_feature=4 2 3 4 5 3 3
split_gain=13.6047 4.09041 0.919488 0.537098 0.342083 0.338727 0.184561
threshold=0 1 10605.000000000002 2 30.500000000000004 345.00000000000006 655.00000000000011
decision_type=5 5 2 5 2 2 2
left_child=2 6 4 -3 -1 -5 -2
right_child=1 3 -4 5 -6 -7 -8
leaf_value=0.069411846048313797 -0 0 -0 0 0 -0.056896826657210756 0.01462084192032162
leaf_count=750 62 116 49 75 51 1746 386
internal_value=0 -0.108251 0.20129 -0.164679 0.224121 -0.17761 0.0324428
internal_count=3235 2385 850 1937 801 1821 448
cat_boundaries=0 13 18 26
cat_threshold=277695512 637815297 33554592 4198914 5 0 0 0 0 0 0 0 1073741888 419631112 589905928 257 16 32 2181070848 0 0 0 0 0 0 4096
shrinkage=0.3


Tree=32
num_leaves=11
num_cat=2
split_feature=2 6 5 2 6 0 6 6 5 6
split_gain=4.18627 1.2933 0.86914 0.73609 0.405557 0.102044 0.0834629 0.0611411 0.0950226 0.00077639
threshold=0 3146.5000000000005 13.500000000000002 1 4467.5000000000009 30.500000000000004 4505.5000000000009 3530.5000000000005 22.500000000000004 3550.5000000000005
decision_type=5 2 2 5 2 2 2 2 2 2
left_child=1 -1 3 9 -3 6 -5 8 -4 -2
right_child=2 4 7 5 -6 -7 -8 -9 -10 -11
leaf_value=0 0 -0.043616319098609489 -0 0.038046556398399496 0 -0 0 -0.0064091124290822088 0.0077171896365018913 -0.00072252426862016972
leaf_count=197 89 699 69 1439 64 51 92 133 202 200
internal_value=0 -0.095537 0.0776218 0.101799 -0.135642 0.116424 0.123831 -0 0.00145084 -0
internal_count=3235 960 2275 1871 763 1582 1531 404 271 289
cat_boundaries=0 7 10
cat_threshold=3037276224 1090519209 9707536 6196 32 20 4 8405008 524288 1
shrinkage=0.3


Tree=33
num_leaves=13
num_cat=0
split_feature=1 0 3 3 6 6 6 0 1 0 3 3
split_gain=1.3836 1.66678 0.668646 0.622348 0.460435 0.299023 0.242074 0.21161 0.181404 0.100628 0.0857519 0.0464018
threshold=1.0000000180025095e-35 8.5000000000000018 7145.0000000000009 4625.0000000000009 4442.5000000000009 4006.5000000000005 4040.5000000000005 92.000000000000014 12.500000000000002 26.500000000000004 1385.0000000000002 435.00000000000006
decision_type=2 2 2 2 2 2 2 2 2 2 2 2
left_child=6 2 4 5 -2 9 -1 8 -5 10 -3 -8
right_child=1 3 -4 7 -6 -7 11 -9 -10 -11 -12 -13
leaf_value=0 0.039341563839958141 0 -0 -0 -0 0 0 -0 0.016473798402516355 0 -0.024719507390721519 -0.017061807161565502
leaf_count=68 1417 49 116 67 103 79 113 62 306 119 239 497
internal_value=0 0.0638684 0.107619 -0 0.121916 -0.0548282 -0.0342672 0.0239345 0.04251 -0.0703852 -0.0776224 -0.0523604
internal_count=3235 2557 1636 921 1520 486 678 435 373 407 288 610
shrinkage=0.3


Tree=34
num_leaves=14
num_cat=2
split_feature=2 3 2 3 5 1 5 3 1 1 1 3 5
split_gain=3.17248 0.603068 0.556913 0.383361 0.368059 0.748644 0.136262 0.106738 0.191494 0.0774061 0.0514459 0.0291227 0.0146659
threshold=0 1595.0000000000002 1 12570.000000000002 8.5000000000000018 16.500000000000004 11.500000000000002 565.00000000000011 5.5000000000000009 22.500000000000004 21.500000000000004 245.00000000000003 18.500000000000004
decision_type=5 2 5 2 2 2 2 2 2 2 2 2 2
left_child=4 7 -3 6 5 -1 9 11 -9 -4 12 -2 -6
right_child=1 2 3 -5 10 -7 -8 8 -10 -11 -12 -13 -14
leaf_value=-0.044652352405587466 -0 -0 0.032250141268814737 -0 0.004740891305322451 0 0 -0.013447426776428248 0 0 -0.0046839971204067476 0.0044410353106362427 -0
leaf_count=764 56 126 724 89 76 91 290 455 124 74 150 167 49
internal_value=0 0.0362374 0.0626736 0.078059 -0.108591 -0.130076 0.092463 -0 -0.0259196 0.103275 -0 0 0.0114271
internal_count=3235 2105 1303 1177 1130 855 1088 802 579 798 275 223 125
cat_boundaries=0 7 11
cat_threshold=747354192 35717280 143925264 16777508 32 16 4 4194304 1074266176 0 67108880
shrinkage=0.3


Tree=35
num_leaves=11
num_cat=0
split_feature=6 0 6 5 6 1 1 1 1 5
split_gain=0.776255 1.13053 0.80013 0.437188 0.41455 0.32001 0.176748 0.0660013 0.0400973 0.0145929
threshold=3713.5000000000005 8.5000000000000018 4335.5000000000009 13.500000000000002 2723.5000000000005 17.500000000000004 70.500000000000014 1.5000000000000002 18.500000000000004 44.500000000000007
decision_type=2 2 2 2 2 2 2 2 2 2
left_child=1 3 5 -1 8 -2 -6 -4 -3 -10
right_child=2 4 7 -5 6 -7 -8 -9 9 -11
leaf_value=0.028050400714389263 -0.027816559201205057 -0 -0 -0 -0.018759594107013135 0 0 0.006510065597422959 0.0060123999908528866 -0
leaf_count=673 1049 50 425 110 333 174 56 193 111 61
internal_value=0 0.0266619 -0.0460593 0.0780646 -0.0139731 -0.0794048 -0.0519163 0 0 0.0167166
internal_count=3235 1394 1841 783 611 1223 389 618 222 172
shrinkage=0.3


Tree=36
num_leaves=6
num_cat=1
split_feature=4 1 1 3 3
split_gain=12.2814 2.59921 1.19234 0.591491 0.0114205
threshold=0 62.500000000000007 37.500000000000007 6170.0000000000009 12570.000000000002
decision_type=5 2 2 2 2
left_child=2 3 -1 -2 -3
right_child=1 4 -4 -5 -6
leaf_value=0.066710474517455931 -0.047452300134417827 0.0071480889087130331 -0 -0 -0
leaf_count=608 2116 101 53 303 54
internal_value=0 -0.105607 0.194415 -0.141441 0.02125
internal_count=3235 2574 661 2419 155
cat_boundaries=0 13
cat_threshold=409624 204259330 0 4194304 5 4194304 0 0 0 0 0 0 1073741888
shrinkage=0.3


Tree=37
num_leaves=6
num_cat=2
split_feature=4 6 6 4 0
split_gain=13.4546 2.39654 0.663937 0.96025 0.44933
threshold=0 2206.0000000000005 4375.5000000000009 1 59.500000000000007
decision_type=5 2 2 5 2
left_child=-1 -2 3 -3 -5
right_child=1 2 -4 4 -6
leaf_value=0.055042989624552827 0.0016289452204601049 0 -0 -0.06176564711583251 0
leaf_count=718 142 212 386 1708 69
internal_value=0 -0.128808 -0.16142 -0.176281 -0.191722
internal_count=3235 2517 2375 1989 1777
cat_boundaries=0 13 19
cat_threshold=2151680154 521 33563040 0 4 1073741824 0 4096 0 0 0 0 1073741888 8404992 5030912 0 0 33024 4194304
shrinkage=0.3


Tree=38
num_leaves=7
num_cat=1
split_feature=2 3 6 3 3 3
split_gain=3.76741 0.634829 0.716187 0.365172 0.193402 0.17629
threshold=0 6525.0000000000009 4478.5000000000009 595.00000000000011 245.00000000000003 7255.0000000000009
decision_type=5 2 2 2 2 2
left_child=4 2 3 -2 -1 -6
right_child=1 -3 -4 -5 5 -7
leaf_value=-0 0 0 0 -0.039650054358175445 0.027975833389064703 0
leaf_count=49 113 235 101 1152 1385 200
internal_value=0 -0.0851046 -0.107705 -0.12312 0.0768519 0.0843725
internal_count=3235 1601 1366 1265 1634 1585
cat_boundaries=0 7
cat_threshold=529102904 19480609 33 67110912 0 0 3
shrinkage=0.3


Tree=39
num_leaves=8
num_cat=5
split_feature=4 2 2 4 3 3 2
split_gain=11.706 2.66907 0.900449 0.425551 0.251169 0.0920514 0.0770832
threshold=0 1 2 3 505.00000000000006 655.00000000000011 4
decision_type=5 5 5 5 2 2 5
left_child=2 5 -1 -3 -4 -2 -7
right_child=1 3 4 -5 -6 6 -8
leaf_value=-0 -0 0 -0 -0.047231859435519725 0.066567572997257088 -0 0.010610624413605744
leaf_count=108 64 102 50 1870 612 117 312
internal_value=0 -0.102392 0.185976 -0.147105 0.206699 0.0125171 0.0274592
internal_count=3235 2465 770 1972 662 493 429
cat_boundaries=0 13 20 22 26 27
cat_threshold=2181109944 536896258 128 528384 5 1073741824 0 4096 0 0 0 0 1073741888 331547144 33554602 273 2064 0 0 5 24704 1073741864 4194304 134742016 8224 4194304 33751552
shrinkage=0.3


Tree=40
num_leaves=8
num_cat=3
split_feature=4 6 6 6 4 4 1
split_gain=7.55641 2.45464 2.67774 0.955308 0.415586 0.100073 0.00630591
threshold=0 4343.5000000000009 2723.5000000000005 4459.5000000000009 1 2 68.500000000000014
decision_type=5 2 2 2 5 5 2
left_child=3 2 6 -1 -4 -3 -2
right_child=1 5 4 -5 -6 -7 -8
leaf_value=0.054253935182132319 0.0023716313460131646 -0 0 -0 -0.051536189924698848 0.010335130519852938 -0
leaf_count=546 223 134 152 80 1753 286 61
internal_value=0 -0.0831658 -0.12428 0.155753 -0.163592 0.0230983 0.00436428
internal_count=3235 2609 2189 626 1905 420 284
cat_boundaries=0 13 17 21
cat_threshold=276830228 167838216 1073741856 4194560 33281 4194304 65536 0 0 0 0 0 1073741888 147456 1024 8448 4096 16908320 16777218 0 16384
shrinkage=0.3


Tree=41
num_leaves=9
num_cat=2
split_feature=3 2 2 0 3 3 1 1
split_gain=3.04164 1.62155 1.15368 0.643947 0.370305 0.194854 0.130716 0.121278
threshold=2035.0000000000002 0 1 30.500000000000004 7255.0000000000009 1465.0000000000002 30.500000000000004 1.0000000180025095e-35
decision_type=2 5 5 2 2 2 2 2
left_child=1 5 -2 4 6 7 -4 -1
right_child=2 -3 3 -5 -6 -7 -8 -9
leaf_value=-0 -0 -0.031477713537498855 0.045776382345831819 -0 0 -0 0 0.015489131401703507
leaf_count=182 212 1012 953 250 195 136 74 221
internal_value=0 -0.0516342 0.0930663 0.113796 0.133935 0.0170524 0.147654 0.0406138
internal_count=3235 1551 1684 1472 1222 539 1027 403
cat_boundaries=0 7 10
cat_threshold=226570784 2686985 288 0 0 0 4 2290127360 134283272 8192
shrinkage=0.3


Tree=42
num_leaves=6
num_cat=2
split_feature=2 1 2 3 1
split_gain=2.81474 0.911422 0.288517 0.227493 0.16737
threshold=0 1.0000000180025095e-35 1 5445.0000000000009 107.00000000000001
decision_type=5 2 5 2 2
left_child=3 -2 -3 -1 -4
right_child=1 2 4 -5 -6
leaf_value=-0.02841069512452361 -0 -0 0.030388676768533934 0 -0
leaf_count=730 500 113 1659 178 55
internal_value=0 0.0655638 0.0888188 -0.0784491 0.0941601
internal_count=3235 2327 1827 908 1714
cat_boundaries=0 7 10
cat_threshold=2685456576 1107361960 143925252 564 32 16 6 524288 524288 32
shrinkage=0.3


Tree=43
num_leaves=12
num_cat=3
split_feature=2 3 3 2 6 3 2 6 6 0 0
split_gain=3.04575 1.43449 0.924487 1.01165 0.658333 0.211558 0.21847 0.0973286 0.00177889 9.54886e-06 0.0511824
threshold=0 1595.0000000000002 7555.0000000000009 1 2636.5000000000005 565.00000000000011 2 3794.5000000000005 3303.5000000000005 11.500000000000002 40.500000000000007
decision_type=5 2 2 5 2 2 5 2 2 2 2
left_child=4 5 3 -3 -1 7 -7 -2 -8 -4 -11
right_child=1 2 9 -5 -6 6 8 -9 -10 10 -12
leaf_value=0 0.0083595843246112578 -0 -7.9925565623451727e-05 0.042495376258105184 -0.034140357022046423 0 -0 -0 -0.016508135065078224 0.0058943087826137854 -0
leaf_count=75 59 147 101 1129 597 101 93 211 554 82 86
internal_value=0 0.0638012 0.100936 0.124151 -0.0883486 -0 -0.0355264 0.000945916 -0.0502627 -0 0
internal_count=3235 2563 1545 1276 672 1018 748 270 647 269 168
cat_boundaries=0 7 9 11
cat_threshold=2831155776 1644757002 143919121 67113780 0 4 4 67174400 2097153 17369088 16777248
shrinkage=0.3


Tree=44
num_leaves=9
num_cat=2
split_feature=4 4 3 3 6 3 6 3
split_gain=8.6575 0.687182 0.66793 0.254328 0.131162 0.204329 0.153337 0.091952
threshold=0 1 7085.0000000000009 535.00000000000011 4087.0000000000005 1205.0000000000002 2933.5000000000005 1605.0000000000002
decision_type=5 5 2 2 2 2 2 2
left_child=2 -2 3 -1 5 -3 -7 -6
right_child=1 4 -4 -5 7 6 -8 -9
leaf_value=-0 -0.043997171062694095 0 -0 0.054006737443814984 -0 0 -0.01560751743160755 0.0075378178696208636
leaf_count=62 680 205 71 704 281 261 698 273
internal_value=0 -0.100016 0.152097 0.173888 -0 -0.0240727 -0.0396513 0
internal_count=3235 2398 837 766 1718 1164 959 554
cat_boundaries=0 13 23
cat_threshold=302082 202123784 1073742080 540928 33536 4194304 0 0 0 0 0 0 1073741888 64618629 54526976 545269760 4194304 66 0 0 4096 0 268435456
shrinkage=0.3


Tree=45
num_leaves=11
num_cat=0
split_feature=3 5 5 3 6 1 6 1 1 3
split_gain=0.613395 1.14298 0.569513 0.311431 0.20999 0.194023 0.120264 0.119321 0.0560914 0.061274
threshold=3405.0000000000005 4.5000000000000009 13.500000000000002 2605.0000000000005 4560.5000000000009 23.500000000000004 2753.0000000000005 4.5000000000000009 66.500000000000014 4285.0000000000009
decision_type=2 2 2 2 2 2 2 2 2 2
left_child=1 4 -2 5 6 7 -1 -3 9 -4
right_child=2 3 8 -5 -6 -7 -8 -9 -10 -11
leaf_value=0 0.019427420874187997 -0 0 -0 0 -0 -0.025742538172256621 0.020979461289125145 0 -0.0085573353809348645
leaf_count=51 715 76 49 132 63 79 1563 200 115 192
internal_value=0 -0.0303914 0.0361619 0.0190156 -0.0749518 0.0492276 -0.081608 0.0621462 -0 -0.0193252
internal_count=3235 2164 1071 487 1677 355 1614 276 356 241
shrinkage=0.3


Tree=46
num_leaves=9
num_cat=2
split_feature=2 6 1 1 1 2 3 3
split_gain=3.49134 1.28583 0.765685 0.548483 0.53147 0.419149 0.0168344 0.00116216
threshold=0 2810.5000000000005 1.0000000180025095e-35 68.500000000000014 74.500000000000014 1 315.00000000000006 435.00000000000006
decision_type=5 2 2 2 2 5 2 2
left_child=2 -2 7 5 6 -4 -3 -1
right_child=1 4 3 -5 -6 -7 -8 -9
leaf_value=0 0 -0 -0 -0 0 0.032138179359101043 -0.041214533356090093 -0.00088341406833406183
leaf_count=52 198 65 101 89 51 963 1460 256
internal_value=0 -0.095126 0.0573064 0.0831082 -0.125771 0.0979519 -0.135575 -0
internal_count=3235 1774 1461 1153 1576 1064 1525 308
cat_boundaries=0 4 6
cat_threshold=93958816 1627996194 134226208 67110944 16777728 524288
shrinkage=0.3


Tree=47
num_leaves=9
num_cat=1
split_feature=2 3 0 3 0 3 3 3
split_gain=3.28028 1.14465 0.25206 0.028426 0.0160759 0.0493122 0.00035462 0.0018367
threshold=0 2035.0000000000002 1.0000000180025095e-35 775.00000000000011 66.500000000000014 1605.0000000000002 1655.0000000000002 565.00000000000011
decision_type=5 2 2 2 2 2 2 2
left_child=1 3 6 -1 5 -4 7 -2
right_child=2 -3 4 -5 -6 -7 -8 -9
leaf_value=0 0 0.039916184285614477 -0 -0.0041856654014780148 -0 -0.022406764690736245 0.00048239709029600231 -0.0011063977012188903
leaf_count=232 139 696 363 385 80 864 197 279
internal_value=0 0.0963402 -0.0531772 -0 -0.0674892 -0.0692611 0 -0
internal_count=3235 1313 1922 617 1307 1227 615 418
cat_boundaries=0 8
cat_threshold=190474456 587268101 134219776 67115025 32 0 7 65536
shrinkage=0.3


Tree=48
num_leaves=13
num_cat=0
split_feature=5 1 0 0 3 3 0 0 3 3 5 5
split_gain=0.640642 0.722658 0.739729 0.287631 0.129789 0.233451 0.0878594 0.0716499 0.0714906 0.0765606 0.000904355 0.0312177
threshold=13.500000000000002 1.0000000180025095e-35 1.0000000180025095e-35 5.5000000000000009 6400.0000000000009 2605.0000000000005 22.500000000000004 1.5000000000000002 1445.0000000000002 215.00000000000003 22.500000000000004 56.500000000000007
decision_type=2 2 2 2 2 2 2 2 2 2 2 2
left_child=1 7 -3 -4 5 -2 -5 8 9 -1 -6 -12
right_child=4 2 3 6 10 -7 -8 -9 -10 -11 11 -13
leaf_value=0 0 0.035858865336866746 -0.0056397672467596418 0.012305408030499223 -0 -0.015337601567385135 -0 0 0 -0.011844566694074431 0.0046538358742211749 -0
leaf_count=54 151 452 795 542 49 216 166 83 184 385 97 61
internal_value=0 0.04909 0.0705687 0 -0.00808753 -0.0300503 0.0328715 -0 -0.0214309 -0.0313795 0 0.00253369
internal_count=3235 2661 1955 1503 574 367 708 706 623 439 207 158
shrinkage=0.3


Tree=49
num_leaves=7
num_cat=5
split_feature=4 2 4 0 2 2
split_gain=7.29477 3.87502 0.617737 0.359237 0.213273 0.0129157
threshold=0 1 2 13.500000000000002 3 4
decision_type=5 5 5 2 5 5
left_child=3 5 -3 4 -1 -2
right_child=1 2 -4 -5 -6 -7
leaf_value=-0 -0 0 -0.048629340971830859 0 0.049056522941015479 0.011504406001648591
leaf_count=101 103 104 1931 106 452 438
internal_value=0 -0.0946399 -0.149669 0.139932 0.160045 0.0354085
internal_count=3235 2576 2035 659 553 541
cat_boundaries=0 13 20 28 29 33
cat_threshold=33751062 57345 288 272630272 532 0 0 0 0 0 0 0 1073741888 102273096 1660944386 134217984 2064 0 0 1 32768 536871168 0 0 0 0 0 4096 1097872 32768 0 134217728 16
shrinkage=0.3


Tree=50
num_leaves=9
num_cat=3
split_feature=4 2 1 3 3 4 1 3
split_gain=7.38515 1.97844 1.53477 1.09106 1.11988 0.721455 0.887077 0.0241621
threshold=0 1 1.0000000180025095e-35 9335.0000000000018 315.00000000000006 2 59.500000000000007 7455.0000000000009
decision_type=5 5 2 2 2 5 2 2
left_child=2 7 -1 4 -3 -6 -7 -2
right_child=1 3 -4 -5 5 6 -8 -9
leaf_value=-0 0.0054157543733558801 0 0.053691942136552678 0 0 -0.05806266739093157 0 -0
leaf_count=200 491 59 696 134 127 1430 49 49
internal_value=0 -0.0794231 0.148124 -0.12108 -0.146073 -0.162611 -0.173214 0.0120612
internal_count=3235 2339 896 1799 1665 1606 1479 540
cat_boundaries=0 13 20 26
cat_threshold=2416185376 608265728 1073741952 4210688 257 1073741824 65536 0 0 0 0 0 1073741888 92291104 1610612800 8224 1 0 0 4 100352 2097408 0 0 4 4194304
shrinkage=0.3


Tree=51
num_leaves=9
num_cat=2
split_feature=2 0 1 2 3 3 3 3
split_gain=2.64025 0.77421 0.733177 0.441773 0.0936383 0.0219344 0.0320082 0.0217922
threshold=0 8.5000000000000018 74.500000000000014 1 7555.0000000000009 4665.0000000000009 1715.0000000000002 7255.0000000000009
decision_type=5 2 2 5 2 2 2 2
left_child=2 3 -1 -2 -5 6 -3 -7
right_child=1 5 -4 4 -6 7 -8 -9
leaf_value=-0.029938808285378506 -0 0 0 0.032503336527596148 0 0.0038327997994889989 -0.0058061802687865739 -0
leaf_count=1041 101 88 65 1383 55 113 228 161
internal_value=0 0.0630761 -0.0754461 0.0918212 0.100512 -0 -0.0120313 0
internal_count=3235 2129 1106 1539 1438 590 316 274
cat_boundaries=0 7 10
cat_threshold=2694350936 1126776904 143663268 292 32 0 4 83886592 0 1
shrinkage=0.3


Tree=52
num_leaves=8
num_cat=6
split_feature=4 4 2 2 2 4 5
split_gain=6.46343 4.22977 1.03052 0.59722 0.383877 0.264928 0.490682
threshold=0 1 2 3 4 5 51.500000000000007
decision_type=5 5 5 5 5 5 2
left_child=3 4 -3 -1 -2 -4 -7
right_child=1 2 5 -5 -6 6 -8
leaf_value=0 0 -0 -0 -0.049431854320623143 -0.018720782113483287 0.058217833459314 -0
leaf_count=198 108 240 134 729 512 1256 58
internal_value=0 0.0769359 0.147457 -0.144339 -0.0402396 0.1683 0.178546
internal_count=3235 2308 1688 927 620 1448 1314
cat_boundaries=0 9 19 24 26 28 31
cat_threshold=2165145611 621593088 268568576 538990592 32832 0 0 4096 16 272633856 34614288 545267872 32 50331914 1073741825 65536 0 0 16 29491840 1075839050 256 0 32 16851488 66 68174464 16777216 4 134217736 1073741824
shrinkage=0.3


Tree=53
num_leaves=9
num_cat=3
split_feature=4 4 5 0 3 5 0 4
split_gain=5.66817 4.14458 1.18871 0.590836 0.35597 0.217114 0.174743 0.115674
threshold=0 1 30.500000000000004 40.500000000000007 5945.0000000000009 7.5000000000000009 29.500000000000004 2
decision_type=5 5 2 2 2 2 2 5
left_child=6 4 3 7 5 -2 -1 -3
right_child=1 2 -4 -5 -6 -7 -8 -9
leaf_value=-0.040113273446341517 -0.02081578664878873 -0 -0 -0 0 0 0 0.056393436611600518
leaf_count=659 499 119 188 66 116 101 66 1421
internal_value=0 0.0878499 0.153116 0.177943 -0.0310446 -0.0568385 -0.120215 0.186783
internal_count=3235 2510 1794 1606 716 600 725 1540
cat_boundaries=0 10 16 20
cat_threshold=56131721 23068936 2304 536875040 33094 0 0 4096 16 268435456 8392706 202695696 545267872 1075855872 16777736 4194304 18432 2050 0 4194304
shrinkage=0.3


Tree=54
num_leaves=10
num_cat=1
split_feature=2 6 3 6 3 3 3 6 3
split_gain=3.8748 1.36112 1.00024 0.492619 0.347271 0.338705 0.27644 0.0968957 0.0425747
threshold=0 4385.5000000000009 2035.0000000000002 2318.0000000000005 12570.000000000002 555.00000000000011 11400.000000000002 4495.5000000000009 555.00000000000011
decision_type=5 2 2 2 2 2 2 2 2
left_child=2 3 8 -2 -4 -5 -7 -3 -1
right_child=1 7 4 5 -6 6 -8 -9 -10
leaf_value=0 0 0.0079787694469359346 0.0362207121738033 0 -0 -0.043638621758099537 0 -0 -0.0050398931417035466
leaf_count=110 129 203 565 81 50 1399 90 106 502
internal_value=0 -0.0903512 0.0733784 -0.119674 0.110293 -0.131209 -0.137723 0 -0
internal_count=3235 2008 1227 1699 615 1570 1489 309 612
cat_boundaries=0 7
cat_threshold=358107288 1124679747 2065 67108881 0 0 1
shrinkage=0.3


Tree=55
num_leaves=10
num_cat=2
split_feature=4 4 3 1 3 1 3 3 1
split_gain=5.23981 1.71233 1.1998 0.659734 0.124351 0.0450767 0.0223852 0.126499 0.00435849
threshold=0 1 11700.000000000002 1.0000000180025095e-35 275.00000000000006 18.500000000000004 905.00000000000011 10605.000000000002 19.500000000000004
decision_type=5 5 2 2 2 2 2 2 2
left_child=4 6 3 -3 -1 -6 -2 8 -8
right_child=1 2 -4 -5 5 -7 7 -9 -10
leaf_value=0 0 -0 -0 0.049276366809202471 -0.037560139572025815 -0 -0.0091700393288847611 0 -0
leaf_count=50 124 264 89 1248 797 133 396 60 74
internal_value=0 0.0883258 0.127371 0.151266 -0.109019 -0.118591 -0 -0.0109618 -0.0291433
internal_count=3235 2255 1601 1512 980 930 654 530 470
cat_boundaries=0 10 16
cat_threshold=51773571 89391106 1887436832 1616921632 74 0 65536 0 16 16 4276228 572564504 8576 4608 16810001 1077936129
shrinkage=0.3


Tree=56
num_leaves=9
num_cat=0
split_feature=6 6 3 3 6 1 6 6
split_gain=0.24376 0.711032 0.483289 0.399774 0.239871 0.0245093 0.0109675 0.0625141
threshold=2723.5000000000005 4355.5000000000009 555.00000000000011 1445.0000000000002 1482.0000000000002 66.500000000000014 4556.5000000000009 4401.5000000000009
decision_type=2 2 2 2 2 2 2 2
left_child=4 2 -2 6 -1 -4 7 -3
right_child=1 3 5 -5 -6 -7 -8 -9
leaf_value=-0 0 0 -0.019762695832013035 0.01682961999735828 0.013249010319173046 -0 0 -0.0069480282014309077
leaf_count=54 103 64 2126 197 278 101 51 261
internal_value=0 -0.0214044 -0.050353 0.0155185 0.0204297 -0.0639278 -0 -0.00878632
internal_count=3235 2903 2330 573 332 2227 376 325
shrinkage=0.3


Tree=57
num_leaves=8
num_cat=4
split_feature=4 2 2 3 3 2 3
split_gain=9.74209 3.7084 0.542147 0.488307 0.072452 0.227933 0.143889
threshold=0 1 2 14805.000000000002 2135.0000000000005 3 4805.0000000000009
decision_type=5 5 5 2 2 5 2
left_child=2 4 -1 -3 5 -2 -6
right_child=1 3 -4 -5 6 -7 -8
leaf_value=-0 -0 -0.061123317402276653 0.045573432025121784 0 -0.0087015429977240384 0.013710957627804025 0.0040731436138194844
leaf_count=109 101 1527 826 55 206 259 152
internal_value=0 -0.128368 0.136612 -0.188181 0.00626613 0.0236987 -0
internal_count=3235 2300 935 1582 718 360 358
cat_boundaries=0 13 18 22 24
cat_threshold=42467498 103293192 1073815584 268455936 32768 0 65536 4096 0 268435456 0 0 1073741888 223887384 1627521161 256 67108880 32 201342976 524416 8192 67108864 1572864 553648256
shrinkage=0.3


Tree=58
num_leaves=8
num_cat=2
split_feature=4 3 4 3 0 0 3
split_gain=8.85287 1.29594 0.716803 0.344386 0.118098 0.00384692 0.000418318
threshold=0 5255.0000000000009 1 9335.0000000000018 35.500000000000007 1.0000000180025095e-35 7555.0000000000009
decision_type=5 2 5 2 2 2 2
left_child=3 2 5 -1 -4 -2 -3
right_child=1 6 4 -5 -6 -7 -8
leaf_value=0.048078573483283871 0.0016564393061087132 0.00052437082573048455 -0.048582992318425812 -0 -0 -0 -0
leaf_count=880 49 155 1701 70 68 60 252
internal_value=0 -0.108342 -0.14154 0.14447 -0.152322 0 0
internal_count=3235 2285 1878 950 1769 109 407
cat_boundaries=0 13 18
cat_threshold=8672394 604242954 33554688 272630016 512 0 65536 0 0 0 0 0 1073741888 34078720 0 0 0 16777220
shrinkage=0.3


Tree=59
num_leaves=10
num_cat=4
split_feature=4 2 6 6 4 1 2 6 6
split_gain=6.77014 4.34023 0.904002 0.745515 0.547071 0.522269 0.495964 0.3133 0.125901
threshold=0 1 4478.5000000000009 4456.5000000000009 2 100.50000000000001 3 2397.0000000000005 4385.5000000000009
decision_type=5 5 2 2 5 2 5 2 2
left_child=3 4 5 6 -2 -3 -1 -6 -9
right_child=1 2 -4 -5 7 -7 -8 8 -10
leaf_value=-0 -2.4944191141184959e-05 -0.059423800283217768 0 -0 -0 0 0.044320073738777492 0.025796532299102257 -0
leaf_count=103 105 1708 148 63 51 51 509 436 61
internal_value=0 -0.108624 -0.17177 0.115123 0.0273221 -0.190913 0.136997 0.0618063 0.0797216
internal_count=3235 2560 1907 675 653 1759 612 548 497
cat_boundaries=0 13 20 23 25
cat_threshold=12622864 140872201 1073750048 256 513 1073741824 0 4096 0 0 0 0 1073741888 2333168192 571097096 134217984 17 32 0 1 268763139 16777216 131072 1056768 33
shrinkage=0.3


Tree=60
num_leaves=8
num_cat=1
split_feature=2 5 3 3 3 0 5
split_gain=3.31067 0.639026 0.513853 0.307423 0.159633 0.241848 0.00324452
threshold=0 12.500000000000002 605.00000000000011 275.00000000000006 10605.000000000002 37.500000000000007 23.500000000000004
decision_type=5 2 2 2 2 2 2
left_child=1 3 -2 -1 5 -4 -3
right_child=2 6 4 -5 -6 -7 -8
leaf_value=-0 0 -0.0014813358128787999 -0.030480262390574921 0.033908575471491745 0 0 0
leaf_count=51 212 113 1297 1202 82 83 195
internal_value=0 0.0824943 -0.0710501 0.105933 -0.0884674 -0.0943031 -0
internal_count=3235 1561 1674 1253 1462 1380 308
cat_boundaries=0 4
cat_threshold=182047400 705234080 134228400 67108864
shrinkage=0.3


Tree=61
num_leaves=7
num_cat=2
split_feature=4 4 3 3 3 5
split_gain=6.00441 1.33069 0.744769 0.239886 0.00533424 0.000718548
threshold=0 1 1595.0000000000002 565.00000000000011 775.00000000000011 1.0000000180025095e-35
decision_type=5 5 2 2 2 2
left_child=-1 4 3 -3 -2 -6
right_child=1 2 -4 -5 5 -7
leaf_value=-0.032171330399455036 0 0.0098564109177075813 0.046156480251927583 -0.0075758857647254853 0 -0.0019656964570566367
leaf_count=898 95 148 1227 491 155 221
internal_value=0 0.104138 0.129178 0 -0 -0.00594767
internal_count=3235 2337 1866 639 471 376
cat_boundaries=0 8 14
cat_threshold=328929281 556793864 813828480 538984480 258 1073741824 0 4096 278546 4456720 0 5632 16777305 4194304
shrinkage=0.3


Tree=62
num_leaves=9
num_cat=5
split_feature=4 2 2 4 4 6 6 5
split_gain=6.00067 3.40717 1.44132 1.26808 0.51293 0.148491 0.155869 0.00213909
threshold=0 1 2 3 4 2361.0000000000005 4268.5000000000009 1.0000000180025095e-35
decision_type=5 5 5 5 5 2 2 2
left_child=2 4 -1 -3 7 -6 -7 -2
right_child=1 3 -4 -5 5 6 -8 -9
leaf_value=0 -0 -0 -0.049408923371673415 0.050114425791994849 0 -0.024578434959552215 0 0.0012189095921891393
leaf_count=258 50 214 777 1238 64 421 145 68
internal_value=0 0.0807245 -0.130267 0.143789 -0.0279308 -0.0611183 -0.0730315 0
internal_count=3235 2200 1035 1452 748 630 566 118
cat_boundaries=0 9 13 15 20 33
cat_threshold=2166200371 50373656 10240 0 64 4194304 65536 0 16 2219483376 2113544 8388624 2576 5279760 524353 8519680 134236160 1082261536 2097184 16777224 310509568 67108864 131072 0 0 0 0 0 0 0 0 0 1073741888
shrinkage=0.3


Tree=63
num_leaves=7
num_cat=2
split_feature=4 4 3 0 3 0
split_gain=6.73924 1.49937 0.629394 0.1727 0.0522371 0.0416677
threshold=0 1 18405.000000000004 39.500000000000007 755.00000000000011 26.500000000000004
decision_type=5 5 2 2 2 2
left_child=-1 4 3 -3 -2 -6
right_child=1 2 -4 -5 5 -7
leaf_value=-0.035148722927550627 0 0.046150628478668375 -0 0 -0.0075142890110693125 0
leaf_count=886 108 1611 49 118 413 50
internal_value=0 0.105142 0.13407 0.148207 -0 -0.0184127
internal_count=3235 2349 1778 1729 571 463
cat_boundaries=0 9 19
cat_threshold=2152779817 21507080 813705344 541098000 32770 0 1073741824 4096 16 16842882 672399632 131360 2118432 16777305 0 0 0 0 268435456
shrinkage=0.3


Tree=64
num_leaves=8
num_cat=4
split_feature=4 2 4 4 6 6 6
split_gain=8.30851 4.25799 2.29551 0.44105 0.324214 0.0754451 0.0192868
threshold=0 1 2 3 4505.5000000000009 4385.5000000000009 4217.5000000000009
decision_type=5 5 5 5 2 2 2
left_child=-1 3 6 -2 -4 -5 -3
right_child=1 2 4 5 -6 -7 -8
leaf_value=-0.053303103715111003 0 -0.0037491203092778688 0.05631983017382973 -0.022821259896589677 -0 0 0
leaf_count=873 126 132 1340 552 57 67 88
internal_value=0 0.0742582 0.143086 -0.0433565 0.176184 -0.0678407 -0.00274393
internal_count=3235 2362 1617 745 1397 619 220
cat_boundaries=0 10 17 22 35
cat_threshold=18743445 692322329 805316768 53808 256 0 0 0 0 268435472 277925920 1610760328 1310992 2560 0 16 4 2151677960 34605058 1073872896 0 16777312 4104 1026 131072 0 64 0 65536 0 0 0 0 0 1073741888
shrinkage=0.3


Tree=65
num_leaves=6
num_cat=2
split_feature=2 2 0 0 0
split_gain=4.44547 0.55554 0.15846 0.0486791 0.00345892
threshold=0 1 18.500000000000004 1.0000000180025095e-35 1.0000000180025095e-35
decision_type=5 5 2 2 2
left_child=3 4 -3 -1 -2
right_child=1 2 -4 -5 -6
leaf_value=-0 0 0.026601539596607816 0 -0.039415784040236157 -0.0014785081215425192
leaf_count=421 100 1362 231 894 227
internal_value=0 0.0590408 0.0775604 -0.117093 -0
internal_count=3235 1920 1593 1315 327
cat_boundaries=0 7 14
cat_threshold=743512120 1092616320 1321236 564 0 20 5 2148139200 540672 142606336 67109120 32 0 2
shrinkage=0.3


Tree=66
num_leaves=13
num_cat=2
split_feature=2 6 3 6 2 6 0 3 0 3 3 3
split_gain=2.64026 1.01566 1.20878 0.975097 0.892641 0.266588 0.153631 0.153116 0.117747 0.102211 0.0260327 0.000656463
threshold=0 3519.5000000000005 1215.0000000000002 3378.0000000000005 1 2902.5000000000005 38.500000000000007 1215.0000000000002 1.0000000180025095e-35 11905.000000000002 2285.0000000000005 605.00000000000011
decision_type=5 2 2 2 5 2 2 2 2 2 2 2
left_child=3 5 11 -1 -4 9 7 -7 -9 10 -2 -3
right_child=1 2 4 -5 -6 6 -8 8 -10 -11 -12 -13
leaf_value=0 -0 0 -0 -0.041192145494787051 0.040675528662504165 0 0 0 -0.020068626421619568 -0 0.0093063774747651727 -0.00065755062922929954
leaf_count=250 97 250 134 566 867 106 55 49 278 53 202 328
internal_value=0 0.0427632 0.0831814 -0.0982038 0.118035 -0 -0.0382473 -0.0494188 -0.0597299 0.00911708 0.0270954 -0
internal_count=3235 2419 1579 816 1001 840 488 433 327 352 299 578
cat_boundaries=0 7 11
cat_threshold=738343040 571015178 1057040 16777732 32 20 5 16 2097344 32 67108864
shrinkage=0.3


Tree=67
num_leaves=7
num_cat=0
split_feature=6 1 6 0 6 6
split_gain=1.13764 0.617463 0.381973 0.244224 0.201487 0.111373
threshold=3625.0000000000005 3.5000000000000004 4560.5000000000009 94.500000000000014 3949.5000000000005 3971.5000000000005
decision_type=2 2 2 2 2 2
left_child=3 2 4 -1 -2 -3
right_child=1 5 -4 -5 -6 -7
leaf_value=0.013406559166574834 0 -0.0037828861735173872 0 -0 -0.032300648946478702 0.0069933398948027877
leaf_count=1211 223 360 49 54 990 348
internal_value=0 -0.0560707 -0.0864839 0.0324386 -0.09821 0
internal_count=3235 1970 1262 1265 1213 708
shrinkage=0.3


Tree=68
num_leaves=11
num_cat=0
split_feature=3 5 3 5 5 0 3 1 0 0
split_gain=0.168541 0.573882 0.212623 0.334136 0.13936 0.238595 0.0988415 0.0527228 0.00518494 3.14089e-05
threshold=3605.0000000000005 4.5000000000000009 2635.0000000000005 26.500000000000004 14.500000000000002 39.500000000000007 565.00000000000011 75.500000000000014 2.5000000000000004 8.5000000000000018
decision_type=2 2 2 2 2 2 2 2 2 2
left_child=1 6 3 8 5 -2 -1 -6 -3 -4
right_child=4 2 9 -5 7 -7 -8 -9 -10 -11
leaf_value=0 0.012929225679607024 0 0 -0 -0.0056631048080195631 -0 -0.018952076669993306 0 0.01891034440351471 -0.00014748074886498569
leaf_count=317 614 95 70 69 221 51 1398 103 200 97
internal_value=0 -0.0243087 0.00128557 0.0374535 0.00143978 0.0257043 -0.0562054 -0 0.0610463 -0
internal_count=3235 2246 531 364 989 665 1715 324 295 167
shrinkage=0.3


Tree=69
num_leaves=7
num_cat=3
split_feature=4 2 4 3 3 3
split_gain=6.45569 3.21265 2.74719 0.287262 0.218542 0.083597
threshold=0 1 2 5945.0000000000009 555.00000000000011 4665.0000000000009
decision_type=5 5 5 2 2 2
left_child=-1 3 5 4 -2 -3
right_child=1 2 -4 -5 -6 -7
leaf_value=-0.04659994464725583 0 -0.008575920612234748 0.050471446870006258 0 -0.020796769670094598 0
leaf_count=798 60 258 1449 112 492 66
internal_value=0 0.0661221 0.125739 -0.0360932 -0.0576388 -0.0129174
internal_count=3235 2437 1773 664 552 324
cat_boundaries=0 10 17 22
cat_threshold=2466255017 621021440 8399104 20975872 32839 4194304 0 0 0 268435456 85672128 1661009986 1312784 67108880 0 0 4 8519680 170951192 131072 2097184 264
shrinkage=0.3


Tree=70
num_leaves=8
num_cat=1
split_feature=2 6 6 3 3 1 1
split_gain=2.51373 0.886229 0.268925 0.156314 0.120045 0.132875 0.0319891
threshold=0 4462.5000000000009 4495.5000000000009 17345.000000000004 595.00000000000011 74.500000000000014 1.0000000180025095e-35
decision_type=5 2 2 2 2 2 2
left_child=2 4 3 6 -2 -6 -1
right_child=1 -3 -4 -5 5 -7 -8
leaf_value=0 0 0 -0 -0 -0.032458396447796689 0 0.022097217773663042
leaf_count=243 134 157 77 50 1598 84 892
internal_value=0 -0.0788793 0.051674 0.0643024 -0.0998366 -0.103722 0.0704743
internal_count=3235 1973 1262 1185 1816 1682 1135
cat_boundaries=0 7
cat_threshold=2206847648 18939914 433 33 0 0 3
shrinkage=0.3


Tree=71
num_leaves=10
num_cat=3
split_feature=2 6 6 0 6 2 6 3 2
split_gain=2.61088 1.42624 0.97123 0.515469 0.304495 0.155254 0.155715 0.0772699 0.0446623
threshold=0 4335.5000000000009 2253.5000000000005 2.5000000000000004 4495.5000000000009 1 2933.5000000000005 1345.0000000000002 2
decision_type=5 2 2 2 2 5 2 2 5
left_child=3 2 -2 4 8 6 -5 -3 -1
right_child=1 7 -4 5 -6 -7 -8 -9 -10
leaf_value=-0 0 -0 -0.039133364409339261 0 -0 0.0060321157262229327 -0.012215357273473735 0.007297827984751779 0.03036277331086187
leaf_count=117 116 218 1485 97 58 213 330 130 471
internal_value=0 -0.0777604 -0.11104 0.0562242 0.0892377 -0 -0.0229615 0.00132533 0.100083
internal_count=3235 1949 1601 1286 646 640 427 348 588
cat_boundaries=0 7 11 15
cat_threshold=420632736 1073808618 288 67108880 0 0 6 1200288 96 0 67108864 151001088 2 256 16
shrinkage=0.3


Tree=72
num_leaves=9
num_cat=5
split_feature=4 2 5 6 4 6 2 2
split_gain=6.39441 2.36555 1.28139 0.925218 0.507627 0.211249 0.193598 0.0400112
threshold=0 1 18.500000000000004 2958.5000000000005 2 3378.0000000000005 3 4
decision_type=5 5 2 2 5 2 5 5
left_child=2 5 6 -3 -5 -2 -1 -7
right_child=1 3 -4 4 -6 7 -8 -9
leaf_value=-0 0.012495838670930364 0 -0 0 -0.050469024302288883 0 0.050298133878079104 -0.0050092877154241681
leaf_count=112 185 265 126 110 1303 266 669 199
internal_value=0 -0.0822841 0.131652 -0.13233 -0.161187 0.0132776 0.163 -0
internal_count=3235 2328 907 1678 1413 650 781 465
cat_boundaries=0 13 17 21 23 26
cat_threshold=310968336 570453515 1073741952 16384 33292 0 65536 0 0 0 0 0 1073741888 134316760 1612710056 134226225 16 2151677952 6291456 32 512 68169728 32 33304 1612709920 8192
shrinkage=0.3


Tree=73
num_leaves=7
num_cat=4
split_feature=4 2 4 2 3 3
split_gain=5.54452 2.1432 1.29579 1.12886 0.00568631 0.030518
threshold=0 1 2 3 4405.0000000000009 905.00000000000011
decision_type=5 5 5 5 2 2
left_child=3 -2 4 -1 5 -3
right_child=1 2 -4 -5 -6 -7
leaf_value=0 -0.0098564824895468698 0 0.037938217676911669 -0.052063060822016151 0 -0.0049626493806800799
leaf_count=110 366 65 1730 712 84 168
internal_value=0 0.0579614 0.100272 -0.147267 -0 -0.00645442
internal_count=3235 2413 2047 822 317 233
cat_boundaries=0 6 10 20 21
cat_threshold=286300289 219153425 813828128 807452720 32836 4194304 104861824 1124089890 9437216 560 2147483650 35700992 8192 0 258 1073741824 65536 0 0 268435456 88117888
shrinkage=0.3


Tree=74
num_leaves=10
num_cat=0
split_feature=6 0 6 1 6 5 1 0 1
split_gain=0.757212 1.05913 1.27006 1.01344 0.427266 0.214396 0.0210289 0.054018 0.000119365
threshold=4335.5000000000009 1.0000000180025095e-35 2723.5000000000005 66.500000000000014 4028.5000000000005 1.5000000000000002 43.500000000000007 5.5000000000000009 1.0000000180025095e-35
decision_type=2 2 2 2 2 2 2 2 2
left_child=1 4 6 -4 5 -1 7 -3 -6
right_child=-2 2 3 -5 8 -7 -8 -9 -10
leaf_value=0.021018360576397117 0.013868024965439728 -0 -0.035996660265519335 0 -0.00028995976373184194 -0 -0 0.0068941252188002159 0
leaf_count=247 632 55 1508 96 220 119 115 153 90
internal_value=0 -0.032798 -0.0667493 -0.0997867 0.0172581 0.0555752 0 0.0118597 -0
internal_count=3235 2603 1927 1604 676 366 323 208 310
shrinkage=0.3


Tree=75
num_leaves=6
num_cat=4
split_feature=4 2 2 1 4
split_gain=4.22123 3.62412 0.961382 0.514353 0.207441
threshold=0 1 2 41.500000000000007 3
decision_type=5 5 5 2 5
left_child=2 4 -1 -4 -2
right_child=1 -3 3 -5 -6
leaf_value=-0 -0 -0.041062279792500746 0.043907228995423798 -0 0.017152227898169212
leaf_count=104 105 1659 761 57 549
internal_value=0 -0.0685669 0.10633 0.129042 0.0433735
internal_count=3235 2313 922 818 654
cat_boundaries=0 13 20 22 27
cat_threshold=13144108 203449858 1073742112 272646144 32808 1077936128 65536 0 0 0 0 0 1073741888 29905560 33571008 10512 48 32 0 4 209801216 192 262146 16777216 0 0 64
shrinkage=0.3


Tree=76
num_leaves=6
num_cat=1
split_feature=4 6 0 6 6
split_gain=7.55876 1.01458 0.679104 0.511208 0.162263
threshold=0 2902.5000000000005 46.500000000000007 4456.5000000000009 4459.5000000000009
decision_type=5 2 2 2 2
left_child=2 -2 4 -3 -1
right_child=1 3 -4 -5 -6
leaf_value=0.044910359235028292 0 -0.044491443575831492 -0 0 0
leaf_count=908 327 1665 54 186 95
internal_value=0 -0.108818 0.126568 -0.137215 0.144687
internal_count=3235 2178 1057 1851 1003
cat_boundaries=0 13
cat_threshold=2152108056 235179272 139424 512 16810008 1073741824 0 0 0 268435456 0 0 1073741888
shrinkage=0.3


Tree=77
num_leaves=9
num_cat=0
split_feature=0 6 1 1 6 6 1 6
split_gain=0.934009 1.49266 0.339491 0.333001 0.586357 0.144063 0.14506 0.107738
threshold=8.5000000000000018 4040.5000000000005 24.500000000000004 74.500000000000014 3971.5000000000005 4566.5000000000009 5.5000000000000009 1896.0000000000002
decision_type=2 2 2 2 2 2 2 2
left_child=1 2 -1 4 7 6 -3 -2
right_child=3 5 -4 -5 -6 -7 -8 -9
leaf_value=0.032054425987442972 0 -0.012454553909382883 -0 0 0 0 0 -0.0248769421914962
leaf_count=1124 56 967 52 147 140 55 115 579
internal_value=0 0.048754 0.097934 -0.0312531 -0.0518811 -0.00834127 -0.0289166 -0.077426
internal_count=3235 2313 1176 922 775 1137 1082 635
shrinkage=0.3


Tree=78
num_leaves=9
num_cat=5
split_feature=4 2 2 4 0 1 0 2
split_gain=5.71745 1.79019 1.14121 0.968053 0.648884 0.0674334 0.0593397 0.0481177
threshold=0 1 2 3 56.500000000000007 29.500000000000004 1.0000000180025095e-35 4
decision_type=5 5 5 5 2 2 2 5
left_child=2 5 -1 6 -5 7 -3 -2
right_child=1 3 -4 4 -6 -7 -8 -9
leaf_value=0 0 0 -0.048586410290792706 0.042334509991764593 -0 0 -0.0063922524378905088 -0.010553736270843581
leaf_count=100 109 99 936 1496 68 70 110 247
internal_value=0 0.0629722 -0.139237 0.103345 0.12474 -0.0197374 -0 -0.030452
internal_count=3235 2199 1036 1773 1564 426 209 356
cat_boundaries=0 9 16 18 23 26
cat_threshold=51677221 755238155 536872960 538968608 32770 0 65536 4096 16 137928 1073758402 143925505 0 32 0 4 83902464 524354 16512 34605056 1082130432 4194304 324 128 16450 8388608
shrinkage=0.3


Tree=79
num_leaves=10
num_cat=2
split_feature=4 5 3 4 3 3 0 0 0
split_gain=4.05942 1.28661 0.73242 0.384653 0.346528 0.313283 0.0533948 0.000126646 0.00197169
threshold=0 16.500000000000004 7015.0000000000009 1 7145.0000000000009 535.00000000000011 37.500000000000007 3.5000000000000004 23.500000000000004
decision_type=5 2 2 5 2 2 2 2 2
left_child=1 4 3 -2 5 -1 -5 -4 -9
right_child=2 -3 7 6 -6 -7 -8 8 -10
leaf_value=-0 0 -0 -0 -0.036778632180880379 -0 0.043452009342025283 -0 0.0011646146893621999 -0
leaf_count=79 252 131 53 1549 58 779 79 119 136
internal_value=0 0.0903729 -0.0825326 -0.105859 0.127035 0.136354 -0.115129 0 0.000894436
internal_count=3235 1047 2188 1880 916 858 1628 308 255
cat_boundaries=0 13 18
cat_threshold=306483222 537700632 1073881120 20992000 16777224 4194304 0 0 0 0 0 0 1073741888 2147614729 0 0 268435968 260
shrinkage=0.3


Tree=80
num_leaves=4
num_cat=1
split_feature=4 5 1
split_gain=5.06608 0.473451 0.264253
threshold=0 13.500000000000002 114.50000000000001
decision_type=5 2 2
left_child=1 -1 -2
right_child=2 -3 -4
leaf_value=0.037636527784532268 -0.028402665223262655 -0 0
leaf_count=901 2140 143 51
internal_value=0 0.106813 -0.0857951
internal_count=3235 1044 2191
cat_boundaries=0 13
cat_threshold=268812296 610288649 33554464 273175040 268 1077936128 0 4096 0 0 0 0 1073741888
shrinkage=0.3


Tree=81
num_leaves=4
num_cat=1
split_feature=2 5 5
split_gain=2.17517 0.159328 0.13652
threshold=0 60.500000000000007 14.500000000000002
decision_type=5 2 2
left_child=2 -2 -1
right_child=1 -3 -4
leaf_value=0.02255325745605518 -0.020615673695262914 0 -0
leaf_count=815 2189 79 152
internal_value=0 -0.0619889 0.0643878
internal_count=3235 2268 967
cat_boundaries=0 7
cat_threshold=491264648 572588553 8224 67110929 0 0 3
shrinkage=0.3


Tree=82
num_leaves=8
num_cat=2
split_feature=2 0 2 0 6 3 3
split_gain=1.06827 0.52092 0.377981 0.285913 0.24965 0.139251 0.0294211
threshold=0 38.500000000000007 1 40.500000000000007 4478.5000000000009 8655.0000000000018 1295.0000000000002
decision_type=5 2 5 2 2 2 2
left_child=3 2 -2 -1 5 6 -4
right_child=1 -3 4 -5 -6 -7 -8
leaf_value=0.021632484738081725 0 0.0016250655816924813 -0 -0 0 0 -0.027372482671843067
leaf_count=1319 435 124 355 116 95 60 731
internal_value=0 -0.0222646 -0.0509346 0.0595942 -0.0674578 -0.0794772 -0.0854751
internal_count=3235 1800 1676 1435 1241 1146 1086
cat_boundaries=0 4 11
cat_threshold=257012264 538968611 8449 67108864 131216 33570888 2080 6144 0 0 4
shrinkage=0.3


Tree=83
num_leaves=5
num_cat=1
split_feature=2 0 0 5
split_gain=3.36012 0.648954 0.395726 0.148626
threshold=0 1.0000000180025095e-35 92.000000000000014 26.500000000000004
decision_type=5 2 2 2
left_child=1 -1 3 -2
right_child=2 -3 -4 -5
leaf_value=0 0.027720536619333484 -0.032244734819496197 -0 -0
leaf_count=436 1668 931 52 148
internal_value=0 -0.082406 0.0747994 0.086887
internal_count=3235 1367 1868 1816
cat_boundaries=0 6
cat_threshold=2992312496 16417 1056789 788 32 20
shrinkage=0.3


Tree=84
num_leaves=7
num_cat=2
split_feature=2 1 3 2 0 1
split_gain=3.19148 0.99793 0.229391 0.259094 0.126863 0.0576826
threshold=0 1.0000000180025095e-35 555.00000000000011 1 20.500000000000004 1.0000000180025095e-35
decision_type=5 2 2 5 2 2
left_child=1 -1 -2 -4 5 -5
right_child=2 -3 3 4 -6 -7
leaf_value=-0 0 0.034691668976910714 0 -0 -0 -0.029976122864970599
leaf_count=251 208 972 253 280 229 1042
internal_value=0 0.0872474 -0.0667275 -0.0766841 -0.0846114 -0.0956963
internal_count=3235 1223 2012 1804 1551 1322
cat_boundaries=0 4 8
cat_threshold=517524112 1091125312 305 67108897 12352 128 134488064 2048
shrinkage=0.3


Tree=85
num_leaves=10
num_cat=2
split_feature=4 4 5 1 6 5 1 6 5
split_gain=5.82208 1.20111 1.20025 0.280038 0.180282 0.0760626 0.0608614 0.00274871 9.78977e-08
threshold=0 1 12.500000000000002 63.500000000000007 4523.5000000000009 7.5000000000000009 1.5000000000000002 2318.0000000000005 14.500000000000002
decision_type=5 5 2 2 2 2 2 2 2
left_child=3 5 -3 4 -1 6 -2 -4 -7
right_child=1 2 7 -5 -6 8 -8 -9 -10
leaf_value=-0.047031285036410249 0 0.041033272078916508 0 0 0 8.3176511898204555e-06 -0.0093906777765683045 -0.0012834945740250864 -0
leaf_count=721 182 1500 84 54 49 55 201 319 70
internal_value=0 0.0746091 0.103949 -0.137152 -0.151972 -0 -0.0223854 -0 0
internal_count=3235 2411 1903 824 770 508 383 403 125
cat_boundaries=0 10 16
cat_threshold=2181056525 559973642 822085888 33280 50331682 1073741824 1073741824 4096 0 268435456 26218656 169345040 8388736 543690784 68 4194304
shrinkage=0.3


Tree=86
num_leaves=6
num_cat=2
split_feature=4 1 3 1 4
split_gain=4.3327 0.743495 0.578536 0.565653 0.187089
threshold=0 88.500000000000014 715.00000000000011 41.500000000000007 1
decision_type=5 2 2 2 5
left_child=3 2 -2 4 -1
right_child=1 -3 -4 -5 -6
leaf_value=-0 0 0 -0.044643730034640797 -0 0.025233000003031966
leaf_count=239 349 75 1851 65 656
internal_value=0 -0.119917 -0.135751 0.0540646 0.0770682
internal_count=3235 2275 2200 960 895
cat_boundaries=0 13 17
cat_threshold=13026438 606914304 256 20992 32780 4194304 0 0 0 268435456 0 0 1073741824 4325378 2621952 0 512
shrinkage=0.3


Tree=87
num_leaves=14
num_cat=0
split_feature=1 5 3 5 3 6 5 5 3 3 3 6 5
split_gain=0.770686 0.752124 0.252311 0.28723 0.278088 0.267712 0.110795 0.0561191 0.0306205 0.028042 0.0116326 0.00725804 0.00725468
threshold=12.500000000000002 13.500000000000002 2035.0000000000002 4.5000000000000009 2935.0000000000005 4556.5000000000009 1.0000000180025095e-35 24.500000000000004 6025.0000000000009 11165.000000000002 8375.0000000000018 2810.5000000000005 1.5000000000000002
decision_type=2 2 2 2 2 2 2 2 2 2 2 2 2
left_child=2 -2 3 5 12 -1 -6 11 -9 -10 -8 -3 -4
right_child=1 7 4 -5 6 -7 10 8 9 -11 -12 -13 -14
leaf_value=-0.024494304508357177 0.023759421709985507 0 0.010723114184045583 0 0 0 -0.011364853391666877 -0 0.006443809142107966 -0 0 -0.0066067797233329544 0
leaf_count=1184 396 49 215 144 202 51 378 167 65 76 53 117 138
internal_value=0 0.0382615 -0.0382036 -0.0584183 0 -0.071481 -0.0242798 -0 0 0.0149406 -0.0360115 -0.0201783 0.0334625
internal_count=3235 870 2365 1379 986 1235 633 474 308 141 431 166 353
shrinkage=0.3


Tree=88
num_leaves=7
num_cat=3
split_feature=4 4 0 6 0 4
split_gain=4.47877 1.67976 0.71249 0.590047 0.17112 0.128219
threshold=0 1 26.500000000000004 4520.5000000000009 1.0000000180025095e-35 2
decision_type=5 5 2 2 2 5
left_child=2 4 -1 -3 -2 -6
right_child=1 3 -4 -5 5 -7
leaf_value=-0.03872885220416885 0 0.03991984624011382 0 -0 0 -0.013120380748250688
leaf_count=773 207 1699 84 64 128 280
internal_value=0 0.0801237 -0.105327 0.118808 -0 -0.0324838
internal_count=3235 2378 857 1763 615 408
cat_boundaries=0 9 19 29
cat_threshold=58769451 153109778 268437760 17152 16809984 1073741824 65536 0 16 5505044 72876032 1619001472 543167536 86 1 0 0 0 268435456 0 67108864 128 4198400 64 0 0 0 0 268435456
shrinkage=0.3


Tree=89
num_leaves=7
num_cat=5
split_feature=4 2 2 4 4 3
split_gain=3.17334 3.81725 0.977313 0.754626 0.635584 0.00530959
threshold=0 1 2 3 4 1805.0000000000002
decision_type=5 5 5 5 5 2
left_child=2 3 5 -2 -3 -1
right_child=1 4 -4 -5 -6 -7
leaf_value=-0 0.0027586700690370777 -0 -0.033852117821099571 -0.020377191444962486 0.049241937658029832 0.0018888634144845584
leaf_count=95 234 127 609 748 1294 128
internal_value=0 0.0761155 -0.0786323 -0.026419 0.150001 0
internal_count=3235 2403 832 982 1421 223
cat_boundaries=0 10 16 18 31 34
cat_threshold=25428123 84180993 293742592 537428000 16810048 0 65536 0 16 16 2153296040 1610613291 1048576 2048 0 16 72393352 524321 273219616 4194314 1073741856 512 0 0 0 0 0 0 0 0 1073741888 81920 524306 1073741856
shrinkage=0.3


Tree=90
num_leaves=7
num_cat=2
split_feature=2 0 5 5 2 5
split_gain=1.9847 0.251619 0.443647 0.209058 0.152781 0.196228
threshold=0 4.5000000000000009 1.5000000000000002 29.500000000000004 1 1.5000000000000002
decision_type=5 2 2 2 5 2
left_child=-1 4 -3 -4 -2 -6
right_child=1 2 3 -5 5 -7
leaf_value=-0.025246444568792593 -0.0077985887943578707 -0 0.025238450682775332 -0 0.011810354431834563 -0
leaf_count=1251 330 165 460 147 627 255
internal_value=0 0.0316974 0.0530078 0.0734679 -0 0.0155254
internal_count=3235 1984 772 607 1212 882
cat_boundaries=0 6 11
cat_threshold=672662176 589316105 135276849 67111428 0 4 21080136 1073741826 0 16 32
shrinkage=0.3


Tree=91
num_leaves=6
num_cat=2
split_feature=4 1 0 4 5
split_gain=4.65393 0.770687 0.473378 0.532276 0.308244
threshold=0 105.50000000000001 18.500000000000004 1 17.500000000000004
decision_type=5 2 2 5 2
left_child=2 -2 3 -1 -5
right_child=1 -3 -4 4 -6
leaf_value=-0 -0.03488152534146409 0 -0 0.039714224634398089 -0
leaf_count=131 2223 61 117 654 49
internal_value=0 -0.100029 0.0834012 0.102896 0.11718
internal_count=3235 2284 951 834 703
cat_boundaries=0 13 18
cat_threshold=302356660 6602760 1073807616 544768 524 0 65536 0 0 0 0 0 1073741824 33554464 4194304 0 0 4
shrinkage=0.3


Tree=92
num_leaves=5
num_cat=4
split_feature=4 2 4 4
split_gain=4.87273 4.20676 2.1185 0.949851
threshold=0 1 2 3
decision_type=5 5 5 5
left_child=-1 3 -3 -2
right_child=1 2 -4 -5
leaf_value=-0.033900111946107842 0.0024178362492422983 -0 0.054989766230168567 -0.025552944920549332
leaf_count=812 103 314 1454 552
internal_value=0 0.0828087 0.148568 -0.0410791
internal_count=3235 2423 1768 655
cat_boundaries=0 10 17 23 36
cat_threshold=291274773 17099280 1342179328 6310400 16777248 4194304 65536 0 16 16 83892736 570425451 143925648 67110916 0 0 4 42008704 105906184 8192 536870944 33536 1073741824 8 67108872 128 0 0 0 0 0 0 0 0 0 1073741888
shrinkage=0.3


Tree=93
num_leaves=11
num_cat=2
split_feature=2 5 5 6 2 3 3 3 3 3
split_gain=2.79247 0.912988 0.564104 0.534173 0.527883 0.294178 0.0105383 0.022171 0.0034501 0.00251234
threshold=0 22.500000000000004 13.500000000000002 4355.5000000000009 1 555.00000000000011 5805.0000000000009 11700.000000000002 1795.0000000000002 345.00000000000006
decision_type=5 2 2 2 5 2 2 2 2 2
left_child=2 3 -1 4 -2 -6 -3 -8 9 -5
right_child=1 6 -4 8 5 -7 7 -9 -10 -11
leaf_value=0.033554998126756767 0 -0 -0 0 0 -0.037270546193112146 0.0048102032265347266 -0 0.0015516104147299677 -0.0013144551523526819
leaf_count=897 271 146 209 83 64 1171 63 50 93 188
internal_value=0 -0.0533682 0.0893384 -0.0818204 -0.0982694 -0.112152 0 0.00887058 0 -0
internal_count=3235 2129 1106 1870 1506 1235 259 113 364 271
cat_boundaries=0 7 10
cat_threshold=228272264 1646854282 8240 0 0 0 4 301989904 65 2048
shrinkage=0.3


Tree=94
num_leaves=7
num_cat=1
split_feature=4 6 6 6 5 5
split_gain=3.47923 0.73897 0.369636 0.25999 0.248287 0.113425
threshold=0 4456.5000000000009 1896.0000000000002 3303.5000000000005 60.500000000000007 14.500000000000002
decision_type=5 2 2 2 2 2
left_child=3 2 -2 -1 -4 -5
right_child=1 -3 4 5 -6 -7
leaf_value=-0 0 0 -0.039620659653195327 0.022960232115960891 0 -0
leaf_count=248 81 192 1976 622 57 59
internal_value=0 -0.103597 -0.120253 0.0526535 -0.127699 0.0711452
internal_count=3235 2306 2114 929 2033 681
cat_boundaries=0 13
cat_threshold=2160433154 73402384 8320 20992 33129 1073741824 0 0 0 268435456 0 0 1073741888
shrinkage=0.3


Tree=95
num_leaves=8
num_cat=2
split_feature=4 6 4 5 6 0 5
split_gain=4.59763 0.874834 0.642741 0.341326 0.0429634 0.00422589 0.0581353
threshold=0 2902.5000000000005 1 48.000000000000007 4533.0000000000009 8.5000000000000018 4.5000000000000009
decision_type=5 2 5 2 2 2 2
left_child=3 5 -3 -1 -4 6 -2
right_child=1 2 4 -5 -6 -7 -8
leaf_value=0.037124114151068061 -0 0 -0.03630606030771575 -0 -0 -0 0.0066195224597307492
leaf_count=973 60 245 1612 50 55 174 66
internal_value=0 -0.0716795 -0.0986037 0.111326 -0.114041 0 0.00559907
internal_count=3235 2212 1912 1023 1667 300 126
cat_boundaries=0 13 18
cat_threshold=38715426 33556225 1073750400 16781312 32792 1073741824 65536 4096 0 0 0 0 1073741888 2147487744 8210 0 0 69
shrinkage=0.3


Tree=96
num_leaves=9
num_cat=2
split_feature=2 6 6 6 2 0 6 6
split_gain=4.02431 1.14542 0.432264 0.500926 0.542316 0.304797 0.244767 0.00976164
threshold=0 4447.5000000000009 4505.5000000000009 3173.0000000000005 1 40.500000000000007 2206.0000000000005 2958.5000000000005
decision_type=5 2 2 2 5 2 2 2
left_child=1 6 3 7 -5 -6 -1 -2
right_child=2 -3 -4 4 5 -7 -8 -9
leaf_value=0 0.0017451447223267283 0 -0 -0 0.040405387632610305 -0 -0.039056531321686058 -0.0017314103463376051
leaf_count=60 304 118 101 106 1277 60 1095 114
internal_value=0 -0.0940367 0.079845 0.0925054 0.112547 0.121911 -0.12323 0
internal_count=3235 1273 1962 1861 1443 1337 1155 418
cat_boundaries=0 7 10
cat_threshold=978938520 2621576 143917316 4644 0 4 4 8392768 0 8209
shrinkage=0.3


Tree=97
num_leaves=8
num_cat=2
split_feature=4 3 3 4 3 3 3
split_gain=4.10558 0.812559 0.726693 0.323326 0.313114 0.0321474 0.000546633
threshold=0 5805.0000000000009 555.00000000000011 1 8500.0000000000018 7455.0000000000009 12975.000000000002
decision_type=5 2 2 5 2 2 2
left_child=4 2 -2 -4 -1 -3 -7
right_child=1 5 3 -5 -6 6 -8
leaf_value=0.034956640171528518 0 0.0046934125374824918 0 -0.037170461949706704 -0 -0.0005837295920144616 0
leaf_count=919 179 108 120 1546 70 193 100
internal_value=0 -0.074203 -0.102233 -0.119038 0.102457 0 -0
internal_count=3235 2246 1845 1666 989 401 293
cat_boundaries=0 13 18
cat_threshold=268501182 738476041 1073873184 16896 16810249 0 0 4096 0 268435456 0 0 1073741888 33685504 2097168 0 0 32
shrinkage=0.3


Tree=98
num_leaves=4
num_cat=3
split_feature=2 4 4
split_gain=2.97391 2.8036 2.46752
threshold=0 1 2
decision_type=5 5 5
left_child=2 -2 -1
right_child=1 -3 -4
leaf_value=0.0059912626096524126 -0.011605524439261066 0.035933211925999367 -0.042890156874741604
leaf_count=316 473 1433 1013
internal_value=0 0.0630116 -0.0862456
internal_count=3235 1906 1329
cat_boundaries=0 7 12 25
cat_threshold=604146360 2179210 143917477 532 0 4 6 331712524 17039360 1073881120 6307840 33024 34347016 553649152 8527872 0 320 0 0 4096 0 0 0 0 1073741824
shrinkage=0.3


Tree=99
num_leaves=12
num_cat=0
split_feature=3 6 3 0 6 6 6 6 6 3 6
split_gain=0.274906 0.637153 0.979895 0.704977 0.329701 0.154211 0.0833391 0.0584162 0.0196232 0.0137361 0.00118377
threshold=4625.0000000000009 4335.5000000000009 1375.0000000000002 1.0000000180025095e-35 3105.5000000000005 4505.5000000000009 2810.5000000000005 4229.5000000000009 4013.5000000000005 505.00000000000006 4560.5000000000009
decision_type=2 2 2 2 2 2 2 2 2 2 2
left_child=1 2 8 -4 6 9 -2 -6 -1 -3 -7
right_child=4 5 3 -5 7 10 -8 -9 -10 -11 -12
leaf_value=0.0034416185866821222 0 -0 0 -0.032769962964995097 0.017495214953596031 -0.00091873798104905252 -0.0076184783379875639 -0 -0 0.011224379076910368 0
leaf_count=424 185 110 276 945 390 111 74 69 283 304 64
internal_value=0 -0.0175393 -0.0516278 -0.0872391 0.0289902 0.0133555 -0 0.0535877 0 0.035004 -0
internal_count=3235 2517 1928 1221 718 589 259 459 707 414 175
shrinkage=0.3


Tree=100
num_leaves=8
num_cat=2
split_feature=4 5 4 5 6 5 5
split_gain=4.8769 0.561067 1.00994 0.0814012 0.010873 0.00018456 0.00747961
threshold=0 14.500000000000002 1 32.500000000000007 4335.5000000000009 21.500000000000004 78.500000000000014
decision_type=5 2 5 2 2 2 2
left_child=3 2 -2 4 -1 -3 -7
right_child=1 5 -4 -5 -6 6 -8
leaf_value=-0.03046824285567468 -0 -0 0.042048512098584706 0 -0 0.002136383336480259 -0
leaf_count=591 217 101 1769 54 161 287 55
internal_value=0 0.104097 0.123875 -0.0890106 -0.0975096 0 0.00108403
internal_count=3235 2429 1986 806 752 443 342
cat_boundaries=0 13 21
cat_threshold=51445889 589350920 1887570208 538968352 32836 0 0 0 16 268435456 0 0 64 8390660 135266304 0 4194816 0 1073741825 0 4096
shrinkage=0.3


Tree=101
num_leaves=9
num_cat=2
split_feature=4 3 3 3 4 0 0 0
split_gain=3.41407 0.655379 0.286879 0.175581 0.161451 0.159296 0.0856115 0.0032114
threshold=0 9565.0000000000018 315.00000000000006 535.00000000000011 1 1.0000000180025095e-35 47.500000000000007 35.500000000000007
decision_type=5 2 2 2 5 2 2 2
left_child=3 2 -2 -1 -4 -6 -7 -3
right_child=1 7 4 -5 5 6 -8 -9
leaf_value=-0 0 0.0014641282363936925 0 0.032181981460527767 -0 -0.03320367814027135 0 -0
leaf_count=82 66 104 109 923 605 1210 69 67
internal_value=0 -0.0606405 -0.0817328 0.0976604 -0.0889258 -0.0924549 -0.107319 0
internal_count=3235 2230 2059 1005 1993 1884 1279 171
cat_boundaries=0 13 17
cat_threshold=268605620 203467273 1073873024 16777984 268 1077936128 0 4096 0 268435456 0 0 1073741824 2147500032 570425344 0 268959744
shrinkage=0.3


Tree=102
num_leaves=7
num_cat=2
split_feature=4 4 1 3 3 3
split_gain=3.1387 0.864395 0.775235 0.258982 0.00224984 0.00639059
threshold=0 1 2.5000000000000004 435.00000000000006 595.00000000000011 2345.0000000000005
decision_type=5 5 2 2 2 2
left_child=3 4 -3 -1 -2 -6
right_child=1 2 -4 -5 5 -7
leaf_value=0 0 -0 0.035274383907951519 -0.031054543559060892 -0.0024344643737195452 0
leaf_count=70 65 664 1106 817 228 285
internal_value=0 0.0646293 0.0906194 -0.0909566 -0 -0.00366569
internal_count=3235 2348 1770 887 578 513
cat_boundaries=0 8 17
cat_threshold=2433187849 84934657 1358964896 49696 33554436 0 0 4096 4210690 675382552 545259776 538969088 16777218 0 0 0 16
shrinkage=0.3


Tree=103
num_leaves=9
num_cat=5
split_feature=4 2 4 4 6 2 6 0
split_gain=3.11922 2.2276 1.055 0.669564 0.648008 0.624267 0.334897 0.12627
threshold=0 1 2 3 4495.5000000000009 4 4478.5000000000009 1.0000000180025095e-35
decision_type=5 5 5 5 2 5 2 2
left_child=5 3 -3 -2 -4 -1 -7 -5
right_child=1 2 4 7 -6 6 -8 -9
leaf_value=0 0.0035083807571287392 -0 0.04416476382478661 0 -0 -0.04093412907231446 0 -0.02224276834389536
leaf_count=119 100 103 1318 199 59 734 100 503
internal_value=0 0.0578988 0.110744 -0.0200758 0.131297 -0.0994077 -0.11967 -0.0623617
internal_count=3235 2282 1480 802 1377 953 834 702
cat_boundaries=0 9 15 19 32 34
cat_threshold=2442592259 19925011 1073752096 805322768 33554752 0 65536 0 16 2222981368 1074282657 135268624 2048 0 20 540800 16384 8388736 32 526336 1024 128 512 0 0 0 0 0 0 0 0 1073741824 1081472 1
shrinkage=0.3


Tree=104
num_leaves=9
num_cat=2
split_feature=4 6 5 6 1 1 4 6
split_gain=3.02108 0.921787 0.59187 0.526962 0.356388 0.351858 0.0943513 0.00296404
threshold=0 2723.5000000000005 18.500000000000004 4355.5000000000009 70.500000000000014 1.0000000180025095e-35 1 1556.0000000000002
decision_type=5 2 2 2 2 2 5 2
left_child=2 7 5 4 6 -1 -3 -2
right_child=1 3 -4 -5 -6 -7 -8 -9
leaf_value=-0 -0 0 -0 0 0 0.0306418581468537 -0.039789977585575002 0.0013660042143846746
leaf_count=204 49 108 123 420 64 598 1475 194
internal_value=0 -0.0800775 0.0669651 -0.105226 -0.12231 0.0900312 -0.130393 0
internal_count=3235 2310 925 2067 1647 802 1583 243
cat_boundaries=0 13 18
cat_threshold=34376720 2384899 8320 20972032 16778008 1073741824 65536 4096 0 0 0 0 1073741888 8388608 20971520 32 0 32772
shrinkage=0.3


Tree=105
num_leaves=4
num_cat=2
split_feature=4 0 4
split_gain=3.88296 0.0317755 0.0025504
threshold=0 45.500000000000007 1
decision_type=5 2 5
left_child=1 -1 -2
right_child=2 -3 -4
leaf_value=0.026741246976552207 -0.031004120463272482 0 -0
leaf_count=924 882 50 1379
internal_value=0 0.0829878 -0.0858552
internal_count=3235 974 2261
cat_boundaries=0 13 23
cat_threshold=2458044456 237267202 1073750144 16384 33548 0 0 0 0 0 0 0 1073741888 4460695 16811032 268566528 530432 32 1077936128 65536 4096 0 268435456
shrinkage=0.3


Tree=106
num_leaves=5
num_cat=1
split_feature=4 3 3 5
split_gain=5.87275 0.840691 0.485896 0.0195251
threshold=0 12975.000000000002 12975.000000000002 50.500000000000007
decision_type=5 2 2 2
left_child=1 -1 3 -2
right_child=2 -3 -4 -5
leaf_value=0.033438842329466846 -0.040001158665800861 -0 0 -0
leaf_count=904 2111 62 74 84
internal_value=0 0.0866367 -0.118621 -0.131542
internal_count=3235 966 2269 2195
cat_boundaries=0 13
cat_threshold=2185298106 134252291 32 272650244 16810505 1073741824 65536 4096 0 0 0 0 1073741824
shrinkage=0.3


Tree=107
num_leaves=8
num_cat=4
split_feature=2 4 4 3 6 3 4
split_gain=2.58758 2.88781 1.8374 0.978186 0.551962 0.0550255 0.00963023
threshold=0 1 2 1215.0000000000002 4450.5000000000009 12570.000000000002 3
decision_type=5 5 5 2 2 2 5
left_child=2 6 -1 -4 5 -3 -2
right_child=1 4 3 -5 -6 -7 -8
leaf_value=-0.0045135273555035839 -0 -0.041553874401547904 -0 0.046286741132896783 0 -0 0.013727186291395129
leaf_count=228 104 1583 242 622 158 75 223
internal_value=0 -0.0638769 0.0757598 0.123762 -0.118583 -0.13427 0.0425898
internal_count=3235 2143 1092 864 1816 1658 327
cat_boundaries=0 8 21 34 35
cat_threshold=2202239192 134234283 141313 67115040 32 0 3 65536 306190340 539262976 1073872896 0 32 0 0 4096 0 0 0 0 1073741888 38277125 150994954 131104 0 64 0 0 4096 0 0 0 0 64 301996032
shrinkage=0.3


Tree=108
num_leaves=7
num_cat=2
split_feature=4 5 4 5 0 0
split_gain=2.82787 0.50939 0.843326 0.283882 0.221787 0.145416
threshold=0 14.500000000000002 1 24.500000000000004 1.0000000180025095e-35 34.500000000000007
decision_type=5 2 5 2 2 2
left_child=3 2 -2 4 -1 -4
right_child=1 -3 5 -5 -6 -7
leaf_value=-0 -0 -0 0.034329062323825106 0 -0.032940729951049776 -0
leaf_count=321 349 420 1588 78 422 57
internal_value=0 0.0668393 0.0849359 -0.0812343 -0.0962165 0.106056
internal_count=3235 2414 1994 821 743 1645
cat_boundaries=0 13 23
cat_threshold=52041730 152603145 276834304 0 33587460 1077936128 0 65536 16 0 0 0 64 16417 100664576 536870944 538968096 16 0 0 0 0 268435456
shrinkage=0.3


Tree=109
num_leaves=11
num_cat=3
split_feature=4 0 4 1 4 5 1 0 5 5
split_gain=2.64723 1.20796 1.64929 0.551443 0.476636 0.230981 0.257564 0.346876 0.171761 0.00387895
threshold=0 2.5000000000000004 1 53.500000000000007 2 28.500000000000004 4.5000000000000009 35.500000000000007 1.5000000000000002 9.5000000000000018
decision_type=5 2 5 2 5 2 2 2 2 2
left_child=3 2 -2 -1 -3 6 -6 8 -8 -4
right_child=1 4 9 -5 5 -7 7 -9 -10 -11
leaf_value=-0.035185780128892723 -0.001661571475953147 -0.015512400802942508 0.04280931585476163 0 -0 -0 -0 -0 0.024413884475080534 0
leaf_count=734 237 249 933 72 185 165 101 89 411 59
internal_value=0 0.0463922 0.0969523 -0.0963252 -0 0.0160168 0.0391035 0.055525 0.0727637 0.133491
internal_count=3235 2429 1229 806 1200 951 786 601 512 992
cat_boundaries=0 8 13 26
cat_threshold=30474369 555803648 1879181344 4243968 32770 1073741824 65536 4096 302647296 68157440 8388992 0 320 262190 8 0 0 4 0 0 0 0 0 0 0 64
shrinkage=0.3


Tree=110
num_leaves=5
num_cat=2
split_feature=2 6 1 2
split_gain=1.42099 0.229459 0.369035 0.092073
threshold=0 2810.5000000000005 26.500000000000004 1
decision_type=5 2 2 5
left_child=1 -1 -3 -2
right_child=3 2 -4 -5
leaf_value=0 -0 -0.028307369585821588 0 0.012736012524269593
leaf_count=112 411 823 92 1797
internal_value=0 -0.0674443 -0.0808991 0.0357954
internal_count=3235 1027 915 2208
cat_boundaries=0 7 12
cat_threshold=474706112 2179201 9437188 67113749 0 20 1 32784 1073741888 10496 32 32
shrinkage=0.3


Tree=111
num_leaves=6
num_cat=2
split_feature=4 5 6 6 4
split_gain=3.04505 0.632722 0.382264 0.113646 0.0764432
threshold=0 12.500000000000002 2902.5000000000005 4505.5000000000009 1
decision_type=5 2 2 2 5
left_child=1 2 -1 -4 -2
right_child=4 -3 3 -5 -6
leaf_value=-0 -0.033339378308549751 -0 0.03044921355858712 -0 -0
leaf_count=59 841 158 732 52 1393
internal_value=0 0.0572334 0.0843325 0.097245 -0.0894593
internal_count=3235 1001 843 784 2234
cat_boundaries=0 13 26
cat_threshold=2181454976 202148120 1107501056 20987904 780 0 0 4096 0 0 0 0 1073741824 524335 553657347 268437664 35072 33554464 1073741824 1073741824 0 0 268435472 0 0 64
shrinkage=0.3


Tree=112
num_leaves=9
num_cat=5
split_feature=4 2 4 2 3 3 2 1
split_gain=3.57242 1.58567 0.770739 0.470032 0.467785 0.226052 0.0066135 0.00455008
threshold=0 1 2 3 11700.000000000002 275.00000000000006 4 1.0000000180025095e-35
decision_type=5 5 5 5 2 2 5 2
left_child=3 6 -3 -1 5 -4 -2 -8
right_child=1 2 4 -5 -6 -7 7 -9
leaf_value=0 0 -0 -0 -0.035773471348361535 -0 0.040848750754719838 0 -0.0049702507356812631
leaf_count=102 101 222 50 779 66 1601 54 260
internal_value=0 0.0627318 0.100149 -0.103861 0.117371 0.131569 -0.0121858 -0.0145153
internal_count=3235 2354 1939 881 1717 1651 415 314
cat_boundaries=0 10 14 24 26 30
cat_threshold=2165346346 722265088 1879181344 34816 2 1077936128 0 0 0 16 184692808 570949632 1058848 2064 4259841 5243136 8388992 538968096 32768 0 0 0 0 268435456 24576 16777217 16777216 33554432 10240 2048
shrinkage=0.3


Tree=113
num_leaves=8
num_cat=1
split_feature=2 5 1 5 1 1 1
split_gain=1.8932 0.410197 0.397169 0.248755 0.0967885 0.00064484 0.0144405
threshold=0 2.5000000000000004 79.500000000000014 5.5000000000000009 12.500000000000002 1.5000000000000002 1.0000000180025095e-35
decision_type=5 2 2 2 2 2 2
left_child=1 5 -3 4 -2 6 -1
right_child=3 2 -4 -5 -6 -7 -8
leaf_value=-0 -0.023273478676128164 0.031005636780237184 -0 -0 0 -0.00062186563711543201 0.0032016684141875878
leaf_count=254 1278 492 60 622 89 334 106
internal_value=0 0.0642545 0.0894498 -0.0546677 -0.07276 -0 0
internal_count=3235 1246 552 1989 1367 694 360
cat_boundaries=0 7
cat_threshold=395540632 1226966592 134219824 2065 0 0 3
shrinkage=0.3


Tree=114
num_leaves=8
num_cat=3
split_feature=4 0 5 4 4 3 3
split_gain=4.1868 0.97087 0.415963 0.326456 0.305862 0.1776 0.0824284
threshold=0 17.500000000000004 20.500000000000004 1 2 315.00000000000006 7145.0000000000009
decision_type=5 2 2 5 5 2 2
left_child=1 4 3 -2 -1 -5 -6
right_child=2 -3 -4 5 6 -7 -8
leaf_value=-0 0 -0 0 0 0.0422111167383993 -0.035386028624181526 0
leaf_count=106 219 152 326 70 617 1696 49
internal_value=0 0.0900287 -0.0866194 -0.102092 0.12184 -0.109269 0.128416
internal_count=3235 924 2311 1985 772 1766 666
cat_boundaries=0 13 18 26
cat_threshold=46468114 34390792 1073741984 17152 40 0 65536 4096 0 268435456 0 0 1073741824 2147516420 541065216 139520 4194304 1 33554432 33554688 0 512 0 0 0 4096
shrinkage=0.3


Tree=115
num_leaves=8
num_cat=5
split_feature=4 2 6 4 2 6 2
split_gain=3.27128 2.78901 1.09002 0.587488 0.444544 0.173113 0.0247505
threshold=0 1 2540.5000000000005 2 3 4422.5000000000009 4
decision_type=5 5 2 5 5 2 5
left_child=4 6 -3 -4 -1 -6 -2
right_child=1 2 3 -5 5 -7 -8
leaf_value=-0 -0 0 0 -0.051643287290062935 0.027834699460802661 -0 0.0080752913544843881
leaf_count=137 104 157 125 1585 637 107 383
internal_value=0 -0.0892978 -0.139736 -0.165898 0.0633139 0.0815797 0.0225678
internal_count=3235 2354 1867 1710 881 744 487
cat_boundaries=0 13 20 25 28 31
cat_threshold=37902464 773899289 1107369984 768 32780 0 0 0 0 0 0 0 1073741888 377520200 539049995 2304 16 32 0 1 32768 4202496 32 0 64 163840 2621449 8192 33554432 536887298 2304
shrinkage=0.3


Tree=116
num_leaves=8
num_cat=4
split_feature=4 2 4 2 6 6 6
split_gain=3.92474 1.77858 1.07651 0.554832 0.272517 0.054527 0.0208437
threshold=0 1 2 3 4526.5000000000009 1839.5000000000002 3059.5000000000005
decision_type=5 5 5 5 2 2 2
left_child=3 6 -3 -1 5 -4 -2
right_child=1 2 4 -5 -6 -7 -8
leaf_value=0 0 -0 0 -0.034731873495459115 -0 0.044612016680513143 -0.0043953601187972412
leaf_count=103 82 323 51 647 49 1564 416
internal_value=0 0.0782704 0.114707 -0.097393 0.136102 0.145861 -0.0080557
internal_count=3235 2485 1987 750 1664 1615 498
cat_boundaries=0 10 14 19 21
cat_threshold=59527296 557875730 10496 4249088 524304 0 0 4096 0 268435456 9570320 1612709888 143917072 67109412 272664609 134217728 8388608 538968096 16777282 202375184 10
shrinkage=0.3


Tree=117
num_leaves=10
num_cat=2
split_feature=2 0 0 2 6 6 6 6 0
split_gain=1.53981 0.45584 0.163583 0.53337 0.124864 0.0579707 0.0308754 0.0924387 0.000547713
threshold=0 45.500000000000007 1.0000000180025095e-35 1 4397.5000000000009 4467.5000000000009 4028.5000000000005 3412.5000000000005 5.5000000000000009
decision_type=5 2 2 5 2 2 2 2 2
left_child=1 4 6 8 -1 -5 7 -2 -4
right_child=2 -3 3 5 -6 -7 -8 -9 -10
leaf_value=0.025457822264771595 -0 -0 -0 -0.025047057820920478 -0 0 -0.0026095429956733305 0.0087964433278480969 0.00060579201183280824
leaf_count=1066 82 84 92 1006 184 49 410 140 122
internal_value=0 0.0610053 -0.045757 -0.058038 0.0786802 -0.0774465 0 0.012004 0
internal_count=3235 1334 1901 1269 1250 1055 632 222 214
cat_boundaries=0 7 14
cat_threshold=207190224 18956841 32 1 0 0 4 25198592 34078720 134225920 32 0 0 1
shrinkage=0.3


Tree=118
num_leaves=9
num_cat=2
split_feature=4 4 0 3 3 1 0 3
split_gain=3.00527 0.39375 0.367316 0.276258 0.198152 0.0709142 0.0351562 0.0618174
threshold=0 1 34.500000000000007 735.00000000000011 375.00000000000006 42.500000000000007 9.5000000000000018 595.00000000000011
decision_type=5 5 2 2 2 2 2 2
left_child=4 6 3 -3 -1 -5 7 -2
right_child=1 2 -4 5 -6 -7 -8 -9
leaf_value=0 0 -0 -0 0.022983050831917772 -0.041873855142635051 -0 0 -0.0073374782695822842
leaf_count=66 131 177 146 1101 873 50 155 536
internal_value=0 0.0176266 0.0444485 0.0625767 -0.128108 0.0733591 -0 -0.0142885
internal_count=3235 2296 1474 1328 939 1151 822 667
cat_boundaries=0 8 13
cat_threshold=274661380 155492883 268568832 4194304 33094 1073741824 0 4096 2206226443 605029384 545259552 538969120 1
shrinkage=0.3


Tree=119
num_leaves=12
num_cat=2
split_feature=2 6 0 0 0 2 3 6 3 3 3
split_gain=2.14363 0.977195 0.665493 0.645506 0.82745 0.186548 0.123308 0.0438553 0.0176153 0.00231681 0.0372147
threshold=0 4335.5000000000009 59.500000000000007 1.5000000000000002 30.500000000000004 1 835.00000000000011 4411.5000000000009 7900.0000000000009 3495.0000000000005 565.00000000000011
decision_type=5 2 2 2 2 5 2 2 2 2 2
left_child=3 2 5 9 8 -2 -7 -3 -5 10 -1
right_child=1 7 -4 4 -6 6 -8 -9 -10 -11 -12
leaf_value=0 0 0.0055115415100304675 0 0.037975635420723367 -0 -0 -0.035168829735594057 -0 0 0 -0.0049843783391693474
leaf_count=96 112 115 84 594 145 178 1148 212 85 70 396
internal_value=0 -0.0569649 -0.0879191 0.0694162 0.0971896 -0.103851 -0.10751 0 0.12168 -0 -0.00392851
internal_count=3235 1849 1522 1386 824 1438 1326 327 679 562 492
cat_boundaries=0 7 9
cat_threshold=483942448 1646264418 134357009 0 0 0 3 33554560 16392
shrinkage=0.3


Tree=120
num_leaves=12
num_cat=0
split_feature=1 6 3 3 1 6 0 3 6 3 0
split_gain=0.333702 0.743623 0.365023 0.179875 0.7885 0.207656 0.088126 0.0875469 0.0804637 0.00779277 0.00191849
threshold=1.0000000180025095e-35 3519.5000000000005 6235.0000000000009 1405.0000000000002 39.500000000000007 1972.5000000000002 1.0000000180025095e-35 1445.0000000000002 3457.5000000000005 5445.0000000000009 12.500000000000002
decision_type=2 2 2 2 2 2 2 2 2 2 2
left_child=7 3 -3 6 5 -5 -2 -1 -7 -6 -4
right_child=1 2 10 4 9 8 -8 -9 -10 -11 -12
leaf_value=-0.0074171903070609597 -0 0.025632348570669105 -0.0011402712987416499 0 -0 -0.02451458140200052 0.0087894120938656565 0 0 0.0039471436106481537 0
leaf_count=457 87 1245 101 60 70 563 118 240 62 150 82
internal_value=0 0.0351869 0.07082 -0 -0.026405 -0.0686652 0.0130671 -0 -0.0776912 0.0105659 -0
internal_count=3235 2538 1428 1110 905 685 205 697 625 220 183
shrinkage=0.3



feature importances:
mileage=188
date_delta=168
car_like=140
location=118
fans_count=102
follow_count=98
all_post_count=90

pandas_categorical:null
