tree
version=v2
num_class=1
num_tree_per_iteration=1
label_index=0
max_feature_idx=6
objective=binary sigmoid:1
feature_names=follow_count fans_count location mileage car_like all_post_count date_delta
feature_infos=[0:911] [0:827] 5:32:4:20:13:15:14:11:7:16:9:37:51:19:38:12:26:39:35:57:27:24:3:48:53:22:33:68:56:23:61:69:72:122:17:77:62:25:6:100:133:64:194:46:107:84:192:98:75:31:91:28:29:162:96:164:87:105:66:193:101:82:71:104:49:108:41:42:67:81:120:59:137:88:34:240:89:121:229:30:176:21:180:247:50:93:99:8:238:156:136:149:131:118:217:125:97:171:43:86:85:44:54:141:145:36:112:58:195:18:63:191:10:103:175:268:1:127:212:210:147:254:185:179:172:168:126:102:78:76:119:55:45:74:60:65:252:165:196:106:153:109:110:166:167:95:170:73:190:83:183:184:140:128:227:218:228:265:230:47:143:114:146:148:111:150:202:233:225:201:219:186:246:243:189:224:216:235:40:70:199:198:237:232:160:262:115:263:116:181:117:154:155:135:158:253:163:169:267:173:132:249:291 [70:290600] 18:1:35:42:414:5:17:28:45:130:236:33:3:0:12:69:58:71:208:134:81:25:390:61:56:2:19:110:16:136:15:24:11:31:23:118:94:47:190:53:77:59:57:7:22:87:72:105:143:50:36:43:52:117:54:101:129:75:46:131:182:40:108:14:316:152:125:93:41:92:32:4:128:133:260:20:51:100:132:137:106:124:160:104:111:153:89:10:292:115:88:120:126:107:80:97:147:98:48:157:240:222:29:123:331:200:270:227:109:170:163:159:194:142:34:261:371:13:79:224:119:343:178:91:85:192:416:99:112:127:21:313:164:175:350:150:189:26:73:237:193:229:196:360:197:276:272:380:223:60:370:65:171:6:312:184:83:207:82:216:218:234:221:62:378:148:341:384:494:202:273:249:44:296:275:363:76:144:145:446:68:205:436:74:326:168:321:329:233:174:121:122:235:27:304:388:474:241:248:386:433:8:381:299:330:336:317:415:467:345:348:401:306:78:398:294:351:483:445:361:411:440:425:367:84:185:179:177:198:30:206:534:210:55:63:64:219:90 [0:2391] [0:4626]
tree_sizes=615 666 586 673 634 555 544 491 532 556 487 448 619 566

Tree=0
num_leaves=6
num_cat=2
split_feature=3 6 2 2 6
split_gain=4.22916 1.8894 0.571415 0.521072 0.423495
threshold=3405.0000000000005 3303.5000000000005 0 1 4560.5000000000009
decision_type=2 2 5 5 2
left_child=1 -1 -2 -3 -5
right_child=2 3 -4 4 -6
leaf_value=-1.9004017910958988 -1.9004017910958988 -1.9004017910958988 -1.8837286777809792 -1.9217154299644599 -1.9004017910958988
leaf_count=498 103 116 1215 1978 63
internal_value=0 -0.0439946 0.0494666 -0.0628315 -0.066982
internal_count=3973 2655 1318 2157 2041
cat_boundaries=0 5 9
cat_threshold=4160 2097224 0 0 32 54525952 33554432 0 67110912
shrinkage=1


Tree=1
num_leaves=8
num_cat=2
split_feature=3 2 2 1 6 5 6
split_gain=4.61948 1.03262 0.849554 0.53413 0.437608 0.318996 0.186073
threshold=2475.0000000000005 0 1 1.5000000000000002 4560.5000000000009 54.500000000000007 2958.5000000000005
decision_type=2 5 5 2 2 2 2
left_child=1 -1 -2 -4 6 -5 -3
right_child=2 4 3 5 -6 -7 -8
leaf_value=0 -0 0 -0 0.020901294854375804 0 -0 -0.018715821248683331
leaf_count=234 111 146 211 1335 65 128 1743
internal_value=0 -0.0446936 0.0526005 0.060571 -0.0555621 0.0665447 -0.0602598
internal_count=3973 2188 1785 1674 1954 1463 1889
cat_boundaries=0 4 9
cat_threshold=142802944 35717632 288 67108864 64 72 256 48 32
shrinkage=0.3


Tree=2
num_leaves=6
num_cat=1
split_feature=4 6 6 1 3
split_gain=28.223 1.37639 0.738413 0.575401 0.141851
threshold=0 2933.5000000000005 4566.5000000000009 1.0000000180025095e-35 11400.000000000002
decision_type=5 2 2 2 2
left_child=3 -2 4 -1 -3
right_child=1 2 -4 -5 -6
leaf_value=-0 0 -0.035342112586760725 0 0.042750313020610269 0
leaf_count=67 419 2602 63 740 82
internal_value=0 -0.10405 -0.113256 0.137798 -0.116695
internal_count=3973 3166 2747 807 2684
cat_boundaries=0 13
cat_threshold=2160067632 604243456 65664 256 4 1073741824 65536 4096 0 0 0 0 1073741888
shrinkage=0.3


Tree=3
num_leaves=8
num_cat=2
split_feature=3 6 2 1 6 2 5
split_gain=3.34298 1.10842 0.7762 0.608707 0.407421 0.052532 0.0237022
threshold=2545.0000000000005 3635.5000000000005 0 1.5000000000000002 4560.5000000000009 1 54.500000000000007
decision_type=2 2 5 2 2 5 2
left_child=1 -1 -2 -4 5 -3 -5
right_child=2 4 3 6 -6 -7 -8
leaf_value=0 -0 0 -0 0.018862842772396273 0 -0.016617951753006826 0
leaf_count=619 105 117 216 1286 72 1431 127
internal_value=0 -0.035255 0.0471715 0.0552247 -0.0503436 -0.0547882 0.0621647
internal_count=3973 2239 1734 1629 1620 1548 1413
cat_boundaries=0 5 9
cat_threshold=64 1073741896 256 16 32 62914560 537395200 288 67108864
shrinkage=0.3


Tree=4
num_leaves=7
num_cat=2
split_feature=3 2 2 1 6 5
split_gain=2.55119 1.14748 0.927661 0.434577 0.224066 0.109344
threshold=2475.0000000000005 0 1 1.0000000180025095e-35 3042.0000000000005 54.500000000000007
decision_type=2 5 5 2 2 2
left_child=1 -1 -2 -4 -3 -5
right_child=2 4 3 5 -6 -7
leaf_value=0 -0 0 -0 0.017644938839883963 -0.015036651627410094 -0
leaf_count=424 218 162 108 1332 1611 118
internal_value=0 -0.0305677 0.0413177 0.0521641 -0.04667 0.0573532
internal_count=3973 2197 1776 1558 1773 1450
cat_boundaries=0 4 11
cat_threshold=159584256 573112321 32 67108880 2148012096 1073807432 8448 48 32 0 4
shrinkage=0.3


Tree=5
num_leaves=5
num_cat=2
split_feature=4 2 3 6
split_gain=26.5619 2.4799 1.10799 0.158016
threshold=0 1 9335.0000000000018 4556.5000000000009
decision_type=5 5 2 2
left_child=-1 -2 3 -3
right_child=1 2 -4 -5
leaf_value=0.040627924571046664 0 -0.035818477638633904 0 0
leaf_count=847 229 2640 188 69
internal_value=0 -0.0990478 -0.111522 -0.118318
internal_count=3973 3126 2897 2709
cat_boundaries=0 13 21
cat_threshold=2160067632 603981313 65920 256 4 1077936128 65536 4096 0 0 0 0 1073741888 419430408 536936448 131072 1 0 0 1 65536
shrinkage=0.3


Tree=6
num_leaves=5
num_cat=2
split_feature=4 2 6 6
split_gain=26.1211 1.75151 0.615446 0.303172
threshold=0 1 2318.0000000000005 4560.5000000000009
decision_type=5 5 2 2
left_child=-1 -2 -3 -4
right_child=1 2 3 -5
leaf_value=0.041904004830470923 0 0 -0.032636001566440288 0
leaf_count=811 236 176 2688 62
internal_value=0 -0.0924733 -0.102331 -0.107075
internal_count=3973 3162 2926 2750
cat_boundaries=0 13 20
cat_threshold=12584112 604259840 128 256 4 1073741824 65536 4096 0 0 0 0 1073741888 402653192 539033600 32 17 0 0 1
shrinkage=0.3


Tree=7
num_leaves=4
num_cat=2
split_feature=4 2 3
split_gain=19.6651 1.24562 0.376937
threshold=0 1 9335.0000000000018
decision_type=5 5 2
left_child=-1 -2 -3
right_child=1 2 -4
leaf_value=0.03631027428327803 0 -0.027620967650722562 0
leaf_count=886 216 2684 187
internal_value=0 -0.0801082 -0.0882921
internal_count=3973 3087 2871
cat_boundaries=0 13 20
cat_threshold=4199472 237258240 33554816 256 4 1077936128 65536 4096 0 0 0 0 1073741888 159383560 536870912 32 17 0 0 1
shrinkage=0.3


Tree=8
num_leaves=5
num_cat=1
split_feature=4 6 6 3
split_gain=19.8102 1.07467 0.47086 0.179821
threshold=0 2206.0000000000005 4556.5000000000009 11400.000000000002
decision_type=5 2 2 2
left_child=-1 -2 3 -3
right_child=1 2 -4 -5
leaf_value=0.037076192812642544 0 -0.026922544544871019 0 0
leaf_count=883 155 2757 69 109
internal_value=0 -0.0777345 -0.0853267 -0.0882278
internal_count=3973 3090 2935 2866
cat_boundaries=0 13
cat_threshold=12583088 637552129 33620352 256 4 1077936128 65536 4096 0 0 0 0 1073741888
shrinkage=0.3


Tree=9
num_leaves=6
num_cat=2
split_feature=6 1 2 2 6
split_gain=1.48592 0.56569 0.293599 0.243394 0.112522
threshold=3635.5000000000005 12.500000000000002 0 1 4560.5000000000009
decision_type=2 2 5 5 2
left_child=2 3 -1 -2 -5
right_child=1 -3 -4 4 -6
leaf_value=-0 0 0 0.012979480707395534 -0.0097289840814929664 0
leaf_count=139 118 374 1432 1845 65
internal_value=0 -0.00743169 0.0392987 -0.0254643 -0.0300875
internal_count=3973 2402 1571 2028 1910
cat_boundaries=0 4 8
cat_threshold=1048640 16777288 0 2048 50462720 2621440 0 67108864
shrinkage=0.3


Tree=10
num_leaves=4
num_cat=2
split_feature=4 6 4
split_gain=15.8234 0.866276 0.369229
threshold=0 2933.5000000000005 1
decision_type=5 2 5
left_child=-1 -2 -3
right_child=1 2 -4
leaf_value=0.033871488820455931 0 0 -0.023539874427237088
leaf_count=726 434 325 2488
internal_value=0 -0.0672293 -0.0752167
internal_count=3973 3247 2813
cat_boundaries=0 13 17
cat_threshold=4194352 67372545 33562752 0 4 1073741824 65536 4096 0 0 0 0 1073741888 2156134400 136314880 32 256
shrinkage=0.3


Tree=11
num_leaves=5
num_cat=0
split_feature=3 6 6 5
split_gain=0.713015 0.781183 0.242328 0.150571
threshold=3405.0000000000005 3635.5000000000005 4566.5000000000009 56.500000000000007
decision_type=2 2 2 2
left_child=1 -1 -3 -2
right_child=3 2 -4 -5
leaf_value=0 0.0093227581953797805 -0.0099930685146193028 0 -0
leaf_count=815 1172 1811 65 110
internal_value=0 -0.00250603 -0.0290171 0.0280187
internal_count=3973 2691 1876 1282
shrinkage=0.3


Tree=12
num_leaves=7
num_cat=2
split_feature=1 2 2 6 5 6
split_gain=1.08566 0.497639 0.29235 0.173238 0.114026 0.0124815
threshold=3.5000000000000004 0 1 2933.5000000000005 62.500000000000007 4556.5000000000009
decision_type=2 5 5 2 2 2
left_child=2 -2 -1 -4 -3 -5
right_child=1 4 3 5 -6 -7
leaf_value=0 -0 0.01277723193823878 0 -0.0069590962558199717 -0 0
leaf_count=340 206 1716 75 1471 102 63
internal_value=0 0.0333092 -0 -0.0178283 0.0404801 -0.0228072
internal_count=3973 2024 1949 1609 1818 1534
cat_boundaries=0 5 9
cat_threshold=67637312 1073741896 256 2048 32 16978048 536936481 2304 67110912
shrinkage=0.3


Tree=13
num_leaves=6
num_cat=2
split_feature=6 2 2 1 5
split_gain=0.467279 0.268014 0.0699856 0.132878 0.0480691
threshold=3635.5000000000005 0 1 29.500000000000004 78.500000000000014
decision_type=2 5 5 2 2
left_child=1 -1 -2 -4 -3
right_child=2 4 3 -5 -6
leaf_value=-0 0 0.0089125452300048303 -0.0044157699930539107 0 -0
leaf_count=204 396 1281 1887 131 74
internal_value=0 0.0224411 -0 -0.00851732 0.028345
internal_count=3973 1559 2414 2018 1355
cat_boundaries=0 4 11
cat_threshold=2215641160 16777290 0 2064 55705608 1090519041 0 67108864 0 0 1
shrinkage=0.3



feature importances:
date_delta=22
location=17
mileage=9
fans_count=7
car_like=7
all_post_count=6

pandas_categorical:null
