tree
version=v2
num_class=1
num_tree_per_iteration=1
label_index=0
max_feature_idx=5
objective=binary sigmoid:1
feature_names=follow_count fans_count location mileage car_like date_delta
feature_infos=[0:911] [0:827] 5:32:4:20:13:15:14:11:7:16:9:37:51:19:38:12:26:39:35:57:27:24:3:48:53:22:33:68:56:23:61:69:72:122:17:77:62:25:6:100:133:64:194:46:107:84:192:98:75:31:91:28:29:162:96:164:87:105:66:193:101:82:71:104:49:108:41:42:67:81:120:59:137:88:34:240:89:121:229:30:176:21:180:247:50:93:99:8:238:156:136:149:131:118:217:125:97:171:43:86:85:44:54:141:145:36:112:58:195:18:63:191:10:103:175:268:1:127:212:210:147:254:185:179:172:168:126:102:78:76:119:55:45:74:60:65:252:165:196:106:153:109:110:166:167:95:170:73:190:83:183:184:140:128:227:218:228:265:230:47:143:114:146:148:111:150:202:233:225:201:219:186:246:243:189:224:216:235:40:70:199:198:237:232:160:262:115:263:116:181:117:154:155:135:158:253:163:169:267:173:132:249:291 [70:290600] 18:1:35:42:414:5:17:28:45:130:236:33:3:0:12:69:58:71:208:134:81:25:390:61:56:2:19:110:16:136:15:24:11:31:23:118:94:47:190:53:77:59:57:7:22:87:72:105:143:50:36:43:52:117:54:101:129:75:46:131:182:40:108:14:316:152:125:93:41:92:32:4:128:133:260:20:51:100:132:137:106:124:160:104:111:153:89:10:292:115:88:120:126:107:80:97:147:98:48:157:240:222:29:123:331:200:270:227:109:170:163:159:194:142:34:261:371:13:79:224:119:343:178:91:85:192:416:99:112:127:21:313:164:175:350:150:189:26:73:237:193:229:196:360:197:276:272:380:223:60:370:65:171:6:312:184:83:207:82:216:218:234:221:62:378:148:341:384:494:202:273:249:44:296:275:363:76:144:145:446:68:205:436:74:326:168:321:329:233:174:121:122:235:27:304:388:474:241:248:386:433:8:381:299:330:336:317:415:467:345:348:401:306:78:398:294:351:483:445:361:411:440:425:367:84:185:179:177:198:30:206:534:210:55:63:64:219:90 [0:4626]
tree_sizes=668 600 591 656 672 673 627 620 564 608 514 715 626 573 625 620 767 596 739 721 728 581 780 685 584 817 672 647 803 653 758 700 743 675 590 633 673 692 651 694 644 705 765 605 640 499 750 584 678 682 692 441 939

Tree=0
num_leaves=6
num_cat=3
split_feature=4 3 2 5 4
split_gain=177.113 8.57208 5.71289 2.83958 0.140977
threshold=0 4945.0000000000009 1 4560.5000000000009 2
decision_type=5 2 5 2 5
left_child=-1 2 -2 4 -4
right_child=1 -3 3 -5 -6
leaf_value=-1.6778957183689793 -1.9004017910958988 -1.9004017910958988 -1.9004017910958988 -1.9004017910958988 -2.0277488377172617
leaf_count=739 229 571 101 62 2422
internal_value=0 -0.323011 -0.37848 -0.40219 -0.423358
internal_count=4124 3385 2814 2585 2523
cat_boundaries=0 13 20 25
cat_threshold=12582960 67110400 65664 0 4 1077936128 65536 4096 0 0 0 0 1073741888 427884544 2097152 0 2065 0 0 1 0 538984449 0 2 512
shrinkage=1


Tree=1
num_leaves=6
num_cat=2
split_feature=4 5 3 5 2
split_gain=126.893 8.24425 3.39783 2.8325 0.854194
threshold=0 2958.5000000000005 11400.000000000002 4560.5000000000009 1
decision_type=5 2 2 2 5
left_child=-1 -2 3 4 -3
right_child=1 2 -4 -5 -6
leaf_value=0.18431622073543483 0 0 0 0 -0.10566619653744209
leaf_count=789 442 106 88 71 2628
internal_value=0 -0.268464 -0.319746 -0.335598 -0.348694
internal_count=4124 3335 2893 2805 2734
cat_boundaries=0 13 20
cat_threshold=4195376 603981312 33620096 256 4 1077936128 65536 4096 0 0 0 0 1073741888 134217736 65536 16777216 0 0 0 1
shrinkage=0.3


Tree=2
num_leaves=6
num_cat=2
split_feature=4 5 4 3 5
split_gain=95.8966 8.79802 2.97847 1.27242 1.38459
threshold=0 2933.5000000000005 1 3925.0000000000005 4556.5000000000009
decision_type=5 2 5 2 2
left_child=-1 -2 -3 4 -4
right_child=1 2 3 -5 -6
leaf_value=0.16567804200676006 0 0 -0.10519966999733064 -0 0
leaf_count=681 466 443 1939 531 64
internal_value=0 -0.218635 -0.27639 -0.301319 -0.340606
internal_count=4124 3443 2977 2534 2003
cat_boundaries=0 13 17
cat_threshold=2160066576 67372544 128 0 4 1073741824 65536 4096 0 0 0 0 1073741888 266240 536895489 288 524548
shrinkage=0.3


Tree=3
num_leaves=7
num_cat=3
split_feature=4 3 4 2 5 3
split_gain=77.512 7.1596 3.54086 3.94783 0.630307 0.484516
threshold=0 4220.0000000000009 1 2 2636.5000000000005 315.00000000000006
decision_type=5 2 5 5 2 2
left_child=-1 2 -2 -4 -5 -6
right_child=1 -3 3 4 5 -7
leaf_value=0.1503847412149 0 0 0 -0 -0 -0.10444022626315343
leaf_count=583 424 770 219 127 112 1889
internal_value=0 -0.196002 -0.258767 -0.288081 -0.320152 -0.339842
internal_count=4124 3541 2771 2347 2128 2001
cat_boundaries=0 13 19 26
cat_threshold=1040 67110400 384 0 4 0 65536 4096 0 0 0 0 1073741888 268763140 538984449 65536 4354 48 4194304 427954176 32 32 0 0 0 5
shrinkage=0.3


Tree=4
num_leaves=8
num_cat=2
split_feature=3 5 2 0 1 5 2
split_gain=19.6172 6.56974 5.48491 2.98321 2.01141 1.73277 1.17275
threshold=2475.0000000000005 3635.5000000000005 0 94.500000000000014 1.5000000000000002 4560.5000000000009 1
decision_type=2 2 5 2 2 2 5
left_child=1 -1 -2 4 -4 6 -3
right_child=2 5 3 -5 -6 -7 -8
leaf_value=0 -0 0 -0 -0 0.087589368822524244 0 -0.071103659523308591
leaf_count=621 238 114 212 78 1323 68 1470
internal_value=0 -0.130692 0.198221 0.240629 0.270344 -0.209981 -0.227108
internal_count=4124 2273 1851 1613 1535 1652 1584
cat_boundaries=0 7 11
cat_threshold=2148012096 2162760 8448 48 32 0 4 21102592 2621440 32 67108864
shrinkage=0.3


Tree=5
num_leaves=7
num_cat=3
split_feature=4 5 5 4 1 4
split_gain=47.4764 4.24047 2.846 1.77754 1.38398 0.155176
threshold=0 2933.5000000000005 4355.5000000000009 1 1.0000000180025095e-35 2
decision_type=5 2 2 5 2 5
left_child=4 -2 3 -3 -1 -6
right_child=1 2 -4 -5 5 -7
leaf_value=0 0 0 -0 -0.081843616237248146 0 0.11402750503398444
leaf_count=78 440 283 643 1899 114 667
internal_value=0 -0.175697 -0.217984 -0.253972 0.350331 0.378219
internal_count=4124 3265 2825 2182 859 781
cat_boundaries=0 13 19 22
cat_threshold=2147484820 637814273 73856 256 4 1073741824 65536 4096 0 0 0 0 1073741888 12861440 136314880 0 268440064 32768 4194304 4 33816577 8192
shrinkage=0.3


Tree=6
num_leaves=6
num_cat=3
split_feature=4 2 3 4 5
split_gain=43.5646 6.31332 3.83499 1.04118 0.686152
threshold=0 1 4220.0000000000009 2 4140.5000000000009
decision_type=5 5 2 5 2
left_child=4 -2 3 -3 -1
right_child=1 2 -4 -5 -6
leaf_value=0.12671180290148201 0 -0 -0 -0.079917186381258123 0
leaf_count=375 545 402 708 1976 118
internal_value=0 -0.143811 -0.196139 -0.248715 0.383603
internal_count=4124 3631 3086 2378 493
cat_boundaries=0 13 21 27
cat_threshold=16 67108864 33554592 0 4 0 65536 4096 0 0 0 0 1073741888 461570056 539164672 2080 6417 0 0 3 65536 4526080 673204225 1073741824 4608 41 4194304
shrinkage=0.3


Tree=7
num_leaves=7
num_cat=2
split_feature=5 3 2 2 0 5
split_gain=9.48887 3.86509 3.46587 1.97466 0.733073 0.128809
threshold=3635.5000000000005 3495.0000000000005 0 1 80.500000000000014 4556.5000000000009
decision_type=2 2 5 5 2 2
left_child=2 3 -1 -2 -4 -5
right_child=1 -3 4 5 -6 -7
leaf_value=-0 0 0 0.063457728586988726 -0.053500707497563783 -0 -0
leaf_count=384 332 551 1169 1549 72 67
internal_value=0 -0.073424 0.152373 -0.140273 0.194739 -0.168211
internal_count=4124 2499 1625 1948 1241 1616
cat_boundaries=0 4 11
cat_threshold=2148565088 16777290 0 2048 54722560 556269569 288 67108864 0 0 1
shrinkage=0.3


Tree=8
num_leaves=5
num_cat=3
split_feature=4 3 2 4
split_gain=29.5831 4.45639 3.35101 2.12303
threshold=0 4220.0000000000009 1 2
decision_type=5 2 5 5
left_child=-1 2 -2 -4
right_child=1 -3 3 -5
leaf_value=0.10110333573016722 0 0 0 -0.06808331948112345
leaf_count=497 448 877 451 1851
internal_value=0 -0.0976027 -0.158349 -0.193809
internal_count=4124 3627 2750 2302
cat_boundaries=0 13 20 26
cat_threshold=4152 0 33554432 0 4 1073741824 65536 0 0 0 0 0 1073741888 432214016 1075904576 10528 16 0 0 3 2420458496 2122241 1073750016 4608 9 4194304
shrinkage=0.3


Tree=9
num_leaves=7
num_cat=2
split_feature=5 3 2 2 5 0
split_gain=5.8764 2.52515 1.4166 0.960583 0.871085 0.164674
threshold=3625.0000000000005 2035.0000000000002 0 1 1482.0000000000002 80.500000000000014
decision_type=2 2 5 5 2 2
left_child=2 3 -1 -2 -4 -6
right_child=1 -3 4 -5 5 -7
leaf_value=-0 0 0 -0 -0.03948154086732962 0.049580183848184786 0
leaf_count=204 115 1027 63 1372 1265 78
internal_value=0 -0.0468096 0.125032 -0.115727 0.144313 0.160792
internal_count=4124 2514 1610 1487 1406 1343
cat_boundaries=0 4 8
cat_threshold=68157504 16777418 0 2064 20975616 537395200 32 67108864
shrinkage=0.3


Tree=10
num_leaves=4
num_cat=3
split_feature=4 2 4
split_gain=26.4313 5.32442 1.16281
threshold=0 1 2
decision_type=5 5 5
left_child=-1 -2 -3
right_child=1 2 -4
leaf_value=0.085054290215742318 0 -0 -0.059733508223985522
leaf_count=637 761 414 2312
internal_value=0 -0.121008 -0.177198
internal_count=4124 3487 2726
cat_boundaries=0 13 20 28
cat_threshold=8912896 67388418 33554464 0 4 0 65536 0 0 0 0 0 1073741888 441602056 589496832 8200 6161 0 0 7 280724 2048 1073750016 268435456 33297 0 0 4096
shrinkage=0.3


Tree=11
num_leaves=7
num_cat=3
split_feature=4 2 1 4 1 1
split_gain=20.0509 3.22843 2.51208 1.97247 0.150775 0.00099247
threshold=0 1 1.0000000180025095e-35 2 63.500000000000007 3.5000000000000004
decision_type=5 5 2 5 2 2
left_child=2 5 -1 -3 -5 -2
right_child=1 3 -4 4 -6 -7
leaf_value=-0 -0 0 0.082696562778396904 -0.055943087890545459 -0 0.00073799968043349376
leaf_count=213 297 519 757 1894 114 330
internal_value=0 -0.102241 0.237721 -0.145662 -0.1756 0
internal_count=4124 3154 970 2527 2008 627
cat_boundaries=0 13 20 26
cat_threshold=268439720 295433 73888 256 4 1073741824 65536 4096 0 0 0 0 1073741888 331374600 1644183584 305 1 0 0 3 33556482 538992642 1107296256 289931264 800 4194304
shrinkage=0.3


Tree=12
num_leaves=6
num_cat=3
split_feature=4 2 5 5 4
split_gain=18.9445 4.06628 1.96455 1.51938 0.226792
threshold=0 1 4375.5000000000009 2723.5000000000005 2
decision_type=5 5 2 2 5
left_child=-1 -2 3 -3 -5
right_child=1 2 -4 4 -6
leaf_value=0.073782031747177665 0 0 0 0 -0.059371307834173673
leaf_count=851 821 249 339 124 1740
internal_value=0 -0.089302 -0.14561 -0.174039 -0.195858
internal_count=4124 3273 2452 2113 1864
cat_boundaries=0 13 20 25
cat_threshold=8388636 35660298 33620256 4 4 1077936128 65536 0 0 0 0 0 1073741888 264450176 587415552 10545 6145 0 0 1 65536 138428416 8192 268435456 33288
shrinkage=0.3


Tree=13
num_leaves=5
num_cat=3
split_feature=4 2 1 4
split_gain=15.1466 2.61835 2.25592 1.36841
threshold=0 1 1.0000000180025095e-35 2
decision_type=5 5 2 5
left_child=2 -2 -1 -3
right_child=1 3 -4 -5
leaf_value=-0 0 0 0.068163887574487561 -0.049783970250756322
leaf_count=211 667 397 890 1959
internal_value=0 -0.101064 0.193244 -0.141973
internal_count=4124 3023 1101 2356
cat_boundaries=0 13 20 25
cat_threshold=2152465548 639724545 33554688 256 516 0 0 4096 0 0 0 0 1073741888 155361280 1644757507 32 256 0 0 1 276846592 8 1073807392 285212672 16777233
shrinkage=0.3


Tree=14
num_leaves=7
num_cat=1
split_feature=2 3 1 5 5 1
split_gain=2.19779 1.55001 1.23403 0.967166 0.391142 0.158521
threshold=0 3405.0000000000005 1.0000000180025095e-35 3291.5000000000005 4552.5000000000009 77.500000000000014
decision_type=5 2 2 2 2 2
left_child=2 3 -1 -2 -5 -4
right_child=1 -3 5 4 -6 -7
leaf_value=-0 0 0 0.034967561806914939 -0.034146086200065387 0 -0
leaf_count=276 323 832 1096 1462 69 66
internal_value=0 -0.0226738 0.0819764 -0.0789923 -0.105006 0.111842
internal_count=4124 2686 1438 1854 1531 1162
cat_boundaries=0 8
cat_threshold=198903944 589497893 131360 67108865 0 0 3 65536
shrinkage=0.3


Tree=15
num_leaves=7
num_cat=1
split_feature=2 1 0 5 3 3
split_gain=3.22152 1.2086 0.828128 0.827237 0.728752 0.325587
threshold=0 1.0000000180025095e-35 75.500000000000014 3313.0000000000005 3865.0000000000005 345.00000000000006
decision_type=5 2 2 2 2 2
left_child=1 -1 -3 -2 5 -5
right_child=3 2 -4 4 -6 -7
leaf_value=-0 0 0.041647004937620032 -0 0 0 -0.027519982760902607
leaf_count=323 601 1279 65 105 410 1341
internal_value=0 0.0998353 0.125841 -0.012538 -0.0551883 -0.0821847
internal_count=4124 1667 1344 2457 1856 1446
cat_boundaries=0 7
cat_threshold=198963336 587285537 131112 67108865 0 0 1
shrinkage=0.3


Tree=16
num_leaves=9
num_cat=3
split_feature=4 3 4 2 1 5 3 5
split_gain=14.3008 2.30521 1.85937 2.05337 0.675531 0.628642 0.264618 0.139978
threshold=0 4220.0000000000009 1 2 35.500000000000007 3909.5000000000005 315.00000000000006 2572.0000000000005
decision_type=5 2 5 5 2 2 2 2
left_child=5 2 -2 -4 6 -1 -5 -8
right_child=1 -3 3 4 -6 -7 7 -9
leaf_value=0.078702136233065934 0 0 0 0 0 0 -0 -0.059716488395679251
leaf_count=352 535 858 227 80 81 266 88 1637
internal_value=0 -0.0651736 -0.112241 -0.14312 -0.17329 0.227478 -0.189119 -0.194085
internal_count=4124 3506 2648 2113 1886 618 1805 1725
cat_boundaries=0 13 18 22
cat_threshold=33554596 67108872 128 0 4 0 0 0 0 0 0 0 1073741888 2416792592 537395217 1107296512 4354 32 285212680 65569 32 16
shrinkage=0.3


Tree=17
num_leaves=6
num_cat=2
split_feature=4 5 5 4 1
split_gain=10.7216 1.98523 2.49836 1.477 1.00095
threshold=0 2723.5000000000005 4355.5000000000009 1 70.500000000000014
decision_type=5 2 2 5 2
left_child=-1 -2 3 -3 -5
right_child=1 2 -4 4 -6
leaf_value=0.059888177555343938 0 0 0 -0.052402256984427492 0
leaf_count=401 385 394 683 2174 87
internal_value=0 -0.0676523 -0.100116 -0.135365 -0.157709
internal_count=4124 3723 3338 2655 2261
cat_boundaries=0 13 19
cat_threshold=8388612 134480384 65664 268435456 4 0 0 0 0 0 0 0 1073741888 16 39896320 8224 4864 16810248 4194304
shrinkage=0.3


Tree=18
num_leaves=9
num_cat=2
split_feature=3 2 0 2 3 5 1 5
split_gain=4.11066 1.87212 1.64763 1.37059 0.288902 0.299162 0.145834 0.0100403
threshold=2545.0000000000005 0 40.500000000000007 1 565.00000000000011 2636.5000000000005 1.0000000180025095e-35 4375.5000000000009
decision_type=2 5 2 5 2 2 2 2
left_child=3 -2 6 -1 -5 -6 -3 -7
right_child=1 2 -4 4 5 7 -8 -9
leaf_value=0 -0 0 -0 0 0 -0.029876413347019119 0.049869312627537278 -0
leaf_count=535 202 106 225 313 79 1148 1278 238
internal_value=0 0.108778 0.133585 -0.0189618 -0.0733494 -0.0870457 0.162376 -0.0956712
internal_count=4124 1811 1609 2313 1778 1465 1384 1386
cat_boundaries=0 4 11
cat_threshold=8393280 2621512 0 16 432083456 36257857 32 67108880 0 0 4
shrinkage=0.3


Tree=19
num_leaves=8
num_cat=2
split_feature=4 5 5 4 1 1 3
split_gain=9.69732 2.39137 1.44381 1.26401 0.972933 0.428247 0.113743
threshold=0 2832.5000000000005 4375.5000000000009 1 70.500000000000014 1.0000000180025095e-35 555.00000000000011
decision_type=5 2 2 5 2 2 2
left_child=5 -2 3 -3 6 -1 -5
right_child=1 2 -4 4 -6 -7 -8
leaf_value=0 0 0 0 -0 0 0.061343394573908729 -0.051095167660464964
leaf_count=205 448 463 457 98 79 569 1805
internal_value=0 -0.0603332 -0.103069 -0.126194 -0.149232 0.183379 -0.167186
internal_count=4124 3350 2902 2445 1982 774 1903
cat_boundaries=0 13 18
cat_threshold=2181304448 2105858 65792 524544 260 0 0 0 0 0 0 0 1073741888 12666880 172016896 8224 285217280 16777752
shrinkage=0.3


Tree=20
num_leaves=7
num_cat=4
split_feature=4 2 4 5 4 1
split_gain=8.24055 2.57932 2.16631 0.908252 0.139604 0.287843
threshold=0 1 2 2076.0000000000005 3 1.0000000180025095e-35
decision_type=5 5 5 2 5 2
left_child=-1 4 -3 -4 -2 -6
right_child=1 2 3 -5 5 -7
leaf_value=0.055039235130825266 -0 0 0 -0.044717616181178442 -0 0.013579541555624974
leaf_count=500 226 408 71 1954 172 793
internal_value=0 -0.0340393 -0.0948648 -0.131926 0 0.024455
internal_count=4124 3624 2433 2025 1191 965
cat_boundaries=0 13 21 28 33
cat_threshold=1024 67133442 33554432 0 4 1073741824 0 4096 0 0 0 0 1073741888 261779480 587334144 2352 2049 0 0 3 65536 301989894 2097920 8224 272629760 769 0 65536 285380615 16777216 131104 0 64
shrinkage=0.3


Tree=21
num_leaves=5
num_cat=3
split_feature=4 2 4 3
split_gain=6.08301 1.98859 1.45943 1.40745
threshold=0 1 2 5445.0000000000009
decision_type=5 5 5 2
left_child=-1 -2 -3 -4
right_child=1 2 3 -5
leaf_value=0.04728772973148946 0 0 -0.044915906457874667 0
leaf_count=483 1019 599 1641 382
internal_value=0 -0.0338861 -0.0834286 -0.114182
internal_count=4124 3641 2622 2023
cat_boundaries=0 13 20 26
cat_threshold=4194328 201329152 33554432 4194304 260 0 0 0 0 0 0 0 1073741888 411820168 556401664 8224 2065 0 0 3 2190331012 40960 1073741856 268435456 33304 4194304
shrinkage=0.3


Tree=22
num_leaves=9
num_cat=2
split_feature=4 5 1 1 5 3 1 4
split_gain=5.41339 1.40024 0.862954 0.851569 0.999289 0.513775 0.300139 0.16265
threshold=0 2723.5000000000005 53.500000000000007 66.500000000000014 4360.5000000000009 555.00000000000011 1.0000000180025095e-35 1
decision_type=5 2 2 2 2 2 2 5
left_child=2 -2 6 4 5 -3 -1 -7
right_child=1 3 -4 -5 -6 7 -8 -9
leaf_value=0 0 0 -0 0 0 -0 0.049240328256315476 -0.038034244328593918
leaf_count=227 330 92 76 96 544 241 663 1855
internal_value=0 -0.0410711 0.13258 -0.0764351 -0.0920548 -0.113405 0.153577 -0.121786
internal_count=4124 3158 966 2828 2732 2188 890 2096
cat_boundaries=0 13 18
cat_threshold=263168 36544521 288 21495808 32772 4194304 65536 4096 0 0 0 0 1073741888 67588 134217984 128 268456448 8
shrinkage=0.3


Tree=23
num_leaves=8
num_cat=2
split_feature=2 3 0 2 1 5 1
split_gain=1.93923 2.24388 1.63513 0.947565 1.0106 0.196494 0.0927015
threshold=0 2035.0000000000002 35.500000000000007 1 40.500000000000007 2361.0000000000005 29.500000000000004
decision_type=5 2 2 5 2 2 2
left_child=5 -2 3 -3 -5 -1 -7
right_child=1 2 -4 4 -6 6 -8
leaf_value=0 -0 -0 -0 0.051823551589174191 -0 -0.013519886314157362 0
leaf_count=65 1541 139 239 1209 78 753 100
internal_value=0 0.0636826 0.112521 0.139941 0.152963 -0.0211382 -0.0382708
internal_count=4124 3206 1665 1426 1287 918 853
cat_boundaries=0 7 11
cat_threshold=2751995968 1074266312 143925397 16784164 32 20 5 25170432 2097152 0 16
shrinkage=0.3


Tree=24
num_leaves=5
num_cat=3
split_feature=4 2 1 4
split_gain=4.84909 3.30433 1.76782 0.728773
threshold=0 1 1.5000000000000002 2
decision_type=5 5 2 5
left_child=2 -2 -1 -3
right_child=1 3 -4 -5
leaf_value=-0 0 0 0.047188260169673799 -0.039355267281590868
leaf_count=289 887 219 541 2188
internal_value=0 -0.0571079 0.1171 -0.11734
internal_count=4124 3294 830 2407
cat_boundaries=0 13 20 25
cat_threshold=301995032 235225090 1073742112 17301760 0 1073741824 0 4096 0 0 0 0 1073741888 328863880 587350147 256 67108880 0 0 5 4212740 2304 33685504 268439552 16777256
shrinkage=0.3


Tree=25
num_leaves=9
num_cat=4
split_feature=4 2 5 1 4 4 1 5
split_gain=4.08122 1.62856 1.98919 0.475257 0.343037 0.138305 0.155254 0.038072
threshold=0 1 4375.5000000000009 1.0000000180025095e-35 2 3 2.5000000000000004 1896.0000000000002
decision_type=5 5 2 2 5 5 2 2
left_child=3 5 4 -1 -3 -2 -7 -6
right_child=1 2 -4 -5 7 6 -8 -9
leaf_value=-0 -0 0 0 0.043272698438160548 -0 -0 0.011696596486922657 -0.038814428794234732
leaf_count=122 206 217 392 483 65 341 631 1667
internal_value=0 -0.0119666 -0.0725136 0.127781 -0.11483 0 0.0243632 -0.122161
internal_count=4124 3519 2341 605 1949 1178 972 1732
cat_boundaries=0 13 20 25 30
cat_threshold=4112 538985472 65568 256 4 0 0 4096 0 0 0 0 1073741888 461955592 1644365347 134217984 2065 0 0 3 2160609312 0 0 16384 33552 2415953923 16777224 0 32 32832
shrinkage=0.3


Tree=26
num_leaves=6
num_cat=3
split_feature=4 4 1 4 3
split_gain=4.32418 3.80665 1.77098 1.11989 0.272544
threshold=0 1 1.0000000180025095e-35 2 14805.000000000002
decision_type=5 5 2 5 2
left_child=-1 -2 -3 -4 -5
right_child=1 2 3 4 -6
leaf_value=-0.020651001797279529 -0 -0 -0 0.057872955399445147 0
leaf_count=740 1066 436 211 1598 73
internal_value=0 0.0846311 0.13977 0.166908 0.181222
internal_count=4124 3384 2318 1882 1671
cat_boundaries=0 10 18 28
cat_threshold=286261377 17825792 830605568 539004464 33554755 0 1073807360 0 16 16 4966410 574883602 160 1073762306 16810016 1073741825 0 65536 4 134742017 1073741824 289406976 12 0 0 0 0 268435456
shrinkage=0.3


Tree=27
num_leaves=6
num_cat=3
split_feature=4 2 4 1 3
split_gain=3.62563 1.86661 1.27134 0.488127 0.0389099
threshold=0 1 2 1.0000000180025095e-35 505.00000000000006
decision_type=5 5 5 2 2
left_child=3 -2 -3 -1 -4
right_child=1 2 4 -5 -6
leaf_value=-0 0 0 -0 0.036312966855828258 -0.036875623602801971
leaf_count=246 772 518 66 672 1850
internal_value=0 -0.0453149 -0.0891742 0.103085 -0.117299
internal_count=4124 3206 2434 918 1916
cat_boundaries=0 13 20 27
cat_threshold=2415923240 794634 65664 17301508 772 1073741824 0 0 0 0 0 0 1073741888 499206656 1661091842 8497 0 0 0 3 346130 16640 1073750016 272634370 8 4194304 65536
shrinkage=0.3


Tree=28
num_leaves=9
num_cat=5
split_feature=4 2 2 5 5 5 4 4
split_gain=3.04366 2.76296 1.04108 0.501863 0.4369 0.353724 0.266123 2.00806e-06
threshold=0 1 2 2540.5000000000005 4486.5000000000009 4478.5000000000009 3 4
decision_type=5 5 5 2 2 2 5 5
left_child=2 7 -1 -3 -4 6 -5 -2
right_child=1 3 4 5 -6 -7 -8 -9
leaf_value=-0 -0 0 0.0395112485601559 0 -0 0 -0.039630175657175221 2.792812911360184e-05
leaf_count=104 226 153 790 122 64 117 1567 981
internal_value=0 -0.038378 0.095427 -0.106107 0.118337 -0.121296 -0.128706 0
internal_count=4124 3166 958 1959 854 1806 1689 1207
cat_boundaries=0 13 20 22 24 29
cat_threshold=276959396 573153281 32 260 260 0 0 4096 0 0 0 0 1073741888 18358312 1611220547 257 2065 0 0 3 1081344 1074266184 2147518464 8 2168489987 16777224 8192 4194304 64
shrinkage=0.3


Tree=29
num_leaves=6
num_cat=3
split_feature=4 2 4 0 1
split_gain=3.09077 3.55686 3.99979 0.806082 0.402303
threshold=0 1 2 40.500000000000007 1.0000000180025095e-35
decision_type=5 5 5 2 2
left_child=-1 -2 -3 4 -4
right_child=1 2 3 -5 -6
leaf_value=-0.018591355349588817 -0 -0 0 -0 0.06305087066434692
leaf_count=739 865 765 403 130 1222
internal_value=0 0.069868 0.122645 0.178651 0.196311
internal_count=4124 3385 2520 1755 1625
cat_boundaries=0 10 17 27
cat_threshold=2165374981 17825792 830605312 539008304 50364483 0 0 4096 16 16 3021128256 1073872968 1319061 2612 32 4 4 314884128 239077658 8320 512 56 1073741824 0 0 0 268435456
shrinkage=0.3


Tree=30
num_leaves=8
num_cat=3
split_feature=4 2 5 4 1 1 5
split_gain=2.45534 1.69084 0.712093 0.922496 0.593687 0.449953 0.0771537
threshold=0 1 1972.5000000000002 2 42.500000000000007 74.500000000000014 4495.5000000000009
decision_type=5 5 2 5 2 2 2
left_child=4 -2 -3 -4 6 -5 -1
right_child=1 2 3 5 -6 -7 -8
leaf_value=0.030766734377447272 0 0 0 -0.038874167848723704 -0 0 0
leaf_count=719 654 90 355 2047 87 97 75
internal_value=0 -0.0418494 -0.0836521 -0.0992828 0.0803242 -0.116874 0.0993534
internal_count=4124 3243 2589 2499 881 2144 794
cat_boundaries=0 13 20 25
cat_threshold=593980 168296451 33628288 268435456 517 1073741824 65536 0 0 268435456 0 0 1073741888 155269128 536936448 8481 2064 0 0 3 2147748864 6308352 1073741856 0 8
shrinkage=0.3


Tree=31
num_leaves=7
num_cat=3
split_feature=4 2 1 4 5 5
split_gain=2.31883 1.39006 1.27087 1.0378 0.76439 0.115919
threshold=0 1 1.5000000000000002 2 4456.5000000000009 2318.0000000000005
decision_type=5 5 2 5 2 2
left_child=2 -2 -1 -3 5 -5
right_child=1 3 -4 4 -6 -7
leaf_value=-0 0 0 0.036459091834607993 -0 0 -0.035871638858262701
leaf_count=209 781 570 645 125 159 1635
internal_value=0 -0.0196334 0.0901561 -0.0680257 -0.0956252 -0.114449
internal_count=4124 3270 854 2489 1919 1760
cat_boundaries=0 13 20 25
cat_threshold=524452 639633416 65664 17317892 32768 0 65536 4096 0 0 0 0 1073741888 152076424 570491009 256 67108880 0 0 3 2193677314 138428418 1107296288 268435456 568
shrinkage=0.3


Tree=32
num_leaves=8
num_cat=3
split_feature=4 2 4 1 1 3 3
split_gain=1.84976 1.26758 0.892128 0.324629 0.204615 0.216027 0.0246424
threshold=0 1 2 34.500000000000007 74.500000000000014 555.00000000000011 9335.0000000000018
decision_type=5 5 5 2 2 2 2
left_child=3 -2 -3 -1 5 -4 -7
right_child=1 2 4 -5 -6 6 -8
leaf_value=0.029779661427480075 0 0 0 -0 0 -0.032017845908651511 -0
leaf_count=575 987 383 186 67 88 1730 108
internal_value=0 -0.0249043 -0.0663362 0.0843045 -0.0892544 -0.0974291 -0.103468
internal_count=4124 3482 2495 642 2112 2024 1838
cat_boundaries=0 13 21 26
cat_threshold=301989898 33865729 0 4194308 4 0 0 0 0 0 0 0 1073741888 160166408 572523522 33 1 0 0 3 65536 2147490816 3328 1073741856 268435456 33593
shrinkage=0.3


Tree=33
num_leaves=7
num_cat=2
split_feature=4 3 4 5 3 1
split_gain=2.80311 0.63043 0.59079 0.33899 0.235492 0.201563
threshold=0 3525.0000000000005 1 2902.5000000000005 435.00000000000006 30.500000000000004
decision_type=5 2 5 2 2 2
left_child=-1 2 -2 -4 -5 -6
right_child=1 -3 3 4 5 -7
leaf_value=0.031322210369945321 0 0 0 0 -0.028976524114096517 0
leaf_count=869 449 986 192 92 1474 62
internal_value=0 -0.000427026 -0.0466173 -0.0683197 -0.0832102 -0.0905017
internal_count=4124 3255 2269 1820 1628 1536
cat_boundaries=0 13 19
cat_threshold=2147549186 9738 33554688 4194308 4 0 65536 0 0 0 0 0 1073741888 302531608 538984448 1073807360 20736 265 4194304
shrinkage=0.3


Tree=34
num_leaves=5
num_cat=4
split_feature=4 2 4 2
split_gain=2.37079 2.61321 1.59259 0.000809694
threshold=0 1 2 3
decision_type=5 5 5 5
left_child=3 -2 -3 -1
right_child=1 2 -4 -5
leaf_value=-0 -0 -0 0.038518156165715765 -0.020932757039489568
leaf_count=111 599 465 2177 772
internal_value=0 0.0559064 0.100887 -0.0662674
internal_count=4124 3241 2642 883
cat_boundaries=0 10 17 23 25
cat_threshold=2165313573 22069264 830605344 539002928 33554498 0 65536 0 16 16 914366528 1126301704 135536660 804 32 20 4 272663552 774113536 384 285217280 16777264 1 139468864 2097152
shrinkage=0.3


Tree=35
num_leaves=7
num_cat=2
split_feature=2 3 2 1 5 5
split_gain=0.528239 0.606208 0.502416 0.332184 0.00848646 0.00159781
threshold=0 2035.0000000000002 1 42.500000000000007 2318.0000000000005 4385.5000000000009
decision_type=5 2 5 2 2 2
left_child=4 -2 -3 -4 -1 -6
right_child=1 2 3 -5 5 -7
leaf_value=0 -0 -0 0.026220722113202897 -0 -0.0053476793214578171 -0
leaf_count=92 1372 119 1106 202 1006 227
internal_value=0 0.0336478 0.0600645 0.0732901 -0.014852 -0.0169468
internal_count=4124 2799 1427 1308 1325 1233
cat_boundaries=0 7 9
cat_threshold=2953338976 524424 9707668 16780068 544 20 6 8392704 1612775424
shrinkage=0.3


Tree=36
num_leaves=7
num_cat=3
split_feature=4 2 4 5 5 5
split_gain=1.76097 1.63873 0.979504 0.615093 0.123704 0.0416761
threshold=0 1 2 2318.0000000000005 4235.5000000000009 4543.5000000000009
decision_type=5 5 5 2 2 2
left_child=4 -2 -3 -4 -1 -5
right_child=1 2 3 5 -6 -7
leaf_value=0.025000669256369963 0 0 0 -0.035575196361953658 -0 -0
leaf_count=511 871 464 136 1905 174 63
internal_value=0 -0.0321485 -0.0771443 -0.100435 0.0738391 -0.116733
internal_count=4124 3439 2568 2104 685 1968
cat_boundaries=0 13 20 25
cat_threshold=4587520 2133505 128 0 0 4194304 0 0 0 0 0 0 1073741888 453591552 572588609 8225 67112961 0 0 1 578610 16384 1073750048 0 785
shrinkage=0.3


Tree=37
num_leaves=8
num_cat=2
split_feature=2 5 1 2 3 5 1
split_gain=0.240457 0.162259 0.502369 0.27491 0.126187 0.134139 0.0819655
threshold=0 3635.5000000000005 29.500000000000004 1 345.00000000000006 3706.5000000000005 1.0000000180025095e-35
decision_type=5 2 2 5 2 2 2
left_child=6 -2 3 -3 -5 -6 -1
right_child=1 2 -4 4 5 -7 -8
leaf_value=-0 0 0 0 0 0 -0.023016435027150731 0.01012888421250077
leaf_count=252 1111 230 103 104 68 1265 991
internal_value=0 -0.0116303 -0.0286593 -0.0532627 -0.0637791 -0.0717162 0.0262182
internal_count=4124 2881 1770 1667 1437 1333 1243
cat_boundaries=0 8 10
cat_threshold=467226752 571147776 133417 67108881 0 0 3 65536 32768 1073741955
shrinkage=0.3


Tree=38
num_leaves=6
num_cat=3
split_feature=4 2 4 5 5
split_gain=1.50288 1.77921 0.652576 0.665023 0.481996
threshold=0 1 2 2723.5000000000005 3706.5000000000005
decision_type=5 5 5 2 2
left_child=4 -2 -3 -4 -1
right_child=1 2 3 -5 -6
leaf_value=0.026117735407327019 0 0 0 -0.035691683248170313 -0
leaf_count=356 862 411 262 1892 341
internal_value=0 -0.0371738 -0.0822211 -0.0992581 0.0622252
internal_count=4124 3427 2565 2154 697
cat_boundaries=0 13 21 29
cat_threshold=4785156 67438856 288 16777476 32 1077936128 0 0 0 268435456 0 0 1073741888 189841408 556286977 8 1 32 0 1 65536 297088 4227072 1107296256 272629760 777 0 0 4096
shrinkage=0.3


Tree=39
num_leaves=8
num_cat=2
split_feature=2 3 2 1 5 3 1
split_gain=0.41255 0.771474 0.468749 0.250553 0.0322909 0.0572063 0.00404414
threshold=0 2035.0000000000002 1 107.00000000000001 4478.5000000000009 595.00000000000011 75.500000000000014
decision_type=5 2 5 2 2 2 2
left_child=4 -2 -3 -4 5 -1 -7
right_child=1 2 3 -5 -6 6 -8
leaf_value=0 -0 -0 0.02592337257250316 -0 0 -0.0060998684692242493 0
leaf_count=138 1201 115 1116 62 131 1299 62
internal_value=0 0.0322629 0.0640826 0.0765096 -0.00468366 -0.012221 -0.0196273
internal_count=4124 2494 1293 1178 1630 1499 1361
cat_boundaries=0 7 11
cat_threshold=2756235376 1745354824 9707652 4900 32 20 4 142606336 2162688 32 16
shrinkage=0.3


Tree=40
num_leaves=6
num_cat=4
split_feature=4 2 4 1 2
split_gain=1.55568 2.01743 1.60818 1.36197 0.152045
threshold=0 1 2 1.5000000000000002 3
decision_type=5 5 5 2 5
left_child=4 -2 -3 -4 -1
right_child=1 2 3 -5 -6
leaf_value=0 -0 -0 -0 0.04462351068468888 -0.019016455414382866
leaf_count=133 592 700 504 1331 864
internal_value=0 0.0436019 0.0870297 0.119625 -0.0552568
internal_count=4124 3127 2535 1835 997
cat_boundaries=0 9 16 24 26
cat_threshold=2202797057 17850368 813697024 2132000 86 1073741824 1073807360 4096 16 2760901184 16458 9447808 2580 512 4 6 1228812 107774744 131104 536876564 32808 0 0 65536 101712512 64
shrinkage=0.3


Tree=41
num_leaves=7
num_cat=4
split_feature=4 2 5 3 2 4
split_gain=0.653292 1.03307 1.10168 0.371781 0.283481 0.00611106
threshold=0 1 4355.5000000000009 6525.0000000000009 2 3
decision_type=5 5 2 2 5 5
left_child=4 5 3 -3 -1 -2
right_child=1 2 -4 -5 -6 -7
leaf_value=-0 -0 -0.031122138624761951 0 0 0.019236070112688249 0.0014935642193851125
leaf_count=122 226 1457 363 283 639 1034
internal_value=0 -0.0138519 -0.0590922 -0.0896162 0.0501443 0
internal_count=4124 3363 2103 1740 761 1260
cat_boundaries=0 13 20 21 26
cat_threshold=2189557762 2056 33554464 268960004 1 0 65536 0 0 268435456 0 0 1073741888 311583384 52625923 10529 2065 0 0 1 1098256 17338401 16785410 1610614784 0 33024
shrinkage=0.3


Tree=42
num_leaves=9
num_cat=3
split_feature=4 2 5 3 5 1 4 5
split_gain=0.690806 0.88373 1.00696 0.979513 0.857831 0.678685 0.350993 0.226642
threshold=0 1 4355.5000000000009 565.00000000000011 1972.5000000000002 74.500000000000014 2 3909.5000000000005
decision_type=5 5 2 2 2 2 5 2
left_child=7 -2 3 -3 -5 6 -6 -1
right_child=1 2 -4 4 5 -7 -8 -9
leaf_value=0.020522108858221869 0 0 0 0 0 0 -0.038388728699468522 -0
leaf_count=298 802 116 506 92 109 101 1897 203
internal_value=0 -0.0145943 -0.0508143 -0.0780313 -0.0963036 -0.111465 -0.123447 0.0531466
internal_count=4124 3623 2821 2315 2199 2107 2006 501
cat_boundaries=0 13 20 21
cat_threshold=8519684 201376000 0 4 545 1077936128 0 0 0 0 0 0 1073741888 193646600 554320384 280 1 0 0 3 37816320
shrinkage=0.3


Tree=43
num_leaves=5
num_cat=3
split_feature=4 2 4 1
split_gain=0.693883 1.52759 1.87808 0.421107
threshold=0 1 2 71.500000000000014
decision_type=5 5 5 2
left_child=-1 -2 -3 -4
right_child=1 2 3 -5
leaf_value=-0.0062078227489350962 -0 -0 0.036524865266746295 -0
leaf_count=830 444 770 1982 98
internal_value=0 0.035848 0.0702697 0.110504
internal_count=4124 3294 2850 2080
cat_boundaries=0 10 17 27
cat_threshold=51449859 152305666 1904216064 539002912 66 0 0 0 16 16 2684354624 1107820552 143925397 788 32 4 4 12632112 575147280 128 1074288144 16777776 1077936129 65536 4096 0 268435456
shrinkage=0.3


Tree=44
num_leaves=5
num_cat=4
split_feature=4 2 4 4
split_gain=0.689488 1.72861 2.0241 0.000656414
threshold=0 1 2 3
decision_type=5 5 5 5
left_child=-1 3 -3 -2
right_child=1 2 -4 -5
leaf_value=-0.012971380424305673 0 -0 0.033557110716675102 -0.00053523793849138306
leaf_count=790 102 615 1897 720
internal_value=0 0.0256674 0.0725494 -0
internal_count=4124 3334 2512 822
cat_boundaries=0 10 17 25 38
cat_threshold=17825957 558891522 813697024 539003952 33554498 0 1073807360 0 16 268435472 336724048 539623434 143927445 2596 32 20 4 12949528 34113808 131200 4608 16810032 0 0 65536 329736 0 0 0 0 0 0 0 0 0 0 0 1073741824
shrinkage=0.3


Tree=45
num_leaves=4
num_cat=3
split_feature=4 2 2
split_gain=0.506606 1.20385 0.555669
threshold=0 1 2
decision_type=5 5 5
left_child=2 -2 -1
right_child=1 -3 -4
leaf_value=-0 0 -0.020187087953310257 0.01732683298335929
leaf_count=132 947 2270 775
internal_value=0 -0.025888 0.0297342
internal_count=4124 3217 907
cat_boundaries=0 13 20 23
cat_threshold=8656006 134234882 0 4 512 1073741824 65536 4096 0 0 0 0 1073741888 2336258072 587218984 49 67108865 0 0 1 134242304 33554472 48
shrinkage=0.3


Tree=46
num_leaves=8
num_cat=3
split_feature=4 5 5 4 3 4 3
split_gain=0.693216 0.49633 0.754691 0.546809 0.229547 0.126878 0.016865
threshold=0 4360.5000000000009 2723.5000000000005 1 1055.0000000000002 2 555.00000000000011
decision_type=5 2 2 5 2 5 2
left_child=4 2 -2 -4 -1 -6 -5
right_child=1 -3 3 6 5 -7 -8
leaf_value=-0 0 0 0 -0 -0 0.015798534569425815 -0.02778287598880123
leaf_count=253 378 496 257 90 111 620 1919
internal_value=0 -0.0323528 -0.051081 -0.0738605 0.0318611 0.0469779 -0.0881683
internal_count=4124 3140 2644 2266 984 731 2009
cat_boundaries=0 13 20 25
cat_threshold=2152075304 67936768 128 4 280 1073741824 0 0 0 268435456 0 0 1073741888 65536 138412032 8192 285229824 32772 4194304 65536 4194304 565248 0 0 8
shrinkage=0.3


Tree=47
num_leaves=5
num_cat=4
split_feature=4 2 4 2
split_gain=1.00581 1.51761 1.33486 0.0506246
threshold=0 1 2 3
decision_type=5 5 5 5
left_child=3 -2 -3 -1
right_child=1 2 -4 -5
leaf_value=0 -0 -0 0.031624516470862861 -0.013019433030836776
leaf_count=102 627 703 1913 779
internal_value=0 0.038871 0.07451 -0.0386881
internal_count=4124 3243 2616 881
cat_boundaries=0 10 17 22 24
cat_threshold=26218659 152043520 813697056 539002912 33554498 4194304 65536 0 16 16 2147487824 1076494378 9699732 544 0 20 4 4294656 4779546 33563008 268441088 16810272 4194448 524288
shrinkage=0.3


Tree=48
num_leaves=6
num_cat=3
split_feature=4 2 4 3 3
split_gain=0.350165 1.50612 1.92509 0.256279 0.00238725
threshold=0 1 2 14805.000000000002 535.00000000000011
decision_type=5 5 5 2 2
left_child=-1 -2 -3 4 -4
right_child=1 2 3 -5 -6
leaf_value=-0.00857088778480594 -0 -0 0 -0 0.035139281058422261
leaf_count=704 844 751 82 74 1669
internal_value=0 0.0202475 0.0648257 0.106674 0.115788
internal_count=4124 3420 2576 1825 1751
cat_boundaries=0 10 17 27
cat_threshold=22052885 51380224 813828352 539003952 33554498 1073741825 1073741824 0 16 16 2962247744 1074266314 26484869 16779812 32 20 6 2181431296 140510746 33554592 4608 16777472 0 65536 0 0 268435456
shrinkage=0.3


Tree=49
num_leaves=7
num_cat=3
split_feature=4 2 2 3 3 3
split_gain=0.619951 1.56767 0.791412 0.398968 0.242074 0.00727591
threshold=0 1 2 10285.000000000002 315.00000000000006 6525.0000000000009
decision_type=5 5 5 2 2 2
left_child=2 -2 -1 4 -3 -6
right_child=1 3 -4 -5 5 -7
leaf_value=-0 0 0 0.019407697395451104 0 -0.030152095822781957 -0
leaf_count=226 922 68 690 150 1903 165
internal_value=0 -0.0339927 0.0225871 -0.0786522 -0.0914651 -0.0965885
internal_count=4124 3208 916 2286 2136 2068
cat_boundaries=0 13 20 22
cat_threshold=33554446 673745418 33554432 268435716 33 1073741824 0 4096 0 0 0 0 1073741888 2207293440 50462763 2337 67108881 0 0 1 17883152 40
shrinkage=0.3


Tree=50
num_leaves=7
num_cat=5
split_feature=4 0 2 2 2 2
split_gain=0.825542 1.49497 2.29909 0.0217827 4.89793e-05 0.030049
threshold=0 1.0000000180025095e-35 1 2 3 4
decision_type=5 2 5 5 5 5
left_child=3 4 -3 -1 -2 -6
right_child=1 2 -4 -5 5 -7
leaf_value=-0 -0 0 -0.036536205290023882 0.007745491612278662 -0 0.0037393420485448436
leaf_count=145 218 432 1858 591 100 780
internal_value=0 -0.0406485 -0.0807858 0.0222957 0 0.000493576
internal_count=4124 3388 2290 736 1098 880
cat_boundaries=0 13 17 20 22 25
cat_threshold=65572 570443272 8320 0 544 0 0 0 0 268435456 0 0 1073741888 164110864 570425344 134218016 2048 1056800 0 8192 138979344 33554434 16781312 16777352 48
shrinkage=0.3


Tree=51
num_leaves=3
num_cat=2
split_feature=4 2
split_gain=0.413089 1.34492
threshold=0 1
decision_type=5 5
left_child=-1 -2
right_child=1 -3
leaf_value=0.0098106694053334362 0 -0.019964143741341828
leaf_count=754 933 2437
internal_value=0 -0.0191738
internal_count=4124 3370
cat_boundaries=0 13 20
cat_threshold=302317584 2121984 33554432 16777220 564 1077936128 0 0 0 0 0 0 1073741888 323710984 1646854146 139265 17 0 0 3
shrinkage=0.3


Tree=52
num_leaves=10
num_cat=5
split_feature=4 2 4 5 2 5 5 4 5
split_gain=0.48054 0.928076 0.881043 0.580904 0.413422 0.0806225 0.000203243 0.091873 0.112674
threshold=0 1 2 4220.5000000000009 3 4467.5000000000009 4335.5000000000009 4 2723.5000000000005
decision_type=5 5 5 2 5 2 2 5 2
left_child=4 6 -3 -4 -1 -6 7 -2 -9
right_child=1 2 3 -5 5 -7 -8 8 -10
leaf_value=0 0 -0 0.030245447463088493 -0 -0.021645848277115076 0 0 0 -0.0098483797710689908
leaf_count=104 121 359 1097 309 871 140 234 123 766
internal_value=0 0.00240256 0.0542415 0.0810704 -0.0456505 -0.0643799 -0 -0.000941996 -0.020483
internal_count=4124 3009 1765 1406 1115 1011 1244 1010 889
cat_boundaries=0 10 17 24 25 38
cat_threshold=22810635 18383360 847259648 2119712 326 0 1073741824 0 16 16 2228261096 1075839115 9709952 2565 0 16 4 268648592 134217752 1073872896 0 32 1077936128 65536 93323392 268501024 134217728 0 0 0 0 65536 0 0 0 0 0 1073741888
shrinkage=0.3



feature importances:
car_like=89
location=64
date_delta=62
fans_count=40
mileage=40
follow_count=8

pandas_categorical:null
