tree
version=v2
num_class=1
num_tree_per_iteration=1
label_index=0
max_feature_idx=5
objective=binary sigmoid:1
feature_names=follow_count fans_count location mileage car_like date_delta
feature_infos=[0:911] [0:959] 5:4:20:32:13:15:14:16:7:11:9:19:37:51:38:26:12:27:35:3:39:24:48:22:53:57:33:61:68:69:23:72:56:122:77:17:25:62:6:133:84:64:46:29:100:194:192:105:66:98:101:107:28:96:87:81:104:91:164:193:108:75:71:162:21:42:31:97:121:67:82:41:58:59:180:156:149:30:176:88:93:247:137:54:86:240:10:89:34:63:50:49:131:99:118:120:229:43:195:136:171:78:212:217:127:175:125:238:1:141:145:85:8:76:44:55:65:103:183:83:150:167:168:172:179:60:181:114:185:189:191:199:213:227:36:233:268:112:110:102:73:223:218:119:111:135:95:169:170:139:210:209:178:198:109:184:153:147:228:254:18:154:232:79:252:158:262:47:253:246:257:265:113:202:243:278:239:235:216:230:224:142:94:160:166:155:140:70:177:148:146:128:106:126 [100:137840] 18:1:35:42:414:5:17:28:33:130:71:12:236:0:3:45:69:58:61:208:81:25:136:134:390:19:56:110:16:31:2:47:15:53:24:94:190:11:23:59:77:118:57:54:87:72:22:117:50:52:7:143:36:101:93:105:46:131:129:98:137:182:43:125:100:292:106:108:4:75:128:316:152:89:104:14:41:20:124:88:115:111:153:40:51:13:97:123:107:260:32:92:132:48:29:133:170:222:227:85:34:229:160:159:147:80:240:120:119:109:234:270:218:10:192:313:157:261:21:79:82:189:241:194:178:200:235:343:142:223:127:416:370:65:193:121:224:163:112:73:321:126:360:150:148:91:83:350:272:168:345:331:68:171:386:202:197:27:60:304:380:371:225:207:164:273:145:44:216:436:74:358:99:494:205:221:62:361:233:341:196:363:237:206:175:276:76:317:326:312:275:281:388:144:174:384:248:179:246:446:336:184:185:378:231:114:299:298:294:39:306:30:26:329:255:253:249:467:415:395:440:78:351:161:433:165:445:84:177:6:180:381:219:198:203:64:210:425:212:122 [0:4622]
tree_sizes=617 491 394 483 562 465 506 515 488 505 478 488 560 496 496 487 554 419 499

Tree=0
num_leaves=6
num_cat=1
split_feature=3 2 3 5 0
split_gain=0.507953 0.0581084 0.0487382 0.0325671 0.0245627
threshold=2475.0000000000005 0 305.00000000000006 3315.5000000000005 79.500000000000014
decision_type=2 5 2 2 2
left_child=2 -2 -1 -4 -3
right_child=1 4 3 -5 -6
leaf_value=-1.892470015257022 -1.892470015257022 -1.891251212443233 -1.892470015257022 -1.8940521346481978 -1.892470015257022
leaf_count=92 100 1251 282 1402 77
internal_value=0 0.00332056 -0.0047319 -0.0050608 0.00385441
internal_count=3204 1428 1776 1684 1328
cat_boundaries=0 5
cat_threshold=4194368 1073741832 1056768 32 32
shrinkage=1


Tree=1
num_leaves=4
num_cat=2
split_feature=4 3 2
split_gain=2.0731 0.0938864 0.0361179
threshold=0 9545.0000000000018 1
decision_type=5 2 5
left_child=-1 2 -2
right_child=1 -3 -4
leaf_value=0.0025462796721101842 0 0 -0.0025637358072816393
leaf_count=742 106 163 2193
internal_value=0 -0.00802167 -0.00840572
internal_count=3204 2462 2299
cat_boundaries=0 13 18
cat_threshold=12609592 603997696 128 4 32772 1077936128 65536 4096 0 0 0 0 1073741888 16777216 65568 131072 0 32
shrinkage=0.3


Tree=2
num_leaves=4
num_cat=0
split_feature=3 1 5
split_gain=0.507361 0.033327 0.0100345
threshold=2475.0000000000005 1.0000000180025095e-35 3022.5000000000005
decision_type=2 2 2
left_child=2 -2 -1
right_child=1 -3 -4
leaf_value=0 -0 0.0011783606282500141 -0.0013696327036458271
leaf_count=160 87 1365 1592
internal_value=0 0.00363627 -0.00448985
internal_count=3204 1452 1752
shrinkage=0.3


Tree=3
num_leaves=4
num_cat=2
split_feature=4 2 5
split_gain=1.98344 0.0660895 0.0115473
threshold=0 1 4409.5000000000009
decision_type=5 5 2
left_child=2 -2 -1
right_child=1 -3 -4
leaf_value=0.0025096222762916033 0 -0.0024338918674473176 -0
leaf_count=816 106 2193 89
internal_value=0 -0.00783609 0.00831131
internal_count=3204 2299 905
cat_boundaries=0 13 18
cat_threshold=2156152888 637552128 128 4 4 1077936128 65536 4096 0 0 0 0 1073741888 16777216 65664 1 0 32
shrinkage=0.3


Tree=4
num_leaves=6
num_cat=2
split_feature=3 2 2 5 3
split_gain=0.525429 0.0744011 0.062753 0.0375977 0.00281116
threshold=2525.0000000000005 0 1 2732.0000000000005 305.00000000000006
decision_type=2 5 5 2 2
left_child=1 -1 -2 -3 -5
right_child=2 3 -4 4 -6
leaf_value=0 -0 0 0.0014623966751517669 0 -0.0014258254818676286
leaf_count=223 105 99 1293 90 1394
internal_value=0 -0.00386806 0.00442982 -0.00445768 -0.00473163
internal_count=3204 1806 1398 1583 1484
cat_boundaries=0 4 6
cat_threshold=17301504 570425347 288 67108864 4718656 33554504
shrinkage=0.3


Tree=5
num_leaves=5
num_cat=0
split_feature=3 5 5 3
split_gain=0.350379 0.108313 0.0116394 3.29234e-05
threshold=3085.0000000000005 3622.5000000000005 4554.5000000000009 1345.0000000000002
decision_type=2 2 2 2
left_child=1 3 -3 -1
right_child=-2 2 -4 -5
leaf_value=1.4035758029352719e-05 0.00090087039735959945 -0.0014072280868010578 0 -0
leaf_count=243 1135 1380 75 371
internal_value=0 -0.00374481 -0.00460696 0
internal_count=3204 2069 1455 614
shrinkage=0.3


Tree=6
num_leaves=5
num_cat=2
split_feature=3 2 1 2
split_gain=0.461056 0.0942936 0.0294231 0.00666782
threshold=2475.0000000000005 0 1.5000000000000002 1
decision_type=2 5 2 5
left_child=1 -1 -2 -4
right_child=2 -3 3 -5
leaf_value=0 -0 -0.0013487333001767445 -0 0.0012993243452490968
leaf_count=227 187 1552 105 1133
internal_value=0 -0.0037408 0.00404368 0.0042797
internal_count=3204 1779 1425 1238
cat_boundaries=0 4 7
cat_threshold=163717120 35717120 288 67108864 147329024 64 1048576
shrinkage=0.3


Tree=7
num_leaves=5
num_cat=2
split_feature=5 2 1 2
split_gain=0.401663 0.0778346 0.0491316 0.00154738
threshold=3369.5000000000005 0 16.500000000000004 1
decision_type=2 5 2 5
left_child=3 -2 -3 -1
right_child=1 2 -4 -5
leaf_value=-0 0 -0.0013314671198749522 0 0.0011723827756912001
leaf_count=116 326 1697 269 796
internal_value=0 -0.0033596 -0.00405117 0.00389441
internal_count=3204 2292 1966 912
cat_boundaries=0 7 11
cat_threshold=33554440 570949763 131104 67108864 0 0 4 8946176 2097344 0 16
shrinkage=0.3


Tree=8
num_leaves=4
num_cat=2
split_feature=4 5 2
split_gain=2.04707 0.0571092 0.0286278
threshold=0 2206.0000000000005 1
decision_type=5 2 5
left_child=-1 -2 -3
right_child=1 2 -4
leaf_value=0.0026680084670023568 0 0 -0.0023505645844353151
leaf_count=981 109 101 2013
internal_value=0 -0.00745959 -0.00771414
internal_count=3204 2223 2114
cat_boundaries=0 13 16
cat_threshold=2194423864 637551632 384 256 4 1077936128 65536 4096 0 0 0 0 1073741888 134221824 65538 131072
shrinkage=0.3


Tree=9
num_leaves=5
num_cat=2
split_feature=5 2 2 1
split_gain=0.348855 0.100016 0.0305589 0.0241393
threshold=3574.5000000000005 0 1 12.500000000000002
decision_type=2 5 5 2
left_child=2 -2 -1 -3
right_child=1 3 -4 -5
leaf_value=-0 0 -0.0013004936232442108 0.0011404796385826336 0
leaf_count=261 372 1380 945 246
internal_value=0 -0.00324767 0.00352369 -0.00414083
internal_count=3204 1998 1206 1626
cat_boundaries=0 7 11
cat_threshold=34611720 16777217 0 67108864 0 0 4 71323880 64 0 16
shrinkage=0.3


Tree=10
num_leaves=4
num_cat=2
split_feature=4 3 2
split_gain=1.83532 0.109032 0.073513
threshold=0 6735.0000000000009 1
decision_type=5 2 5
left_child=-1 2 -2
right_child=1 -3 -4
leaf_value=0.0022768230607558373 0 0 -0.0026029149838779539
leaf_count=697 159 278 2070
internal_value=0 -0.00794157 -0.00839192
internal_count=3204 2507 2229
cat_boundaries=0 13 15
cat_threshold=2185232568 67110400 33554816 0 4 1077936128 65536 4096 0 0 0 0 1073741888 16785408 34
shrinkage=0.3


Tree=11
num_leaves=4
num_cat=2
split_feature=4 3 2
split_gain=2.2385 0.107777 0.0375368
threshold=0 4605.0000000000009 1
decision_type=5 2 5
left_child=-1 2 -2
right_child=1 -3 -4
leaf_value=0.0027845216684943639 0 0 -0.0025295131974014625
leaf_count=714 129 485 1876
internal_value=0 -0.00782526 -0.00828307
internal_count=3204 2490 2005
cat_boundaries=0 13 20
cat_threshold=46137392 604259840 384 260 4 1077936128 65536 4096 0 0 0 0 1073741888 8396800 2097184 0 0 0 0 1
shrinkage=0.3


Tree=12
num_leaves=5
num_cat=2
split_feature=4 3 2 5
split_gain=2.13891 0.0861254 0.0525147 0.0196662
threshold=0 11905.000000000002 1 2206.0000000000005
decision_type=5 2 5 2
left_child=-1 2 -2 -4
right_child=1 -3 3 -5
leaf_value=0.0024088214662872109 0 0 0 -0.0027954220367892081
leaf_count=720 101 93 107 2183
internal_value=0 -0.00872501 -0.00905062 -0.00923893
internal_count=3204 2484 2391 2290
cat_boundaries=0 13 16
cat_threshold=2189428784 67126800 33554816 256 32772 1077936128 65536 4096 0 0 0 0 1073741888 16777216 536871042 131072
shrinkage=0.3


Tree=13
num_leaves=4
num_cat=2
split_feature=4 2 5
split_gain=1.94746 0.068166 0.0317977
threshold=0 1 2206.0000000000005
decision_type=5 5 2
left_child=-1 -2 -3
right_child=1 2 -4
leaf_value=0.0022874696635112133 0 0 -0.002627083540484537
leaf_count=712 123 124 2245
internal_value=0 -0.00835867 -0.00862756
internal_count=3204 2492 2369
cat_boundaries=0 13 20
cat_threshold=8388664 608192000 33554560 772 4 1077936128 65536 4096 0 0 0 0 1073741888 16777216 34 131072 2048 0 0 1
shrinkage=0.3


Tree=14
num_leaves=5
num_cat=2
split_feature=5 2 2 1
split_gain=0.371181 0.065796 0.0411526 0.0195225
threshold=3557.5000000000005 0 1 13.500000000000002
decision_type=2 5 5 2
left_child=2 -2 -1 -3
right_child=1 3 -4 -5
leaf_value=-0 0 -0.0012436835149735894 0.0011870603587293279 0
leaf_count=256 247 1538 898 265
internal_value=0 -0.00339316 0.00359441 -0.00398099
internal_count=3204 2050 1154 1803
cat_boundaries=0 4 6
cat_threshold=51380224 536870913 0 67108864 12620384 200
shrinkage=0.3


Tree=15
num_leaves=5
num_cat=2
split_feature=5 2 2 1
split_gain=0.369121 0.106688 0.0531266 0.0146828
threshold=3618.5000000000005 0 1 26.500000000000004
decision_type=2 5 5 2
left_child=2 -2 -1 -3
right_child=1 3 -4 -5
leaf_value=-0 0 -0.0013316066884189674 0.0012055848744687314 0
leaf_count=230 264 1596 1012 102
internal_value=0 -0.00341601 0.00355338 -0.00432396
internal_count=3204 1962 1242 1698
cat_boundaries=0 2 6
cat_threshold=51380232 18874369 5242976 8 0 16
shrinkage=0.3


Tree=16
num_leaves=5
num_cat=2
split_feature=4 2 3 3
split_gain=1.82444 0.0946215 0.0285944 0.0177498
threshold=0 1 11485.000000000002 975.00000000000011
decision_type=5 5 2 2
left_child=3 -2 -3 -1
right_child=1 2 -4 -5
leaf_value=-0 0 -0.0025205576327394174 0 0.0023036134470199431
leaf_count=100 117 2286 94 607
internal_value=0 -0.00789291 -0.00828135 0.0075938
internal_count=3204 2497 2380 707
cat_boundaries=0 13 20
cat_threshold=2155888680 638059520 33554816 512 4 1073741824 65536 4096 0 0 0 0 1073741888 16781312 65536 1 0 0 0 1
shrinkage=0.3


Tree=17
num_leaves=3
num_cat=1
split_feature=4 5
split_gain=1.59696 0.109538
threshold=0 2605.0000000000005
decision_type=5 2
left_child=-1 -2
right_child=1 -3
leaf_value=0.0022866770750796872 0 -0.0022110740795224441
leaf_count=757 225 2222
internal_value=0 -0.0068559
internal_count=3204 2447
cat_boundaries=0 13
cat_threshold=46137392 67126272 1107304864 4 4 1077936128 65536 4096 0 0 0 0 1073741888
shrinkage=0.3


Tree=18
num_leaves=5
num_cat=1
split_feature=3 2 5 0
split_gain=0.598256 0.0661363 0.0285552 0.0101402
threshold=3085.0000000000005 0 2661.5000000000005 75.500000000000014
decision_type=2 5 2 2
left_child=1 -1 -3 -2
right_child=3 2 -4 -5
leaf_value=0 0.0013554585610186631 0 -0.0015284105003559732 -0
leaf_count=348 1083 101 1595 77
internal_value=0 -0.0044319 -0.00490169 0.00444215
internal_count=3204 2044 1696 1160
cat_boundaries=0 4
cat_threshold=176164992 35651745 32 67108864
shrinkage=0.3



feature importances:
location=22
mileage=15
date_delta=15
car_like=9
fans_count=6
follow_count=2

pandas_categorical:null
