tree
version=v2
num_class=1
num_tree_per_iteration=1
label_index=0
max_feature_idx=5
objective=binary sigmoid:1
feature_names=follow_count fans_count location mileage car_like date_delta
feature_infos=[0:911] [0:959] 5:4:20:32:13:15:14:16:7:11:9:19:37:51:38:26:12:27:35:3:39:24:48:22:53:57:33:61:68:69:23:72:56:122:77:17:25:62:6:133:84:64:46:29:100:194:192:105:66:98:101:107:28:96:87:81:104:91:164:193:108:75:71:162:21:42:31:97:121:67:82:41:58:59:180:156:149:30:176:88:93:247:137:54:86:240:10:89:34:63:50:49:131:99:118:120:229:43:195:136:171:78:212:217:127:175:125:238:1:141:145:85:8:76:44:55:65:103:183:83:150:167:168:172:179:60:181:114:185:189:191:199:213:227:36:233:268:112:110:102:73:223:218:119:111:135:95:169:170:139:210:209:178:198:109:184:153:147:228:254:18:154:232:79:252:158:262:47:253:246:257:265:113:202:243:278:239:235:216:230:224:142:94:160:166:155:140:70:177:148:146:128:106:126 [100:137840] 18:1:35:42:414:5:17:28:33:130:71:12:236:0:3:45:69:58:61:208:81:25:136:134:390:19:56:110:16:31:2:47:15:53:24:94:190:11:23:59:77:118:57:54:87:72:22:117:50:52:7:143:36:101:93:105:46:131:129:98:137:182:43:125:100:292:106:108:4:75:128:316:152:89:104:14:41:20:124:88:115:111:153:40:51:13:97:123:107:260:32:92:132:48:29:133:170:222:227:85:34:229:160:159:147:80:240:120:119:109:234:270:218:10:192:313:157:261:21:79:82:189:241:194:178:200:235:343:142:223:127:416:370:65:193:121:224:163:112:73:321:126:360:150:148:91:83:350:272:168:345:331:68:171:386:202:197:27:60:304:380:371:225:207:164:273:145:44:216:436:74:358:99:494:205:221:62:361:233:341:196:363:237:206:175:276:76:317:326:312:275:281:388:144:174:384:248:179:246:446:336:184:185:378:231:114:299:298:294:39:306:30:26:329:255:253:249:467:415:395:440:78:351:161:433:165:445:84:177:6:180:381:219:198:203:64:210:425:212:122 [0:4622]
tree_sizes=1182 682 940 779 1034 815 944 1139 781

Tree=0
num_leaves=13
num_cat=3
split_feature=3 2 2 5 5 0 5 5 5 5 2 3
split_gain=19.4734 1.96153 1.82172 0.768607 0.574165 0.555098 0.270827 0.069671 0.0104992 0.0095784 0.00309297 0.00145818
threshold=2525.0000000000005 0 1 2732.0000000000005 4560.5000000000009 125.50000000000001 3640.5000000000005 4336.5000000000009 2387.5000000000005 4427.5000000000009 2 1485.0000000000002
decision_type=2 5 5 2 2 2 2 2 2 2 5 2
left_child=1 6 10 8 -5 -4 11 -8 -3 -9 -2 -1
right_child=2 3 5 4 -6 -7 7 9 -10 -11 -12 -13
leaf_value=-1.887593826865551 -1.892470015257022 -1.8924725764492001 -1.8612917053206106 -1.9229715135743808 -1.8924606962075254 -1.892470015257022 -1.8957137150536372 -1.891465930117189 -1.891465930117189 -1.892470015257022 -1.8943293734015927 -1.892470015257022
leaf_count=78 105 65 1662 1905 57 49 156 47 47 54 113 61
internal_value=0 -0.0847599 0.0922762 -0.0945362 -0.0990446 0.100557 0.00633162 -0.0069993 0.000823523 0.00126327 -0.00588359 0.0161532
internal_count=4399 2470 1929 2074 1962 1711 396 257 112 101 218 139
cat_boundaries=0 4 11 18
cat_threshold=151003136 35652225 131361 67108864 12587072 1107296456 1048832 32 32 0 4 8392704 136 256 0 0 0 4
shrinkage=1


Tree=1
num_leaves=6
num_cat=3
split_feature=4 3 2 3 2
split_gain=58.5636 2.63362 2.02888 0.00604673 0.000602765
threshold=0 9290.0000000000018 1 19425.000000000004 2
decision_type=5 2 5 2 5
left_child=-1 2 4 -3 -2
right_child=1 3 -4 -5 -6
leaf_value=0.051136002257096878 0.00098270343003901538 0.0015722718917683439 -0.04565289537279732 -0 -0
leaf_count=936 108 166 3016 72 101
internal_value=0 -0.13731 -0.146417 0.00461703 0.00315057
internal_count=4399 3463 3225 238 209
cat_boundaries=0 13 20 27
cat_threshold=8415280 604521984 35651712 256 4 1077936128 65536 4096 0 0 0 0 1073741888 318767104 67174400 131072 2049 32 65536 5 50331648 67108864 131072 2048 0 0 1
shrinkage=0.3


Tree=2
num_leaves=11
num_cat=0
split_feature=3 5 1 5 0 3 5 3 5 3
split_gain=16.5485 2.23877 1.09393 0.807802 0.528221 0.239647 0.0765785 0.0675149 0.00459699 0.00455547
threshold=2525.0000000000005 3622.5000000000005 1.5000000000000002 4560.5000000000009 125.50000000000001 1315.0000000000002 2926.5000000000005 3985.0000000000005 2387.5000000000005 2725.0000000000005
decision_type=2 2 2 2 2 2 2 2 2 2
left_child=1 5 7 -3 -4 -1 8 9 -7 -2
right_child=2 3 4 -5 -6 6 -8 -9 -10 -11
leaf_value=0.0047537646475538644 0 -0.027902229524831606 0.028954038091779703 0.00046991486258423585 -2.4365356943039481e-08 -0 -0.0031083101767954069 0.00096176637890243446 0.00086091468450352391 -0.002438442666043547
leaf_count=324 44 1719 1625 70 50 54 232 86 75 120
internal_value=0 -0.0755865 0.0878735 -0.088971 0.0939419 0.00717625 -0.00593492 -0.00215076 0.00190307 -0.0078254
internal_count=4399 2474 1925 1789 1675 685 361 250 129 164
shrinkage=0.3


Tree=3
num_leaves=8
num_cat=2
split_feature=4 2 5 5 5 5 5
split_gain=52.1506 1.86057 0.688821 0.497452 0.18699 0.027952 0.0143252
threshold=0 1 1867.0000000000002 4560.5000000000009 4486.5000000000009 3201.5000000000005 4315.5000000000009
decision_type=5 5 2 2 2 2 2
left_child=4 5 -3 -4 -1 -2 -7
right_child=1 2 3 -5 -6 6 -8
leaf_value=0.049942405891191331 0.0019128643308258947 0 -0.041461988381671151 0 -0 -0.0011013601634423495 0.00027643601245441247
leaf_count=998 61 76 2993 52 55 112 52
internal_value=0 -0.12629 -0.133191 -0.136541 0.164043 0.00350693 -0.000263147
internal_count=4399 3346 3121 3045 1053 225 164
cat_boundaries=0 13 20
cat_threshold=12607544 638076417 35651968 256 4 1077936128 65536 4096 0 0 0 0 1073741888 27262976 65568 131073 1 0 0 5
shrinkage=0.3


Tree=4
num_leaves=12
num_cat=2
split_feature=3 2 2 5 0 5 5 5 5 5 0
split_gain=14.1633 3.27043 0.90021 0.58415 0.505049 0.464011 0.35119 0.20523 0.00545129 0.00385593 0.00118832
threshold=3085.0000000000005 0 1 3714.0000000000005 94.500000000000014 4560.5000000000009 2732.0000000000005 4336.5000000000009 4457.5000000000009 2387.5000000000005 9.5000000000000018
decision_type=2 5 5 2 2 2 2 2 2 2 2
left_child=1 3 10 -1 -4 6 9 -5 -9 -3 -2
right_child=2 5 4 7 -6 -7 -8 8 -10 -11 -12
leaf_value=0.0079997954944457609 -0.00078321109401208861 -0.00014482434663428431 0.028455915278263293 -0.0048402395574692865 -0 0 -0.026511755095564717 0.0015686770942272572 -0 0.00057142527041085817 0
leaf_count=294 62 70 1410 251 71 51 1917 92 78 52 51
internal_value=0 -0.0646678 0.087054 0.0144406 0.0914205 -0.0830725 -0.086207 -0.00889956 0.00466085 0 -0.00234196
internal_count=4399 2805 1594 715 1481 2090 2039 421 170 122 113
cat_boundaries=0 4 9
cat_threshold=184623104 1177092769 131361 67110913 4198464 35651648 1048576 0 32
shrinkage=0.3


Tree=5
num_leaves=10
num_cat=0
split_feature=3 5 5 0 3 1 5 3 5
split_gain=13.2098 2.51212 0.824332 0.413391 0.165565 0.11705 0.111752 0.0605436 0.0146056
threshold=3085.0000000000005 3557.5000000000005 4560.5000000000009 94.500000000000014 1405.0000000000002 1.5000000000000002 2926.5000000000005 205.00000000000003 2387.5000000000005
decision_type=2 2 2 2 2 2 2 2 2
left_child=1 4 7 5 -1 -2 8 -3 -6
right_child=3 2 -4 -5 6 -7 -8 -9 -10
leaf_value=0.0048992566712438828 0 0 0.00065110960708036675 -0 -0 0.025884346108880345 -0.0029695076589407263 -0.02536638579141616 0.0017754666531784886
leaf_count=326 159 60 73 77 65 1360 262 1911 106
internal_value=0 -0.0637958 -0.0795961 0.0826231 0.0104539 0.0850275 -0.00292358 -0.0840389 0.00450984
internal_count=4399 2803 2044 1596 759 1519 433 1971 171
shrinkage=0.3


Tree=6
num_leaves=10
num_cat=2
split_feature=5 3 2 5 2 5 5 1 5
split_gain=11.4015 2.76217 1.26344 0.891467 0.784151 0.191923 0.0271503 0.0151101 0.00114094
threshold=3618.5000000000005 3855.0000000000005 0 4560.5000000000009 1 3721.0000000000005 2570.0000000000005 1.0000000180025095e-35 2152.0000000000005
decision_type=2 2 5 2 5 2 2 2 2
left_child=2 3 6 4 7 -3 8 -2 -1
right_child=1 5 -4 -5 -6 -7 -8 -9 -10
leaf_value=-0 -3.9060399954706509e-05 -0.00092564141963798663 0.024994949384183403 0.0008128098880668959 -0.025898309098198572 0.0056540954532609249 -0.0019362290352829808 0.0012502687590509676 0.00032200185587701735
leaf_count=52 81 69 1324 76 1886 436 287 142 46
internal_value=0 -0.0604825 0.0754724 -0.0771444 -0.0819942 0.0133932 -0.00383705 0.00152592 9.54334e-05
internal_count=4399 2690 1709 2185 2109 505 385 223 98
cat_boundaries=0 4 11
cat_threshold=12619880 1090519112 0 16 33554440 16777249 131104 0 0 0 5
shrinkage=0.3


Tree=7
num_leaves=13
num_cat=3
split_feature=5 2 2 5 0 1 1 0 2 5 1 5
split_gain=9.99141 2.00601 0.969199 0.597643 0.186879 0.171969 0.149255 0.0456234 0.0402654 0.0212603 0.00100509 0.000320568
threshold=3557.5000000000005 0 1 4560.5000000000009 80.500000000000014 29.500000000000004 3.5000000000000004 1.0000000180025095e-35 2 2570.0000000000005 37.500000000000007 4315.5000000000009
decision_type=2 5 5 2 2 2 2 2 5 2 2 2
left_child=2 6 7 5 -4 -3 8 -1 11 -9 -7 -2
right_child=1 3 4 -5 -6 10 -8 9 -10 -11 -12 -13
leaf_value=0.0005449583550329038 -0 -0.021755872751336686 0.024738027267445558 0.0004676398001089531 -0 0.00028277821738578041 0.0048966823281894238 0 -0.00196314073656241 -0.0025210241124985844 -0.00010285518293668426 0.00052489669360492356
leaf_count=45 84 2036 1235 62 78 49 238 71 162 170 95 74
internal_value=0 -0.0531844 0.0743745 -0.0667895 0.080429 -0.0710376 0.0109468 -0.00274336 -0.00244073 -0.00701443 0 0.00163211
internal_count=4399 2800 1599 2242 1313 2180 558 286 320 241 144 158
cat_boundaries=0 7 11 13
cat_threshold=51388424 18874403 131104 0 0 0 1 12587112 1090519104 0 16 17825792 2097153
shrinkage=0.3


Tree=8
num_leaves=8
num_cat=3
split_feature=4 2 5 4 5 5 5
split_gain=45.5601 2.01909 0.431878 0.235504 0.0115219 0.0131974 0.000265396
threshold=0 1 2124.0000000000005 2 3201.5000000000005 4315.5000000000009 1510.5000000000002
decision_type=5 5 2 5 2 2 2
left_child=3 4 6 -1 -2 -6 -3
right_child=1 2 -4 -5 5 -7 -8
leaf_value=-0 0.0017050698602222416 -0 -0.038547129502941091 0.046983060126823732 -0.00091118724314526048 0.00059365325844458136 0.000154375301541025
leaf_count=185 62 52 2848 983 125 63 81
internal_value=0 -0.117581 -0.125454 0.153937 0.00446986 -0 0
internal_count=4399 3231 2981 1168 250 188 133
cat_boundaries=0 13 20 21
cat_threshold=8675384 604521985 35651712 256 4 1077936128 65536 4096 0 0 0 0 1073741888 186650624 65536 131073 1 0 0 5 262144
shrinkage=0.3



feature importances:
date_delta=38
location=14
mileage=13
follow_count=7
fans_count=6
car_like=4

pandas_categorical:null
