tree
version=v2
num_class=1
num_tree_per_iteration=1
label_index=0
max_feature_idx=8
objective=binary sigmoid:1
feature_names=follow_count fans_count gender location level properties mileage car_like date_delta
feature_infos=[0:911] [0:827] [1:2] 5:32:4:20:13:15:14:11:7:16:9:37:51:19:38:12:26:39:35:57:27:24:3:48:53:22:33:68:56:23:61:69:72:122:17:77:62:25:6:100:133:64:194:46:107:84:192:98:75:31:91:28:29:162:96:164:87:105:66:193:101:82:71:104:49:108:41:42:67:81:120:59:137:88:34:240:89:121:229:30:176:21:180:247:50:93:99:8:238:156:136:149:131:118:217:125:97:171:43:86:85:44:54:141:145:36:112:58:195:18:63:191:10:103:175:268:1:127:212:210:147:254:185:179:172:168:126:102:78:76:119:55:45:74:60:65:252:165:196:106:153:109:110:166:167:95:170:73:190:83:183:184:140:128:227:218:228:265:230:47:143:114:146:148:111:150:202:233:225:201:219:186:246:243:189:224:216:235:40:70:199:198:237:232:160:262:115:263:116:181:117:154:155:135:158:253:163:169:267:173:132:249:291 [1:6] [1:10] [70:290600] 18:1:35:42:414:5:17:28:45:130:236:33:3:0:12:69:58:71:208:134:81:25:390:61:56:2:19:110:16:136:15:24:11:31:23:118:94:47:190:53:77:59:57:7:22:87:72:105:143:50:36:43:52:117:54:101:129:75:46:131:182:40:108:14:316:152:125:93:41:92:32:4:128:133:260:20:51:100:132:137:106:124:160:104:111:153:89:10:292:115:88:120:126:107:80:97:147:98:48:157:240:222:29:123:331:200:270:227:109:170:163:159:194:142:34:261:371:13:79:224:119:343:178:91:85:192:416:99:112:127:21:313:164:175:350:150:189:26:73:237:193:229:196:360:197:276:272:380:223:60:370:65:171:6:312:184:83:207:82:216:218:234:221:62:378:148:341:384:494:202:273:249:44:296:275:363:76:144:145:446:68:205:436:74:326:168:321:329:233:174:121:122:235:27:304:388:474:241:248:386:433:8:381:299:330:336:317:415:467:345:348:401:306:78:398:294:351:483:445:361:411:440:425:367:84:185:179:177:198:30:206:534:210:55:63:64:219:90 [0:4626]
tree_sizes=520 492 603 483 485 488 638 495 492 556 500 549 695 599 501 765 489 542 543 549 616 489 499 704 484 484 498 551 557 471 625 492 557 429 495 493 483 651 548 551 536 415 495 625 551 539 481 545 602 474 544 549 415 495 544 493 539 578 604 544 501 488 500 501 553 621 488 482 558 435 489 552 533 476 554 562 433 642 703 494 489 553 552 628 550 496 496 494 559 567 546 504 544 572 551 548 674 643 535 484 556 543 489 558 487 542 608 611 548 567 547 613 489 565 560 558 543 490 556 556 617 559 500 611 495 683 565 562 499 548 555 712 621 556 609 685 499 605 502 568 558 543 621 570 561 549 601 565 556 552 499 497 565 546 488 547 712 561 686 609 600 553 552 707 574 567 621 579 612 500 692 500 477 552 486 763 558 546 624 633 709 612 487 545 693 574 485 557 547 438 447 695 613 550 561 493 493 499 612 492 561 619 560 768 497 648 555 564 564 560 616 558 638 502 553 501 616 550 612 492 556 612 561 556 541 566 557 553 561 512 706 499 719 557 606 583 561 443 566 710 555 562 564 576 548 642 753 567 613 604 619 632 545 614 503 564 706 612 564 827 564 560 489 416 692 566 496 560 541 570 505 564 495 570 560 542 563 500 546 574 702 564 632 580 553 569 489 498 717 653 643 627 551 561 695 536 490 617 555 753 703 566 625 680 617 506 546 479 576 494 552 632 572 549 567 635 611 501 565 598 504 711 567 578 554 616 555 579 620 501 497 626 566 787 571 622 558 627 544 610 629 567 554 493 571 559 634 497 626 679 614 564 688 547 677 701 574 573 551 604 627 610 563 494 497 547 638 777 503 821 516 642 566 570 656 638 694 509 568 556 693 749 503 505 552 629 647 512 690 570 502 628 568 556 612 557 769 632 651 644 617 608 502 659 627 569 514 624 628 561 642 751 641 504 511 543 696 565 631 713 502 661 575 644 664 760 774 632 636 640 571 749 620 556 657 701 633 618 565 569 530 609 568 567 582 687 625 643 623 557 616 636 561 571 644 663 611 572 590 507 620 608 604 506 513 614 620 496 711 551 640 555 777 553 642 508 558 678 736 637 766 630 652 628 717 558 543 454 634 499 699 658 630 688 698 554 704 502 509 563 772 569 569 645 481 531 506 580 570 554 631 538 638 562 489 572 516 629 714 704 643 711 714 652 627 542 612 643 705 568 640 645 609 497 499 703 715 655 550 510 573 483 637 649 692 643 578 624 648 579 708 591 569 566 625 768 618 690 572 559 633 708 595 630 569 560 632 565 632 650 578 504 631 524 633 496 691 709 556 830 569 704 614 654 568 557 645 575 451 609 652 554 588 610 569 567 671 619 511 610 576 706 631 575 577 719 570 629 635 639 697 766 654 570 621 567 550 571 775 697 761 657 507 655 514 713 631 570 710 701 580 771 680 712 505 805 539 641 632 519 628 766 649 629 633 700 766 634 706 641 754 579 570 626 642 555 622 583 571 700 569 669 640 639 710 509 626 675 704 520 632 550 645 604 578 618 592 703 672 647 577 581 629 752 622 711 568 709 635 511 516 643 568 572 576 614 551 626 694 503 728 699 550 612 691 597 654 778 637 663 699 560 574 585 630 525 633 571 545 550 757 661 581 608 557 767 697 507 824 577 615 613 623 625 560 638 558 701 632 704 571 557 655 701 563 497 740 573 632 657 538 700 635 712 652 630 638 632 629 760 634 652 643 559 511 696 562 767 633 651 554 581 586 679 695 562 586 653 564 655 568 718 643 595 637 704 561 565 699 568 575 707 590 823 689 559 621 714 652 574 703 630 766 631 585 644 565 712 778 579 640 638 646 653 604 707 554 577 762 707 515 630 716 649 646 697 609 643 656 573 575 705 635 712 795 682 624 748 759 565 666 654 698 672 627 659 551 700 773 693 647 712 537 614 642 564 665 791 482 778 714 640 656 696 709 718 639 702 494 643 707 548 594 522 571 714 700 548 578 554 765 660 645 500 707 655 763 570 648 769 576 689 645 707 627 615 588 652 580 603 637 646 562 713 630 563 627 501 645 553 689 633 538 792 780 721 719 630 706 634 590 643 520 513 676 633 613 715 566 751 557 645 644 715 751 581 572 638 643 690 555 522 651 638 640 718 573 660 629 704 690 647 624 580 571 657 842 687 697 688 717 666 714 609 635 713 559 515 748 704 669 625 631 569 675 649 572 604 573 511 578 635 704 716 581 747 636 565 641 678 769 691 545 573 690 615 552 503 767 768 635 568 549 708 629 489 647 566 746 635 696 723 728 584 643 572 821 647 643 709 719 644 715 526 645 733 647 696 624 556 711 632 488 701 660 586 781 689 752 568 691 722 679 681 627 648 582 603 573 551 693 777 711 575 509 549 694 576 683 625 719 636 762 640 618 592 576 805 689 648 786 698 781 715 763 728 705 686 634 515 637 585 691 648 706 708 595 630 632 425 630 726 577 774 709 565 683 654 506 700 582 534 610 627 638 644 708 573 665 768 616 562 584 563 699 640 781 616 637 638 593 614 528 771 513 578 650 583 656 553 588 636 710 687 639 599 587 709 575 509 615 723 558 644 650 685 613 641 566 586 634 777 749 650 625 494 508 631 744 705 564 753 661 643 750 691 653 644 650 585 601 636 718 652 753 675 616 632 605 644 773 699 620 778 636 622 658 575 757 506 652 703 774 706 666 623 782 649 704 686 642 652 646 753 708 635 526 702 511 562 618 758 576 574 525 636 714 686 690 771 633 663 623 571 588 643 702 641 594 550 643 642 580 618 631 621 571 755 514 642 525 713 644 701 727 718 716 641 525 695 818 626 794 790 754 761 602 642 702 576 614 703 803 699 633 629 727 584 761 581 674 559 679 567 492 846 657 573 621 653 644 659 726 660 641 706 674 766 606 657 643 550 588 580 619 645 624 765 860 709 622 675 540 821 648 649 635 718 778 694 702 728 633 631 635 671 816 702 647 561 660 651 565 528 703 634 596 870 454 769 582 562 638 648 686 511 545 601 609 588 694 463 486 823 526 776 564 614 629 794 485 561 612 651 704 617 565 827 628 725 676 745 563 699 638 719 638 706 626 626 674 690 667 770 611 705 642 576 688 558 724 648 665 553 521 528 749 642 663 621 698 590 591 518 652 684 698 611 772 856 560 622 580 649 559 571 824 829 624 646 701 545 665 686 622 524 567 634 572 588 640 715 502 573 692 646 570 597 698 564 624 771 685 710 798 574 727 628 833 620 708 596 728 669 642 620 576 722 757 558 882 561 597 547 634 670 498 637 656 660 877 535 647 501 618 771 692 750 722 628 592 621 623 628 577 557 659 564 605 702 650 632 568 694 537 741 623 709 717 482 623 497 628 757 433 803 617 544 714 746 702 578 754 598 620 1003 768 602 758 815 766 626 624 651 761 564 552 423 578 624 635 732 580 637 851 694 548 682 692 721 754 713 536 624 619 654 579 591 707 506 701 681 693 639 554 538 806 691 600 691 831 646 774 698 685 843 722 771 602 508 641 668 637 592 714 585 803 642 702 598 593 732 634 716 565 644 637 637 736 682 644 512 589 724 613 730 848 667 675 624 574 518 689 735 724 667 666 577 557 643 544 569 817 540 754 644 559 724 704 635 564 711 587 521 676 681 583 720 513 645 629 732 833 579 603 628 657 545 647 599 615 579 709 458 584 579 591 574 598 426 643 646 789 605 584 713 661 571 753 680 614 582 566 648 645 680 665 694 743 642 696 706 730 633 775 677 811 705 618 666 538 706 776 697 685 681 577 689 621 776 703 595 611 591 494 825 790 801 696 640 689 548 574 762 689 674 568 685 569 587 722 727 701 610 641 437 757 580 644 840 710 654 605 676 825 608 726 815 708 633 691 613 511 741 689 481 748 640 698 497 706 646 603 529 508 585 646 642 644 648 764 577 572 514 548 640 611 697 693 576 705 627 616 564 484 565 634 572 665 603 631 714 657 692 626 656 666 538 704 507 597 505 760 567 562 588 697 765 644 492 692 569 676 778 683 575 634 729 907 633 636 767 700 727 742 679 760 667 693 794 722 623 438 632 694 653 482 792 595 577 623 558 673 577 509 655 804 980 835 695 807 552 592 543 795 582 563 654 817 611 653 574 602 582 628 505 564 669 565 562 717 673 577 702 777 694 579 773 667 559 784 737 656 609 659 628 570 714 533 717 601 713 653 678 498 651 583 617 532 563 781 698 639 786 582 708 823 664 723 675 864 768 644 869 473 576 578 771 857 647 724 767 703 626 857 592 581 731 802 793 672 647 622 521 633 715 713 680 578 551 533 651 686 573 655 618 608 576 627 550 672 666 641 738 685 560 586 640 653 490 544 608 595 697 694 565 696 819 710 629 605 760 774 708 682 725 643 740 703 628 689 572 490 684 561 678 666 619 583 686 606 812 903 580 657 673 686 770 757 653 623 561 642 698 740 568 705 673 754 679 649 643 564 585 659 580 804 680 552 460 639 712 670 520 743 715 672 681 648 700 829 557 804 709 574 635 650 519 671 923 716 721 808 565 773 721 599 642 574 554 548 619 564 731 640 645 863 675 689 770 741 685 548 831 608 628 569 592 821 692 628 625 624 711 731 837 630 683 605 646 656 641 779 778 698 750 509 712 722 581 695 491 724 676 725 721 701 633 681 754 759 479 684 566 744 589 592 613 752 628 698 457 662 459 747 679 660 719 840 939 701 549 585 647 669 689 579 682 730 593 715 767 812 746 642 699 773 642 809 577 683 689 907 734 717 701 660 635 644 631 613 871 511 571 735 638 656 646 517 612 747 579 583 650 622 691 655 686 722 716 664 656 736 642 696 779 822 486 622 634 638 722 750 653 615 867 555 536 636 719 821 749 666 884 699 712 645 765 547 637 605 604 570 615 526 521 587 594 778 720 704 604 717 639 592 690 608 755 650 640 630 501 621 587 829 694 719 511 779 569 686 811 612 815 639 716 672 868 728 671 731 668 810 628 714 591 808 530 705 614 574 883 734 506 761 522 751 748 616 696 707 731 549 511 704 569 602 638 738 615 697 686 655 572 687 758 652 605 686 688 564 676 570 545 704 664 824 574 737 646 679 791 568 559 688 609 677 650 626 812 652 598 665 598 571 575 575 645 840 760 582 740 677 622 559 633 558 634 682 818 567 701 583 623 615 740 615 621 612 832 795 666 564 625 834 769 563 703 645 565 656 827 525 642 686 665 527 698 634 684 650 571 765 523 707 825 666 667 792 642 839 682 595 655 560 607 701 757 574 646 761 629 726 625 503 840 738 629 866 458 640 586 675 828 558 831 696 636 643 730 765 715 626 759 660 578 655 660 652 632 603 875 518 708 716 769 683 633 586 715 694 734 755 647 680 639 721 536 689 562 654 605 660 513 611 568 587 674 620 725 924 686 675 844 584 574 748 512 582 725 674 619 573 608 628 712 740 666 431 661 724 592 888 864 497 723 693 666 651 577 569 587 614 642 677 742 757 682 607 729 647 805 662 585 551 741 698 862 600 650 745 759 703 653 562 643 570 681 679 508 667 652 627 488 743 646 748 575 586 647 769 778 568 517 774 715 564 566 706 772 618 458 519 543 702 572 569 637 599 626 686 671 771 619 670 772 703 688 707 735 729 730 559 715 654 673 662 722 738 604 581 575 712 525 613 576 595 607 764 639 647 695 775 763 514 673 600 688 562 638 755 581 600 699 698 698 735 819 494 703 778 677 635 574 722 814 660 663 764 821 502 551 739 923 660 582 769 565 675 768 691 669 648 595 593 695 636 923 622 562 731 701 675 763 570 638 704 716 661 561 659 651 543 694 603 627 663 741 528 685 721 655 773 636 628 621 624 597 641 863 551 726 500 584 495 598 717 601 429 523 569 513 579 780 626 719 675 687 585 686 412 614 768 762 656 629 589 639 753 773 578 595 579 535 645 581 630 669 594 564 622 705 674 581 710 739 764 850 644 746 711 769 816 500 774 524 574 642 513 631 520 559 609 792 755 855 673 606 702 611 760 719 570 853 586 696 684 638 770 724 577 737 695 582 597 649 660 588 594 528 639 681 871 580 593 509 751 778 638 710 650 694 700 623 680 752 680 594 722 630 597 761 534 522 651 575 706 577 767 701 515 723 517 812 762 577 658 698 683 692 624 593 703 548 649 542 875 743 729 618 708 506 720 520 661 642 522 711 757 782 584 511 728 770 603 729 596 925 704 635 628 651 598 767 703 728 675 617 689 773 666 635 564 832 642 759 754 793 592 690 672 625 582 709 771 668 729 608 693 564 614 771 704 579 600 700 605 730 683 910 690 695 623 746 596 680 703 665 640 757 720 559 728 647 694 693 754 751 636 596 749 712 661 735 648 630 833 518 523 804 653 654 664 492 597 572 669 698 581 647 694 517 710 738 639 658 579 695 698 615 773 769 645 816 840 806 651 718 895 656 679 519 706 591 624 805 614 630 689 646 587 604 578 704 694 569 564 561 555 674 630 519 630 696 602 750 630 689 701 643 561 606 794 846 720 630 631 638 700 702 806 668 608 787 648 832 579 632 849 752 588 576 778 784 737 641 723 774 747 626 576 655 586 652 643 465 692 633 844 768 567 644 590 641 641 643 718 701 577 628 586 551 673 572 516 727 772 651 765 609 732 768 720 676 718 741 694 553 827 693 717 564 573 640 580 618 879 635 638 823 624 590 788 630 913 668 523 550 651 654 683 638 603 742 615 755 597 708 820 699 651 636 745 675 825 665 630 624 628 768 705 796 577 589 648 749 528 954 741 572 790 570 718 532 652 667 515 615 543 661 593 668 582 510 734 640 582 614 682 694 610 517 584 693 793 603 703 702 575 775 738 663 548 763 670 700 647 586 635 559 724 638 517 632 559 703 635 530 520 534 576 738 618 689 826 659 559 749 652 664 760 585 460 484 677 635 693 620 640 750 783 512 581 735 562 710 664 491 769 595 688 560 799 672 633 651 488 566 603 650 833 771 744 559 552 709 731 850 578 644 582 618 707 722 575 560 769 885 574 633 922 703 696 593 729 602 620 457 606 566 544 691 753 679 585 612 658 592 559 775 570 594 653 570 570 756 693 759 741 666 599 870 725 705 523 767 531 639 644 764 850 585 544 555 550 665 679 767 617 750 585 641 588 636 706 537 558 444 649 688 657 713 646 707 760 650 623 611 710 713 595 671 666 754 599 820 702 703 690 641 627 594 686 709 704 696 844 623 581 655 717 757 645 619 743 590 700 590 763 660 596 526 535 689 725 676 648 677 656 575 583 735 716 517 820 658 646 629 702 668 672 649 580 643 783 779 744 576 760 871 696 633 507 615 641 675 559 745 535 571 648 771 763 729 589 714 745 571 510 581 741 624 897 609 669 558 681 624 731 700 617 709 595 794 688 565 632 567 590 574 645 612 679 670 586 731 578 681 469 627 830 835 635 672 719 687 607 614 595 636 768 609 784 556 638 651 616 601 631 752 676 670 570 760 646 602 726 782 604 705 606 653 661 693 645 709 574 583 680 670 538 633 632 561 495 819 673 640 611 642 726 562 781 642 704 711 563 638 711 562 484 777 549 691 548 713 737 652 582 575 721 618 744 750 660 632 746 609 730 578 862 698 637 619 661 581 719 669 694 604 650 643 622 628 619 662 486 575 772 639 774 528 557 742 634 585 559 566 563 601 718 657 643 737 564 627 649 605 672 649 593 624 540 759 579 578 637 627 692 762 785 588 688 644 548 673 574 630 626 606 768 821 604 685 801 582 524 699 635 642 579 634 633 633 570 675 708 748 853 776 572 726 717 734 670 702 736 753 658 569 686 565 591 659 699 582 650 744 691 658 836 658 593 604 724 669 767 712 633 582 561 691 658 672 744 585 612 650 611 529 624 595 724 584 667 576 640 585 703 724 746 674 704 659 745 645 856 717 705 547 698 774 718 807 646 730 694 705 800 756 608 711 606 691 730 750 697 662 799 562 693 554 621 522 712 777 677 657 778 763 578 767 662 782 835 653 653 710 651 521 745 613 723 859 619 456 695 596 440 754 550 590 754 624 574 659 517 580 700 574 712 672 601 603 751 632 678 537 628 665 733 715 577 573 807 829 631 652 767 542 680 828 716 670 556 755 700 695 654 720 722 854 625 646 569 643 597 766 660 561 819 766 672 578 639 704 781 659 752 778 811 656 676 563 744 571 639 659 660 678 510 711 636 736 628 785 580 702 674 611 611 659 862 697 698 666 720 592 587 746 682 831 789 760 697 753 716 639 615 697 563 606 560 573 602 655 507 719 703 708 543 572 738 669 668 548 659 520 764 655 612 768 521 589 665 772 774 710 694 762 653 582 633 727 523 744 571 497 569 536 663 485 617 647 661 716 737 849 582 632 638 841 756 606 642 584 667 619 779 690 781 638 588 626 634 633 677 644 675 569 592 591 653 516 683 515 570 688 573 659 723 629 602 582 591 664 595 578 754 814 554 683 829 677 696 592 696 817 809 785 717 735 639 641 898 743 590 589 682 713 576 648 653 583 689 595 709 762 738 663 667 691 536 625 580 619 621 524 783 620 494 602 642 657 614 758 652 947 690 541 557 592 703 727 601 566 667 567 702 634 831 647 838 623 858 779 625 688 604 709 687 710 719 595 582 763 638 698 528 514 651 771 640 690 483 586 562 573 587 580 502 488 692 588 632 527 572 576 587 575 719 575 726 604 637 718 635 590 575 741 596 734 525 812 635 674 914 703 661 662 464 730 647 640 627 573 701 561 598 699 631 709 562 606 671 485 668 725 690 627 721 773 621 628 656 676 644 609 624 504 690 572 635 616 658 620 657 648 716 678 685 771 645 599 817 817 876 767 553 645 807 588 593 700 725 648 602 578 599 643 537 610 643 778 599 523 725 551 743 743 460 582 623 674 689 986 614 563 638 671 589 647 641 583 631 722 666 756 777 497 741 575 771 658 603 636 514 561 568 680 774 656 820 726 713 565 656 602 636 856 620 546 734 872 746 688 585 692 653 723 591 800 569 640 611 541 779 742 724 822 652 632 868 588 602 522 675 588 873 589 666 557 527 578 802 597 596 606 518 709 654 704 712 597 705 573 620 661 762 823 693 808 688 525 693 528 527 651 733 896 588 712 690 569 839 701 753 712 605 660 458 621 570 630 601 756 530 592 719 623 798 573 653 458 458 650 774 819 674 677 909 604 625 831 616 680 648 594 579 692 713 706 747 699 735 686 580 555 884 752 555 850 592 697 629 761 722 609 583 803 523 659 591 509 595 673 766 581 577 640 641 669 595 732 842 644 495 513 708 505 520 742 575 666 854 493 836 673 714 759 706 598 707 643 597 520 606 780 699 748 759 649 818 853 503 520 616 668 546 754 708 694 652 604 646 740 654 641 727 584 714 492 645 709 651 766 800 609 605 674 582 798 665 667 545 685 571 776 621 677 789 587 689 560 743 718 706 587 681 639 619 582 642 685 522 657 532 822 660 646 721 506 660 713 585 943 719 781 697 773 660 766 537 747 992 641 604 680 562 748 652 708 741 563 703 650 581 592 728 707 518 677 571 574 588 741 547 531 519 658 595 737 582 605 782 756 611 582 740 590 579 665 589 500 599 712 584 670 725 617 681 654 777 620 559 649 751 569 549 542 641 656 714 884 648 688 577 640 668 675 768 598 741 738 584 705 773 666 630 534 518 548 678 791 557 699 606 647 633 647 711 629 604 638 646 584 680 576 582 726 675 628 656 682 657 602 574 675 637 769 720 693 641 663 688 607 611 711 710 635 684 643 718 566 628 528 565 514 775 645 569 712 567 697 651 788 719 635 662 571 676 630 692 688 649 525 670 803 569 589 582 685 586 637 564 575 636 604 658 735 537 801 683 698 590 721 621 814 795 690 562 636 796 742 690 804 689 926 712 795 722 739 588 742 505 678 716 664 778 605 664 611 895 690 504 756 600 817 551 595 675 556 516 573 572 844 649 583 722 688 732 551 714 617 835 650 579 798 585 639 592 519 613 700 566 600 684 646 730 589 667 599 790 581 687 571 705 580 804 647 650 600 520 652 670 650 656 752 634 465 735 630 651 607 699 617 507 775 777 684 587 580 656 602 597 685 594 516 788 645 756 596 641 699 691 653 568 558 571 656 638 643 715 511 682 700 596 709 584 699 650 520 634 755 595 641 645 616 585 781 559 478 441 570 682 479 616 632 776 703 571 676 642 582 861 662 602 622 458 798 779 771 598 726 669 697 605 582 704 648 819 594 676 617 762 656 574 563 828 726 648 809 645 586 715 601 686 611 659 515 725 721 712 849 608 667 634 637 612 716 647 747 683 577 727 511 711 755 665 456 772 602 626 618 836 601 708 644 826 761 457 618 594 626 632 597 665 704 665 594 700 687 596 772 556 568 724 579 701 518 722 688 771 528 700 685 632 597 796 660 641 653 702 575 682 661 842 699 816 566 726 726 850 647 734 738 629 704 660 520 767 621 756 587 761 678 716 602 580 695 630 575 577 729 588 689 534 671 586 718 567 715 639 630 604 642 561 846 665 520 752 615 462 586 703 887 597 682 711 696 634 529 698 707 724 632 626 851 739 583 694 573 604 512 595 697 511 701 659 742 584 580 932 780 679 684 501 652 728 650 598 649 571 679 700 580 764 696 652 636 602 621 576 595 650 760 625 894 650 582 642 645 718 753 566 643 653 646 732 573 652 636 531 738 592 619 638 575 605 575 741 608 762 767 532 634 672 611 617 730 584 750 807 736 871 779 599 689 659 682 568 694 704 599 689 624 641 742 891 551 595 636 763 633 862 812 708 590 636 560 669 724 653 680 837 645 895 780 756 568 692 721 491 595 656 728 725 716 637 778 653 766 760 724 665 733 657 626 528 818 668 700 758 762 736 660 624 559 556 704 890 664 750 571 719 594 727 510 672 563 823 598 578 677 647 714 562 650 498 652 530 686 666 547 763 638 678 615 705 566 594 661 700 829 592 603 627 642 667 627 654 752 657 785 839 610 659 661 608 467 429 639 737 594 584 699 775 732 655 574 592 643 658 671 624 825 599 771 731 712 623 789 798 568 769 660 741 661 590 597 743 692 611 614 652 894 790 616 648 670 711 775 598 699 527 590 646 602 718 709 682 644 712 661 713 780 696 665 657 648 703 662 640 707 590 579 622 574 677 458 619 680 792 643 532 725 567 665 645 591 724 744 678 643 675 468 595 626 655 627 580 611 609 856 647 577 698 600 677 672 808 516 727 626 684 664 632 671 562 673 565 736 757 826 940 659 701 386 760 456 582 608 527 567 754 539 718 653 761 592 719 566 600 645 683 589 691 671 638 615 593 612 732 590 780 736 565 772 539 862 582 682 785 574 667 581 737 675 694 707 668 509 697 657 587 730 605 644 715 644 619 463 649 699 617 774 713 600 556 427 694 625 689 577 613 710 634 594 591 689 582 696 658 620 607 742 719 730 679 710 705 659 690 629 571 707 625 650 664 457 618 645 714 696 681 756 656 589 658 800 646 568 860 632 728 674 716 709 613 676 644 643 525 578 521 665 534 597 774 763 734 732 701 525 666 618 589 776 523 724 587 583 773 665 592 720 763 645 459 600 613 723 639 509 628 602 640 649 580 585 669 583 574 508 655 592 736 594 479 707 730 576 632 673 669 686 775 767 807 584 672 676 598 572 803 620 706 767 825 569 694 580 614 581 770 645 687 738 596 716 524 720 585 473 691 662 737 675 580 530 781 488 698 719 691 689 623 594 794 784 621 585 693 583 666 610 641 716 586 684 578 657 732 738 690 770 777 642 528 610 717 651 776 768 712 746 832 711 783 640 641 633 590 710 521 461 662 662 568 600 532 636 714 710 745 845 762 656 571 831 574 627 770 702 567 640 584 612 731 732 721 599 655 840 666 670 774 669 619 765 518 663 601 641 579 635 649 584 729 644 711 609 734 593 702 778 749 576 715 511

Tree=0
num_leaves=4
num_cat=2
split_feature=7 3 8
split_gain=2.32981 0.111953 0.0318485
threshold=0 1 1896.0000000000002
decision_type=5 5 2
left_child=-1 -2 -3
right_child=1 2 -4
leaf_value=-1.8982259226550355 -1.9004017910958988 -1.9004017910958988 -1.9029409514999527
leaf_count=730 109 78 2589
internal_value=0 -0.00801759 -0.00836327
internal_count=3506 2776 2667
cat_boundaries=0 13 17
cat_threshold=2160066608 603997696 73856 0 32772 1077936128 65536 4096 0 0 0 0 1073741888 419430400 536870912 0 1
shrinkage=1


Tree=1
num_leaves=4
num_cat=2
split_feature=7 3 8
split_gain=2.14717 0.100587 0.0344538
threshold=0 1 1896.0000000000002
decision_type=5 5 2
left_child=-1 -2 -3
right_child=1 2 -4
leaf_value=0.0022567829230526249 0 0 -0.0022875957114548724
leaf_count=711 217 75 2503
internal_value=0 -0.00715736 -0.00750614
internal_count=3506 2795 2578
cat_boundaries=0 13 20
cat_threshold=12583088 67126785 8320 0 260 1073741824 65536 4096 0 0 0 0 1073741888 419430408 539033600 32 0 0 0 1
shrinkage=0.3


Tree=2
num_leaves=6
num_cat=2
split_feature=7 3 8 8 8
split_gain=1.9641 0.0427416 0.0345323 0.0237618 0.0100808
threshold=0 1 2206.0000000000005 4437.5000000000009 4548.0000000000009
decision_type=5 5 2 2 2
left_child=3 -2 -3 -1 -4
right_child=1 2 4 -5 -6
leaf_value=0.0021741544742198212 0 0 -0.0021612084249523983 -0 0
leaf_count=745 115 128 2372 74 72
internal_value=0 -0.00688254 -0.00703985 0.00715877 -0.00716747
internal_count=3506 2687 2572 819 2444
cat_boundaries=0 13 15
cat_threshold=12587188 100959745 65920 256 4 1073741824 65536 4096 0 0 0 0 1073741888 134217736 536936448
shrinkage=0.3


Tree=3
num_leaves=4
num_cat=2
split_feature=7 8 3
split_gain=2.22644 0.0793005 0.0400992
threshold=0 2108.5000000000005 1
decision_type=5 2 5
left_child=-1 -2 -3
right_child=1 2 -4
leaf_value=0.0023095797659598389 0 0 -0.002296553726322789
leaf_count=812 113 126 2455
internal_value=0 -0.00724805 -0.00752228
internal_count=3506 2694 2581
cat_boundaries=0 13 15
cat_threshold=2160066608 637584897 8576 0 4 1077936128 65536 4096 0 0 0 0 1073741888 419430408 536870912
shrinkage=0.3


Tree=4
num_leaves=4
num_cat=2
split_feature=7 8 3
split_gain=2.21363 0.0781404 0.02491
threshold=0 1972.5000000000002 1
decision_type=5 2 5
left_child=-1 -2 -3
right_child=1 2 -4
leaf_value=0.0022994509421453658 0 0 -0.0022777625544897246
leaf_count=755 98 103 2550
internal_value=0 -0.00723954 -0.00750981
internal_count=3506 2751 2653
cat_boundaries=0 13 17
cat_threshold=4194480 603981313 8352 256 4 1077936128 65536 4096 0 0 0 0 1073741888 268435464 538968064 0 16
shrinkage=0.3


Tree=5
num_leaves=4
num_cat=2
split_feature=7 8 3
split_gain=1.94039 0.0781123 0.046992
threshold=0 2318.0000000000005 1
decision_type=5 2 5
left_child=-1 -2 -3
right_child=1 2 -4
leaf_value=0.0021431414439424625 0 0 -0.0021788038874855586
leaf_count=871 150 106 2379
internal_value=0 -0.00681159 -0.00709865
internal_count=3506 2635 2485
cat_boundaries=0 13 16
cat_threshold=2160066596 639927809 8576 0 32772 1073741824 65536 4096 0 0 0 0 1073741888 134217736 2097152 32
shrinkage=0.3


Tree=6
num_leaves=7
num_cat=2
split_feature=6 3 1 3 0 8
split_gain=0.515407 0.123636 0.0493154 0.0203345 0.00803 0.000520486
threshold=2545.0000000000005 0 1.5000000000000002 1 79.500000000000014 3625.0000000000005
decision_type=2 5 2 5 2 2
left_child=1 5 -2 -4 -5 -1
right_child=2 -3 3 4 -6 -7
leaf_value=4.8732258213033665e-05 -0 -0.0012770560656832563 -0 0.0012712249931211702 -0 -0
leaf_count=111 196 1582 104 1153 92 268
internal_value=0 -0.00344797 0.00374178 0.0040619 0.00418619 0
internal_count=3506 1961 1545 1349 1245 379
cat_boundaries=0 4 9
cat_threshold=163774464 573112321 288 67108880 12582976 72 32 16 32
shrinkage=0.3


Tree=7
num_leaves=4
num_cat=2
split_feature=7 3 6
split_gain=1.97128 0.0636536 0.0457943
threshold=0 1 9335.0000000000018
decision_type=5 5 2
left_child=-1 -2 -3
right_child=1 2 -4
leaf_value=0.0022003586444044633 0 -0.0021387697439299706 0
leaf_count=811 103 2423 169
internal_value=0 -0.00672387 -0.00695988
internal_count=3506 2695 2592
cat_boundaries=0 13 20
cat_threshold=12587056 235152896 33554816 0 4 1077936128 65536 4096 0 0 0 0 1073741888 16777224 536870912 0 0 0 0 1
shrinkage=0.3


Tree=8
num_leaves=4
num_cat=2
split_feature=7 8 3
split_gain=2.01289 0.104823 0.0370014
threshold=0 2206.0000000000005 1
decision_type=5 2 5
left_child=-1 -2 -3
right_child=1 2 -4
leaf_value=0.0021744333264466648 0 0 -0.0022393345720933531
leaf_count=799 129 112 2466
internal_value=0 -0.00696678 -0.00733899
internal_count=3506 2707 2578
cat_boundaries=0 13 16
cat_threshold=2160066736 604292609 33620096 256 4 1073741824 65536 4096 0 0 0 0 1073741888 419430400 536870912 32
shrinkage=0.3


Tree=9
num_leaves=6
num_cat=2
split_feature=6 3 1 3 8
split_gain=0.579658 0.0775149 0.0523366 0.022571 0.010302
threshold=2475.0000000000005 0 2.5000000000000004 1 2784.5000000000005
decision_type=2 5 2 5 2
left_child=1 -1 -2 -4 -3
right_child=2 4 3 -5 -6
leaf_value=0 -0 0 -0 0.0013031272870911352 -0.0012902545871719736
leaf_count=204 306 107 121 1143 1625
internal_value=0 -0.00374826 0.0038815 0.00421047 -0.00423681
internal_count=3506 1936 1570 1264 1732
cat_boundaries=0 4 8
cat_threshold=8523776 36241408 288 67108880 36928 72 0 16
shrinkage=0.3


Tree=10
num_leaves=4
num_cat=2
split_feature=7 3 8
split_gain=2.07095 0.100433 0.0794903
threshold=0 1 2206.0000000000005
decision_type=5 5 2
left_child=-1 -2 -3
right_child=1 2 -4
leaf_value=0.0022243737512533442 0 0 -0.0022887056808844376
leaf_count=750 225 129 2402
internal_value=0 -0.00700165 -0.0073573
internal_count=3506 2756 2531
cat_boundaries=0 13 20
cat_threshold=2155872308 604243457 33562752 256 4 4194304 65536 4096 0 0 0 0 1073741888 142606344 539033600 32 2064 0 0 1
shrinkage=0.3


Tree=11
num_leaves=5
num_cat=2
split_feature=7 8 3 8
split_gain=2.18334 0.12188 0.0760501 0.00953253
threshold=0 2206.0000000000005 1 4431.5000000000009
decision_type=5 2 5 2
left_child=3 -2 -3 -1
right_child=1 2 -4 -5
leaf_value=0.0021678709215450422 0 0 -0.002472370882614218 -0
leaf_count=709 133 111 2479 74
internal_value=0 -0.00761002 -0.00800671 0.00718769
internal_count=3506 2723 2590 783
cat_boundaries=0 13 17
cat_threshold=12587056 738199040 33628288 0 4 1077936128 65536 4096 0 0 0 0 1073741888 16777216 536870912 288 1
shrinkage=0.3


Tree=12
num_leaves=8
num_cat=2
split_feature=6 3 3 1 0 8 8
split_gain=0.582597 0.107972 0.0571297 0.0303519 0.0228156 0.0157518 0.00692843
threshold=2545.0000000000005 0 1 1.0000000180025095e-35 89.000000000000014 3042.0000000000005 4552.5000000000009
decision_type=2 5 5 2 2 2 2
left_child=1 -1 -2 -4 -5 -3 -7
right_child=2 5 3 4 -6 6 -8
leaf_value=0 -0 0 -0 0.0014042327425057323 -0 -0.0013272188459350887 0
leaf_count=220 215 149 81 1162 73 1526 80
internal_value=0 -0.00359988 0.00403827 0.00438113 0.00455536 -0.00428829 -0.00438352
internal_count=3506 1975 1531 1316 1235 1755 1606
cat_boundaries=0 4 9
cat_threshold=146997248 2686976 32 67108864 528448 1109917768 48 0 32
shrinkage=0.3


Tree=13
num_leaves=6
num_cat=1
split_feature=7 8 6 1 8
split_gain=1.98537 0.00785202 0.00685741 0.0067449 0.00361801
threshold=0 4552.5000000000009 12570.000000000002 1.0000000180025095e-35 1896.0000000000002
decision_type=5 2 2 2 2
left_child=3 2 4 -1 -2
right_child=1 -3 -4 -5 -6
leaf_value=-0 0 0 0 0.0022009551146439125 -0.002063716972105425
leaf_count=72 75 74 74 745 2466
internal_value=0 -0.00680442 -0.00683798 0.00730806 -0.00686443
internal_count=3506 2689 2615 817 2541
cat_boundaries=0 13
cat_threshold=13107252 604292609 384 0 4 1077936128 65536 4096 0 0 0 0 1073741888
shrinkage=0.3


Tree=14
num_leaves=4
num_cat=2
split_feature=7 3 8
split_gain=1.93053 0.157684 0.0375094
threshold=0 1 2318.0000000000005
decision_type=5 5 2
left_child=-1 -2 -3
right_child=1 2 -4
leaf_value=0.001930867072204738 0 0 -0.0024270914833681
leaf_count=658 216 160 2472
internal_value=0 -0.00744866 -0.0079659
internal_count=3506 2848 2632
cat_boundaries=0 13 21
cat_threshold=2160067632 67110400 384 256 4 1077936128 65536 4096 0 0 0 0 1073741888 150994952 538968064 131072 17 0 0 3 65536
shrinkage=0.3


Tree=15
num_leaves=9
num_cat=3
split_feature=6 8 3 1 8 3 3 6
split_gain=0.500227 0.114952 0.054565 0.0390067 0.0236354 0.0116508 0.0017454 0.000259475
threshold=2545.0000000000005 3635.5000000000005 0 1.0000000180025095e-35 4552.5000000000009 1 2 1605.0000000000002
decision_type=2 2 5 2 2 5 5 2
left_child=1 6 -2 -4 5 -3 -1 -8
right_child=2 4 3 -5 -6 -7 7 -9
leaf_value=-0 -0 0 -0 0.001436372999801603 0 -0.0011631157922567267 9.8390438027613934e-05 -0
leaf_count=106 110 105 95 1338 77 1235 281 159
internal_value=0 -0.0027287 0.00426401 0.00457473 -0.00363976 -0.00380048 7.7221e-05 0.000306987
internal_count=3506 1963 1543 1433 1417 1340 546 440
cat_boundaries=0 7 11 13
cat_threshold=64 524360 0 0 32 0 4 131592 2621440 32 67108864 1067152 32
shrinkage=0.3


Tree=16
num_leaves=4
num_cat=2
split_feature=7 6 3
split_gain=2.05778 0.0929536 0.0566399
threshold=0 6850.0000000000009 1
decision_type=5 2 5
left_child=-1 2 -2
right_child=1 -3 -4
leaf_value=0.0023434943721899379 0 0 -0.0021242093826740254
leaf_count=860 116 274 2256
internal_value=0 -0.00652167 -0.00687701
internal_count=3506 2646 2372
cat_boundaries=0 13 17
cat_threshold=2160067636 637830657 33554816 256 4 1077936128 65536 4096 0 0 0 0 1073741888 150994952 0 32 16
shrinkage=0.3


Tree=17
num_leaves=5
num_cat=2
split_feature=7 8 6 3
split_gain=2.16121 0.0900993 0.0266873 0.0155361
threshold=0 2723.5000000000005 11905.000000000002 1
decision_type=5 2 2 5
left_child=-1 -2 3 -3
right_child=1 2 -4 -5
leaf_value=0.0022134164436125852 0 0 0 -0.0023404863415629638
leaf_count=642 296 117 80 2371
internal_value=0 -0.00735308 -0.00766271 -0.00775104
internal_count=3506 2864 2568 2488
cat_boundaries=0 13 15
cat_threshold=12583984 67110400 33554560 0 4 1077936128 65536 4096 0 0 0 0 1073741888 163577856 65536
shrinkage=0.3


Tree=18
num_leaves=5
num_cat=2
split_feature=7 3 6 1
split_gain=2.0798 0.0777091 0.0567964 0.00559869
threshold=0 1 11400.000000000002 1.0000000180025095e-35
decision_type=5 5 2 2
left_child=3 -2 -3 -1
right_child=1 2 -4 -5
leaf_value=-0 0 -0.0021857834404118218 0 0.0022967408746145126
leaf_count=71 112 2476 94 753
internal_value=0 -0.0067993 -0.00708284 0.0076319
internal_count=3506 2682 2570 824
cat_boundaries=0 13 17
cat_threshold=12584116 771786240 384 0 4 1077936128 65536 4096 0 0 0 0 1073741888 150994944 65536 0 17
shrinkage=0.3


Tree=19
num_leaves=5
num_cat=2
split_feature=7 3 8 8
split_gain=1.85068 0.0592335 0.0293894 0.0146637
threshold=0 1 2076.0000000000005 4548.0000000000009
decision_type=5 5 2 2
left_child=-1 -2 -3 -4
right_child=1 2 3 -5
leaf_value=0.0020444511803731319 0 0 -0.0021588473880110263 0
leaf_count=832 107 100 2396 71
internal_value=0 -0.00681695 -0.00703438 -0.00714357
internal_count=3506 2674 2567 2467
cat_boundaries=0 13 20
cat_threshold=2160067760 772032001 384 256 4 1077936128 65536 4096 0 0 0 0 1073741888 8 536936448 0 16 0 0 1
shrinkage=0.3


Tree=20
num_leaves=6
num_cat=2
split_feature=7 8 3 6 1
split_gain=1.93584 0.115101 0.0264684 0.00962936 0.00776736
threshold=0 2723.5000000000005 1 11005.000000000002 1.0000000180025095e-35
decision_type=5 2 5 2 2
left_child=4 -2 -3 -4 -1
right_child=1 2 3 -5 -6
leaf_value=-0 0 0 -0.00209891889020654 0 0.0022563130691483735
leaf_count=72 276 110 2289 73 686
internal_value=0 -0.00641911 -0.00686069 -0.00695694 0.00748957
internal_count=3506 2748 2472 2362 758
cat_boundaries=0 13 20
cat_threshold=2160066608 603997696 33562752 256 4 1077936128 65536 4096 0 0 0 0 1073741888 155189248 0 32 0 0 0 1
shrinkage=0.3


Tree=21
num_leaves=4
num_cat=2
split_feature=7 6 3
split_gain=1.8841 0.125222 0.0220463
threshold=0 9335.0000000000018 1
decision_type=5 2 5
left_child=-1 2 -2
right_child=1 -3 -4
leaf_value=0.0020386924906003107 0 0 -0.0022422498519187842
leaf_count=734 105 174 2493
internal_value=0 -0.00695694 -0.00739972
internal_count=3506 2772 2598
cat_boundaries=0 13 15
cat_threshold=2151679028 603982848 33554560 256 4 1077936128 65536 4096 0 0 0 0 1073741888 150994944 536936448
shrinkage=0.3


Tree=22
num_leaves=4
num_cat=2
split_feature=7 3 1
split_gain=1.8413 0.103968 0.00319454
threshold=0 1 74.500000000000014
decision_type=5 5 2
left_child=-1 -2 -3
right_child=1 2 -4
leaf_value=0.0019278042388308667 0 -0.0022574358179870092 0
leaf_count=600 226 2572 108
internal_value=0 -0.00714763 -0.00750815
internal_count=3506 2906 2680
cat_boundaries=0 13 21
cat_threshold=12583952 67372033 384 256 4 1077936128 65536 4096 0 0 0 0 1073741888 163577864 538968064 32 0 0 0 0 65536
shrinkage=0.3


Tree=23
num_leaves=8
num_cat=2
split_feature=6 8 1 3 3 0 6
split_gain=0.532085 0.121623 0.0525416 0.023919 0.023785 0.00560274 0.00145624
threshold=2545.0000000000005 3558.5000000000005 1.5000000000000002 0 1 93.500000000000014 1375.0000000000002
decision_type=2 2 2 5 5 2 2
left_child=1 6 -2 -4 -3 -5 -1
right_child=2 4 3 5 -6 -7 -8
leaf_value=8.1488373297964415e-05 -0 0 -0 0.0013406002514716696 -0.0012828768459621348 -0 -0
leaf_count=221 192 103 107 1180 1390 74 239
internal_value=0 -0.0033078 0.00397378 0.00429565 -0.00413381 0.0044338 0
internal_count=3506 1953 1553 1361 1493 1254 460
cat_boundaries=0 5 9
cat_threshold=67113024 536870984 256 0 32 21037056 536870912 32 67108864
shrinkage=0.3


Tree=24
num_leaves=4
num_cat=2
split_feature=7 6 3
split_gain=2.21036 0.0837319 0.0362229
threshold=0 9335.0000000000018 1
decision_type=5 2 5
left_child=-1 2 -2
right_child=1 -3 -4
leaf_value=0.0022117289133890255 0 0 -0.00237604510037561
leaf_count=682 115 184 2525
internal_value=0 -0.00752385 -0.00780443
internal_count=3506 2824 2640
cat_boundaries=0 13 16
cat_threshold=4195376 604243457 384 256 4 1073741824 65536 4096 0 0 0 0 1073741888 50331656 536870912 256
shrinkage=0.3


Tree=25
num_leaves=4
num_cat=1
split_feature=7 6 1
split_gain=2.01992 0.0519182 0.0210825
threshold=0 9335.0000000000018 1.0000000180025095e-35
decision_type=5 2 2
left_child=2 -2 -1
right_child=1 -3 -4
leaf_value=-0 -0.0020933093124179199 0 0.0022572195103501393
leaf_count=95 2547 166 698
internal_value=0 -0.00678252 0.00744716
internal_count=3506 2713 793
cat_boundaries=0 13
cat_threshold=2160066608 637814272 65696 256 4 1077936128 65536 4096 0 0 0 0 1073741888
shrinkage=0.3


Tree=26
num_leaves=4
num_cat=2
split_feature=7 3 1
split_gain=1.76612 0.128314 0.0203046
threshold=0 1 1.0000000180025095e-35
decision_type=5 5 2
left_child=2 -2 -1
right_child=1 -3 -4
leaf_value=-0 0 -0.0020561730808525292 0.0021067518541205655
leaf_count=80 206 2507 713
internal_value=0 -0.0063634 0.00694399
internal_count=3506 2713 793
cat_boundaries=0 13 20
cat_threshold=2160066612 203443712 73856 0 4 1077936128 65536 4096 0 0 0 0 1073741888 159383560 538968064 256 0 0 0 1
shrinkage=0.3


Tree=27
num_leaves=5
num_cat=2
split_feature=7 3 8 6
split_gain=1.91585 0.110676 0.0645287 0.0307295
threshold=0 1 2206.0000000000005 11400.000000000002
decision_type=5 5 2 2
left_child=-1 -2 -3 -4
right_child=1 2 3 -5
leaf_value=0.0020888354362880485 0 0 -0.0022883906830464666 0
leaf_count=697 111 145 2467 86
internal_value=0 -0.00690756 -0.00730044 -0.00752469
internal_count=3506 2809 2698 2553
cat_boundaries=0 13 20
cat_threshold=48 606080001 33554816 256 4 1077936128 65536 4096 0 0 0 0 1073741888 25165824 538968064 0 0 0 0 1
shrinkage=0.3


Tree=28
num_leaves=5
num_cat=2
split_feature=7 3 8 8
split_gain=1.82443 0.0434464 0.012268 7.0281e-05
threshold=0 1 2318.0000000000005 4552.5000000000009
decision_type=5 5 2 2
left_child=-1 -2 -3 -4
right_child=1 2 3 -5
leaf_value=0.0019950658848888569 0 0 -0.0021280083099521584 -0
leaf_count=774 109 165 2386 72
internal_value=0 -0.00688181 -0.00704151 -0.00709171
internal_count=3506 2732 2623 2458
cat_boundaries=0 13 20
cat_threshold=12583092 100926977 33620096 256 260 1073741824 65536 4096 0 0 0 0 1073741888 134217736 0 256 16 0 0 1
shrinkage=0.3


Tree=29
num_leaves=4
num_cat=1
split_feature=7 8 6
split_gain=1.97931 0.0638437 0.0228228
threshold=0 1972.5000000000002 12975.000000000002
decision_type=5 2 2
left_child=-1 -2 -3
right_child=1 2 -4
leaf_value=0.0022182012251949069 0 -0.0021040386554245219 0
leaf_count=659 103 2663 81
internal_value=0 -0.00669067 -0.00693008
internal_count=3506 2847 2744
cat_boundaries=0 13
cat_threshold=8388784 603981312 384 0 4 4194304 65536 4096 0 0 0 0 1073741888
shrinkage=0.3


Tree=30
num_leaves=6
num_cat=2
split_feature=7 8 3 8 1
split_gain=1.75461 0.107164 0.0653819 0.012214 0.00585271
threshold=0 2206.0000000000005 1 4548.0000000000009 1.0000000180025095e-35
decision_type=5 2 5 2 2
left_child=4 -2 -3 -4 -1
right_child=1 2 3 -5 -6
leaf_value=-0 0 0 -0.0019980009581127695 0 0.002201425859571074
leaf_count=127 127 110 2239 73 830
internal_value=0 -0.0059144 -0.00635646 -0.00660926 0.00731161
internal_count=3506 2549 2422 2312 957
cat_boundaries=0 13 20
cat_threshold=2151683252 774161921 33554816 0 32772 1077936128 65536 4096 0 0 0 0 1073741888 142606336 538968064 0 16 0 0 1
shrinkage=0.3


Tree=31
num_leaves=4
num_cat=2
split_feature=7 3 8
split_gain=1.9541 0.0822995 0.00959944
threshold=0 1 1972.5000000000002
decision_type=5 5 2
left_child=-1 -2 -3
right_child=1 2 -4
leaf_value=0.0022569317622887991 0 0 -0.0020424796272947025
leaf_count=860 204 80 2362
internal_value=0 -0.00645137 -0.00676796
internal_count=3506 2646 2442
cat_boundaries=0 13 17
cat_threshold=2160067764 637814273 33554592 0 4 1073741824 65536 4096 0 0 0 0 1073741888 16842760 539033600 0 16
shrinkage=0.3


Tree=32
num_leaves=5
num_cat=2
split_feature=7 3 8 1
split_gain=1.85213 0.0882673 0.042006 0.0102431
threshold=0 1 2108.5000000000005 1.0000000180025095e-35
decision_type=5 5 2 2
left_child=3 -2 -3 -1
right_child=1 2 -4 -5
leaf_value=-0 0 0 -0.0021109926473232717 0.0021377713846325477
leaf_count=82 225 109 2384 706
internal_value=0 -0.00654563 -0.00688002 0.00708426
internal_count=3506 2718 2493 788
cat_boundaries=0 13 20
cat_threshold=4195376 738231808 74144 0 4 1077936128 65536 4096 0 0 0 0 1073741888 176160776 539033600 256 1 0 0 1
shrinkage=0.3


Tree=33
num_leaves=3
num_cat=2
split_feature=7 3
split_gain=2.10695 0.0891414
threshold=0 1
decision_type=5 5
left_child=-1 -2
right_child=1 -3
leaf_value=0.0024849900284850835 0 -0.001971732743324032
leaf_count=763 206 2537
internal_value=0 -0.00621902
internal_count=3506 2743
cat_boundaries=0 13 20
cat_threshold=2160067636 67388929 384 0 4 1077936128 65536 4096 0 0 0 0 1073741888 151060488 2097152 0 1 0 0 1
shrinkage=0.3


Tree=34
num_leaves=4
num_cat=2
split_feature=7 3 8
split_gain=2.03274 0.0681609 0.0342583
threshold=0 1 2318.0000000000005
decision_type=5 5 2
left_child=-1 -2 -3
right_child=1 2 -4
leaf_value=0.0021632634236333085 0 0 -0.0022325919668127175
leaf_count=717 208 154 2427
internal_value=0 -0.00707658 -0.00731903
internal_count=3506 2789 2581
cat_boundaries=0 13 20
cat_threshold=12583984 637535745 384 0 4 1077936128 65536 4096 0 0 0 0 1073741888 289406984 536936448 256 16 0 0 1
shrinkage=0.3


Tree=35
num_leaves=4
num_cat=2
split_feature=7 3 8
split_gain=1.90319 0.0805556 0.035815
threshold=0 1 2206.0000000000005
decision_type=5 5 2
left_child=-1 -2 -3
right_child=1 2 -4
leaf_value=0.0020821697790498897 0 0 -0.0021919019364362853
leaf_count=728 208 137 2433
internal_value=0 -0.00688425 -0.00717625
internal_count=3506 2778 2570
cat_boundaries=0 13 20
cat_threshold=12583968 639894528 384 0 4 1077936128 65536 4096 0 0 0 0 1073741888 29360136 538968064 256 16 0 0 1
shrinkage=0.3


Tree=36
num_leaves=4
num_cat=2
split_feature=7 8 3
split_gain=1.85706 0.106526 0.0221016
threshold=0 2206.0000000000005 1
decision_type=5 2 5
left_child=-1 -2 -3
right_child=1 2 -4
leaf_value=0.0021387709607356966 0 0 -0.0020995227940753028
leaf_count=767 149 106 2484
internal_value=0 -0.00651628 -0.00691867
internal_count=3506 2739 2590
cat_boundaries=0 13 15
cat_threshold=2151678000 740574721 384 0 4 1077936128 65536 4096 0 0 0 0 1073741888 411041792 538968064
shrinkage=0.3


Tree=37
num_leaves=7
num_cat=2
split_feature=8 6 3 8 3 1
split_gain=0.462756 0.12465 0.0627888 0.0420729 0.014104 0.000358021
threshold=3635.5000000000005 3865.0000000000005 0 4556.5000000000009 1 2.5000000000000004
decision_type=2 2 5 2 5 2
left_child=2 3 -1 4 -2 -3
right_child=1 5 -4 -5 -6 -7
leaf_value=-0 0 -0 0.0012412154163013174 0 -0.0012877142424860227 4.5018405581902144e-05
leaf_count=244 105 93 1136 71 1560 297
internal_value=0 -0.00305183 0.003734 -0.00394881 -0.00420881 6.62187e-05
internal_count=3506 2126 1380 1736 1665 390
cat_boundaries=0 4 8
cat_threshold=68190280 1090519240 256 16 54657024 1073807360 0 67108864
shrinkage=0.3


Tree=38
num_leaves=5
num_cat=2
split_feature=7 8 3 8
split_gain=1.92916 0.0827166 0.045283 0.0163803
threshold=0 2318.0000000000005 1 4552.5000000000009
decision_type=5 2 5 2
left_child=-1 -2 -3 -4
right_child=1 2 3 -5
leaf_value=0.0021671504372960714 0 0 -0.0021655734671590316 0
leaf_count=789 164 109 2364 80
internal_value=0 -0.00668724 -0.00699594 -0.00715639
internal_count=3506 2717 2553 2444
cat_boundaries=0 13 15
cat_threshold=2160066740 603981312 33620352 256 4 1077936128 65536 4096 0 0 0 0 1073741888 134217736 2162688
shrinkage=0.3


Tree=39
num_leaves=5
num_cat=2
split_feature=7 3 8 8
split_gain=1.8622 0.058357 0.051059 0.0295915
threshold=0 1 1972.5000000000002 4556.5000000000009
decision_type=5 5 2 2
left_child=-1 -2 -3 -4
right_child=1 2 3 -5
leaf_value=0.0021419602619998936 0 0 -0.0021138770693591496 0
leaf_count=763 100 72 2499 72
internal_value=0 -0.00652459 -0.00674772 -0.00693902
internal_count=3506 2743 2643 2571
cat_boundaries=0 13 20
cat_threshold=2160066736 738477568 8320 0 4 1073741824 65536 4096 0 0 0 0 1073741888 268435464 2097152 256 0 0 0 1
shrinkage=0.3


Tree=40
num_leaves=5
num_cat=1
split_feature=7 8 6 8
split_gain=1.69436 0.0968593 0.0169187 0.0130906
threshold=0 2832.5000000000005 11400.000000000002 4552.5000000000009
decision_type=5 2 2 2
left_child=-1 -2 3 -3
right_child=1 2 -4 -5
leaf_value=0.0020825887661944887 0 -0.001977213130553324 0 0
leaf_count=705 320 2323 77 81
internal_value=0 -0.00607847 -0.00647286 -0.00653933
internal_count=3506 2801 2481 2404
cat_boundaries=0 13
cat_threshold=12582960 738199040 128 256 4 1077936128 65536 4096 0 0 0 0 1073741888
shrinkage=0.3


Tree=41
num_leaves=3
num_cat=1
split_feature=7 6
split_gain=1.70078 0.094435
threshold=0 4945.0000000000009
decision_type=5 2
left_child=-1 -2
right_child=1 -3
leaf_value=0.002126682369566524 -0.0019009188875659237 0
leaf_count=737 2293 476
internal_value=0 -0.00594063
internal_count=3506 2769
cat_boundaries=0 13
cat_threshold=12583988 738199041 128 256 4 1077936128 65536 4096 0 0 0 0 1073741888
shrinkage=0.3


Tree=42
num_leaves=4
num_cat=2
split_feature=7 3 8
split_gain=1.90747 0.0669362 0.0572037
threshold=0 1 1972.5000000000002
decision_type=5 5 2
left_child=-1 -2 -3
right_child=1 2 -4
leaf_value=0.0022036904972862793 0 0 -0.0020834562774595905
leaf_count=720 207 84 2495
internal_value=0 -0.00647193 -0.00673062
internal_count=3506 2786 2579
cat_boundaries=0 13 17
cat_threshold=12583984 604243457 33620096 256 4 1077936128 65536 4096 0 0 0 0 1073741888 146800648 538968064 2304 1
shrinkage=0.3


Tree=43
num_leaves=7
num_cat=2
split_feature=6 3 8 1 0 3
split_gain=0.553639 0.0679364 0.0614486 0.0419765 0.0120102 0.00905425
threshold=2475.0000000000005 0 3635.5000000000005 1.0000000180025095e-35 79.500000000000014 1
decision_type=2 5 2 2 2 5
left_child=2 -2 -1 -3 -5 -4
right_child=1 3 5 4 -6 -7
leaf_value=0 -0 -0 0 0.0014484444252876448 -0 -0.0011337994258528454
leaf_count=535 210 93 102 1173 87 1306
internal_value=0 0.00413754 -0.00327133 0.00453312 0.00476388 -0.00371843
internal_count=3506 1563 1943 1353 1260 1408
cat_boundaries=0 5 7
cat_threshold=12583488 34144328 256 16 32 37880328 2621440
shrinkage=0.3


Tree=44
num_leaves=5
num_cat=2
split_feature=7 6 3 1
split_gain=1.63329 0.0254109 0.035979 0.0177301
threshold=0 9335.0000000000018 1 1.0000000180025095e-35
decision_type=5 2 5 2
left_child=3 2 -2 -1
right_child=1 -3 -4 -5
leaf_value=-0 0 0 -0.0017994494569081193 0.002129844625722758
leaf_count=109 120 173 2398 706
internal_value=0 -0.00573027 -0.00584568 0.00703038
internal_count=3506 2691 2518 815
cat_boundaries=0 13 15
cat_threshold=2160067632 67388928 33620384 256 32772 1077936128 65536 4096 0 0 0 0 1073741888 16781320 65536
shrinkage=0.3


Tree=45
num_leaves=5
num_cat=1
split_feature=7 8 6 8
split_gain=1.9399 0.072319 0.063828 0.000264354
threshold=0 2723.5000000000005 11905.000000000002 4556.5000000000009
decision_type=5 2 2 2
left_child=-1 -2 3 -3
right_child=1 2 -4 -5
leaf_value=0.0023019912901887326 0 -0.0020320420425949518 0 -0
leaf_count=759 265 2336 73 73
internal_value=0 -0.00623855 -0.00652957 -0.00677116
internal_count=3506 2747 2482 2409
cat_boundaries=0 13
cat_threshold=12583972 604259841 65664 256 4 1077936128 65536 4096 0 0 0 0 1073741888
shrinkage=0.3


Tree=46
num_leaves=4
num_cat=2
split_feature=7 6 3
split_gain=1.87261 0.104602 0.0500189
threshold=0 9335.0000000000018 1
decision_type=5 2 5
left_child=-1 2 -2
right_child=1 -3 -4
leaf_value=0.0021603156228136417 0 0 -0.0021223990525864799
leaf_count=685 115 176 2530
internal_value=0 -0.00649835 -0.00689514
internal_count=3506 2821 2645
cat_boundaries=0 13 17
cat_threshold=4194480 603981312 65920 256 4 1073741824 65536 4096 0 0 0 0 1073741888 159383552 0 32 1
shrinkage=0.3


Tree=47
num_leaves=5
num_cat=2
split_feature=7 8 3 8
split_gain=1.54396 0.0898198 0.0279787 0.00376925
threshold=0 2933.5000000000005 1 4552.5000000000009
decision_type=5 2 5 2
left_child=-1 -2 -3 -4
right_child=1 2 3 -5
leaf_value=0.0020221991677694786 0 0 -0.001859916787374077 0
leaf_count=758 378 110 2189 71
internal_value=0 -0.00567377 -0.00606543 -0.00618018
internal_count=3506 2748 2370 2260
cat_boundaries=0 13 15
cat_threshold=272629808 637816321 128 256 4 1073741824 65536 4096 0 0 0 0 1073741888 138412032 572522496
shrinkage=0.3


Tree=48
num_leaves=6
num_cat=1
split_feature=7 8 8 1 6
split_gain=1.65235 0.0882827 0.0372252 0.0294036 0.0201987
threshold=0 2723.5000000000005 4552.5000000000009 1.0000000180025095e-35 11165.000000000002
decision_type=5 2 2 2 2
left_child=3 -2 4 -1 -3
right_child=1 2 -4 -5 -6
leaf_value=-0 0 -0.0018744426414379343 0 0.0021939828553931315 0
leaf_count=99 266 2239 81 746 75
internal_value=0 -0.00562414 -0.00601085 0.00720535 -0.00616532
internal_count=3506 2661 2395 845 2314
cat_boundaries=0 13
cat_threshold=2160066736 740609537 128 256 5 1077936128 65536 4096 0 0 0 0 1073741888
shrinkage=0.3


Tree=49
num_leaves=4
num_cat=1
split_feature=7 8 6
split_gain=1.72578 0.09806 0.0420418
threshold=0 2318.0000000000005 12215.000000000002
decision_type=5 2 2
left_child=-1 -2 -3
right_child=1 2 -4
leaf_value=0.0020484023006639069 0 -0.0020604143686448213 0
leaf_count=702 145 2588 71
internal_value=0 -0.00633032 -0.00671187
internal_count=3506 2804 2659
cat_boundaries=0 13
cat_threshold=2147483700 67143169 384 0 4 1077936128 65536 4096 0 0 0 0 1073741888
shrinkage=0.3


Tree=50
num_leaves=5
num_cat=1
split_feature=7 6 1 8
split_gain=1.82592 0.0818387 0.0547395 0.000931706
threshold=0 9335.0000000000018 1.0000000180025095e-35 4552.5000000000009
decision_type=5 2 2 2
left_child=2 3 -1 -2
right_child=1 -3 -4 -5
leaf_value=-0 -0.0019722841367488574 0 0.0022376388008767917 0
leaf_count=81 2498 172 674 81
internal_value=0 -0.00624381 0.00726567 -0.0065693
internal_count=3506 2751 755 2579
cat_boundaries=0 13
cat_threshold=2160066608 606094848 8320 256 4 1077936128 65536 4096 0 0 0 0 1073741888
shrinkage=0.3


Tree=51
num_leaves=5
num_cat=2
split_feature=7 3 8 6
split_gain=1.86967 0.0931209 0.0406609 0.00114513
threshold=0 1 2206.0000000000005 11400.000000000002
decision_type=5 5 2 2
left_child=-1 -2 -3 -4
right_child=1 2 3 -5
leaf_value=0.0022695988957756458 0 0 -0.0019894387967938081 0
leaf_count=747 132 140 2408 79
internal_value=0 -0.00609007 -0.00646451 -0.0066257
internal_count=3506 2759 2627 2487
cat_boundaries=0 13 20
cat_threshold=176 639895041 384 256 4 1077936128 65536 4096 0 0 0 0 1073741888 150994944 538968064 0 1 0 0 1
shrinkage=0.3


Tree=52
num_leaves=3
num_cat=1
split_feature=7 8
split_gain=1.74493 0.0423933
threshold=0 1896.0000000000002
decision_type=5 2
left_child=-1 -2
right_child=1 -3
leaf_value=0.0020599859275071274 0 -0.0019600192127036181
leaf_count=772 83 2651
internal_value=0 -0.0063644
internal_count=3506 2734
cat_boundaries=0 13
cat_threshold=12583088 201330179 384 256 4 1077936128 65536 4096 0 0 0 0 1073741888
shrinkage=0.3


Tree=53
num_leaves=4
num_cat=2
split_feature=7 3 8
split_gain=1.6772 0.0949126 0.0478474
threshold=0 1 2318.0000000000005
decision_type=5 5 2
left_child=-1 -2 -3
right_child=1 2 -4
leaf_value=0.0022557461445164339 0 0 -0.0018136792950805031
leaf_count=758 229 149 2370
internal_value=0 -0.00541208 -0.00583866
internal_count=3506 2748 2519
cat_boundaries=0 13 20
cat_threshold=2155872308 637535745 384 0 4 1077936128 65536 4096 0 0 0 0 1073741888 159383560 538968064 288 0 0 0 1
shrinkage=0.3


Tree=54
num_leaves=5
num_cat=3
split_feature=7 3 6 7
split_gain=1.88659 0.0515085 0.0261216 0.00069822
threshold=0 1 6775.0000000000009 2
decision_type=5 5 2 5
left_child=3 -2 -3 -1
right_child=1 2 -4 -5
leaf_value=-0 0 -0.001985188091910426 0 0.0022292267773232539
leaf_count=142 112 2256 289 707
internal_value=0 -0.00630471 -0.00650921 0.0074237
internal_count=3506 2657 2545 849
cat_boundaries=0 13 20 21
cat_threshold=2160328708 604243457 8576 0 4 1073741824 65536 4096 0 0 0 0 1073741888 16777224 2162688 0 0 0 0 1 262144
shrinkage=0.3


Tree=55
num_leaves=4
num_cat=2
split_feature=7 8 3
split_gain=1.65351 0.105117 0.024328
threshold=0 2933.5000000000005 1
decision_type=5 2 5
left_child=-1 -2 -3
right_child=1 2 -4
leaf_value=0.0020958682661937982 0 0 -0.0019195522676011402
leaf_count=790 357 105 2254
internal_value=0 -0.00586104 -0.00630232
internal_count=3506 2716 2359
cat_boundaries=0 13 20
cat_threshold=2160066612 738215425 8320 0 4 1073741824 65536 4096 0 0 0 0 1073741888 142606344 536870912 0 0 0 0 1
shrinkage=0.3


Tree=56
num_leaves=5
num_cat=1
split_feature=7 8 6 8
split_gain=1.87927 0.0723725 0.0297536 0.0134619
threshold=0 2723.5000000000005 11400.000000000002 4552.5000000000009
decision_type=5 2 2 2
left_child=-1 -2 3 -3
right_child=1 2 -4 -5
leaf_value=0.0022435893319750532 0 -0.0020030533236632827 0 0
leaf_count=783 267 2304 78 74
internal_value=0 -0.00621777 -0.00650997 -0.00662482
internal_count=3506 2723 2456 2378
cat_boundaries=0 13
cat_threshold=2160066608 639911425 128 256 4 1077936128 65536 4096 0 0 0 0 1073741888
shrinkage=0.3


Tree=57
num_leaves=6
num_cat=2
split_feature=6 3 8 3 8
split_gain=0.529037 0.135489 0.0457237 0.0288301 0.000154381
threshold=3445.0000000000005 0 2832.5000000000005 1 3696.5000000000005
decision_type=2 5 2 5 2
left_child=1 4 -3 -2 -1
right_child=3 2 -4 -5 -6
leaf_value=2.6537275777605823e-05 -0 0 -0.0014659670868825824 0.0010940960536890236 -0
leaf_count=157 104 160 1863 1017 205
internal_value=0 -0.00383725 -0.00464126 0.00344185 0
internal_count=3506 2385 2023 1121 362
cat_boundaries=0 4 9
cat_threshold=155385856 35717121 32 67108880 64 36175944 0 0 32
shrinkage=0.3


Tree=58
num_leaves=6
num_cat=3
split_feature=7 3 8 6 7
split_gain=1.83563 0.0730983 0.0394372 0.0279917 0.0192383
threshold=0 1 2108.5000000000005 11400.000000000002 2
decision_type=5 5 2 2 5
left_child=-1 -2 -3 4 -4
right_child=1 2 3 -5 -6
leaf_value=0.0022216815829111921 0 0 0 0 -0.002028073510382593
leaf_count=723 106 117 131 87 2342
internal_value=0 -0.0061295 -0.00642379 -0.0065808 -0.00668799
internal_count=3506 2783 2677 2560 2473
cat_boundaries=0 13 17 18
cat_threshold=12584112 603981312 33554816 256 4 1073741824 65536 4096 0 0 0 0 1073741888 402653184 536936448 0 1 262144
shrinkage=0.3


Tree=59
num_leaves=5
num_cat=1
split_feature=7 6 1 8
split_gain=1.73568 0.0246875 0.013372 0.00846705
threshold=0 6775.0000000000009 1.0000000180025095e-35 4552.5000000000009
decision_type=5 2 2 2
left_child=2 3 -1 -2
right_child=1 -3 -4 -5
leaf_value=-0 -0.0019687785092457367 0 0.0020489819215182975 0
leaf_count=108 2273 284 764 77
internal_value=0 -0.00642524 0.00677483 -0.00652883
internal_count=3506 2634 872 2350
cat_boundaries=0 13
cat_threshold=2160067632 740609537 8352 256 4 1073741824 65536 4096 0 0 0 0 1073741888
shrinkage=0.3


Tree=60
num_leaves=4
num_cat=2
split_feature=7 3 6
split_gain=1.66615 0.0633931 0.0328417
threshold=0 1 9335.0000000000018
decision_type=5 5 2
left_child=-1 -2 -3
right_child=1 2 -4
leaf_value=0.0020960319994021426 0 -0.0018945982729481996 0
leaf_count=872 127 2344 163
internal_value=0 -0.00591202 -0.00617782
internal_count=3506 2634 2507
cat_boundaries=0 13 20
cat_threshold=2428502192 637797377 33563008 256 4 1077936128 65536 4096 0 0 0 0 1073741888 134217736 536936448 0 0 0 0 1
shrinkage=0.3


Tree=61
num_leaves=4
num_cat=2
split_feature=7 3 8
split_gain=1.60105 0.111716 0.0424562
threshold=0 1 2206.0000000000005
decision_type=5 5 2
left_child=-1 -2 -3
right_child=1 2 -4
leaf_value=0.0020979876843611675 0 0 -0.0018885560204187216
leaf_count=768 213 130 2395
internal_value=0 -0.00563882 -0.00611867
internal_count=3506 2738 2525
cat_boundaries=0 13 20
cat_threshold=2160067760 201330176 8352 256 4 0 65536 4096 0 0 0 0 1073741888 150994952 539033600 0 17 0 0 1
shrinkage=0.3


Tree=62
num_leaves=4
num_cat=2
split_feature=7 3 8
split_gain=1.53601 0.0934845 0.0521464
threshold=0 1 1896.0000000000002
decision_type=5 5 2
left_child=-1 -2 -3
right_child=1 2 -4
leaf_value=0.0019071247308464633 0 0 -0.0019934281896673302
leaf_count=769 223 78 2436
internal_value=0 -0.00606148 -0.00644062
internal_count=3506 2737 2514
cat_boundaries=0 13 20
cat_threshold=12583984 606340609 33554592 256 4 1073741824 65536 4096 0 0 0 0 1073741888 419434504 538968064 256 0 0 0 1
shrinkage=0.3


Tree=63
num_leaves=4
num_cat=2
split_feature=7 3 6
split_gain=1.48093 0.072639 0.0110418
threshold=0 1 9335.0000000000018
decision_type=5 5 2
left_child=-1 -2 -3
right_child=1 2 -4
leaf_value=0.0020743765797985184 0 -0.0016863989717059286 0
leaf_count=743 246 2349 168
internal_value=0 -0.00522515 -0.00556655
internal_count=3506 2763 2517
cat_boundaries=0 13 20
cat_threshold=8388788 100681217 33554816 256 4 1077936128 65536 4096 0 0 0 0 1073741888 29360136 536936448 288 2064 0 0 1
shrinkage=0.3


Tree=64
num_leaves=5
num_cat=2
split_feature=7 3 8 1
split_gain=1.70436 0.0752785 0.0299797 0.0259856
threshold=0 1 2206.0000000000005 1.0000000180025095e-35
decision_type=5 5 2 2
left_child=3 -2 -3 -1
right_child=1 2 -4 -5
leaf_value=-0 0 0 -0.0019436364961116128 0.0021314049578818875
leaf_count=91 251 131 2342 691
internal_value=0 -0.00604708 -0.0063563 0.00700634
internal_count=3506 2724 2473 782
cat_boundaries=0 13 17
cat_threshold=2160071728 603983360 384 0 516 1077936128 65536 4096 0 0 0 0 1073741888 419430408 572588032 0 17
shrinkage=0.3


Tree=65
num_leaves=6
num_cat=2
split_feature=7 8 6 3 8
split_gain=1.58738 0.0724825 0.0247743 0.0166245 0.00311651
threshold=0 2753.0000000000005 11400.000000000002 1 4552.5000000000009
decision_type=5 2 2 5 2
left_child=-1 -2 3 -3 -5
right_child=1 2 -4 4 -6
leaf_value=0.0020775378947883731 0 0 0 -0.0018491450022096595 0
leaf_count=798 264 121 72 2178 73
internal_value=0 -0.00565528 -0.00597413 -0.00607828 -0.00614685
internal_count=3506 2708 2444 2372 2251
cat_boundaries=0 13 20
cat_threshold=2151678004 604243457 8576 256 32772 1077936128 65536 4096 0 0 0 0 1073741888 25165824 33619968 32 0 0 0 1
shrinkage=0.3


Tree=66
num_leaves=4
num_cat=2
split_feature=7 3 6
split_gain=1.67447 0.0624873 0.0303188
threshold=0 1 9335.0000000000018
decision_type=5 5 2
left_child=-1 -2 -3
right_child=1 2 -4
leaf_value=0.0020931423976499985 0 -0.0019031995709586501 0
leaf_count=893 127 2329 157
internal_value=0 -0.00595699 -0.00621732
internal_count=3506 2613 2486
cat_boundaries=0 13 17
cat_threshold=2147745972 67110401 8352 0 4 1077936128 65536 4096 0 0 0 0 1073741888 16777224 538968064 0 16
shrinkage=0.3


Tree=67
num_leaves=4
num_cat=2
split_feature=7 6 3
split_gain=1.70883 0.107889 0.0309027
threshold=0 4945.0000000000009 1
decision_type=5 2 5
left_child=-1 2 -2
right_child=1 -3 -4
leaf_value=0.0022091925421886894 0 0 -0.0018828723462120988
leaf_count=760 118 465 2163
internal_value=0 -0.00568468 -0.00615117
internal_count=3506 2746 2281
cat_boundaries=0 13 17
cat_threshold=12648496 738477568 384 0 4 4194304 65536 4096 0 0 0 0 1073741888 150994944 2162688 32 16
shrinkage=0.3


Tree=68
num_leaves=5
num_cat=2
split_feature=7 3 8 1
split_gain=1.60989 0.0835337 0.0249519 0.00632652
threshold=0 1 1972.5000000000002 1.0000000180025095e-35
decision_type=5 5 2 2
left_child=3 -2 -3 -1
right_child=1 2 -4 -5
leaf_value=-0 0 0 -0.0018880557007311919 0.0020623276489107794
leaf_count=104 237 86 2350 729
internal_value=0 -0.00583603 -0.0061888 0.00684567
internal_count=3506 2673 2436 833
cat_boundaries=0 13 17
cat_threshold=4195508 203687427 33620352 0 32772 1077936128 65536 4096 0 0 0 0 1073741888 159449096 538968064 0 17
shrinkage=0.3


Tree=69
num_leaves=3
num_cat=2
split_feature=7 3
split_gain=1.48235 0.0981038
threshold=0 1
decision_type=5 5
left_child=-1 -2
right_child=1 -3
leaf_value=0.0018980094014185158 0 -0.0018834435448765183
leaf_count=720 235 2551
internal_value=0 -0.0058691
internal_count=3506 2786
cat_boundaries=0 13 20
cat_threshold=13108272 67126785 33554592 0 20 1073741824 65536 4096 0 0 0 0 1073741888 419495936 539033600 0 1 0 0 1
shrinkage=0.3


Tree=70
num_leaves=4
num_cat=2
split_feature=7 8 3
split_gain=1.56847 0.106356 0.0693884
threshold=0 2723.5000000000005 1
decision_type=5 2 5
left_child=-1 -2 -3
right_child=1 2 -4
leaf_value=0.0020711798549533571 0 0 -0.0019031359977255006
leaf_count=909 273 109 2215
internal_value=0 -0.00559952 -0.00606323
internal_count=3506 2597 2324
cat_boundaries=0 13 17
cat_threshold=8654896 604278272 33628288 0 4 1077936128 65536 4096 0 0 0 0 1073741888 150999040 536870912 0 1
shrinkage=0.3


Tree=71
num_leaves=5
num_cat=2
split_feature=7 8 3 8
split_gain=1.60751 0.0938911 0.0342896 0.0197151
threshold=0 2832.5000000000005 1 4552.5000000000009
decision_type=5 2 5 2
left_child=-1 -2 -3 -4
right_child=1 2 3 -5
leaf_value=0.0020442735175270946 0 0 -0.0019425070350729099 0
leaf_count=729 317 124 2265 71
internal_value=0 -0.00586186 -0.00625756 -0.00639385
internal_count=3506 2777 2460 2336
cat_boundaries=0 13 15
cat_threshold=2151678000 203441664 8320 524288 32772 1077936128 65536 4096 0 0 0 0 1073741888 155189248 2162688
shrinkage=0.3


Tree=72
num_leaves=5
num_cat=1
split_feature=7 8 6 6
split_gain=1.58165 0.12806 0.0176759 0.0174933
threshold=0 2958.5000000000005 315.00000000000006 11400.000000000002
decision_type=5 2 2 2
left_child=-1 -2 -3 -4
right_child=1 2 3 -5
leaf_value=0.0022146158793677853 0 0 -0.0017770514775290686 0
leaf_count=662 391 106 2271 76
internal_value=0 -0.00517647 -0.00576998 -0.0058478
internal_count=3506 2844 2453 2347
cat_boundaries=0 13
cat_threshold=12582928 637535747 128 0 4 1073741824 65536 4096 0 0 0 0 1073741888
shrinkage=0.3


Tree=73
num_leaves=4
num_cat=1
split_feature=7 6 8
split_gain=1.41655 0.0649545 0.038851
threshold=0 4945.0000000000009 4556.5000000000009
decision_type=5 2 2
left_child=-1 2 -2
right_child=1 -3 -4
leaf_value=0.0018988680825057628 -0.0018111309348254774 0 0
leaf_count=739 2239 455 73
internal_value=0 -0.00557877 -0.00587242
internal_count=3506 2767 2312
cat_boundaries=0 13
cat_threshold=13107252 603983360 384 256 4 1077936128 65536 4096 0 0 0 0 1073741888
shrinkage=0.3


Tree=74
num_leaves=5
num_cat=2
split_feature=7 8 1 3
split_gain=1.63573 0.0528736 0.0250211 0.00913285
threshold=0 2723.5000000000005 1.0000000180025095e-35 1
decision_type=5 2 2 5
left_child=2 -2 -1 -3
right_child=1 3 -4 -5
leaf_value=-0 0 0 0.002154595898189253 -0.001786442877486825
leaf_count=148 255 108 886 2109
internal_value=0 -0.00568071 0.00708706 -0.00591599
internal_count=3506 2472 1034 2217
cat_boundaries=0 13 16
cat_threshold=12849204 772064769 33620096 0 32772 1077936128 65536 4096 0 0 0 0 1073741888 150994952 65536 32
shrinkage=0.3


Tree=75
num_leaves=5
num_cat=2
split_feature=7 8 1 3
split_gain=1.67439 0.0596364 0.015069 0.0124726
threshold=0 2723.5000000000005 1.0000000180025095e-35 1
decision_type=5 2 2 5
left_child=2 -2 -1 -3
right_child=1 3 -4 -5
leaf_value=-0 0 0 0.0021571170300396102 -0.0018301982668975096
leaf_count=116 266 107 765 2252
internal_value=0 -0.00578964 0.00713134 -0.006049
internal_count=3506 2625 881 2359
cat_boundaries=0 13 20
cat_threshold=2160591036 203441664 33554816 256 4 1077936128 65536 4096 0 0 0 0 1073741888 150994944 33554432 32 0 0 0 1
shrinkage=0.3


Tree=76
num_leaves=3
num_cat=2
split_feature=7 3
split_gain=1.57241 0.115307
threshold=0 1
decision_type=5 5
left_child=-1 -2
right_child=1 -3
leaf_value=0.0020188185637402935 0 -0.0018873406538740987
leaf_count=691 255 2560
internal_value=0 -0.00580916
internal_count=3506 2815
cat_boundaries=0 13 20
cat_threshold=2160067600 235144704 160 0 4 1077936128 65536 4096 0 0 0 0 1073741888 432013320 539033600 0 16 0 0 1
shrinkage=0.3


Tree=77
num_leaves=7
num_cat=2
split_feature=6 8 3 1 3 6
split_gain=0.558138 0.0757717 0.0453556 0.018389 0.0176424 0.000217065
threshold=2545.0000000000005 3635.5000000000005 0 1.0000000180025095e-35 1 1375.0000000000002
decision_type=2 2 5 2 5 2
left_child=1 5 -2 -4 -3 -1
right_child=2 4 3 -5 -6 -7
leaf_value=3.1458709127313974e-05 -0 0 -0 0.0014109142921977296 -0.0011267673810759725 -0
leaf_count=256 106 103 84 1342 1343 272
internal_value=0 -0.00306209 0.00434505 0.00460024 -0.00363563 0
internal_count=3506 1974 1532 1426 1446 528
cat_boundaries=0 5 9
cat_threshold=71303232 72 0 32 32 50462728 537395200 0 67108864
shrinkage=0.3


Tree=78
num_leaves=8
num_cat=2
split_feature=8 6 3 8 3 0 8
split_gain=0.431993 0.123393 0.0298359 0.0156049 0.0118881 0.0117805 0.000771844
threshold=3635.5000000000005 3605.0000000000005 0 4556.5000000000009 1 80.500000000000014 3868.5000000000005
decision_type=2 2 5 2 5 2 2
left_child=2 3 -1 4 -2 -4 -3
right_child=1 6 5 -5 -6 -7 -8
leaf_value=-0 0 -0 0.0012165471887171121 0 -0.0011633109745651665 -0 7.1843385781702695e-05
leaf_count=104 111 126 1188 74 1503 82 318
internal_value=0 -0.00272811 0.00378477 -0.00369418 -0.00379964 0.00397837 0.000135101
internal_count=3506 2132 1374 1688 1614 1270 444
cat_boundaries=0 3 7
cat_threshold=1048648 64 256 37748736 19398656 32 67108864
shrinkage=0.3


Tree=79
num_leaves=4
num_cat=2
split_feature=7 3 1
split_gain=1.49425 0.0818082 0.00996631
threshold=0 1 74.500000000000014
decision_type=5 5 2
left_child=-1 -2 -3
right_child=1 2 -4
leaf_value=0.0019078486507317428 0 -0.0018820816155921711 0
leaf_count=846 332 2253 75
internal_value=0 -0.00588449 -0.00622927
internal_count=3506 2660 2328
cat_boundaries=0 13 17
cat_threshold=12845076 738493952 33554560 256 4 1077936128 65536 4096 0 0 0 0 1073741888 159481864 536936448 32 1
shrinkage=0.3


Tree=80
num_leaves=4
num_cat=2
split_feature=7 8 3
split_gain=1.58922 0.0763858 0.0663967
threshold=0 2723.5000000000005 1
decision_type=5 2 5
left_child=-1 -2 -3
right_child=1 2 -4
leaf_value=0.0021199182097779721 0 0 -0.0018406894260613671
leaf_count=836 275 109 2286
internal_value=0 -0.00551481 -0.005858
internal_count=3506 2670 2395
cat_boundaries=0 13 17
cat_threshold=12845072 603997697 33554592 0 4 1077936128 65536 4096 0 0 0 0 1073741888 436207616 536936448 0 1
shrinkage=0.3


Tree=81
num_leaves=5
num_cat=2
split_feature=7 6 3 1
split_gain=1.52174 0.116366 0.0626507 0.0077559
threshold=0 6775.0000000000009 1 1.0000000180025095e-35
decision_type=5 2 5 2
left_child=3 2 -2 -1
right_child=1 -3 -4 -5
leaf_value=-0 0 0 -0.0018509416827488289 0.0020867987706019377
leaf_count=80 128 315 2345 638
internal_value=0 -0.0053866 -0.00590945 0.00692268
internal_count=3506 2788 2473 718
cat_boundaries=0 13 20
cat_threshold=4194360 603997697 384 256 4 1073741824 65536 4096 0 0 0 0 1073741888 150994944 2162688 0 16 0 0 1
shrinkage=0.3


Tree=82
num_leaves=5
num_cat=2
split_feature=7 3 8 6
split_gain=1.55445 0.0910927 0.0717026 0.0149709
threshold=0 1 2318.0000000000005 11400.000000000002
decision_type=5 5 2 2
left_child=-1 -2 -3 -4
right_child=1 2 3 -5
leaf_value=0.0020984502705827146 0 0 -0.0018662901653439291 0
leaf_count=827 205 151 2244 79
internal_value=0 -0.00544697 -0.00585461 -0.00615901
internal_count=3506 2679 2474 2323
cat_boundaries=0 13 20
cat_threshold=4457520 604243456 384 0 4 1077936128 65536 4096 0 0 0 0 1073741888 452988928 538968064 32 0 0 0 1
shrinkage=0.3


Tree=83
num_leaves=7
num_cat=2
split_feature=6 8 1 0 3 3
split_gain=0.538734 0.0964485 0.0384743 0.0226894 0.0115197 0.00043475
threshold=2475.0000000000005 3635.5000000000005 1.0000000180025095e-35 93.500000000000014 0 1
decision_type=2 2 2 2 5 5
left_child=1 5 -2 -4 -3 -1
right_child=2 4 3 -5 -6 -7
leaf_value=-0 -0 0 0.0014296960521775219 -0 -0.0011024287041837349 4.4489012622114509e-05
leaf_count=103 104 127 1375 73 1297 427
internal_value=0 -0.00283585 0.00442876 0.00464332 -0.00359464 0
internal_count=3506 1954 1552 1448 1424 530
cat_boundaries=0 4 5
cat_threshold=58724864 2621440 0 67108864 1099920
shrinkage=0.3


Tree=84
num_leaves=5
num_cat=2
split_feature=7 6 3 1
split_gain=1.52444 0.0660911 0.0497552 0.0221456
threshold=0 6775.0000000000009 1 1.0000000180025095e-35
decision_type=5 2 5 2
left_child=3 2 -2 -1
right_child=1 -3 -4 -5
leaf_value=-0 0 0 -0.0018547215474582369 0.0020232532584749528
leaf_count=79 115 312 2363 637
internal_value=0 -0.00568588 -0.00597713 0.0066558
internal_count=3506 2790 2478 716
cat_boundaries=0 13 20
cat_threshold=12583988 69207553 384 0 4 1077936128 65536 4096 0 0 0 0 1073741888 171966464 65536 0 16 0 0 1
shrinkage=0.3


Tree=85
num_leaves=4
num_cat=2
split_feature=7 3 8
split_gain=1.41024 0.0775489 0.0239454
threshold=0 1 4401.5000000000009
decision_type=5 5 2
left_child=2 -2 -1
right_child=1 -3 -4
leaf_value=0.0020033133338040617 0 -0.0016889172824145844 -0
leaf_count=738 229 2467 72
internal_value=0 -0.00526913 0.00658183
internal_count=3506 2696 810
cat_boundaries=0 13 20
cat_threshold=12583088 604243457 73888 0 32772 1077936128 65536 4096 0 0 0 0 1073741888 151060488 536936448 0 1 0 0 1
shrinkage=0.3


Tree=86
num_leaves=4
num_cat=2
split_feature=7 3 8
split_gain=1.64753 0.0844111 0.0404772
threshold=0 1 1972.5000000000002
decision_type=5 5 2
left_child=-1 -2 -3
right_child=1 2 -4
leaf_value=0.0020016582791051269 0 0 -0.0020044073879667518
leaf_count=850 232 93 2331
internal_value=0 -0.00618497 -0.0065228
internal_count=3506 2656 2424
cat_boundaries=0 13 20
cat_threshold=12846228 100959745 33554560 0 4 1077936128 65536 4096 0 0 0 0 1073741888 151060480 539033600 32 0 0 0 1
shrinkage=0.3


Tree=87
num_leaves=4
num_cat=2
split_feature=7 3 8
split_gain=1.57691 0.0968247 0.0293551
threshold=0 1 2076.0000000000005
decision_type=5 5 2
left_child=-1 -2 -3
right_child=1 2 -4
leaf_value=0.0020115170220900975 0 0 -0.0019139191497421399
leaf_count=772 105 100 2529
internal_value=0 -0.0058558 -0.0062586
internal_count=3506 2734 2629
cat_boundaries=0 13 17
cat_threshold=12583088 639632897 8320 0 32772 1077936128 65536 4096 0 0 0 0 1073741888 150994944 536870912 131072 1
shrinkage=0.3


Tree=88
num_leaves=6
num_cat=1
split_feature=6 3 1 8 0
split_gain=0.460321 0.0866289 0.0341228 0.0272244 0.0117626
threshold=2415.0000000000005 0 2.5000000000000004 2858.0000000000005 94.500000000000014
decision_type=2 5 2 2 2
left_child=1 -1 -2 -3 -4
right_child=2 3 4 -5 -6
leaf_value=0 -0 0 0.0012255555415163508 -0.0011437912272099047 -0
leaf_count=214 303 114 1215 1587 73
internal_value=0 -0.00296416 0.00378787 -0.00362561 0.00401117
internal_count=3506 1915 1591 1701 1288
cat_boundaries=0 4
cat_threshold=8392704 35717121 32 67108864
shrinkage=0.3


Tree=89
num_leaves=5
num_cat=2
split_feature=7 3 4 1
split_gain=1.31897 0.0812092 0.0446027 0.0173153
threshold=0 1 1.5000000000000002 1.0000000180025095e-35
decision_type=5 5 2 2
left_child=3 -2 -3 -1
right_child=1 2 -4 -5
leaf_value=-0 0 -0.0017108482119954881 0 0.001927312186610849
leaf_count=127 217 2231 212 719
internal_value=0 -0.0051099 -0.00549731 0.00635047
internal_count=3506 2660 2443 846
cat_boundaries=0 13 20
cat_threshold=13112372 606094336 33620352 256 4 1077936128 65536 4096 0 0 0 0 1073741888 184549384 536870912 131360 17 0 0 1
shrinkage=0.3


Tree=90
num_leaves=5
num_cat=2
split_feature=7 8 3 6
split_gain=1.57623 0.0344089 0.0222977 0.00173396
threshold=0 1972.5000000000002 1 13975.000000000002
decision_type=5 2 5 2
left_child=-1 -2 -3 -4
right_child=1 2 3 -5
leaf_value=0.0020413868529008217 0 0 -0.0017996915386724486 0
leaf_count=752 102 117 2464 71
internal_value=0 -0.00574085 -0.00589329 -0.00598757
internal_count=3506 2754 2652 2535
cat_boundaries=0 13 17
cat_threshold=12584112 67372547 33620096 0 4 1077936128 65536 4096 0 0 0 0 1073741888 444596224 0 256 16
shrinkage=0.3


Tree=91
num_leaves=4
num_cat=2
split_feature=7 3 1
split_gain=1.42039 0.0813525 0.0300843
threshold=0 1 1.0000000180025095e-35
decision_type=5 5 2
left_child=2 -2 -1
right_child=1 -3 -4
leaf_value=-0 0 -0.0018085123741547677 0.0019147791339303622
leaf_count=118 216 2426 746
internal_value=0 -0.00567578 0.00625721
internal_count=3506 2642 864
cat_boundaries=0 13 20
cat_threshold=12588084 604292609 65920 256 4 1077936128 65536 4096 0 0 0 0 1073741888 151060480 536870912 256 4113 0 0 1
shrinkage=0.3


Tree=92
num_leaves=5
num_cat=1
split_feature=7 6 1 8
split_gain=1.59319 0.0929217 0.0334861 0.0142081
threshold=0 9335.0000000000018 1.0000000180025095e-35 2108.5000000000005
decision_type=5 2 2 2
left_child=2 3 -1 -2
right_child=1 -3 -4 -5
leaf_value=-0 0 0 0.0022068343400527199 -0.0017545887328956455
leaf_count=154 94 151 793 2314
internal_value=0 -0.00536364 0.00723359 -0.00578592
internal_count=3506 2559 947 2408
cat_boundaries=0 13
cat_threshold=12583096 606111235 33563040 0 4 1073741824 65536 4096 0 0 0 0 1073741888
shrinkage=0.3


Tree=93
num_leaves=5
num_cat=2
split_feature=7 3 8 1
split_gain=1.46587 0.0739617 0.0648931 0.00192841
threshold=0 1 1972.5000000000002 1.0000000180025095e-35
decision_type=5 5 2 2
left_child=3 -2 -3 -1
right_child=1 2 -4 -5
leaf_value=-0 0 0 -0.0017682410670620714 0.0020487960171478134
leaf_count=100 231 74 2331 770
internal_value=0 -0.00526223 -0.00560745 0.00681679
internal_count=3506 2636 2405 870
cat_boundaries=0 13 20
cat_threshold=12583096 772032001 33562752 256 4 1077936128 65536 4096 0 268435456 0 0 1073741888 159383560 539033600 32 0 0 0 1
shrinkage=0.3


Tree=94
num_leaves=5
num_cat=2
split_feature=7 8 6 3
split_gain=1.50555 0.120056 0.0377477 0.028048
threshold=0 2933.5000000000005 11400.000000000002 1
decision_type=5 2 2 5
left_child=-1 -2 3 -3
right_child=1 2 -4 -5
leaf_value=0.0019407416784419807 0 0 0 -0.0019728007142481782
leaf_count=681 375 113 81 2256
internal_value=0 -0.00581445 -0.00631856 -0.00646789
internal_count=3506 2825 2450 2369
cat_boundaries=0 13 20
cat_threshold=2160070672 603981313 33554560 0 4 1073741824 65536 4096 0 0 0 0 1073741888 192937984 0 256 0 0 0 1
shrinkage=0.3


Tree=95
num_leaves=5
num_cat=3
split_feature=7 3 8 7
split_gain=1.48562 0.093958 0.0404113 0.000580146
threshold=0 1 2206.0000000000005 2
decision_type=5 5 2 5
left_child=3 -2 -3 -1
right_child=1 2 -4 -5
leaf_value=-0 0 0 -0.0017564046836615744 0.0020783261109578346
leaf_count=146 226 131 2296 707
internal_value=0 -0.00523868 -0.00567412 0.00692127
internal_count=3506 2653 2427 853
cat_boundaries=0 13 20 21
cat_threshold=12845104 100681217 8576 0 4 1077936128 65536 4096 0 0 0 0 1073741888 419495936 538968064 32 1 0 0 1 262144
shrinkage=0.3


Tree=96
num_leaves=8
num_cat=2
split_feature=6 8 1 3 0 6 3
split_gain=0.485334 0.0795079 0.0714569 0.0195232 0.0205628 0.00660426 1.64275e-06
threshold=2415.0000000000005 3635.5000000000005 1.5000000000000002 0 94.500000000000014 315.00000000000006 1
decision_type=2 2 2 5 2 2 5
left_child=1 6 -2 -4 -5 -3 -1
right_child=2 5 3 4 -6 -7 -8
leaf_value=-0 -0 0 -0 0.0014226790667546223 -0 -0.0010464229553415038 2.7348918983880227e-06
leaf_count=101 215 131 113 1173 71 1291 411
internal_value=0 -0.00279299 0.00410137 0.00452076 0.00462846 -0.00343889 0
internal_count=3506 1934 1572 1357 1244 1422 512
cat_boundaries=0 5 6
cat_threshold=4680 72 0 0 32 1132688
shrinkage=0.3


Tree=97
num_leaves=7
num_cat=2
split_feature=6 3 3 1 0 8
split_gain=0.370643 0.0798843 0.0665758 0.0476005 0.0163105 0.00232585
threshold=2415.0000000000005 0 1 1.5000000000000002 80.500000000000014 3635.5000000000005
decision_type=2 5 5 2 2 2
left_child=1 5 -2 -4 -5 -1
right_child=2 -3 3 4 -6 -7
leaf_value=0.00010301444902733121 -0 -0.00097612854466626211 -0 0.0012971714252643569 -0 -0
leaf_count=118 225 1517 186 1100 85 275
internal_value=0 -0.00256088 0.00347529 0.0039289 0.00422674 0
internal_count=3506 1910 1596 1371 1185 393
cat_boundaries=0 4 9
cat_threshold=155398144 35717121 288 67108864 8945728 2687048 0 0 32
shrinkage=0.3


Tree=98
num_leaves=5
num_cat=1
split_feature=7 8 6 8
split_gain=1.56594 0.0318347 0.0168336 0.0113731
threshold=0 2206.0000000000005 11905.000000000002 4552.5000000000009
decision_type=5 2 2 2
left_child=-1 -2 3 -3
right_child=1 2 -4 -5
leaf_value=0.002016930297707881 0 -0.0018150046113765757 0 0
leaf_count=772 137 2433 86 78
internal_value=0 -0.00578848 -0.0059295 -0.00600153
internal_count=3506 2734 2597 2511
cat_boundaries=0 13
cat_threshold=2151682100 637535744 384 0 4 1073741824 65536 4096 0 0 0 0 1073741888
shrinkage=0.3


Tree=99
num_leaves=4
num_cat=2
split_feature=7 6 3
split_gain=1.21901 0.098431 0.0354007
threshold=0 6775.0000000000009 1
decision_type=5 2 5
left_child=-1 2 -2
right_child=1 -3 -4
leaf_value=0.0018121126949837822 0 0 -0.0016863334906664451
leaf_count=986 116 285 2119
internal_value=0 -0.00498182 -0.00546058
internal_count=3506 2520 2235
cat_boundaries=0 13 16
cat_threshold=2152464432 639944193 8576 256 4 1073741824 65536 4096 0 0 0 0 1073741888 16781312 65536 32
shrinkage=0.3


Tree=100
num_leaves=5
num_cat=2
split_feature=7 6 3 1
split_gain=1.54512 0.0533436 0.0327847 0.0297581
threshold=0 9335.0000000000018 1 1.0000000180025095e-35
decision_type=5 2 5 2
left_child=3 2 -2 -1
right_child=1 -3 -4 -5
leaf_value=-0 0 0 -0.001648033692462314 0.0022324270867009328
leaf_count=101 101 169 2400 735
internal_value=0 -0.00508074 -0.00534183 0.00733397
internal_count=3506 2670 2501 836
cat_boundaries=0 13 20
cat_threshold=2428502072 201590272 8576 0 4 1077936128 65536 4096 0 0 0 0 1073741888 276824064 65536 32 0 0 0 1
shrinkage=0.3


Tree=101
num_leaves=5
num_cat=1
split_feature=7 6 1 8
split_gain=1.53196 0.0824729 0.0612465 0.0142022
threshold=0 9335.0000000000018 1.0000000180025095e-35 1972.5000000000002
decision_type=5 2 2 2
left_child=2 3 -1 -2
right_child=1 -3 -4 -5
leaf_value=-0 0 0 0.0021841275342300639 -0.0017206952065342896
leaf_count=86 77 166 697 2480
internal_value=0 -0.00529055 0.00705949 -0.00567208
internal_count=3506 2723 783 2557
cat_boundaries=0 13
cat_threshold=2428502064 203458049 128 256 4 1077936128 65536 4096 0 0 0 0 1073741888
shrinkage=0.3


Tree=102
num_leaves=4
num_cat=2
split_feature=7 3 6
split_gain=1.33036 0.1161 0.0178275
threshold=0 1 9335.0000000000018
decision_type=5 5 2
left_child=-1 -2 -3
right_child=1 2 -4
leaf_value=0.0019352748360483263 0 -0.0017063618203824683 0
leaf_count=760 207 2374 165
internal_value=0 -0.0050544 -0.00560345
internal_count=3506 2746 2539
cat_boundaries=0 13 20
cat_threshold=12582964 100944896 160 0 4 1077936128 65536 4096 0 0 0 0 1073741888 150999040 539033600 0 1 0 0 1
shrinkage=0.3


Tree=103
num_leaves=5
num_cat=2
split_feature=7 3 6 8
split_gain=1.52436 0.0620461 0.0335153 0.0161503
threshold=0 1 11400.000000000002 2206.0000000000005
decision_type=5 5 2 2
left_child=-1 -2 3 -3
right_child=1 2 -4 -5
leaf_value=0.0021175814700351821 0 0 0 -0.0017328165804424795
leaf_count=889 101 109 81 2326
internal_value=0 -0.00526073 -0.00555067 -0.00570383
internal_count=3506 2617 2516 2435
cat_boundaries=0 13 20
cat_threshold=2152206516 637847040 65664 0 4 1077936128 65536 4096 0 0 0 0 1073741888 134217728 536936448 0 16 0 0 1
shrinkage=0.3


Tree=104
num_leaves=4
num_cat=2
split_feature=7 6 3
split_gain=1.58857 0.0852739 0.0509186
threshold=0 6775.0000000000009 1
decision_type=5 2 5
left_child=-1 2 -2
right_child=1 -3 -4
leaf_value=0.0021489947351131123 0 0 -0.0018056747483385194
leaf_count=676 124 322 2384
internal_value=0 -0.00541487 -0.00580274
internal_count=3506 2830 2508
cat_boundaries=0 13 20
cat_threshold=4719664 69469696 65664 0 4 1073741824 65536 4096 0 0 0 0 1073741888 285216768 0 32 16 0 0 1
shrinkage=0.3


Tree=105
num_leaves=5
num_cat=1
split_feature=7 8 1 8
split_gain=1.45152 0.0960307 0.0135721 0.00499146
threshold=0 2723.5000000000005 1.0000000180025095e-35 4548.0000000000009
decision_type=5 2 2 2
left_child=2 -2 -1 -3
right_child=1 3 -4 -5
leaf_value=-0 0 -0.0016811533702098386 0.0020848179602589978 0
leaf_count=143 255 2270 764 74
internal_value=0 -0.0051249 0.00689372 -0.0055804
internal_count=3506 2599 907 2344
cat_boundaries=0 13
cat_threshold=2160066608 774120450 8576 0 4 1077936128 65536 4096 0 0 0 0 1073741888
shrinkage=0.3


Tree=106
num_leaves=6
num_cat=1
split_feature=7 8 6 8 1
split_gain=1.71366 0.0451828 0.0221869 0.0165142 0.00533662
threshold=0 2723.5000000000005 11905.000000000002 4552.5000000000009 1.0000000180025095e-35
decision_type=5 2 2 2 2
left_child=4 -2 3 -3 -1
right_child=1 2 -4 -5 -6
leaf_value=-0 0 -0.0018549186400982195 0 0 0.0021817322315299914
leaf_count=109 279 2229 74 75 740
internal_value=0 -0.00582328 -0.00602166 -0.00611453 0.00724796
internal_count=3506 2657 2378 2304 849
cat_boundaries=0 13
cat_threshold=2160066736 201606657 33620384 0 4 1077936128 65536 4096 0 0 0 0 1073741888
shrinkage=0.3


Tree=107
num_leaves=6
num_cat=2
split_feature=7 8 3 6 8
split_gain=1.62471 0.0752614 0.0474463 0.0063284 0.00623968
threshold=0 2206.0000000000005 1 11400.000000000002 4556.5000000000009
decision_type=5 2 5 2 2
left_child=-1 -2 -3 4 -4
right_child=1 2 3 -5 -6
leaf_value=0.0021079303629741573 0 0 -0.001883450216191249 0 0
leaf_count=720 140 126 2354 93 73
internal_value=0 -0.00570145 -0.00602753 -0.00622192 -0.00625203
internal_count=3506 2786 2646 2520 2427
cat_boundaries=0 13 20
cat_threshold=12582960 738477568 128 0 4 1077936128 65536 4096 0 0 0 0 1073741888 138412040 2097152 0 0 0 0 1
shrinkage=0.3


Tree=108
num_leaves=5
num_cat=2
split_feature=7 3 8 1
split_gain=1.42108 0.0792714 0.0526607 0.00587265
threshold=0 1 2206.0000000000005 1.0000000180025095e-35
decision_type=5 5 2 2
left_child=3 -2 -3 -1
right_child=1 2 -4 -5
leaf_value=-0 0 0 -0.0016907313947547985 0.0020739615939383274
leaf_count=112 235 129 2287 743
internal_value=0 -0.00500569 -0.00539178 0.00688608
internal_count=3506 2651 2416 855
cat_boundaries=0 13 15
cat_threshold=12648612 606094850 384 0 4 1077936128 65536 4096 0 0 0 0 1073741888 159383560 572588032
shrinkage=0.3


Tree=109
num_leaves=5
num_cat=2
split_feature=7 3 1 8
split_gain=1.41964 0.0657812 0.0396546 0.00172643
threshold=0 1 1.0000000180025095e-35 2723.5000000000005
decision_type=5 5 2 2
left_child=2 -2 -1 -3
right_child=1 3 -4 -5
leaf_value=-0 0 0 0.0020575279976868081 -0.001652439455067805
leaf_count=160 216 227 842 2061
internal_value=0 -0.00518117 0.00670463 -0.00549413
internal_count=3506 2504 1002 2288
cat_boundaries=0 13 17
cat_threshold=2156139576 235144705 384 2 16777220 1077936128 65536 4096 0 0 0 0 1073741888 159383552 572588032 131104 16
shrinkage=0.3


Tree=110
num_leaves=5
num_cat=2
split_feature=7 1 8 3
split_gain=1.4801 0.077345 0.0689503 0.0356634
threshold=0 1.0000000180025095e-35 2206.0000000000005 1
decision_type=5 2 2 5
left_child=1 -1 -2 -4
right_child=2 -3 3 -5
leaf_value=-0 0 0.0021541637613789856 0 -0.0017170155274063667
leaf_count=157 140 780 105 2324
internal_value=0 0.00689689 -0.00524061 -0.00556488
internal_count=3506 937 2569 2429
cat_boundaries=0 13 15
cat_threshold=2160067768 606127618 160 256 4 1077936128 65536 4096 0 0 0 0 1073741888 159383552 2097152
shrinkage=0.3


Tree=111
num_leaves=6
num_cat=3
split_feature=7 6 3 8 7
split_gain=1.44535 0.0516294 0.04037 0.0060436 0.00136674
threshold=0 11400.000000000002 1 2318.0000000000005 2
decision_type=5 2 5 2 5
left_child=4 2 -2 -4 -1
right_child=1 -3 3 -5 -6
leaf_value=-0 0 0 0 -0.0017736497855600811 0.0019642917189983036
leaf_count=148 122 98 109 2232 797
internal_value=0 -0.00547131 -0.00570684 -0.00588178 0.00653823
internal_count=3506 2561 2463 2341 945
cat_boundaries=0 13 20 21
cat_threshold=2160333840 738496000 33620352 256 4 1073741824 65536 4096 0 0 0 0 1073741888 318767104 33619968 0 0 0 0 1 262144
shrinkage=0.3


Tree=112
num_leaves=4
num_cat=1
split_feature=7 8 6
split_gain=1.48404 0.0677753 0.00862938
threshold=0 2723.5000000000005 11400.000000000002
decision_type=5 2 2
left_child=-1 -2 -3
right_child=1 2 -4
leaf_value=0.0020439664821741486 0 -0.0017092178919471317 0
leaf_count=787 276 2368 75
internal_value=0 -0.00534298 -0.00565815
internal_count=3506 2719 2443
cat_boundaries=0 13
cat_threshold=12584116 67112449 33628288 268435712 4 1077936128 65536 4096 0 0 0 0 1073741888
shrinkage=0.3


Tree=113
num_leaves=5
num_cat=2
split_feature=7 3 8 1
split_gain=1.44525 0.0923812 0.0263137 0.0114284
threshold=0 1 2723.5000000000005 1.0000000180025095e-35
decision_type=5 5 2 2
left_child=3 -2 -3 -1
right_child=1 2 -4 -5
leaf_value=-0 0 0 -0.0016848185431419963 0.0020977193341320788
leaf_count=124 138 259 2184 801
internal_value=0 -0.00504876 -0.00549068 0.00694511
internal_count=3506 2581 2443 925
cat_boundaries=0 13 20
cat_threshold=2151940272 103040001 384 256 32772 1077936128 65536 4096 0 0 0 0 1073741888 268500992 538968064 0 1 0 0 1
shrinkage=0.3


Tree=114
num_leaves=5
num_cat=2
split_feature=7 3 1 8
split_gain=1.53051 0.0581635 0.0170065 0.0093909
threshold=0 1 1.0000000180025095e-35 1896.0000000000002
decision_type=5 5 2 2
left_child=2 -2 -1 -3
right_child=1 3 -4 -5
leaf_value=-0 0 0 0.0020647828280498247 -0.0017525905779605126
leaf_count=110 114 72 761 2449
internal_value=0 -0.0055376 0.00681439 -0.00579748
internal_count=3506 2635 871 2521
cat_boundaries=0 13 20
cat_threshold=12911664 100943360 65920 256 4 1073741824 65536 4096 0 0 0 0 1073741888 150994944 536870912 32 0 0 0 1
shrinkage=0.3


Tree=115
num_leaves=5
num_cat=2
split_feature=7 8 3 1
split_gain=1.50988 0.0905792 0.0621864 0.0476459
threshold=0 2636.5000000000005 1 1.0000000180025095e-35
decision_type=5 2 5 2
left_child=3 -2 -3 -1
right_child=1 2 -4 -5
leaf_value=-0 0 0 -0.0017906460398970311 0.0021458988040009108
leaf_count=88 235 116 2355 712
internal_value=0 -0.00528261 -0.00570153 0.00697753
internal_count=3506 2706 2471 800
cat_boundaries=0 13 20
cat_threshold=4198576 604030465 33628288 256 4 1073741824 65536 4096 0 0 0 0 1073741888 310378504 65536 0 1 0 0 1
shrinkage=0.3


Tree=116
num_leaves=5
num_cat=1
split_feature=7 6 1 8
split_gain=1.33313 0.0602766 0.0324522 0.00742611
threshold=0 9335.0000000000018 1.0000000180025095e-35 1896.0000000000002
decision_type=5 2 2 2
left_child=2 3 -1 -2
right_child=1 -3 -4 -5
leaf_value=-0 0 0 0.0020323352995496847 -0.0015626914025215341
leaf_count=122 73 170 730 2411
internal_value=0 -0.00486672 0.00664681 -0.00517207
internal_count=3506 2654 852 2484
cat_boundaries=0 13
cat_threshold=2160133160 103024129 416 0 4 1077936128 65536 4096 0 0 0 0 1073741888
shrinkage=0.3


Tree=117
num_leaves=4
num_cat=1
split_feature=7 1 8
split_gain=1.62676 0.0797742 0.0250361
threshold=0 1.0000000180025095e-35 2108.5000000000005
decision_type=5 2 2
left_child=1 -1 -2
right_child=2 -3 -4
leaf_value=-0 0 0.0022233168995260634 -0.0017155261784819783
leaf_count=133 117 872 2384
internal_value=0 0.00712817 -0.00560299
internal_count=3506 1005 2501
cat_boundaries=0 13
cat_threshold=12846264 606111232 33554560 256 260 1077936128 65536 4096 0 0 0 0 1073741888
shrinkage=0.3


Tree=118
num_leaves=5
num_cat=2
split_feature=7 8 8 3
split_gain=1.39473 0.0908873 0.0228476 0.00196742
threshold=0 2723.5000000000005 4552.5000000000009 1
decision_type=5 2 2 5
left_child=-1 -2 3 -3
right_child=1 2 -4 -5
leaf_value=0.0019347281187813477 0 0 0 -0.0017610445417843008
leaf_count=762 279 101 79 2285
internal_value=0 -0.00534558 -0.005762 -0.00586168
internal_count=3506 2744 2465 2386
cat_boundaries=0 13 20
cat_threshold=12583088 637535745 33628288 256 4 1077936128 65536 4096 0 0 0 0 1073741888 138412032 16384 32 0 0 0 1
shrinkage=0.3


Tree=119
num_leaves=5
num_cat=2
split_feature=7 3 8 8
split_gain=1.25722 0.0787974 0.0145494 0.00232002
threshold=0 1 2076.0000000000005 4467.5000000000009
decision_type=5 5 2 2
left_child=-1 -2 -3 -4
right_child=1 2 3 -5
leaf_value=0.0020193356013426906 0 0 -0.0014932905701694869 0
leaf_count=784 221 91 2195 215
internal_value=0 -0.00445986 -0.0048856 -0.00496329
internal_count=3506 2722 2501 2410
cat_boundaries=0 13 20
cat_threshold=12583988 100666881 160 256 4 1077936128 65536 4096 0 0 0 0 1073741888 159383552 572588032 0 16 0 0 1
shrinkage=0.3


Tree=120
num_leaves=6
num_cat=2
split_feature=7 3 8 1 6
split_gain=1.23921 0.079354 0.0503963 0.0428041 0.017287
threshold=0 1 2753.0000000000005 1.0000000180025095e-35 11400.000000000002
decision_type=5 5 2 2 2
left_child=3 -2 -3 -1 -4
right_child=1 2 4 -5 -6
leaf_value=-0 0 0 -0.0015913235837034182 0.0020167192077024539 0
leaf_count=95 219 271 2125 720 76
internal_value=0 -0.00454543 -0.00496674 0.0065546 -0.0052209
internal_count=3506 2691 2472 815 2201
cat_boundaries=0 13 20
cat_threshold=12845104 67372544 65920 256 4 1073741824 65536 4096 0 0 0 0 1073741888 134221824 572588032 32 16 0 0 1
shrinkage=0.3


Tree=121
num_leaves=5
num_cat=2
split_feature=7 8 3 6
split_gain=1.2113 0.0865484 0.0361199 0.00953634
threshold=0 2318.0000000000005 1 11400.000000000002
decision_type=5 2 5 2
left_child=-1 -2 -3 -4
right_child=1 2 3 -5
leaf_value=0.0018605275237644052 0 0 -0.0016289991120924875 0
leaf_count=849 155 219 2208 75
internal_value=0 -0.00477074 -0.0052094 -0.00538198
internal_count=3506 2657 2502 2283
cat_boundaries=0 13 20
cat_threshold=2151940148 603997696 33554560 0 4 1073741824 65536 4096 0 0 0 0 1073741888 16781320 572588032 32 0 0 0 1
shrinkage=0.3


Tree=122
num_leaves=4
num_cat=2
split_feature=7 3 1
split_gain=1.4229 0.0422359 0.00849341
threshold=0 1 1.0000000180025095e-35
decision_type=5 5 2
left_child=2 -2 -1
right_child=1 -3 -4
leaf_value=-0 0 -0.0015740963121818748 0.0020696244767383224
leaf_count=97 238 2396 775
internal_value=0 -0.00503694 0.00686225
internal_count=3506 2634 872
cat_boundaries=0 13 17
cat_threshold=12587184 738479617 33563008 256 32772 1073741824 65536 4096 0 0 0 0 1073741888 184614912 536936512 0 1
shrinkage=0.3


Tree=123
num_leaves=6
num_cat=2
split_feature=7 3 8 1 1
split_gain=1.35262 0.0569108 0.0345668 0.0083933 0.000661676
threshold=0 1 1972.5000000000002 1.0000000180025095e-35 67.500000000000014
decision_type=5 5 2 2 2
left_child=3 -2 -3 -1 -4
right_child=1 2 4 -5 -6
leaf_value=-0 0 0 -0.001536972321418523 0.002103279032049312 0
leaf_count=188 228 83 2086 828 93
internal_value=0 -0.00464131 -0.0049428 0.00697366 -0.00511876
internal_count=3506 2490 2262 1016 2179
cat_boundaries=0 13 17
cat_threshold=4457660 69477890 128 256 4 1073741824 65536 4096 0 0 0 0 1073741888 184614912 539033600 32 1
shrinkage=0.3


Tree=124
num_leaves=4
num_cat=2
split_feature=7 3 8
split_gain=1.36521 0.0584987 0.0274744
threshold=0 1 1972.5000000000002
decision_type=5 5 2
left_child=-1 -2 -3
right_child=1 2 -4
leaf_value=0.0019759966508798329 0 0 -0.0016450935479514291
leaf_count=882 214 75 2335
internal_value=0 -0.00506751 -0.00535276
internal_count=3506 2624 2410
cat_boundaries=0 13 16
cat_threshold=2428503100 771752961 33554560 256 4 1077936128 65536 4096 0 0 0 0 1073741888 151027712 538968064 256
shrinkage=0.3


Tree=125
num_leaves=7
num_cat=2
split_feature=7 8 1 6 3 8
split_gain=1.25519 0.108378 0.0360829 0.0189943 0.0140792 0.00301948
threshold=0 2958.5000000000005 1.0000000180025095e-35 11400.000000000002 1 4478.5000000000009
decision_type=5 2 2 2 5 2
left_child=2 -2 -1 4 -3 -6
right_child=1 3 -4 -5 5 -7
leaf_value=-0 0 0 0.0020523394369367357 0 -0.0015713001460690341 0
leaf_count=141 372 101 711 75 1918 188
internal_value=0 -0.00447917 0.00670066 -0.00505555 -0.00514995 -0.00521812
internal_count=3506 2654 852 2282 2207 2106
cat_boundaries=0 13 20
cat_threshold=12587064 606356481 384 256 32772 1073741824 65536 4096 0 0 0 0 1073741888 25165824 33619968 0 16 0 0 4
shrinkage=0.3


Tree=126
num_leaves=5
num_cat=2
split_feature=7 3 1 1
split_gain=1.20561 0.057896 0.0267513 0.0233726
threshold=0 1 1.0000000180025095e-35 75.500000000000014
decision_type=5 5 2 2
left_child=2 -2 -1 -3
right_child=1 3 -4 -5
leaf_value=-0 0 -0.0015206733551964757 0.0019239415084157743 0
leaf_count=147 242 2183 853 81
internal_value=0 -0.00464173 0.00630134 -0.00494832
internal_count=3506 2506 1000 2264
cat_boundaries=0 13 20
cat_threshold=4723892 639944195 73856 256 32772 1077936128 65536 4096 0 0 0 0 1073741888 25231368 570556416 2304 0 0 0 1
shrinkage=0.3


Tree=127
num_leaves=6
num_cat=1
split_feature=6 8 3 1 6
split_gain=0.480529 0.0633285 0.0590021 0.0304789 0.000651817
threshold=2035.0000000000002 3625.0000000000005 0 1.0000000180025095e-35 315.00000000000006
decision_type=2 2 5 2 2
left_child=1 -1 -2 -4 -3
right_child=2 4 3 -5 -6
leaf_value=0 -0 0 -0 0.0015198785173113753 -0.00087254115092578056
leaf_count=438 102 124 133 1574 1135
internal_value=0 -0.002284 0.00459673 0.00490857 -0.00290191
internal_count=3506 1697 1809 1707 1259
cat_boundaries=0 7
cat_threshold=2147483712 72 0 0 32 0 4
shrinkage=0.3


Tree=128
num_leaves=4
num_cat=2
split_feature=7 8 3
split_gain=1.33488 0.134774 0.0576603
threshold=0 2902.5000000000005 1
decision_type=5 2 5
left_child=-1 -2 -3
right_child=1 2 -4
leaf_value=0.0021154340230311501 0 0 -0.001641908372625037
leaf_count=774 350 114 2268
internal_value=0 -0.00449959 -0.00520198
internal_count=3506 2732 2382
cat_boundaries=0 13 20
cat_threshold=2151678996 772032000 74112 256 4 1077936128 65536 4096 0 0 0 0 1073741888 134348808 536870912 256 0 0 0 1
shrinkage=0.3


Tree=129
num_leaves=5
num_cat=2
split_feature=7 8 3 6
split_gain=1.29267 0.0795582 0.0274347 0.00149982
threshold=0 2933.5000000000005 1 11165.000000000002
decision_type=5 2 5 2
left_child=-1 -2 -3 -4
right_child=1 2 3 -5
leaf_value=0.0019224260439927418 0 0 -0.0016392789069659844 0
leaf_count=785 370 108 2170 73
internal_value=0 -0.00492984 -0.00532582 -0.00545357
internal_count=3506 2721 2351 2243
cat_boundaries=0 13 15
cat_threshold=2152203312 203687425 65920 256 4 1077936128 65536 4096 0 0 0 0 1073741888 4198408 536870912
shrinkage=0.3


Tree=130
num_leaves=5
num_cat=2
split_feature=7 3 1 6
split_gain=1.27412 0.0737571 0.035536 0.0239915
threshold=0 1 1.0000000180025095e-35 9335.0000000000018
decision_type=5 5 2 2
left_child=2 -2 -1 -3
right_child=1 3 -4 -5
leaf_value=-0 0 -0.0014780324475246163 0.0021071593101738687 0
leaf_count=193 239 2088 859 127
internal_value=0 -0.00439289 0.00688799 -0.00479893
internal_count=3506 2454 1052 2215
cat_boundaries=0 13 16
cat_threshold=2156135592 67431938 65920 256 4 1073741824 65536 4096 0 0 0 0 1073741888 419954696 570490880 32
shrinkage=0.3


Tree=131
num_leaves=8
num_cat=2
split_feature=6 8 3 3 1 0 6
split_gain=0.407789 0.0981334 0.0393865 0.0332447 0.0243563 0.0125856 0.000577002
threshold=2545.0000000000005 3635.5000000000005 0 1 1.0000000180025095e-35 93.500000000000014 2075.0000000000005
decision_type=2 2 5 5 2 2 2
left_child=1 6 -2 -3 -4 -6 -1
right_child=2 3 4 -5 5 -7 -8
leaf_value=6.07440793490911e-05 -0 0 -0 -0.0010072884019687986 0.0013765897013479729 -0 -0
leaf_count=452 110 100 104 1318 1276 72 74
internal_value=0 -0.0021576 0.00414432 -0.00309823 0.00437697 0.00451811 0.000108599
internal_count=3506 1944 1562 1418 1452 1348 526
cat_boundaries=0 5 9
cat_threshold=12582976 72 0 16 32 16781312 537395200 32 67108864
shrinkage=0.3


Tree=132
num_leaves=6
num_cat=2
split_feature=7 8 3 1 8
split_gain=1.20744 0.0932399 0.0510963 0.00374172 0.000725031
threshold=0 2753.0000000000005 1 61.500000000000007 4552.5000000000009
decision_type=5 2 5 2 2
left_child=-1 -2 -3 4 -4
right_child=1 2 3 -5 -6
leaf_value=0.0018633168933386863 0 0 -0.001644916618100428 0 0
leaf_count=677 283 110 2284 73 79
internal_value=0 -0.00474321 -0.00521776 -0.00545772 -0.00547865
internal_count=3506 2829 2546 2436 2363
cat_boundaries=0 13 20
cat_threshold=4195472 606356992 33562752 0 4 1077936128 65536 4096 0 0 0 0 1073741888 167772160 538968064 256 0 0 0 1
shrinkage=0.3


Tree=133
num_leaves=5
num_cat=2
split_feature=7 8 3 1
split_gain=1.15202 0.0613212 0.0315054 0.0274715
threshold=0 2318.0000000000005 1 1.0000000180025095e-35
decision_type=5 2 5 2
left_child=3 -2 -3 -1
right_child=1 2 -4 -5
leaf_value=-0 0 0 -0.0014758073464245112 0.0019182206395338662
leaf_count=168 154 106 2236 842
internal_value=0 -0.00441679 -0.00475593 0.00627876
internal_count=3506 2496 2342 1010
cat_boundaries=0 13 17
cat_threshold=2160328860 604259337 8320 0 4 1077936128 65536 4096 0 0 0 0 1073741888 138412032 538968064 0 16
shrinkage=0.3


Tree=134
num_leaves=6
num_cat=2
split_feature=7 8 6 3 1
split_gain=1.20744 0.0862587 0.0573269 0.0230078 0.0148672
threshold=0 2933.5000000000005 11400.000000000002 1 1.0000000180025095e-35
decision_type=5 2 2 5 2
left_child=4 -2 3 -3 -1
right_child=1 2 -4 -5 -6
leaf_value=-0 0 0 0 -0.0017425864489259465 0.0018053387310809368
leaf_count=124 384 104 72 2167 655
internal_value=0 -0.00502946 -0.00544958 -0.00570833 0.00595007
internal_count=3506 2727 2343 2271 779
cat_boundaries=0 13 15
cat_threshold=12652560 103032321 33620096 256 4 1073741824 65536 4096 0 0 0 0 1073741888 12713992 65536
shrinkage=0.3


Tree=135
num_leaves=8
num_cat=1
split_feature=6 8 3 0 1 8 6
split_gain=0.414992 0.0672835 0.050399 0.0189044 0.0164862 0.0108669 2.6292e-05
threshold=2415.0000000000005 3635.5000000000005 0 93.500000000000014 1.0000000180025095e-35 4543.5000000000009 1375.0000000000002
decision_type=2 2 5 2 2 2 2
left_child=1 6 -2 4 -4 -3 -1
right_child=2 5 3 -5 -6 -7 -8
leaf_value=1.0948508934347333e-05 -0 -0.00093007119530802711 -0 -0 0.0013464626246412449 0 -0
leaf_count=263 117 1307 96 71 1307 88 257
internal_value=0 -0.00237797 0.00397379 0.00428103 0.00439369 -0.00300993 0
internal_count=3506 1915 1591 1474 1403 1395 520
cat_boundaries=0 5
cat_threshold=4160 72 256 16 32
shrinkage=0.3


Tree=136
num_leaves=4
num_cat=2
split_feature=7 3 6
split_gain=1.54749 0.0704949 0.0378701
threshold=0 1 9335.0000000000018
decision_type=5 5 2
left_child=-1 -2 -3
right_child=1 2 -4
leaf_value=0.002078249904914163 0 -0.0017914029766383252 0
leaf_count=739 114 2475 178
internal_value=0 -0.00548928 -0.00580457
internal_count=3506 2767 2653
cat_boundaries=0 13 20
cat_threshold=12583984 738215425 33554816 256 4 1073741824 65536 4096 0 0 0 0 1073741888 285212672 536936448 0 1 0 0 1
shrinkage=0.3


Tree=137
num_leaves=6
num_cat=2
split_feature=7 8 6 8 3
split_gain=1.29304 0.0786139 0.018582 0.0144891 0.012803
threshold=0 2933.5000000000005 11165.000000000002 4471.5000000000009 1
decision_type=5 2 2 2 5
left_child=3 -2 4 -1 -3
right_child=1 2 -4 -5 -6
leaf_value=0.0021334510434845556 0 0 0 -0 -0.0014794463430342917
leaf_count=989 338 105 75 71 1928
internal_value=0 -0.00432832 -0.00476798 0.00705501 -0.0048658
internal_count=3506 2446 2108 1060 2033
cat_boundaries=0 13 15
cat_threshold=8656052 639895041 33554848 256 4 1073741824 65536 4096 0 0 0 0 1073741888 134221824 33554496
shrinkage=0.3


Tree=138
num_leaves=4
num_cat=2
split_feature=7 3 8
split_gain=1.391 0.0663113 0.0057782
threshold=0 1 1896.0000000000002
decision_type=5 5 2
left_child=-1 -2 -3
right_child=1 2 -4
leaf_value=0.0018603860926604181 0 0 -0.0017794406709341765
leaf_count=701 344 74 2387
internal_value=0 -0.00560804 -0.00590281
internal_count=3506 2805 2461
cat_boundaries=0 13 20
cat_threshold=4195376 69223937 33562752 256 32772 1073741824 65536 4096 0 0 0 0 1073741888 151064576 572588032 288 16 0 0 1
shrinkage=0.3


Tree=139
num_leaves=5
num_cat=2
split_feature=7 3 1 1
split_gain=1.19788 0.0819262 0.0168371 0.0146185
threshold=0 1 75.500000000000014 1.0000000180025095e-35
decision_type=5 5 2 2
left_child=3 -2 -3 -1
right_child=1 2 -4 -5
leaf_value=-0 0 -0.0015544671748990036 0 0.0018908546115487088
leaf_count=148 331 2181 87 759
internal_value=0 -0.00467008 -0.00509564 0.00623839
internal_count=3506 2599 2268 907
cat_boundaries=0 13 20
cat_threshold=12588064 637797378 8608 0 260 1077936128 65536 4096 0 0 0 0 1073741888 432078856 570425344 134217984 16 0 0 1
shrinkage=0.3


Tree=140
num_leaves=5
num_cat=2
split_feature=7 1 3 6
split_gain=1.22042 0.0547021 0.0537326 0.000702651
threshold=0 1.0000000180025095e-35 1 9335.0000000000018
decision_type=5 2 5 2
left_child=1 -1 -2 -4
right_child=2 -3 3 -5
leaf_value=-0 0 0.0019206764355812365 -0.001536642818960929 0
leaf_count=155 229 823 2152 147
internal_value=0 0.00617717 -0.00483954 -0.00511411
internal_count=3506 978 2528 2299
cat_boundaries=0 13 20
cat_threshold=2160329784 102780417 384 0 4 1077936128 65536 4096 0 0 0 0 1073741888 428408832 2097152 0 0 0 0 1
shrinkage=0.3


Tree=141
num_leaves=5
