tree
version=v2
num_class=1
num_tree_per_iteration=1
label_index=0
max_feature_idx=8
objective=binary sigmoid:1
feature_names=follow_count fans_count gender location level properties mileage car_like date_delta
feature_infos=[0:911] [0:959] [1:2] 5:4:20:32:13:15:14:16:7:11:9:19:37:51:38:26:12:27:35:3:39:24:48:22:53:57:33:61:68:69:23:72:56:122:77:17:25:62:6:133:84:64:46:29:100:194:192:105:66:98:101:107:28:96:87:81:104:91:164:193:108:75:71:162:21:42:31:97:121:67:82:41:58:59:180:156:149:30:176:88:93:247:137:54:86:240:10:89:34:63:50:49:131:99:118:120:229:43:195:136:171:78:212:217:127:175:125:238:1:141:145:85:8:76:44:55:65:103:183:83:150:167:168:172:179:60:181:114:185:189:191:199:213:227:36:233:268:112:110:102:73:223:218:119:111:135:95:169:170:139:210:209:178:198:109:184:153:147:228:254:18:154:232:79:252:158:262:47:253:246:257:265:113:202:243:278:239:235:216:230:224:142:94:160:166:155:140:70:177:148:146:128:106:126 [1:5] [1:10] [100:137840] 18:1:35:42:414:5:17:28:33:130:71:12:236:0:3:45:69:58:61:208:81:25:136:134:390:19:56:110:16:31:2:47:15:53:24:94:190:11:23:59:77:118:57:54:87:72:22:117:50:52:7:143:36:101:93:105:46:131:129:98:137:182:43:125:100:292:106:108:4:75:128:316:152:89:104:14:41:20:124:88:115:111:153:40:51:13:97:123:107:260:32:92:132:48:29:133:170:222:227:85:34:229:160:159:147:80:240:120:119:109:234:270:218:10:192:313:157:261:21:79:82:189:241:194:178:200:235:343:142:223:127:416:370:65:193:121:224:163:112:73:321:126:360:150:148:91:83:350:272:168:345:331:68:171:386:202:197:27:60:304:380:371:225:207:164:273:145:44:216:436:74:358:99:494:205:221:62:361:233:341:196:363:237:206:175:276:76:317:326:312:275:281:388:144:174:384:248:179:246:446:336:184:185:378:231:114:299:298:294:39:306:30:26:329:255:253:249:467:415:395:440:78:351:161:433:165:445:84:177:6:180:381:219:198:203:64:210:425:212:122 [0:4622]
tree_sizes=761 621 601 682 554 695 812 419 618 868 560 554 856 599 558 860 504 563 499 682 618 561 504 788 561 480 564 622 564 539 560 540 501 494 561 684 755 719 560 496 541 481 616 733 615 541 558 622 560 497 541 767 543 850 485 481 674 600 564 540 560 635 633 482 674 505 562 571 678 673 498 632 539 538 696 637 814 871 771 502 696 610 636 939 583 781 619 777 601 482 807 498 601 864 701 481 937 838 600 578 696 485 566 540 617 545 677

Tree=0
num_leaves=7
num_cat=3
split_feature=7 6 3 8 2 7
split_gain=1.32344 0.0680985 0.0392452 0.0120929 0.00630823 0.000131512
threshold=0 9290.0000000000018 1 4560.5000000000009 1.5000000000000002 2
decision_type=5 2 5 2 2 5
left_child=5 2 -2 4 -4 -1
right_child=1 -3 3 -5 -6 -7
leaf_value=-1.892470015257022 -1.892470015257022 -1.892470015257022 -1.892470015257022 -1.892470015257022 -1.8936519265674274 -1.8913238287426177
leaf_count=107 129 220 78 57 2803 912
internal_value=0 -0.00359042 -0.0037834 -0.00388956 -0.00392271 0.00381938
internal_count=4306 3287 3067 2938 2881 1019
cat_boundaries=0 13 20 22
cat_threshold=12593208 638076417 33554560 256 4 1077936128 65536 4096 0 0 0 0 1073741888 25165824 65536 131072 1 0 0 1 4194312 33554432
shrinkage=1


Tree=1
num_leaves=6
num_cat=2
split_feature=7 3 6 8 8
split_gain=1.34605 0.0449162 0.0236364 0.0132975 0.000621328
threshold=0 1 9290.0000000000018 4560.5000000000009 1867.0000000000002
decision_type=5 5 2 2 2
left_child=-1 -2 3 4 -3
right_child=1 2 -4 -5 -6
leaf_value=0.0011160231565332985 0 0 0 0 -0.0011940217298964384
leaf_count=1024 215 53 214 56 2744
internal_value=0 -0.00375554 -0.00387873 -0.00394314 -0.00397821
internal_count=4306 3282 3067 2853 2797
cat_boundaries=0 13 20
cat_threshold=12609592 638076416 35651712 256 4 1077936128 65536 4096 0 0 0 0 1073741888 18874368 65568 131329 1 0 4 1
shrinkage=0.3


Tree=2
num_leaves=6
num_cat=1
split_feature=7 6 8 2 8
split_gain=1.36416 0.072895 0.0171467 0.00545974 0.00341306
threshold=0 9290.0000000000018 4560.5000000000009 1.5000000000000002 1867.0000000000002
decision_type=5 2 2 2 2
left_child=-1 2 3 -2 -5
right_child=1 -3 -4 4 -6
leaf_value=0.0011306528496215322 0 0 0 0 -0.0012069506814327855
leaf_count=990 79 226 60 58 2893
internal_value=0 -0.00375708 -0.00395465 -0.0039996 -0.00401409
internal_count=4306 3316 3090 3030 2951
cat_boundaries=0 13
cat_threshold=12609592 604505601 33554560 256 4 1077936128 65536 4096 0 0 0 0 1073741888
shrinkage=0.3


Tree=3
num_leaves=7
num_cat=2
split_feature=7 6 3 8 2 8
split_gain=1.34625 0.0611195 0.050011 0.0105675 0.00543173 0.000753725
threshold=0 9290.0000000000018 1 4560.5000000000009 1.5000000000000002 4486.5000000000009
decision_type=5 2 5 2 2 2
left_child=5 2 -2 4 -4 -1
right_child=1 -3 3 -5 -6 -7
leaf_value=0.0011495266277352255 0 0 0 0 -0.0011982083104109828 -0
leaf_count=959 119 228 79 51 2816 54
internal_value=0 -0.00364594 -0.00381732 -0.00395086 -0.00397953 0.00382866
internal_count=4306 3293 3065 2946 2895 1013
cat_boundaries=0 13 20
cat_threshold=8413240 638076417 35651968 256 4 1077936128 65536 4096 0 0 0 0 1073741888 16777216 65536 131072 2049 0 0 1
shrinkage=0.3


Tree=4
num_leaves=5
num_cat=2
split_feature=7 6 3 8
split_gain=1.36594 0.0582866 0.0328031 0.013521
threshold=0 9290.0000000000018 1 4560.5000000000009
decision_type=5 2 5 2
left_child=-1 2 -2 -4
right_child=1 -3 3 -5
leaf_value=0.0011300265513981421 0 0 -0.0012133692142398472 0
leaf_count=951 106 225 2968 56
internal_value=0 -0.00376409 -0.00392291 -0.00400868
internal_count=4306 3355 3130 3024
cat_boundaries=0 13 20
cat_threshold=8405048 604521985 35651712 256 4 1077936128 65536 4096 0 0 0 0 1073741888 16777216 65536 0 2049 0 0 1
shrinkage=0.3


Tree=5
num_leaves=7
num_cat=3
split_feature=7 3 8 8 7 1
split_gain=1.34399 0.0395364 0.0138948 0.0131282 0.000354536 3.61332e-07
threshold=0 1 4560.5000000000009 1867.0000000000002 2 2.5000000000000004
decision_type=5 5 2 2 5 2
left_child=4 5 3 -3 -1 -2
right_child=1 2 -4 -5 -6 -7
leaf_value=-0 -0 0 0 -0.0011684019545664419 0.0011283601640423642 8.2371263923017829e-07
leaf_count=107 84 79 55 2961 899 121
internal_value=0 -0.0037107 -0.0038207 -0.00385923 0.00375935 0
internal_count=4306 3300 3095 3040 1006 205
cat_boundaries=0 13 20 22
cat_threshold=12607544 638076416 35651712 256 4 1077936128 65536 4096 0 0 0 0 1073741888 161480704 65536 131073 0 0 0 5 4194312 33554432
shrinkage=0.3


Tree=6
num_leaves=9
num_cat=2
split_feature=6 3 3 0 8 8 2 8
split_gain=0.382967 0.0733229 0.0261531 0.0142127 0.00613314 0.00580157 0.00421066 0.00123569
threshold=3085.0000000000005 0 1 94.500000000000014 3640.5000000000005 4560.5000000000009 1.5000000000000002 4336.5000000000009
decision_type=2 5 5 2 2 2 2 2
left_child=1 4 -2 -4 -1 6 -3 -6
right_child=2 5 3 -5 7 -7 -8 -9
leaf_value=0.00011293540673335122 -0 0 0.00063235604200234045 -0 -4.9775301982115079e-05 0 -0.00073935291961293342 0
leaf_count=221 112 47 1381 72 230 52 2045 146
internal_value=0 -0.00208568 0.00189761 0.00203592 0.000124563 -0.00242117 -0.00244657 -4.18687e-05
internal_count=4306 2741 1565 1453 597 2144 2092 376
cat_boundaries=0 4 9
cat_threshold=167845888 103350913 131361 67110913 12587072 1109393408 1048576 0 32
shrinkage=0.3


Tree=7
num_leaves=3
num_cat=1
split_feature=7 6
split_gain=1.34963 0.0668838
threshold=0 9290.0000000000018
decision_type=5 2
left_child=-1 -2
right_child=1 -3
leaf_value=0.0011405793530473859 -0.0011605168728938777 0
leaf_count=982 3101 223
internal_value=0 -0.0036832
internal_count=4306 3324
cat_boundaries=0 13
cat_threshold=8413240 604521985 33554816 256 4 1077936128 65536 4096 0 0 0 0 1073741888
shrinkage=0.3


Tree=8
num_leaves=6
num_cat=2
split_feature=7 3 6 8 2
split_gain=1.34254 0.0496634 0.0447958 0.0164593 0.00984504
threshold=0 1 9290.0000000000018 4560.5000000000009 1.5000000000000002
decision_type=5 5 2 2 2
left_child=-1 -2 3 4 -3
right_child=1 2 -4 -5 -6
leaf_value=0.0011355489642121443 0 0 0 0 -0.0012028471742298178
leaf_count=934 210 75 216 53 2818
internal_value=0 -0.00368049 -0.00381891 -0.0039403 -0.0039836
internal_count=4306 3372 3162 2946 2893
cat_boundaries=0 13 20
cat_threshold=8396856 604521985 35651712 0 4 1077936128 65536 4096 0 0 0 0 1073741888 186646528 65536 131072 2049 0 0 5
shrinkage=0.3


Tree=9
num_leaves=10
num_cat=2
split_feature=8 3 3 4 8 2 0 0 1
split_gain=0.305428 0.0470114 0.0352338 0.0254399 0.0140008 0.00958429 0.00255561 0.000186957 0.000100757
threshold=3618.5000000000005 0 1 1.5000000000000002 4560.5000000000009 1.5000000000000002 112.50000000000001 1.0000000180025095e-35 1.0000000180025095e-35
decision_type=2 5 5 2 2 2 2 2 2
left_child=2 8 7 4 5 -3 -4 -1 -2
right_child=1 3 6 -5 -6 -7 -8 -9 -10
leaf_value=0 -0 0 0.0006065971482595463 0 0 -0.00067358079081142211 -0 -1.8733585994442635e-05 2.0431495228652799e-05
leaf_count=47 114 60 1330 121 67 2005 43 261 258
internal_value=0 -0.0017446 0.00181623 -0.00200471 -0.00213306 -0.00220033 0.00200828 -0 5.03489e-05
internal_count=4306 2625 1681 2253 2132 2065 1373 308 372
cat_boundaries=0 7 11
cat_threshold=51380232 16777217 131072 0 0 0 5 71307368 1090519104 1048576 16
shrinkage=0.3


Tree=10
num_leaves=5
num_cat=2
split_feature=7 3 8 8
split_gain=1.3179 0.0372208 0.0113545 0.00579334
threshold=0 1 4560.5000000000009 1803.0000000000002
decision_type=5 5 2 2
left_child=-1 -2 3 -3
right_child=1 2 -4 -5
leaf_value=0.0010949686728718181 0 0 0 -0.0011689654298671997
leaf_count=952 231 71 50 3002
internal_value=0 -0.00374645 -0.00384934 -0.00388079
internal_count=4306 3354 3123 3073
cat_boundaries=0 13 20
cat_threshold=8396856 604521985 35651712 256 4 1077936128 65536 4096 0 0 0 0 1073741888 52428800 65568 131073 2049 0 0 5
shrinkage=0.3


Tree=11
num_leaves=5
num_cat=2
split_feature=7 8 3 8
split_gain=1.35513 0.0332454 0.0199125 0.0063507
threshold=0 1867.0000000000002 1 4560.5000000000009
decision_type=5 2 5 2
left_child=-1 -2 -3 -4
right_child=1 2 3 -5
leaf_value=0.0011300084074858949 0 0 -0.0011694401265512674 0
leaf_count=1015 89 103 3044 55
internal_value=0 -0.00373435 -0.00382657 -0.00388016
internal_count=4306 3291 3202 3099
cat_boundaries=0 13 20
cat_threshold=8413240 638076417 35651968 256 4 1077936128 65536 4096 0 0 0 0 1073741888 2097152 32 131072 1 0 0 5
shrinkage=0.3


Tree=12
num_leaves=10
num_cat=2
split_feature=8 1 2 3 8 3 0 8 0
split_gain=0.30857 0.0503728 0.0326754 0.030956 0.0204205 0.00345775 0.00253336 0.00181882 9.43996e-05
threshold=3618.5000000000005 12.500000000000002 1.5000000000000002 0 4560.5000000000009 1 112.50000000000001 3973.0000000000005 1.0000000180025095e-35
decision_type=2 2 2 5 2 5 2 2 2
left_child=3 2 -2 8 5 -4 -5 -3 -1
right_child=1 7 4 6 -6 -7 -8 -9 -10
leaf_value=0 0 -0 0 0.00060419689246577618 0 -0.00068884371526557937 -0 6.1767775234733118e-05 -1.331198549706474e-05
leaf_count=45 63 189 140 1341 72 1959 43 207 247
internal_value=0 -0.0017469 -0.00202383 0.00183193 -0.00218516 -0.00228031 0.00200034 6.67023e-05 -0
internal_count=4306 2630 2234 1676 2171 2099 1384 396 292
cat_boundaries=0 4 11
cat_threshold=4198504 1090519104 1048576 16 33554432 1 0 67108864 0 0 5
shrinkage=0.3


Tree=13
num_leaves=6
num_cat=1
split_feature=7 6 8 8 2
split_gain=1.2851 0.0640744 0.0249849 0.0119793 0.00776752
threshold=0 9290.0000000000018 4560.5000000000009 1867.0000000000002 1.5000000000000002
decision_type=5 2 2 2 2
left_child=-1 2 3 -2 -5
right_child=1 -3 -4 4 -6
leaf_value=0.0010988185802429319 0 0 0 0 -0.0011825433300681058
leaf_count=870 65 233 67 77 2994
internal_value=0 -0.00364193 -0.00382148 -0.00388891 -0.00392098
internal_count=4306 3436 3203 3136 3071
cat_boundaries=0 13
cat_threshold=24624 604521985 35651712 256 4 1077936128 65536 4096 0 0 0 0 1073741888
shrinkage=0.3


Tree=14
num_leaves=5
num_cat=2
split_feature=7 6 3 2
split_gain=1.34112 0.048699 0.0304437 0.00159745
threshold=0 9290.0000000000018 1 1.5000000000000002
decision_type=5 2 5 2
left_child=-1 2 -2 -4
right_child=1 -3 3 -5
leaf_value=0.001135592281829103 0 0 0 -0.0011700337843819813
leaf_count=946 100 226 83 2951
internal_value=0 -0.00367637 -0.00381279 -0.00389468
internal_count=4306 3360 3134 3034
cat_boundaries=0 13 20
cat_threshold=12607536 638076417 35651712 256 4 1077936128 65536 4096 0 0 0 0 1073741888 16777216 65536 131072 0 0 0 1
shrinkage=0.3


Tree=15
num_leaves=10
num_cat=2
split_feature=6 3 3 2 0 8 8 8 8
split_gain=0.418204 0.0365052 0.0348934 0.0156933 0.0109255 0.00850375 0.00332 0.00158098 0.000170389
threshold=2525.0000000000005 0 1 1.5000000000000002 125.50000000000001 4560.5000000000009 2732.0000000000005 3640.5000000000005 4336.5000000000009
decision_type=2 5 5 2 2 2 2 2 2
left_child=1 7 -2 -3 -4 6 -5 -1 -9
right_child=2 3 4 5 -6 -7 -8 8 -10
leaf_value=5.4446880172009522e-05 -0 0 0.00068939859414192145 0 -0 0 -0.0007159155850094632 -1.8008927886381504e-05 0
leaf_count=109 108 58 1726 110 49 55 1888 115 88
internal_value=0 -0.00208759 0.00207985 -0.00226236 0.00224745 -0.00233389 -0.00237158 0 -6.96277e-06
internal_count=4306 2423 1883 2111 1775 2053 1998 312 203
cat_boundaries=0 4 11
cat_threshold=151003136 33619969 32 67108864 4194368 33554496 1048576 32 32 0 4
shrinkage=0.3


Tree=16
num_leaves=4
num_cat=2
split_feature=7 6 3
split_gain=1.28118 0.0557055 0.0430827
threshold=0 9290.0000000000018 1
decision_type=5 2 5
left_child=-1 2 -2
right_child=1 -3 -4
leaf_value=0.001095639325703428 0 0 -0.0011743484059969409
leaf_count=933 211 226 2936
internal_value=0 -0.00364139 -0.0037982
internal_count=4306 3373 3147
cat_boundaries=0 13 20
cat_threshold=8398904 604505601 2097280 0 4 1077936128 65536 4096 0 0 0 0 1073741888 58720256 65536 134348800 2049 32 65536 5
shrinkage=0.3


Tree=17
num_leaves=5
num_cat=2
split_feature=7 6 3 8
split_gain=1.32225 0.0613398 0.0459742 0.0263742
threshold=0 9290.0000000000018 1 4560.5000000000009
decision_type=5 2 5 2
left_child=-1 2 -2 -4
right_child=1 -3 3 -5
leaf_value=0.0011233910385221831 0 0 -0.0012084518274897793 0
leaf_count=883 224 236 2904 59
internal_value=0 -0.00366467 -0.00383581 -0.00395864
internal_count=4306 3423 3187 2963
cat_boundaries=0 13 20
cat_threshold=8413232 604521985 35651712 0 4 1077936128 65536 4096 0 0 0 0 1073741888 50331656 67174400 131072 2049 32 0 5
shrinkage=0.3


Tree=18
num_leaves=4
num_cat=2
split_feature=7 6 3
split_gain=1.2784 0.055862 0.0456878
threshold=0 9290.0000000000018 1
decision_type=5 2 5
left_child=-1 2 -2
right_child=1 -3 -4
leaf_value=0.0011023575918542269 0 0 -0.0011679555003484829
leaf_count=923 123 233 3027
internal_value=0 -0.003611 -0.0037695
internal_count=4306 3383 3150
cat_boundaries=0 13 20
cat_threshold=8413232 604521985 35651968 256 4 1077936128 65536 4096 0 0 0 0 1073741888 16777216 67174400 131072 2048 0 0 1
shrinkage=0.3


Tree=19
num_leaves=7
num_cat=2
split_feature=7 3 6 8 2 8
split_gain=1.28078 0.0455323 0.0330907 0.017352 0.00696673 0.00200683
threshold=0 1 9290.0000000000018 4560.5000000000009 1.5000000000000002 4462.5000000000009
decision_type=5 5 2 2 2 2
left_child=5 -2 3 4 -3 -1
right_child=1 2 -4 -5 -6 -7
leaf_value=0.0010938813700983653 0 0 0 0 -0.0011812592501276389 -0
leaf_count=941 230 78 212 52 2738 55
internal_value=0 -0.00365281 -0.00378103 -0.00387237 -0.00391878 0.00363954
internal_count=4306 3310 3080 2868 2816 996
cat_boundaries=0 13 20
cat_threshold=8415288 638076417 35651712 256 4 1077936128 65536 4096 0 0 0 0 1073741888 161480704 65536 131073 2049 0 0 5
shrinkage=0.3


Tree=20
num_leaves=6
num_cat=2
split_feature=7 6 3 8 2
split_gain=1.24162 0.0460518 0.0439791 0.0231691 0.00678244
threshold=0 9290.0000000000018 1 4560.5000000000009 1.5000000000000002
decision_type=5 2 5 2 2
left_child=-1 2 -2 4 -4
right_child=1 -3 3 -5 -6
leaf_value=0.0011005503644990545 0 0 0 0 -0.0011553320519698065
leaf_count=893 108 234 78 61 2932
internal_value=0 -0.00351028 -0.00364526 -0.00376825 -0.00383246
internal_count=4306 3413 3179 3071 3010
cat_boundaries=0 13 20
cat_threshold=8413232 604521985 35651712 256 4 1077936128 65536 4096 0 0 0 0 1073741888 50331648 0 131072 2049 0 0 1
shrinkage=0.3


Tree=21
num_leaves=5
num_cat=2
split_feature=7 6 3 2
split_gain=1.29846 0.0475742 0.0457706 0.00114284
threshold=0 9290.0000000000018 1 1.5000000000000002
decision_type=5 2 5 2
left_child=-1 2 -2 -4
right_child=1 -3 3 -5
leaf_value=0.0011007384973890457 0 0 0 -0.001180132884585342
leaf_count=1006 108 227 76 2889
internal_value=0 -0.00367342 -0.00380692 -0.0039296
internal_count=4306 3300 3073 2965
cat_boundaries=0 13 20
cat_threshold=8413240 638076417 35651968 256 4 1077936128 65536 4096 0 0 0 0 1073741888 16777216 65536 131072 2048 0 0 1
shrinkage=0.3


Tree=22
num_leaves=4
num_cat=2
split_feature=7 6 3
split_gain=1.29466 0.0430681 0.0420576
threshold=0 9290.0000000000018 1
decision_type=5 2 5
left_child=-1 2 -2
right_child=1 -3 -4
leaf_value=0.0011095621835104142 0 0 -0.0011610097436313999
leaf_count=888 119 231 3068
internal_value=0 -0.00363318 -0.00375564
internal_count=4306 3418 3187
cat_boundaries=0 13 20
cat_threshold=8413232 603997697 35651712 256 4 1077936128 65536 4096 0 0 0 0 1073741888 50331648 67108864 131072 2049 0 0 1
shrinkage=0.3


Tree=23
num_leaves=9
num_cat=2
split_feature=6 3 2 3 8 8 8 8
split_gain=0.366726 0.0718765 0.0258933 0.0234783 0.0146378 0.00482032 0.00400615 0.00111435
threshold=3085.0000000000005 0 1.5000000000000002 1 4560.5000000000009 3714.0000000000005 2732.0000000000005 4336.5000000000009
decision_type=2 5 2 5 2 2 2 2
left_child=1 5 -3 -2 6 -1 -4 -7
right_child=3 2 4 -5 -6 7 -8 -9
leaf_value=0.00010534139010897386 -0 0 0 0.00064668657144136899 0 -4.5739972451924891e-05 -0.00072628727125372396 0
leaf_count=231 112 56 125 1442 53 196 1958 133
internal_value=0 -0.0018595 -0.00222059 0.00203918 -0.00233911 0.000150747 -0.00240336 -0
internal_count=4306 2752 2192 1554 2136 560 2083 329
cat_boundaries=0 4 6
cat_threshold=50405376 102826145 131105 67110913 12582976 1109393480
shrinkage=0.3


Tree=24
num_leaves=5
num_cat=2
split_feature=7 6 3 8
split_gain=1.26443 0.0676271 0.0535879 0.0105128
threshold=0 9290.0000000000018 1 4560.5000000000009
decision_type=5 2 5 2
left_child=-1 2 -2 -4
right_child=1 -3 3 -5
leaf_value=0.0011307673465218672 0 0 -0.001154384529131779 0
leaf_count=1021 207 226 2801 51
internal_value=0 -0.00347184 -0.00366967 -0.0038185
internal_count=4306 3285 3059 2852
cat_boundaries=0 13 20
cat_threshold=8415288 604521985 35651968 256 4 1077936128 65536 4096 0 0 0 0 1073741888 50331648 65568 131072 2049 32 0 5
shrinkage=0.3


Tree=25
num_leaves=4
num_cat=1
split_feature=7 6 2
split_gain=1.2406 0.0568667 0.00276264
threshold=0 9290.0000000000018 1.5000000000000002
decision_type=5 2 2
left_child=-1 2 -2
right_child=1 -3 -4
leaf_value=0.0011034635972658466 0 0 -0.0011014377861805751
leaf_count=886 82 230 3108
internal_value=0 -0.00349715 -0.0036633
internal_count=4306 3420 3190
cat_boundaries=0 13
cat_threshold=8413232 603997697 35651712 256 4 1077936128 65536 4096 0 0 0 0 1073741888
shrinkage=0.3


Tree=26
num_leaves=5
num_cat=3
split_feature=7 6 3 7
split_gain=1.30727 0.0613694 0.0464478 0.000254037
threshold=0 9290.0000000000018 1 2
decision_type=5 2 5 5
left_child=3 2 -2 -1
right_child=1 -3 -4 -5
leaf_value=-0 0 0 -0.0011675207719069516 0.0011327375559458148
leaf_count=107 107 227 2947 918
internal_value=0 -0.00359144 -0.00376596 0.00377422
internal_count=4306 3281 3054 1025
cat_boundaries=0 13 20 23
cat_threshold=12609592 604521985 35651712 256 4 1077936128 65536 4096 0 0 0 0 1073741888 16777216 65536 131072 1 0 0 1 2056 0 33554432
shrinkage=0.3


Tree=27
num_leaves=6
num_cat=2
split_feature=7 3 6 8 8
split_gain=1.23254 0.0476313 0.0377173 0.0196023 0.0141435
threshold=0 1 11485.000000000002 4560.5000000000009 1803.0000000000002
decision_type=5 5 2 2 2
left_child=-1 -2 3 4 -3
right_child=1 2 -4 -5 -6
leaf_value=0.0010953166057666266 0 0 0 0 -0.00115220274933586
leaf_count=894 203 63 137 57 2952
internal_value=0 -0.0035016 -0.00364088 -0.00374798 -0.00380204
internal_count=4306 3412 3209 3072 3015
cat_boundaries=0 13 20
cat_threshold=8413232 604521985 33554560 256 4 1077936128 65536 4096 0 0 0 0 1073741888 52428800 604045312 131072 2049 0 0 1
shrinkage=0.3


Tree=28
num_leaves=5
num_cat=2
split_feature=7 6 3 8
split_gain=1.26261 0.0655453 0.0313814 0.0141915
threshold=0 9290.0000000000018 1 4560.5000000000009
decision_type=5 2 5 2
left_child=-1 2 -2 -4
right_child=1 -3 3 -5
leaf_value=0.0011181055870967199 0 0 -0.0011483596666142226 0
leaf_count=949 215 229 2858 55
internal_value=0 -0.00351088 -0.00370082 -0.00378821
internal_count=4306 3357 3128 2913
cat_boundaries=0 13 20
cat_threshold=8413240 604521985 35651712 0 4 1077936128 65536 4096 0 0 0 0 1073741888 58720256 65536 133120 2049 32 65536 5
shrinkage=0.3


Tree=29
num_leaves=5
num_cat=1
split_feature=7 6 8 8
split_gain=1.26121 0.0411883 0.0273607 0.014181
threshold=0 9290.0000000000018 4560.5000000000009 1867.0000000000002
decision_type=5 2 2 2
left_child=-1 2 3 -2
right_child=1 -3 -4 -5
leaf_value=0.0011030461403141189 0 0 0 -0.0011383195372032674
leaf_count=898 63 232 64 3049
internal_value=0 -0.00355909 -0.00367866 -0.0037552
internal_count=4306 3408 3176 3112
cat_boundaries=0 13
cat_threshold=8413232 604521985 33554560 256 4 1077936128 65536 4096 0 0 0 0 1073741888
shrinkage=0.3


Tree=30
num_leaves=5
num_cat=2
split_feature=7 6 3 8
split_gain=1.27739 0.0610904 0.0403784 0.00196014
threshold=0 9290.0000000000018 1 4560.5000000000009
decision_type=5 2 5 2
left_child=-1 2 -2 -4
right_child=1 -3 3 -5
leaf_value=0.0011137500796573709 0 0 -0.0011581703581547242 0
leaf_count=1037 113 227 2877 52
internal_value=0 -0.00356926 -0.00374403 -0.00385427
internal_count=4306 3269 3042 2929
cat_boundaries=0 13 20
cat_threshold=8415288 638076417 35651968 256 4 1077936128 65536 4096 0 0 0 0 1073741888 16777216 65536 131072 0 0 0 5
shrinkage=0.3


Tree=31
num_leaves=5
num_cat=1
split_feature=7 6 8 8
split_gain=1.29191 0.0582912 0.0210353 0.0142961
threshold=0 9290.0000000000018 4560.5000000000009 1867.0000000000002
decision_type=5 2 2 2
left_child=-1 2 3 -2
right_child=1 -3 -4 -5
leaf_value=0.0011331288026915263 0 0 0 -0.0011429867316422849
leaf_count=906 63 237 63 3037
internal_value=0 -0.00354396 -0.00371208 -0.0037706
internal_count=4306 3400 3163 3100
cat_boundaries=0 13
cat_threshold=8413232 604521985 35651968 256 4 1073741824 65536 4096 0 0 0 0 1073741888
shrinkage=0.3


Tree=32
num_leaves=4
num_cat=2
split_feature=7 3 4
split_gain=1.25306 0.0505889 0.0100475
threshold=0 1 1.5000000000000002
decision_type=5 5 2
left_child=-1 -2 -3
right_child=1 2 -4
leaf_value=0.00112628915923112 0 -0.0010904033875614213 0
leaf_count=905 262 2865 274
internal_value=0 -0.00345415 -0.003604
internal_count=4306 3401 3139
cat_boundaries=0 13 20
cat_threshold=8413232 604521985 35651712 256 4 1077936128 65536 4096 0 0 0 0 1073741888 52428800 604045344 131072 2049 0 0 5
shrinkage=0.3


Tree=33
num_leaves=4
num_cat=2
split_feature=7 6 3
split_gain=1.24411 0.0609477 0.04322
threshold=0 9290.0000000000018 1
decision_type=5 2 5
left_child=-1 2 -2
right_child=1 -3 -4
leaf_value=0.0011199387467900445 0 0 -0.001125359759075093
leaf_count=965 109 225 3007
internal_value=0 -0.00344981 -0.00362978
internal_count=4306 3341 3116
cat_boundaries=0 13 20
cat_threshold=8413240 604521985 35651712 256 4 1077936128 65536 4096 0 0 0 0 1073741888 50331648 0 131072 2049 0 0 1
shrinkage=0.3


Tree=34
num_leaves=5
num_cat=2
split_feature=7 6 3 8
split_gain=1.27 0.0559239 0.0510442 0.0235889
threshold=0 9290.0000000000018 1 4560.5000000000009
decision_type=5 2 5 2
left_child=-1 2 -2 -4
right_child=1 -3 3 -5
leaf_value=0.0011291266546897599 0 0 -0.0011594643485776832 0
leaf_count=885 226 231 2903 61
internal_value=0 -0.00349398 -0.00365762 -0.00380003
internal_count=4306 3421 3190 2964
cat_boundaries=0 13 20
cat_threshold=8413232 604521985 2097280 256 4 1077936128 65536 4096 0 0 0 0 1073741888 50331656 67174400 131072 2049 32 0 5
shrinkage=0.3


Tree=35
num_leaves=7
num_cat=2
split_feature=7 6 3 8 2 1
split_gain=1.23864 0.0500091 0.0351952 0.0178064 0.00657812 0.00565552
threshold=0 9290.0000000000018 1 4560.5000000000009 1.5000000000000002 1.0000000180025095e-35
decision_type=5 2 5 2 2 2
left_child=5 2 -2 4 -4 -1
right_child=1 -3 3 -5 -6 -7
leaf_value=-0 0 0 0 0 -0.0011501412826388465 0.0010998424256901272
leaf_count=111 102 230 79 59 2817 908
internal_value=0 -0.00352193 -0.00366772 -0.0037659 -0.00381562 0.0036488
internal_count=4306 3287 3057 2955 2896 1019
cat_boundaries=0 13 20
cat_threshold=12609584 638076417 35651968 768 4 1077936128 65536 4096 0 0 0 0 1073741888 16777216 65536 131072 0 0 0 1
shrinkage=0.3


Tree=36
num_leaves=8
num_cat=3
split_feature=7 6 3 8 7 1 1
split_gain=1.20001 0.0583984 0.0415954 0.00651177 0.000544672 1.1168e-05 4.33542e-05
threshold=0 9290.0000000000018 1 4560.5000000000009 2 11.500000000000002 118.50000000000001
decision_type=5 2 5 2 5 2 2
left_child=4 2 -2 -4 -1 -3 -7
right_child=1 5 3 -5 -6 6 -8
leaf_value=-0 0 -0 -0.001116831797390554 0 0.0010943183345686533 1.0118107488284743e-05 -0
leaf_count=108 212 42 2793 55 911 140 45
internal_value=0 -0.00341019 -0.00358478 -0.00370359 0.00364533 0 1.52635e-05
internal_count=4306 3287 3060 2848 1019 227 185
cat_boundaries=0 13 20 23
cat_threshold=12609592 604521985 33554816 0 4 1077936128 65536 4096 0 0 0 0 1073741888 58720256 65538 131072 1 32 0 5 4194312 0 256
shrinkage=0.3


Tree=37
num_leaves=8
num_cat=2
split_feature=6 3 3 1 2 0 6
split_gain=0.368247 0.0410891 0.0406173 0.0141554 0.0106963 0.00899904 0.000204704
threshold=2475.0000000000005 0 1 1.5000000000000002 1.5000000000000002 125.50000000000001 1405.0000000000002
decision_type=2 5 5 2 2 2 2
left_child=2 -2 6 -3 -4 -5 -1
right_child=1 3 4 5 -6 -7 -8
leaf_value=1.9604759399404451e-05 -0 -0 0 0.00068144966357544989 -0.00066399181681371525 -0 -0
leaf_count=169 224 220 58 1418 2044 46 127
internal_value=0 0.00195399 -0.00195672 0.00216177 -0.00216194 0.00222979 0
internal_count=4306 1908 2398 1684 2102 1464 296
cat_boundaries=0 7 11
cat_threshold=12587072 1107820616 2304 32 32 0 4 16785408 33554945 289 67108864
shrinkage=0.3


Tree=38
num_leaves=5
num_cat=2
split_feature=7 6 3 8
split_gain=1.23043 0.0573667 0.0368387 0.00838544
threshold=0 9290.0000000000018 1 4560.5000000000009
decision_type=5 2 5 2
left_child=-1 2 -2 -4
right_child=1 -3 3 -5
leaf_value=0.001126217753190947 0 0 -0.0011072668234636044 0
leaf_count=1031 107 220 2895 53
internal_value=0 -0.00338792 -0.00356056 -0.00366628
internal_count=4306 3275 3055 2948
cat_boundaries=0 13 20
cat_threshold=12607544 638076417 35651968 256 4 1077936128 65536 4096 0 0 0 0 1073741888 16777216 65536 131072 1 0 0 1
shrinkage=0.3


Tree=39
num_leaves=4
num_cat=2
split_feature=7 6 3
split_gain=1.20814 0.048679 0.0321168
threshold=0 9290.0000000000018 1
decision_type=5 2 5
left_child=-1 2 -2
right_child=1 -3 -4
leaf_value=0.0010930955020418552 0 0 -0.001102128735082149
leaf_count=903 120 230 3053
internal_value=0 -0.00343661 -0.00358192
internal_count=4306 3403 3173
cat_boundaries=0 13 17
cat_threshold=8413232 638076417 35651712 256 4 1073741824 65536 4096 0 0 0 0 1073741888 16777216 67174400 131072 2049
shrinkage=0.3


Tree=40
num_leaves=5
num_cat=1
split_feature=7 6 8 8
split_gain=1.20258 0.052779 0.019488 0.00867033
threshold=0 9290.0000000000018 4560.5000000000009 1867.0000000000002
decision_type=5 2 2 2
left_child=-1 2 3 -2
right_child=1 -3 -4 -5
leaf_value=0.0010939864859238848 0 0 0 -0.0010967739747739529
leaf_count=993 61 233 64 2955
internal_value=0 -0.00341662 -0.00357467 -0.00363099
internal_count=4306 3313 3080 3016
cat_boundaries=0 13
cat_threshold=12609584 638076417 33554816 256 4 1077936128 65536 4096 0 0 0 0 1073741888
shrinkage=0.3


Tree=41
num_leaves=4
num_cat=1
split_feature=7 6 2
split_gain=1.23009 0.0520532 0.0027895
threshold=0 9290.0000000000018 1.5000000000000002
decision_type=5 2 2
left_child=-1 2 -2
right_child=1 -3 -4
leaf_value=0.0010826930790248128 0 0 -0.0011090144632770651
leaf_count=921 83 228 3074
internal_value=0 -0.00353764 -0.00368853
internal_count=4306 3385 3157
cat_boundaries=0 13
cat_threshold=8413232 638076417 35651712 256 4 1077936128 65536 4096 0 0 0 0 1073741888
shrinkage=0.3


Tree=42
num_leaves=6
num_cat=2
split_feature=7 6 3 8 8
split_gain=1.22696 0.0445123 0.0423386 0.0210697 0.00100881
threshold=0 9290.0000000000018 1 4560.5000000000009 4486.5000000000009
decision_type=5 2 5 2 2
left_child=4 2 -2 -4 -1
right_child=1 -3 3 -5 -6
leaf_value=0.0011288264061741255 0 0 -0.0011075890913648831 0 -0
leaf_count=926 109 226 2944 55 46
internal_value=0 -0.00337277 -0.00350838 -0.00363134 0.00375897
internal_count=4306 3334 3108 2999 972
cat_boundaries=0 13 20
cat_threshold=8413240 638076417 2097280 256 4 1077936128 65536 4096 0 0 0 0 1073741888 25165824 0 131072 2049 0 0 1
shrinkage=0.3


Tree=43
num_leaves=8
num_cat=2
split_feature=6 3 8 3 8 8 8
split_gain=0.374093 0.0774764 0.0202496 0.0152195 0.00760856 0.00466512 0.000787909
threshold=3085.0000000000005 0 2732.0000000000005 1 4560.5000000000009 3714.0000000000005 4336.5000000000009
decision_type=2 5 2 5 2 2 2
left_child=1 5 -3 -2 -4 -1 -7
right_child=3 2 4 -5 -6 6 -8
leaf_value=0.00010803985268208958 -0 0 -0.00070428053814723505 0.0006532588071240747 0 -3.8461223503749386e-05 0
leaf_count=237 112 129 1993 1445 49 197 144
internal_value=0 -0.00182985 -0.00222 0.00210355 -0.00231356 0.000179858 -0
internal_count=4306 2749 2171 1557 2042 578 341
cat_boundaries=0 4 7
cat_threshold=184623104 103285377 131105 67110913 12582976 35651656 1048576
shrinkage=0.3


Tree=44
num_leaves=6
num_cat=2
split_feature=7 6 3 8 8
split_gain=1.19532 0.0613275 0.0380961 0.00864954 0.006508
threshold=0 9290.0000000000018 1 4560.5000000000009 4486.5000000000009
decision_type=5 2 5 2 2
left_child=4 2 -2 -4 -1
right_child=1 -3 3 -5 -6
leaf_value=0.0010749478619527075 0 0 -0.0011376535671611416 0 -0
leaf_count=954 107 225 2915 53 52
internal_value=0 -0.00348155 -0.00366109 -0.00376745 0.00356324
internal_count=4306 3300 3075 2968 1006
cat_boundaries=0 13 20
cat_threshold=8415288 637552129 2097536 256 4 1077936128 65536 4096 0 0 0 0 1073741888 16777216 65536 0 2049 0 0 1
shrinkage=0.3


Tree=45
num_leaves=5
num_cat=1
split_feature=7 8 8 4
split_gain=1.22501 0.0296426 0.010574 0.00664216
threshold=0 1867.0000000000002 4560.5000000000009 1.5000000000000002
decision_type=5 2 2 2
left_child=-1 -2 3 -3
right_child=1 2 -4 -5
leaf_value=0.001112895065129226 0 -0.0010677758525837341 0 0
leaf_count=1042 91 2860 58 255
internal_value=0 -0.00341772 -0.00350746 -0.0035388
internal_count=4306 3264 3173 3115
cat_boundaries=0 13
cat_threshold=12609592 604521985 35651968 256 4 1077936128 65536 4096 0 0 0 0 1073741888
shrinkage=0.3


Tree=46
num_leaves=5
num_cat=2
split_feature=7 6 3 8
split_gain=1.21063 0.0611198 0.0390262 0.0133059
threshold=0 9290.0000000000018 1 4560.5000000000009
decision_type=5 2 5 2
left_child=-1 2 -2 -4
right_child=1 -3 3 -5
leaf_value=0.0010860907294739639 0 0 -0.0011384698730229276 0
leaf_count=990 106 225 2929 56
internal_value=0 -0.0034685 -0.00364807 -0.00375736
internal_count=4306 3316 3091 2985
cat_boundaries=0 13 20
cat_threshold=12607544 638076416 33554560 256 4 1077936128 65536 4096 0 0 0 0 1073741888 16777216 65536 131072 1 0 0 1
shrinkage=0.3


Tree=47
num_leaves=6
num_cat=2
split_feature=7 3 8 2 8
split_gain=1.16563 0.0336287 0.0129924 0.0135923 0.013535
threshold=0 1 1867.0000000000002 1.5000000000000002 4560.5000000000009
decision_type=5 5 2 2 2
left_child=-1 -2 -3 -4 -5
right_child=1 2 3 4 -6
leaf_value=0.0010702363258084052 0 0 0 -0.0010826913038405564 0
leaf_count=940 227 79 79 2926 55
internal_value=0 -0.00338774 -0.00349026 -0.00352965 -0.00356966
internal_count=4306 3366 3139 3060 2981
cat_boundaries=0 13 20
cat_threshold=12607536 638076417 35651712 256 4 1077936128 65536 4096 0 0 0 0 1073741888 153092096 536936448 131073 1 0 0 5
shrinkage=0.3


Tree=48
num_leaves=5
num_cat=2
split_feature=7 3 6 8
split_gain=1.22166 0.0485543 0.0384986 0.0184427
threshold=0 1 9290.0000000000018 4560.5000000000009
decision_type=5 5 2 2
left_child=-1 -2 3 -3
right_child=1 2 -4 -5
leaf_value=0.0011074612257622725 0 -0.001120573603204833 0 0
leaf_count=970 258 2808 212 58
internal_value=0 -0.00342672 -0.00357182 -0.00368345
internal_count=4306 3336 3078 2866
cat_boundaries=0 13 20
cat_threshold=8398904 604521985 2097280 256 4 1077936128 65536 4096 0 0 0 0 1073741888 184549376 65568 131073 2049 0 0 5
shrinkage=0.3


Tree=49
num_leaves=4
num_cat=2
split_feature=7 6 3
split_gain=1.22422 0.0504471 0.042727
threshold=0 9290.0000000000018 1
decision_type=5 2 5
left_child=-1 2 -2
right_child=1 -3 -4
leaf_value=0.0011095036499614614 0 0 -0.0011099479948448948
leaf_count=944 117 228 3017
internal_value=0 -0.00342724 -0.00357805
internal_count=4306 3362 3134
cat_boundaries=0 13 20
cat_threshold=12609584 604521985 2097280 256 4 1077936128 65536 4096 0 0 0 0 1073741888 50331648 65536 131072 0 0 0 1
shrinkage=0.3


Tree=50
num_leaves=5
num_cat=1
split_feature=7 6 8 8
split_gain=1.22151 0.0581665 0.0166646 0.0138529
threshold=0 9290.0000000000018 4560.5000000000009 1867.0000000000002
decision_type=5 2 2 2
left_child=-1 2 3 -2
right_child=1 -3 -4 -5
leaf_value=0.0010817984378976365 0 0 0 -0.0011309808826234352
leaf_count=931 64 229 60 3022
internal_value=0 -0.00351553 -0.00368456 -0.00373139
internal_count=4306 3375 3146 3086
cat_boundaries=0 13
cat_threshold=8413240 604505601 33554560 256 4 1077936128 65536 4096 0 0 0 0 1073741888
shrinkage=0.3


Tree=51
num_leaves=8
num_cat=2
split_feature=6 3 3 8 1 8 8
split_gain=0.389686 0.0438304 0.0427616 0.012383 0.00739187 0.00465237 0.00252258
threshold=2525.0000000000005 0 1 4571.5000000000009 1.0000000180025095e-35 2732.0000000000005 3618.5000000000005
decision_type=2 5 5 2 2 2 2
left_child=2 -2 6 5 -3 -4 -1
right_child=1 4 3 -5 -6 -7 -8
leaf_value=6.8872099768744644e-05 -0 -0 0 0 0.00070758634682616583 -0.00066044344366964121 -2.4002215508507433e-06
leaf_count=115 208 107 109 47 1573 1932 215
internal_value=0 0.00211981 -0.00189716 -0.00211874 0.00232504 -0.00217914 1.16426e-05
internal_count=4306 1888 2418 2088 1680 2041 330
cat_boundaries=0 7 11
cat_threshold=12587072 1107296328 1048832 67108896 32 0 4 151003136 35717760 131361 67108864
shrinkage=0.3


Tree=52
num_leaves=5
num_cat=1
split_feature=7 8 8 4
split_gain=1.1575 0.0321817 0.0163506 0.000200461
threshold=0 2206.0000000000005 4560.5000000000009 2.5000000000000004
decision_type=5 2 2 2
left_child=-1 -2 3 -3
right_child=1 2 -4 -5
leaf_value=0.0010841282961780816 0 -0.0010394440640560585 0 0
leaf_count=1018 174 2994 59 61
internal_value=0 -0.00331402 -0.00341447 -0.00346396
internal_count=4306 3288 3114 3055
cat_boundaries=0 13
cat_threshold=8415288 638076417 35651712 256 4 1077936128 65536 4096 0 0 0 0 1073741888
shrinkage=0.3


Tree=53
num_leaves=10
num_cat=2
split_feature=8 3 3 4 8 1 0 8 1
split_gain=0.277636 0.0493007 0.029328 0.0222734 0.018575 0.0078701 0.00557699 7.28374e-05 6.17948e-05
threshold=3618.5000000000005 0 1 1.5000000000000002 4566.5000000000009 36.500000000000007 117.50000000000001 4412.0000000000009 1.0000000180025095e-35
decision_type=2 5 5 2 2 2 2 2 2
left_child=2 7 -1 4 5 -3 -4 8 -2
right_child=1 3 6 -5 -6 -7 -8 -9 -10
leaf_value=-0 -0 -0.00063570456610308255 0.00060285943116308741 0 0 0 -0 -0 3.057325347336283e-05
leaf_count=107 81 2040 1510 123 57 63 49 58 218
internal_value=0 -0.00156765 0.00181942 -0.00186408 -0.00198489 -0.00207993 0.00197994 8.70164e-05 9.53682e-05
internal_count=4306 2640 1666 2283 2160 2103 1559 357 299
cat_boundaries=0 7 11
cat_threshold=51380232 16777217 131072 0 0 0 1 4198464 1090519104 1048576 16
shrinkage=0.3


Tree=54
num_leaves=4
num_cat=2
split_feature=7 6 7
split_gain=1.20407 0.0442379 0.00109016
threshold=0 9290.0000000000018 1
decision_type=5 2 5
left_child=2 -2 -1
right_child=1 -3 -4
leaf_value=-0 -0.0010393584764629524 0 0.0011221673602975148
leaf_count=101 3008 218 979
internal_value=0 -0.00332802 0.00373669
internal_count=4306 3226 1080
cat_boundaries=0 13 17
cat_threshold=12609592 638076417 35651968 260 4 1077936128 65536 4096 0 0 0 0 1073741888 8 33554432 0 4
shrinkage=0.3


Tree=55
num_leaves=4
num_cat=1
split_feature=7 8 8
split_gain=1.17501 0.0376865 0.0255245
threshold=0 2206.0000000000005 4566.5000000000009
decision_type=5 2 2
left_child=-1 -2 -3
right_child=1 2 -4
leaf_value=0.001084612210530163 0 -0.0010670070824841177 0
leaf_count=917 176 3156 57
internal_value=0 -0.00336593 -0.00348132
internal_count=4306 3389 3213
cat_boundaries=0 13
cat_threshold=12599344 604521985 35651712 256 4 1077936128 65536 4096 0 0 0 0 1073741888
shrinkage=0.3


Tree=56
num_leaves=8
num_cat=0
split_feature=6 8 1 8 0 6 8
split_gain=0.36691 0.0460163 0.0148979 0.0120187 0.0110096 0.00196514 6.42346e-07
threshold=2475.0000000000005 3557.5000000000005 1.0000000180025095e-35 4571.5000000000009 117.50000000000001 1345.0000000000002 2926.5000000000005
decision_type=2 2 2 2 2 2 2
left_child=1 5 -2 -3 -4 -1 -7
right_child=2 3 4 -5 -6 6 -8
leaf_value=6.1482897646850492e-05 -0 -0.00064574788011343527 0.00065295494804564142 0 -0 0 -1.0981894875633718e-06
leaf_count=297 123 1738 1735 55 58 117 183
internal_value=0 -0.00185005 0.00204865 -0.00209352 0.00212315 3.1883e-05 -0
internal_count=4306 2390 1916 1793 1793 597 300
shrinkage=0.3


Tree=57
num_leaves=7
num_cat=0
split_feature=6 8 1 8 0 8
split_gain=0.384489 0.0406918 0.0164504 0.0147173 0.010871 1.29206e-05
threshold=2475.0000000000005 3557.5000000000005 1.0000000180025095e-35 4571.5000000000009 125.50000000000001 2152.0000000000005
decision_type=2 2 2 2 2 2
left_child=1 5 -2 -3 -4 -1
right_child=2 3 4 -5 -6 -7
leaf_value=-0 -0 -0.00062934585184517026 0.00069325556993031295 0 -0 5.8773373190473068e-06
leaf_count=58 124 1734 1745 57 49 539
internal_value=0 -0.00180117 0.00218409 -0.00202345 0.0022613 1.06995e-05
internal_count=4306 2388 1918 1791 1794 597
shrinkage=0.3


Tree=58
num_leaves=5
num_cat=3
split_feature=7 6 3 7
split_gain=1.16066 0.0463018 0.0433671 0.00069638
threshold=0 9290.0000000000018 1 2
decision_type=5 2 5 5
left_child=3 2 -2 -1
right_child=1 -3 -4 -5
leaf_value=-0 0 0 -0.0010923926302727125 0.0010704377389322503
leaf_count=108 108 224 2948 918
internal_value=0 -0.00337482 -0.00351564 0.00356527
internal_count=4306 3280 3056 1026
cat_boundaries=0 13 20 23
cat_threshold=8398904 638076417 35651968 256 4 1077936128 65536 4096 0 0 0 0 1073741888 16777216 65536 131072 2048 0 0 1 8 33554432 256
shrinkage=0.3


Tree=59
num_leaves=5
num_cat=1
split_feature=7 8 8 2
split_gain=1.19539 0.0445683 0.0267141 0.0106895
threshold=0 2206.0000000000005 4560.5000000000009 1.5000000000000002
decision_type=5 2 2 2
left_child=-1 -2 3 -3
right_child=1 2 -4 -5
leaf_value=0.0010891531121017739 0 0 0 -0.0010963012378826067
leaf_count=902 169 83 64 3088
internal_value=0 -0.00341205 -0.00354609 -0.00362355
internal_count=4306 3404 3235 3171
cat_boundaries=0 13
cat_threshold=12607536 604521985 33554560 0 4 1077936128 65536 4096 0 0 0 0 1073741888
shrinkage=0.3


Tree=60
num_leaves=5
num_cat=2
split_feature=7 6 3 8
split_gain=1.14488 0.0533702 0.0488403 0.00124585
threshold=0 9545.0000000000018 1 4560.5000000000009
decision_type=5 2 5 2
left_child=-1 2 -2 -4
right_child=1 -3 3 -5
leaf_value=0.0010790945163156422 0 0 -0.0010818767929213714 0
leaf_count=1043 125 215 2870 53
internal_value=0 -0.00329284 -0.00345817 -0.0036017
internal_count=4306 3263 3048 2923
cat_boundaries=0 13 20
cat_threshold=12609592 604521985 35651968 256 4 1077936128 65536 4096 0 0 0 0 1073741888 50331648 65536 131072 1 0 0 1
shrinkage=0.3


Tree=61
num_leaves=6
num_cat=2
split_feature=7 3 8 8 8
split_gain=1.19751 0.0518632 0.0139294 0.012563 3.55349e-07
threshold=0 1 1867.0000000000002 4560.5000000000009 3477.5000000000005
decision_type=5 5 2 2 2
left_child=-1 4 -3 -4 -2
right_child=1 2 3 -5 -6
leaf_value=0.0011184762246404187 8.1690090164298658e-07 0 -0.0010667829119492423 0 -0
leaf_count=1002 84 78 2932 56 154
internal_value=0 -0.00331719 -0.0034766 -0.0035189 0
internal_count=4306 3304 3066 2988 238
cat_boundaries=0 13 20
cat_threshold=8415280 638076417 35651968 260 4 1077936128 65536 4096 0 0 0 0 1073741888 18874368 604045344 131073 2049 0 0 1
shrinkage=0.3


Tree=62
num_leaves=6
num_cat=2
split_feature=7 6 3 1 1
split_gain=1.16883 0.0677655 0.0442989 2.6848e-05 5.78633e-05
threshold=0 9290.0000000000018 1 11.500000000000002 118.50000000000001
decision_type=5 2 5 2 2
left_child=-1 2 -2 -3 -5
right_child=1 3 -4 4 -6
leaf_value=0.0010915342352505969 0 -0 -0.0010973161298800888 1.2612029322529453e-05 -0
leaf_count=1003 211 41 2869 137 45
internal_value=0 -0.003323 -0.00352946 0 2.36661e-05
internal_count=4306 3303 3080 223 182
cat_boundaries=0 13 20
cat_threshold=12607544 604521985 35651968 256 4 1077936128 65536 4096 0 0 0 0 1073741888 58720256 65538 131072 1 32 0 5
shrinkage=0.3


Tree=63
num_leaves=4
num_cat=1
split_feature=7 6 1
split_gain=1.22218 0.0474481 0.000696979
threshold=0 9290.0000000000018 67.500000000000014
decision_type=5 2 2
left_child=-1 2 -2
right_child=1 -3 -4
leaf_value=0.0011154746803760929 -0.0010637932895820963 0 0
leaf_count=1050 2962 231 63
internal_value=0 -0.00340046 -0.00354369
internal_count=4306 3256 3025
cat_boundaries=0 13
cat_threshold=8675376 603997697 35651712 0 4 1077936128 65536 4096 0 0 0 0 1073741888
shrinkage=0.3


Tree=64
num_leaves=7
num_cat=1
split_feature=7 6 8 8 1 1
split_gain=1.1587 0.0601831 0.0249562 0.0136048 4.73181e-06 3.36767e-05
threshold=0 9290.0000000000018 4560.5000000000009 1867.0000000000002 11.500000000000002 118.50000000000001
decision_type=5 2 2 2 2 2
left_child=-1 2 3 -2 -3 -6
right_child=1 4 -4 -5 5 -7
leaf_value=0.0010697388889510397 0 -0 0 -0.0010984506472418545 8.4922945357299825e-06 -0
leaf_count=905 64 45 66 3039 142 45
internal_value=0 -0.00336833 -0.00355015 -0.00362252 0 9.9353e-06
internal_count=4306 3401 3169 3103 232 187
cat_boundaries=0 13
cat_threshold=8413232 604521985 35651712 256 4 1077936128 65536 4096 0 0 0 0 1073741888
shrinkage=0.3


Tree=65
num_leaves=4
num_cat=2
split_feature=7 6 3
split_gain=1.16397 0.0515666 0.0367393
threshold=0 9290.0000000000018 1
decision_type=5 2 5
left_child=-1 2 -2
right_child=1 -3 -4
leaf_value=0.0010938350405796731 0 0 -0.0010706507514675625
leaf_count=1021 219 225 2841
internal_value=0 -0.00330035 -0.00345997
internal_count=4306 3285 3060
cat_boundaries=0 13 20
cat_threshold=12607544 604521984 35651968 260 4 1077936128 65536 4096 0 0 0 0 1073741888 58720256 65538 131072 1 32 65536 5
shrinkage=0.3


Tree=66
num_leaves=5
num_cat=2
split_feature=7 6 3 8
split_gain=1.15096 0.051415 0.0426637 0.0104153
threshold=0 9290.0000000000018 1 4560.5000000000009
decision_type=5 2 5 2
left_child=-1 2 -2 -4
right_child=1 -3 3 -5
leaf_value=0.0010858026268101165 0 0 -0.0010816563339202188 0
leaf_count=1037 212 225 2781 51
internal_value=0 -0.00328834 -0.00344806 -0.00357449
internal_count=4306 3269 3044 2832
cat_boundaries=0 13 20
cat_threshold=8415288 638076417 35651968 256 4 1077936128 65536 4096 0 0 0 0 1073741888 25165824 65568 131072 2049 32 0 5
shrinkage=0.3


Tree=67
num_leaves=5
num_cat=2
split_feature=7 3 4 1
split_gain=1.17409 0.050041 0.0140638 1.5871e-07
threshold=0 1 1.5000000000000002 2.5000000000000004
decision_type=5 5 2 2
left_child=-1 3 -3 -2
right_child=1 2 -4 -5
leaf_value=0.0011182545235671431 -0 -0.0010349948460612541 0 5.4591375251171648e-07
leaf_count=1042 92 2770 278 124
internal_value=0 -0.00324868 -0.00340563 0
internal_count=4306 3264 3048 216
cat_boundaries=0 13 20
cat_threshold=12609592 604521985 35651968 256 4 1077936128 65536 4096 0 0 0 0 1073741888 52428800 65568 131073 1 0 0 5
shrinkage=0.3


Tree=68
num_leaves=7
num_cat=1
split_feature=7 6 8 8 1 1
split_gain=1.11937 0.0601117 0.0145573 0.0107058 2.56329e-06 2.26905e-05
threshold=0 9290.0000000000018 1867.0000000000002 4560.5000000000009 11.500000000000002 118.50000000000001
decision_type=5 2 2 2 2 2
left_child=-1 2 -2 -4 -3 -6
right_child=1 4 3 -5 5 -7
leaf_value=0.0010814727281295215 0 -0 -0.0010420045451610463 0 6.8861115683499869e-06 -0
leaf_count=1033 62 41 2924 58 144 44
internal_value=0 -0.00320647 -0.00339664 -0.00344102 0 7.31249e-06
internal_count=4306 3273 3044 2982 229 188
cat_boundaries=0 13
cat_threshold=12601400 604521985 35651968 256 4 1077936128 65536 4096 0 0 0 0 1073741888
shrinkage=0.3


Tree=69
num_leaves=7
num_cat=2
split_feature=6 3 3 0 1 6
split_gain=0.359286 0.0393667 0.0365897 0.0107583 0.00728204 2.67672e-05
threshold=2475.0000000000005 0 1 120.00000000000001 1.0000000180025095e-35 1465.0000000000002
decision_type=2 5 5 2 2 2
left_child=1 5 -2 4 -4 -1
right_child=2 -3 3 -5 -6 -7
leaf_value=7.373457964500462e-06 -0 -0.00060019554553345943 -0 -0 0.00069865846803419636 -0
leaf_count=147 214 2156 108 49 1547 85
internal_value=0 -0.00178444 0.00206951 0.002246 0.00229584 6.75381e-06
internal_count=4306 2388 1918 1704 1655 232
cat_boundaries=0 4 11
cat_threshold=151003136 33554432 131361 67108864 12587072 1109393480 2304 32 32 0 4
shrinkage=0.3


Tree=70
num_leaves=4
num_cat=2
split_feature=7 6 3
split_gain=1.14564 0.0633063 0.0392085
threshold=0 9290.0000000000018 1
decision_type=5 2 5
left_child=-1 2 -2
right_child=1 -3 -4
leaf_value=0.0010732226957540498 0 0 -0.0010870371881789135
leaf_count=996 113 220 2977
internal_value=0 -0.0033157 -0.00350943
internal_count=4306 3310 3090
cat_boundaries=0 13 20
cat_threshold=12607544 638076417 33554560 256 4 1077936128 65536 4096 0 0 0 0 1073741888 16777216 65536 131072 0 0 0 5
shrinkage=0.3


Tree=71
num_leaves=6
num_cat=2
split_feature=7 3 4 8 8
split_gain=1.14234 0.0442092 0.0226294 0.0151643 3.82957e-07
threshold=0 1 1.5000000000000002 4560.5000000000009 3032.5000000000005
decision_type=5 5 2 2 2
left_child=-1 4 3 -3 -2
right_child=1 2 -4 -5 -6
leaf_value=0.0010973143366803406 8.4806437565474644e-07 -0.0010440834751690652 0 0 -0
leaf_count=914 61 2745 268 53 265
internal_value=0 -0.00322324 -0.00336382 -0.00343458 0
internal_count=4306 3392 3066 2798 326
cat_boundaries=0 13 20
cat_threshold=24632 604521984 35651712 256 4 1077936128 65536 4096 0 0 0 0 1073741888 52436992 65568 131073 2049 0 0 1
shrinkage=0.3


Tree=72
num_leaves=5
num_cat=1
split_feature=7 6 8 8
split_gain=1.12673 0.0465266 0.0230485 0.0149872
threshold=0 9290.0000000000018 4560.5000000000009 1867.0000000000002
decision_type=5 2 2 2
left_child=-1 2 3 -2
right_child=1 -3 -4 -5
leaf_value=0.0010782842469197035 0 0 0 -0.0010505640578338893
leaf_count=882 62 237 67 3058
internal_value=0 -0.00323993 -0.00338694 -0.003457
internal_count=4306 3424 3187 3120
cat_boundaries=0 13
cat_threshold=8413232 604521985 35651712 256 4 1073741824 65536 4096 0 0 0 0 1073741888
shrinkage=0.3


Tree=73
num_leaves=5
num_cat=1
split_feature=7 6 8 8
split_gain=1.14792 0.058317 0.0187733 0.00451798
threshold=0 9290.0000000000018 4560.5000000000009 4486.5000000000009
decision_type=5 2 2 2
left_child=3 2 -2 -1
right_child=1 -3 -4 -5
leaf_value=0.0010863389514647109 -0.0010583154722905691 0 0 -0
leaf_count=950 3025 225 57 49
internal_value=0 -0.00329168 -0.0034719 0.00360715
internal_count=4306 3307 3082 999
cat_boundaries=0 13
cat_threshold=12607544 638076416 35651712 4 4 1077936128 65536 4096 0 0 0 0 1073741888
shrinkage=0.3


Tree=74
num_leaves=7
num_cat=2
split_feature=7 3 6 8 8 8
split_gain=1.12562 0.049595 0.0295806 0.0138319 0.0132609 1.12211e-05
threshold=0 1 12195.000000000002 4560.5000000000009 1867.0000000000002 3416.5000000000005
decision_type=5 5 2 2 2 2
left_child=-1 5 3 4 -3 -2
right_child=1 2 -4 -5 -6 -7
leaf_value=0.001051888188856929 4.5905622204688763e-06 0 0 0 -0.0010941371231338642 -0
leaf_count=905 72 72 121 55 2951 130
internal_value=0 -0.00332862 -0.00348059 -0.00356876 -0.00360894 0
internal_count=4306 3401 3199 3078 3023 202
cat_boundaries=0 13 20
cat_threshold=8413232 638076417 35651712 256 4 1073741824 65536 4096 0 0 0 0 1073741888 153092096 67174400 131073 2049 0 0 1
shrinkage=0.3


Tree=75
num_leaves=6
num_cat=2
split_feature=7 3 8 8 1
split_gain=1.08877 0.0434247 0.0198406 0.0196151 3.30651e-05
threshold=0 1 2257.0000000000005 4560.5000000000009 3.5000000000000004
decision_type=5 5 2 2 2
left_child=-1 4 -3 -4 -2
right_child=1 2 3 -5 -6
leaf_value=0.0010599812689124806 -0 0 -0.0010339288129633947 0 7.8797397431397621e-06
leaf_count=902 116 166 2944 63 115
internal_value=0 -0.00318471 -0.00332407 -0.00338667 0
internal_count=4306 3404 3173 3007 231
cat_boundaries=0 13 20
cat_threshold=12607536 604521985 2097280 256 4 1077936128 65536 4096 0 0 0 0 1073741888 186646528 536936448 131073 1 0 0 1
shrinkage=0.3


Tree=76
num_leaves=9
num_cat=3
split_feature=6 3 3 1 0 6 3 1
split_gain=0.364297 0.0415683 0.0401011 0.0120577 0.0110903 0.000194082 3.23892e-05 2.64868e-05
threshold=2475.0000000000005 0 1 1.0000000180025095e-35 125.50000000000001 1405.0000000000002 2 12.500000000000002
decision_type=2 5 5 2 2 2 5 2
left_child=2 7 5 -3 -5 6 -1 -2
right_child=1 3 -4 4 -6 -7 -8 -9
leaf_value=-0 -7.0524451605578973e-06 -0 -0.00060721957088333777 0.00071363540138891983 -0 -0 2.0749643560162217e-05 0
leaf_count=106 120 109 1943 1537 49 171 161 110
internal_value=0 0.00207555 -0.00180589 0.00227447 0.00232967 7.74987e-06 6.40949e-05 -0
internal_count=4306 1925 2381 1695 1586 438 267 230
cat_boundaries=0 5 9 12
cat_threshold=4198976 1107296328 1048832 32 32 151527424 36241921 131105 67108864 532480 2621440 32
shrinkage=0.3


Tree=77
num_leaves=10
num_cat=2
split_feature=6 3 3 8 1 8 0 8 8
split_gain=0.357344 0.0391967 0.034379 0.0203748 0.0122802 0.0118712 0.00785291 0.0010038 5.3627e-05
threshold=2525.0000000000005 0 1 2732.0000000000005 1.0000000180025095e-35 4560.5000000000009 125.50000000000001 3640.5000000000005 4336.5000000000009
decision_type=2 5 5 2 2 2 2 2 2
left_child=1 7 -2 -3 -4 -5 -6 -1 -9
right_child=2 3 4 5 6 -7 -8 8 -10
leaf_value=4.3426708021672386e-05 -0 0 -0 -0.00065393937206218529 0.00069051362160762152 0 -0 -1.0034743055432735e-05 0
leaf_count=124 219 111 110 1911 1502 56 44 141 88
internal_value=0 -0.00180616 0.00203951 -0.00201945 0.00220804 -0.00212232 0.00226584 3.27125e-06 -0
internal_count=4306 2431 1875 2078 1656 1967 1546 353 229
cat_boundaries=0 4 11
cat_threshold=16785408 35651713 131361 67108864 12587072 1107820616 1050624 32 32 0 4
shrinkage=0.3


Tree=78
num_leaves=9
num_cat=3
split_feature=6 8 3 0 8 6 3 3
split_gain=0.362913 0.0409846 0.0354443 0.0162914 0.0138009 0.00166139 0.00143116 0.000678402
threshold=2525.0000000000005 3557.5000000000005 0 94.500000000000014 4560.5000000000009 1605.0000000000002 1 2
decision_type=2 2 5 2 2 2 5 5
left_child=1 5 -2 -4 6 7 -3 -1
right_child=2 4 3 -5 -6 -7 -8 -9
leaf_value=-0 -0 0 0.0007094766813202113 -0 0 -0 -0.00061657460285759332 6.6493389938664151e-05
leaf_count=100 110 133 1706 73 66 222 1611 285
internal_value=0 -0.00174661 0.00212472 0.00229153 -0.00197646 1.83503e-05 -0.0020479 0.000187028
internal_count=4306 2417 1889 1779 1810 607 1744 385
cat_boundaries=0 5 9 10
cat_threshold=4194368 1107296320 1048576 32 32 4718592 1 32 67108864 1097776
shrinkage=0.3


Tree=79
num_leaves=4
num_cat=2
split_feature=7 6 3
split_gain=1.14636 0.0493196 0.0433189
threshold=0 9545.0000000000018 1
decision_type=5 2 5
left_child=-1 2 -2
right_child=1 -3 -4
leaf_value=0.0010867537361348414 0 0 -0.00106632611296809
leaf_count=921 227 219 2939
internal_value=0 -0.00327114 -0.00342524
internal_count=4306 3385 3166
cat_boundaries=0 13 20
cat_threshold=8415280 604521985 2097280 256 4 1077936128 65536 4096 0 0 0 0 1073741888 50331648 67174432 131072 2049 32 0 5
shrinkage=0.3


Tree=80
num_leaves=7
num_cat=2
split_feature=7 6 3 8 1 1
split_gain=1.08483 0.0573381 0.0438206 0.018806 4.34388e-06 2.60961e-05
threshold=0 9290.0000000000018 1 4560.5000000000009 11.500000000000002 118.50000000000001
decision_type=5 2 5 2 2 2
left_child=-1 2 -2 -4 -3 -6
right_child=1 4 3 -5 5 -7
leaf_value=0.0010620518692276899 0 -0 -0.001061786224466282 0 7.5602021138757918e-06 -0
leaf_count=936 258 44 2824 57 143 44
internal_value=0 -0.00316533 -0.0033492 -0.0034828 0 9.51932e-06
internal_count=4306 3370 3139 2881 231 187
cat_boundaries=0 13 20
cat_threshold=8415280 603997697 33554816 256 4 1077936128 65536 4096 0 0 0 0 1073741888 50331656 67174402 131072 2049 32 0 5
shrinkage=0.3


Tree=81
num_leaves=6
num_cat=3
split_feature=7 6 3 8 7
split_gain=1.1511 0.0549956 0.0325067 0.00765802 0.000707336
threshold=0 9290.0000000000018 1 4560.5000000000009 2
decision_type=5 2 5 2 5
left_child=4 2 -2 -4 -1
right_child=1 -3 3 -5 -6
leaf_value=-0 0 0 -0.0010669266985401436 0 0.0010937529885065476
leaf_count=116 112 228 2894 54 902
internal_value=0 -0.00326468 -0.0034363 -0.00353307 0.00364295
internal_count=4306 3288 3060 2948 1018
cat_boundaries=0 13 20 21
cat_threshold=12609592 604521985 35651712 256 4 1077936128 65536 4096 0 0 0 0 1073741888 50331648 65536 0 1 0 0 1 4196360
shrinkage=0.3


Tree=82
num_leaves=6
num_cat=2
split_feature=7 3 8 8 8
split_gain=1.13774 0.0470314 0.0182863 0.0173605 0.000261717
threshold=0 1 4560.5000000000009 1867.0000000000002 3477.5000000000005
decision_type=5 5 2 2 2
left_child=-1 4 3 -3 -2
right_child=1 2 -4 -5 -6
leaf_value=0.0010881913021365609 2.2168858763124887e-05 0 0 -0.0010491102167911703 -0
leaf_count=857 113 82 57 2994 203
internal_value=0 -0.00324 -0.00338848 -0.00344487 0
internal_count=4306 3449 3133 3076 316
cat_boundaries=0 13 20
cat_threshold=8396848 603981313 35651712 256 4 1077936128 65536 4096 0 0 0 0 1073741888 186646528 536936480 131329 2049 0 0 1
shrinkage=0.3


Tree=83
num_leaves=11
num_cat=2
split_feature=6 3 3 0 8 1 8 8 6 6
split_gain=0.361157 0.0434368 0.0422475 0.00992093 0.00900777 0.00895502 0.00183767 0.0013749 0.000177886 0.000132842
threshold=2475.0000000000005 0 1 125.50000000000001 4560.5000000000009 1.0000000180025095e-35 3640.5000000000005 2570.0000000000005 1485.0000000000002 555.00000000000011
decision_type=2 5 5 2 2 2 2 2 2 2
left_child=1 6 -2 5 7 -4 8 -3 -1 -8
right_child=2 4 3 -5 -6 -7 9 -9 -10 -11
leaf_value=6.2454686213548477e-05 -0 0 -0 -0 0 0.00072816975469701276 0 -0.00060427822089062283 -0 -1.5792052892998193e-05
leaf_count=77 214 76 111 47 52 1548 49 1846 58 228
internal_value=0 -0.00171334 0.00214833 0.00234407 -0.00195927 0.00238826 3.57899e-05 -0.00200698 0.000199054 -0
internal_count=4306 2386 1920 1706 1974 1659 412 1922 135 277
cat_boundaries=0 4 11
cat_threshold=151527424 572588545 131105 67108864 12587072 1107296328 1050880 32 32 0 4
shrinkage=0.3


Tree=84
num_leaves=6
num_cat=2
split_feature=6 3 3 1 0
split_gain=0.368853 0.0355831 0.0341297 0.0122578 0.0106237
threshold=2475.0000000000005 0 1 1.0000000180025095e-35 125.50000000000001
decision_type=2 5 5 2 2
left_child=2 -2 -1 -3 -5
right_child=1 3 -4 4 -6
leaf_value=0 -0 -0 -0.00058356860935877039 0.00072507098648280795 -0
leaf_count=370 102 117 2025 1644 48
internal_value=0 0.00214989 -0.00175302 0.00231548 0.00237064
internal_count=4306 1911 2395 1809 1692
cat_boundaries=0 5 9
cat_threshold=4194368 33554496 256 32 32 151519232 35717635 131361 67108864
shrinkage=0.3


Tree=85
num_leaves=9
num_cat=2
split_feature=6 8 3 8 1 0 3 6
split_gain=0.347807 0.0413034 0.0324778 0.0162927 0.0105574 0.00962612 0.00308457 0.00151095
threshold=2475.0000000000005 3557.5000000000005 0 4560.5000000000009 1.0000000180025095e-35 125.50000000000001 1 1605.0000000000002
decision_type=2 2 5 2 2 2 5 2
left_child=1 7 -2 6 -4 -6 -3 -1
right_child=2 3 4 -5 5 -7 -8 -9
leaf_value=5.3660048805465242e-05 -0 0 -0 0 0.00069376904457224575 -0 -0.0006188822948158594 -0
leaf_count=389 223 106 115 69 1527 47 1620 210
internal_value=0 -0.00172916 0.00206108 -0.00196269 0.00221909 0.00226875 -0.00204731 2.20799e-05
internal_count=4306 2394 1912 1795 1689 1574 1726 599
cat_boundaries=0 5 9
cat_threshold=13111360 1107296328 1048832 0 32 4194304 1 32 67108864
shrinkage=0.3


Tree=86
num_leaves=6
num_cat=2
split_feature=7 6 3 8 8
split_gain=1.08952 0.0616544 0.0401945 0.0145842 0.00348588
threshold=0 9290.0000000000018 1 4560.5000000000009 4486.5000000000009
decision_type=5 2 5 2 2
left_child=4 2 -2 -4 -1
right_child=1 -3 3 -5 -6
leaf_value=0.0010698359450957706 0 0 -0.0010583968104874899 0 -0
leaf_count=948 110 226 2920 54 48
internal_value=0 -0.00316492 -0.00336216 -0.00348393 0.00355498
internal_count=4306 3310 3084 2974 996
cat_boundaries=0 13 20
cat_threshold=12593208 604521985 35651712 256 4 1077936128 65536 4096 0 0 0 0 1073741888 16777216 65536 131072 1 0 0 1
shrinkage=0.3


Tree=87
num_leaves=9
num_cat=2
split_feature=8 3 3 8 0 1 4 1
split_gain=0.290209 0.0454304 0.0234046 0.0104737 0.00560279 0.00485488 0.00190907 0.0015348
threshold=3557.5000000000005 0 1 4560.5000000000009 117.50000000000001 29.500000000000004 1.5000000000000002 5.5000000000000009
decision_type=2 5 5 2 2 2 2 2
left_child=2 7 -1 5 -4 6 -3 -2
right_child=1 3 4 -5 -6 -7 -8 -9
leaf_value=-0 -0 -0.00057245926051896869 0.00062423350624564 0 -0 0 0 5.7807397355811121e-05
leaf_count=109 326 1942 1419 63 41 144 87 175
internal_value=0 -0.00152944 0.00192979 -0.00181092 0.00205206 -0.0018705 -0.00189758 7.14528e-05
internal_count=4306 2737 1569 2236 1460 2173 2029 501
cat_boundaries=0 7 11
cat_threshold=51388424 18874371 131104 0 0 0 1 12587072 1090519104 0 16
shrinkage=0.3


Tree=88
num_leaves=7
num_cat=0
split_feature=6 8 8 1 0 6
split_gain=0.339499 0.0508223 0.0163428 0.0145224 0.0144529 0.00244657
threshold=2475.0000000000005 3574.5000000000005 4560.5000000000009 1.0000000180025095e-35 125.50000000000001 1605.0000000000002
decision_type=2 2 2 2 2 2
left_child=1 5 -3 -2 -5 -1
right_child=3 2 -4 4 -6 -7
leaf_value=7.266669159673966e-05 -0 -0.00059948643121982698 0 0.00068079470541996374 -0 -0
leaf_count=396 123 1702 68 1752 48 217
internal_value=0 -0.00161256 -0.00191123 0.00213208 0.00220201 8.74881e-05
internal_count=4306 2383 1770 1923 1800 613
shrinkage=0.3


Tree=89
num_leaves=4
num_cat=1
split_feature=7 8 8
split_gain=1.12929 0.0327208 0.0256894
threshold=0 2206.0000000000005 4560.5000000000009
decision_type=5 2 2
left_child=-1 -2 -3
right_child=1 2 -4
leaf_value=0.0010729297470415961 0 -0.0010344179058729135 0
leaf_count=910 174 3158 64
internal_value=0 -0.00326626 -0.00336973
internal_count=4306 3396 3222
cat_boundaries=0 13
cat_threshold=12607536 604521985 35651712 256 4 1073741824 65536 4096 0 0 0 0 1073741888
shrinkage=0.3


Tree=90
num_leaves=9
num_cat=2
split_feature=6 3 3 8 1 8 8 8
split_gain=0.355751 0.043872 0.0364994 0.0114077 0.0113438 0.00543492 0.00258587 0.000100304
threshold=2475.0000000000005 0 1 4560.5000000000009 1.0000000180025095e-35 2732.0000000000005 3640.5000000000005 4336.5000000000009
decision_type=2 5 5 2 2 2 2 2
left_child=1 6 -2 5 -4 -3 -1 -8
right_child=2 3 4 -5 -6 -7 7 -9
leaf_value=7.0737005557607716e-05 -0 0 -0 0 0.00070825928863082848 -0.00060994252397662937 -1.3723573178404964e-05 0
leaf_count=137 228 108 108 55 1577 1835 154 104
internal_value=0 -0.0016938 0.00213875 -0.00194438 0.00230961 -0.00200492 4.05579e-05 -0
internal_count=4306 2393 1913 1998 1685 1943 395 258
cat_boundaries=0 4 9
cat_threshold=155197440 35717121 131361 67108864 12587072 1107820616 1050880 32 32
shrinkage=0.3


Tree=91
num_leaves=4
num_cat=2
split_feature=7 6 3
split_gain=1.12236 0.0472844 0.0430146
threshold=0 9290.0000000000018 1
decision_type=5 2 5
left_child=-1 2 -2
right_child=1 -3 -4
leaf_value=0.0010794096223168488 0 0 -0.0010507637989486665
leaf_count=1007 107 228 2964
internal_value=0 -0.0032227 -0.0033728
internal_count=4306 3299 3071
cat_boundaries=0 13 20
cat_threshold=12607544 604521985 35651968 256 4 1077936128 65536 4096 0 0 0 0 1073741888 16777216 65536 131072 1 0 0 1
shrinkage=0.3


Tree=92
num_leaves=6
num_cat=1
split_feature=7 6 8 8 1
split_gain=1.13048 0.0489166 0.0155618 0.00827966 0.0004733
threshold=0 9290.0000000000018 1867.0000000000002 4560.5000000000009 67.500000000000014
decision_type=5 2 2 2 2
left_child=-1 2 -2 4 -4
right_child=1 -3 3 -5 -6
leaf_value=0.0010896304335095775 0 0 -0.0010329945980279689 0 0
leaf_count=1134 61 226 2776 53 56
internal_value=0 -0.00321305 -0.00336863 -0.00341643 -0.00344167
internal_count=4306 3172 2946 2885 2832
cat_boundaries=0 13
cat_threshold=8675384 604521985 35651712 0 4 1077936128 65536 4096 0 0 0 0 1073741888
shrinkage=0.3


Tree=93
num_leaves=10
num_cat=2
split_feature=6 3 3 0 8 1 8 8 6
split_gain=0.360689 0.0403027 0.0397589 0.014643 0.013773 0.00820909 0.00518276 0.000700322 0.000111359
threshold=2475.0000000000005 0 1 125.50000000000001 2732.0000000000005 1.0000000180025095e-35 4560.5000000000009 4016.5000000000005 1425.0000000000002
decision_type=2 5 5 2 2 2 2 2 2
left_child=2 -2 7 5 -4 -3 -6 8 -1
right_child=1 3 4 -5 6 -7 -8 -9 -10
leaf_value=3.9344684017055489e-05 -0 -0 0 -0 -0.00061239631690078586 0.00072956307174831976 0 -0 -0
leaf_count=99 211 110 115 47 1848 1550 52 184 90
internal_value=0 0.00214377 -0.00171538 0.00233123 -0.00194165 0.00239623 -0.00201464 1.62391e-05 0.000121957
internal_count=4306 1918 2388 1707 2015 1660 1900 373 189
cat_boundaries=0 7 11
cat_threshold=12587072 1107296328 1050880 32 32 0 4 150994944 573112833 131361 67108864
shrinkage=0.3


Tree=94
num_leaves=7
num_cat=2
split_feature=7 3 8 8 1 1
split_gain=1.13364 0.0566762 0.0181642 0.00501887 0.000848792 2.75138e-05
threshold=0 1 1867.0000000000002 4560.5000000000009 1.0000000180025095e-35 2.5000000000000004
decision_type=5 5 2 2 2 2
left_child=4 5 -3 -4 -1 -2
right_child=1 2 3 -5 -6 -7
leaf_value=-0 -0 0 -0.0010368825315420032 0 0.0010959575729509083 7.1877594511335868e-06
leaf_count=167 85 73 2756 49 1044 132
internal_value=0 -0.00320543 -0.00338482 -0.00344099 0.00364929 0
internal_count=4306 3095 2878 2805 1211 217
cat_boundaries=0 13 20
cat_threshold=12871736 638076417 35651712 256 4 1077936128 65536 4096 0 0 0 0 1073741888 153092096 65568 131073 1 0 0 5
shrinkage=0.3


Tree=95
num_leaves=4
num_cat=1
split_feature=7 8 8
split_gain=1.06741 0.0411624 0.0146199
threshold=0 2206.0000000000005 4560.5000000000009
decision_type=5 2 2
left_child=-1 -2 -3
right_child=1 2 -4
leaf_value=0.001037317920938727 0 -0.0010119307404217377 0
leaf_count=1031 171 3043 61
internal_value=0 -0.0031956 -0.00332764
internal_count=4306 3275 3104
cat_boundaries=0 13
cat_threshold=41969720 604505601 33554560 260 4 1077936128 65536 4096 0 0 0 0 1073741888
shrinkage=0.3


Tree=96
num_leaves=11
num_cat=3
split_feature=6 8 3 8 1 0 3 6 8 3
split_gain=0.349136 0.0482242 0.0415967 0.0153539 0.0117373 0.0095159 0.00248223 0.00227943 6.70689e-05 3.57161e-08
threshold=2475.0000000000005 3574.5000000000005 0 4560.5000000000009 1.0000000180025095e-35 117.50000000000001 1 1315.0000000000002 2926.5000000000005 2
decision_type=2 2 5 2 2 2 5 2 2 5
left_child=1 7 9 6 -4 -6 -3 -1 -9 -2
right_child=2 3 4 -5 5 -7 -8 8 -10 -11
leaf_value=6.7848280819346609e-05 0 0 -0 0 0.00071367629364917247 -0 -0.00062244561357763576 0 -1.1221396203052322e-05 -2.5894275654412825e-07
leaf_count=292 104 116 109 71 1515 54 1594 118 199 134
internal_value=0 -0.0017118 0.00208498 -0.00198322 0.00228324 0.00233681 -0.00206229 6.00509e-05 -0 -0
internal_count=4306 2390 1916 1781 1678 1569 1710 609 317 238
cat_boundaries=0 7 11 14
cat_threshold=12587072 1107820616 1050880 32 32 0 4 8 1 32 67108864 8392704 524296 2048
shrinkage=0.3


Tree=97
num_leaves=10
num_cat=2
split_feature=8 3 3 4 0 8 1 8 1
split_gain=0.276479 0.0471668 0.0260209 0.0214169 0.00616435 0.00605344 0.0030221 4.97447e-05 2.13628e-05
threshold=3622.5000000000005 0 1 1.5000000000000002 117.50000000000001 4560.5000000000009 36.500000000000007 4412.0000000000009 1.0000000180025095e-35
decision_type=2 5 5 2 2 2 2 2 2
left_child=2 7 -1 5 -4 6 -3 8 -2
right_child=1 3 4 -5 -6 -7 -8 -9 -10
leaf_value=-0 -0 -0.00058921726813825407 0.0006143661988736326 0 -0 0 0 -0 2.8288515735717341e-05
leaf_count=107 81 2012 1532 122 50 65 64 58 215
internal_value=0 -0.00149923 0.0018768 -0.00179466 0.00201581 -0.00191517 -0.00194786 8.60397e-05 9.18933e-05
internal_count=4306 2617 1689 2263 1582 2141 2076 354 296
cat_boundaries=0 7 11
cat_threshold=51380232 16777217 131072 0 0 0 1 12587080 8 0 16
shrinkage=0.3


Tree=98
num_leaves=6
num_cat=2
split_feature=7 6 8 8 7
split_gain=1.10063 0.0503616 0.0164655 0.0146654 0.000139847
threshold=0 9290.0000000000018 4560.5000000000009 1867.0000000000002 1
decision_type=5 2 2 2 5
left_child=4 2 3 -2 -1
right_child=1 -3 -4 -5 -6
leaf_value=-0 0 0 0 -0.0010341571089991799 0.0010694213160395154
leaf_count=107 62 224 59 2982 872
internal_value=0 -0.0031908 -0.0033518 -0.00340256 0.00356351
internal_count=4306 3327 3103 3044 979
cat_boundaries=0 13 17
cat_threshold=8407096 604521985 35651712 256 4 1077936128 65536 4096 0 0 0 0 1073741888 2056 0 0 256
shrinkage=0.3


Tree=99
num_leaves=5
num_cat=2
split_feature=7 3 6 6
split_gain=1.08716 0.0363117 0.0184934 2.21719e-05
threshold=0 1 9290.0000000000018 2395.0000000000005
decision_type=5 5 2 2
left_child=-1 3 -3 -2
right_child=1 2 -4 -5
leaf_value=0.0010479422253170927 -0 -0.0010187155252977713 0 6.4526671369002074e-06
leaf_count=903 140 2954 216 93
internal_value=0 -0.00322136 -0.00333724 0
internal_count=4306 3403 3170 233
cat_boundaries=0 13 20
cat_threshold=8413232 604521985 35651712 256 4 1077936128 65536 4096 0 0 0 0 1073741888 52428800 536936480 131072 2049 0 0 1
shrinkage=0.3


Tree=100
num_leaves=7
num_cat=2
split_feature=7 3 6 8 1 1
split_gain=1.10762 0.0465381 0.0251423 0.0113124 0.005388 7.42814e-05
threshold=0 1 9290.0000000000018 4560.5000000000009 67.500000000000014 2.5000000000000004
decision_type=5 5 2 2 2 2
left_child=-1 5 3 4 -3 -2
right_child=1 2 -4 -5 -6 -7
leaf_value=0.0010819274749048991 -0 -0.0010347000841803343 0 0 0 1.1810200391607898e-05
leaf_count=1049 86 2706 216 57 58 134
internal_value=0 -0.00316905 -0.00331881 -0.00339796 -0.00343253 0
internal_count=4306 3257 3037 2821 2764 220
cat_boundaries=0 13 20
cat_threshold=8650800 604521985 2097280 256 4 1077936128 65536 4096 0 0 0 0 1073741888 186646528 536936448 131073 1 0 0 1
shrinkage=0.3


Tree=101
num_leaves=4
num_cat=1
split_feature=7 8 8
split_gain=1.12237 0.0436466 0.00561569
threshold=0 2605.0000000000005 4560.5000000000009
decision_type=5 2 2
left_child=-1 -2 -3
right_child=1 2 -4
leaf_value=0.0010832034762994528 0 -0.0010101299843420571 0
leaf_count=1053 281 2916 56
internal_value=0 -0.00320994 -0.00334955
internal_count=4306 3253 2972
cat_boundaries=0 13
cat_threshold=41967672 638076417 33554816 256 4 1077936128 65536 4096 0 0 0 0 1073741888
shrinkage=0.3


Tree=102
num_leaves=5
num_cat=2
split_feature=7 3 4 1
split_gain=1.13751 0.0438772 0.0074606 0.000230322
threshold=0 1 1.5000000000000002 1.0000000180025095e-35
decision_type=5 5 2 2
left_child=3 -2 -3 -1
right_child=1 2 -4 -5
leaf_value=-0 0 -0.0010207203423827317 0 0.0010887895231624421
leaf_count=118 217 2804 278 889
internal_value=0 -0.00323926 -0.00337779 0.00362736
internal_count=4306 3299 3082 1007
cat_boundaries=0 13 20
cat_threshold=12593208 604521985 2097536 256 4 1077936128 65536 4096 0 0 0 0 1073741888 52428800 65568 131073 1 0 0 5
shrinkage=0.3


Tree=103
num_leaves=5
num_cat=1
split_feature=7 6 8 8
split_gain=1.10006 0.0526743 0.0291237 0.0138678
threshold=0 9545.0000000000018 4560.5000000000009 1867.0000000000002
decision_type=5 2 2 2
left_child=-1 2 3 -2
right_child=1 -3 -4 -5
leaf_value=0.0010898821241664084 0 0 0 -0.0010273802925390538
leaf_count=903 63 220 67 3053
internal_value=0 -0.00311975 -0.00329142 -0.00338213
internal_count=4306 3403 3183 3116
cat_boundaries=0 13
cat_threshold=12607536 604521985 2097280 0 4 1077936128 65536 4096 0 0 0 0 1073741888
shrinkage=0.3


Tree=104
num_leaves=6
num_cat=2
split_feature=7 6 3 8 2
split_gain=1.09337 0.0552949 0.0264811 0.0146182 0.00634969
threshold=0 9290.0000000000018 1 4560.5000000000009 1.5000000000000002
decision_type=5 2 5 2 2
left_child=-1 2 -2 4 -4
right_child=1 -3 3 -5 -6
leaf_value=0.0010329209061923296 0 0 0 0 -0.0010816339460181161
leaf_count=918 112 228 82 62 2904
internal_value=0 -0.00329385 -0.00346493 -0.00354332 -0.00358681
internal_count=4306 3388 3160 3048 2986
cat_boundaries=0 13 20
cat_threshold=12607536 604521985 35651712 256 4 1077936128 65536 4096 0 0 0 0 1073741888 50331648 0 131072 1 0 0 5
shrinkage=0.3


Tree=105
num_leaves=5
num_cat=1
split_feature=7 6 8 8
split_gain=1.06062 0.0533051 0.0136239 0.00730709
threshold=0 9290.0000000000018 1867.0000000000002 4560.5000000000009
decision_type=5 2 2 2
left_child=-1 2 -2 -4
right_child=1 -3 3 -5
leaf_value=0.0010544406334951142 0 0 -0.0010064757649279137 0
leaf_count=1013 63 227 2949 54
internal_value=0 -0.00311519 -0.00328916 -0.00333205
internal_count=4306 3293 3066 3003
cat_boundaries=0 13
cat_threshold=12609592 604521985 35651712 256 4 1077936128 65536 4096 0 0 0 0 1073741888
shrinkage=0.3


Tree=106
num_leaves=7
num_cat=1
split_feature=7 6 8 8 1 1
split_gain=1.07413 0.0569539 0.0249342 0.0151971 4.1905e-06 1.95032e-05
threshold=0 9290.0000000000018 4560.5000000000009 1867.0000000000002 11.500000000000002 118.50000000000001
decision_type=5 2 2 2 2 2
left_child=-1 2 3 -2 -3 -6
right_child=1 4 -4 -5 5 -7
leaf_value=0.0010425578433711888 0 -0 0 -0.0010503413702489378 6.6700144293699436e-06 -0
leaf_count=1007 62 45 65 2940 144 43
internal_value=0 -0.00319877 -0.00337972 -0.0034556 0 9.34975e-06
internal_count=4306 3299 3067 3002 232 187
cat_boundaries=0 13
cat_threshold=46164016 604521985 35651712 256 4 1077936128 65536 4096 0 0 0 0 1073741888
shrinkage=0.3



feature importances:
date_delta=161
location=101
mileage=95
car_like=91
fans_count=46
follow_count=22
gender=21
level=10

pandas_categorical:null
