tree
version=v2
num_class=1
num_tree_per_iteration=1
label_index=0
max_feature_idx=6
objective=binary sigmoid:1
feature_names=follow_count fans_count location mileage car_like all_post_count date_delta
feature_infos=[0:911] [0:827] 5:32:4:20:13:15:14:11:7:16:9:37:51:19:38:12:26:39:35:57:27:24:3:48:53:22:33:68:56:23:61:69:72:122:17:77:62:25:6:100:133:64:194:46:107:84:192:98:75:31:91:28:29:162:96:164:87:105:66:193:101:82:71:104:49:108:41:42:67:81:120:59:137:88:34:240:89:121:229:30:176:21:180:247:50:93:99:8:238:156:136:149:131:118:217:125:97:171:43:86:85:44:54:141:145:36:112:58:195:18:63:191:10:103:175:268:1:127:212:210:147:254:185:179:172:168:126:102:78:76:119:55:45:74:60:65:252:165:196:106:153:109:110:166:167:95:170:73:190:83:183:184:140:128:227:218:228:265:230:47:143:114:146:148:111:150:202:233:225:201:219:186:246:243:189:224:216:235:40:70:199:198:237:232:160:262:115:263:116:181:117:154:155:135:158:253:163:169:267:173:132:249:291 [70:290600] 18:1:35:42:414:5:17:28:45:130:236:33:3:0:12:69:58:71:208:134:81:25:390:61:56:2:19:110:16:136:15:24:11:31:23:118:94:47:190:53:77:59:57:7:22:87:72:105:143:50:36:43:52:117:54:101:129:75:46:131:182:40:108:14:316:152:125:93:41:92:32:4:128:133:260:20:51:100:132:137:106:124:160:104:111:153:89:10:292:115:88:120:126:107:80:97:147:98:48:157:240:222:29:123:331:200:270:227:109:170:163:159:194:142:34:261:371:13:79:224:119:343:178:91:85:192:416:99:112:127:21:313:164:175:350:150:189:26:73:237:193:229:196:360:197:276:272:380:223:60:370:65:171:6:312:184:83:207:82:216:218:234:221:62:378:148:341:384:494:202:273:249:44:296:275:363:76:144:145:446:68:205:436:74:326:168:321:329:233:174:121:122:235:27:304:388:474:241:248:386:433:8:381:299:330:336:317:415:467:345:348:401:306:78:398:294:351:483:445:361:411:440:425:367:84:185:179:177:198:30:206:534:210:55:63:64:219:90 [0:2391] [0:4626]
tree_sizes=414 496 528 507 445 479 413 490 477 329 469 389 573

Tree=0
num_leaves=4
num_cat=0
split_feature=3 6 5
split_gain=1.63419 0.995109 0.0398231
threshold=3405.0000000000005 3291.5000000000005 56.500000000000007
decision_type=2 2 2
left_child=1 -1 -2
right_child=2 -3 -4
leaf_value=-1.9004017910958988 -1.8942097996901317 -1.913387697745019 -1.9004017910958988
leaf_count=435 1028 1860 99
internal_value=0 -0.0314284 0.0196287
internal_count=3422 2295 1127
shrinkage=1


Tree=1
num_leaves=5
num_cat=2
split_feature=3 2 2 1
split_gain=2.63685 0.638356 0.410595 0.278411
threshold=2545.0000000000005 0 1 1.5000000000000002
decision_type=2 5 5 2
left_child=2 -2 -1 -3
right_child=1 3 -4 -5
leaf_value=0 -0 -0 -0.010035226361564207 0.014767573283932677
leaf_count=229 111 173 1692 1217
internal_value=0 0.0391194 -0.0275152 0.045784
internal_count=3422 1501 1921 1390
cat_boundaries=0 4 8
cat_threshold=64 35651656 256 32 163713024 539034112 288 67108864
shrinkage=0.3


Tree=2
num_leaves=5
num_cat=1
split_feature=4 6 1 3
split_gain=12.9982 0.51127 0.192718 0.12647
threshold=0 2206.0000000000005 1.0000000180025095e-35 315.00000000000006
decision_type=5 2 2 2
left_child=2 -2 -1 -3
right_child=1 3 -4 -5
leaf_value=-0 0 0 0.025575563968404446 -0.021479888924488117
leaf_count=84 136 106 660 2436
internal_value=0 -0.066659 0.0829961 -0.0705503
internal_count=3422 2678 744 2542
cat_boundaries=0 13
cat_threshold=12587060 67405313 384 256 4 1073741824 65536 4096 0 0 0 0 1073741888
shrinkage=0.3


Tree=3
num_leaves=6
num_cat=0
split_feature=3 6 1 5 6
split_gain=0.995147 0.500522 0.382729 0.0323505 0.013386
threshold=2415.0000000000005 3625.0000000000005 1.0000000180025095e-35 48.000000000000007 4548.0000000000009
decision_type=2 2 2 2 2
left_child=1 -1 -2 -4 -3
right_child=2 4 3 -5 -6
leaf_value=0 -0 -0.0083188504232709487 0.00929858703737633 -0 0
leaf_count=513 109 1259 1315 140 86
internal_value=0 -0.0169443 0.0239758 0.0303099 -0.027393
internal_count=3422 1858 1564 1455 1345
shrinkage=0.3


Tree=4
num_leaves=5
num_cat=0
split_feature=3 6 1 5
split_gain=0.950023 0.47272 0.322624 0.181778
threshold=2475.0000000000005 3635.5000000000005 1.5000000000000002 54.500000000000007
decision_type=2 2 2 2
left_child=1 -1 -2 -4
right_child=2 -3 3 -5
leaf_value=0 -0 -0.0078126973970052398 0.0097454401122301967 -0
leaf_count=520 208 1366 1223 105
internal_value=0 -0.0155736 0.0241171 0.029694
internal_count=3422 1886 1536 1328
shrinkage=0.3


Tree=5
num_leaves=4
num_cat=2
split_feature=4 6 2
split_gain=12.1177 0.591474 0.444962
threshold=0 2318.0000000000005 1
decision_type=5 2 5
left_child=-1 -2 -3
right_child=1 2 -4
leaf_value=0.02365856315664433 0 0 -0.021776941785080568
leaf_count=866 146 102 2308
internal_value=0 -0.0655444 -0.0700234
internal_count=3422 2556 2410
cat_boundaries=0 13 15
cat_threshold=2160066596 639927809 8576 0 32772 1077936128 65536 4096 0 0 0 0 1073741888 134217736 2162688
shrinkage=0.3


Tree=6
num_leaves=3
num_cat=1
split_feature=4 6
split_gain=13.5637 0.420666
threshold=0 2108.5000000000005
decision_type=5 2
left_child=-1 -2
right_child=1 -3
leaf_value=0.026492242523772084 0 -0.020309751781669626
leaf_count=752 115 2555
internal_value=0 -0.0643067
internal_count=3422 2670
cat_boundaries=0 13
cat_threshold=12582960 606356992 8576 256 4 1077936128 65536 4096 0 0 0 0 1073741888
shrinkage=0.3


Tree=7
num_leaves=4
num_cat=2
split_feature=4 2 3
split_gain=11.1544 0.751059 0.227292
threshold=0 1 9335.0000000000018
decision_type=5 5 2
left_child=-1 -2 -3
right_child=1 2 -4
leaf_value=0.024569031934617618 0 -0.01928508505506589 0
leaf_count=818 201 2242 161
internal_value=0 -0.055998 -0.0618364
internal_count=3422 2604 2403
cat_boundaries=0 13 20
cat_threshold=12587056 237249536 33563008 0 4 1077936128 65536 4096 0 0 0 0 1073741888 163577864 536870912 32 16 0 0 1
shrinkage=0.3


Tree=8
num_leaves=4
num_cat=1
split_feature=4 6 3
split_gain=11.0187 1.02524 0.0546961
threshold=0 2723.5000000000005 11005.000000000002
decision_type=5 2 2
left_child=-1 -2 -3
right_child=1 2 -4
leaf_value=0.024873914498016628 0 -0.018819941295798604 0
leaf_count=768 267 2302 85
internal_value=0 -0.0538805 -0.0621305
internal_count=3422 2654 2387
cat_boundaries=0 13
cat_threshold=2160066736 604030465 33620096 256 4 1073741824 65536 4096 0 0 0 0 1073741888
shrinkage=0.3


Tree=9
num_leaves=3
num_cat=0
split_feature=6 1
split_gain=0.339366 0.231305
threshold=3635.5000000000005 12.500000000000002
decision_type=2 2
left_child=-1 -2
right_child=1 -3
leaf_value=0.0051119385782898152 -0.0043729693658234809 0
leaf_count=1360 1754 308
internal_value=0 -0.0034284
internal_count=3422 2062
shrinkage=0.3


Tree=10
num_leaves=4
num_cat=2
split_feature=4 6 4
split_gain=11.4056 0.941842 0.00396718
threshold=0 2723.5000000000005 1
decision_type=5 2 5
left_child=2 -2 -1
right_child=1 -3 -4
leaf_value=0 0 -0.018737065963741164 0.025580861694459296
leaf_count=158 263 2303 698
internal_value=0 -0.0547691 0.0842007
internal_count=3422 2566 856
cat_boundaries=0 13 14
cat_threshold=2156134448 604243457 33562752 256 4 4194304 65536 4096 0 0 0 0 1073741888 262144
shrinkage=0.3


Tree=11
num_leaves=4
num_cat=0
split_feature=3 6 1
split_gain=0.546178 0.477777 0.0180676
threshold=3405.0000000000005 3252.5000000000005 1.5000000000000002
decision_type=2 2 2
left_child=1 -1 -2
right_child=2 -3 -4
leaf_value=0 -0 -0.0075647000782183439 0.0049774615370299768
leaf_count=389 94 1919 1020
internal_value=0 -0.0147959 0.0160084
internal_count=3422 2308 1114
shrinkage=0.3


Tree=12
num_leaves=6
num_cat=2
split_feature=1 2 5 2 6
split_gain=0.322594 0.292294 0.183334 0.124467 0.000927838
threshold=3.5000000000000004 0 54.500000000000007 1 3083.5000000000005
decision_type=2 5 2 5 2
left_child=3 -2 -3 -1 -5
right_child=1 2 -4 4 -6
leaf_value=0 -0 0.0080066641016475967 -0 -0 -0.0032244156498857516
leaf_count=347 215 1421 121 86 1232
internal_value=0 0.0166374 0.0231063 -0 -0.0105664
internal_count=3422 1757 1542 1665 1318
cat_boundaries=0 5 12
cat_threshold=544832 1073741896 16 2048 32 151195776 536936545 2304 67110912 0 0 4
shrinkage=0.3



feature importances:
date_delta=12
mileage=8
fans_count=7
car_like=7
location=6
all_post_count=4

pandas_categorical:null
