tree
version=v2
num_class=1
num_tree_per_iteration=1
label_index=0
max_feature_idx=8
objective=binary sigmoid:1
feature_names=follow_count fans_count gender location level properties mileage car_like date_delta
feature_infos=[0:911] [0:827] 2:1 5:32:4:20:13:15:14:11:7:16:9:37:51:19:38:12:26:39:35:57:27:24:3:48:53:22:33:68:56:23:61:69:72:122:17:77:62:25:6:100:133:64:194:46:107:84:192:98:75:31:91:28:29:162:96:164:87:105:66:193:101:82:71:104:49:108:41:42:67:81:120:59:137:88:34:240:89:121:229:30:176:21:180:247:50:93:99:8:238:156:136:149:131:118:217:125:97:171:43:86:85:44:54:141:145:36:112:58:195:18:63:191:10:103:175:268:1:127:212:210:147:254:185:179:172:168:126:102:78:76:119:55:45:74:60:65:252:165:196:106:153:109:110:166:167:95:170:73:190:83:183:184:140:128:227:218:228:265:230:47:143:114:146:148:111:150:202:233:225:201:219:186:246:243:189:224:216:235:40:70:199:198:237:232:160:262:115:263:116:181:117:154:155:135:158:253:163:169:267:173:132:249:291 1:2:3:4:5 1:2:5 [70:290600] 18:1:35:42:414:5:17:28:45:130:236:33:3:0:12:69:58:71:208:134:81:25:390:61:56:2:19:110:16:136:15:24:11:31:23:118:94:47:190:53:77:59:57:7:22:87:72:105:143:50:36:43:52:117:54:101:129:75:46:131:182:40:108:14:316:152:125:93:41:92:32:4:128:133:260:20:51:100:132:137:106:124:160:104:111:153:89:10:292:115:88:120:126:107:80:97:147:98:48:157:240:222:29:123:331:200:270:227:109:170:163:159:194:142:34:261:371:13:79:224:119:343:178:91:85:192:416:99:112:127:21:313:164:175:350:150:189:26:73:237:193:229:196:360:197:276:272:380:223:60:370:65:171:6:312:184:83:207:82:216:218:234:221:62:378:148:341:384:494:202:273:249:44:296:275:363:76:144:145:446:68:205:436:74:326:168:321:329:233:174:121:122:235:27:304:388:474:241:248:386:433:8:381:299:330:336:317:415:467:345:348:401:306:78:398:294:351:483:445:361:411:440:425:367:84:185:179:177:198:30:206:534:210:55:63:64:219:90 [0:4626]
tree_sizes=413

Tree=0
num_leaves=3
num_cat=2
split_feature=7 3
split_gain=0.753008 0.10818
threshold=0 1
decision_type=5 5
left_child=-1 -2
right_child=1 -3
leaf_value=-1.9004017910958988 -1.9004017910958988 -1.8835488290763513
leaf_count=370 100 2778
internal_value=0 0.055455
internal_count=3248 2878
cat_boundaries=0 10 17
cat_threshold=17825793 22546448 276826112 807441456 10 0 0 0 0 16 0 8 1310724 512 0 4 4
shrinkage=1



feature importances:
location=1
car_like=1

pandas_categorical:null
