tree
version=v2
num_class=1
num_tree_per_iteration=1
label_index=0
max_feature_idx=5
objective=binary sigmoid:1
feature_names=follow_count fans_count location mileage car_like date_delta
feature_infos=[0:911] [0:959] 5:4:20:32:13:15:14:16:7:11:9:19:37:51:38:26:12:27:35:3:39:24:48:22:53:57:33:61:68:69:23:72:56:122:77:17:25:62:6:133:84:64:46:29:100:194:192:105:66:98:101:107:28:96:87:81:104:91:164:193:108:75:71:162:21:42:31:97:121:67:82:41:58:59:180:156:149:30:176:88:93:247:137:54:86:240:10:89:34:63:50:49:131:99:118:120:229:43:195:136:171:78:212:217:127:175:125:238:1:141:145:85:8:76:44:55:65:103:183:83:150:167:168:172:179:60:181:114:185:189:191:199:213:227:36:233:268:112:110:102:73:223:218:119:111:135:95:169:170:139:210:209:178:198:109:184:153:147:228:254:18:154:232:79:252:158:262:47:253:246:257:265:113:202:243:278:239:235:216:230:224:142:94:160:166:155:140:70:177:148:146:128:106:126 [100:137840] 18:1:35:42:414:5:17:28:33:130:71:12:236:0:3:45:69:58:61:208:81:25:136:134:390:19:56:110:16:31:2:47:15:53:24:94:190:11:23:59:77:118:57:54:87:72:22:117:50:52:7:143:36:101:93:105:46:131:129:98:137:182:43:125:100:292:106:108:4:75:128:316:152:89:104:14:41:20:124:88:115:111:153:40:51:13:97:123:107:260:32:92:132:48:29:133:170:222:227:85:34:229:160:159:147:80:240:120:119:109:234:270:218:10:192:313:157:261:21:79:82:189:241:194:178:200:235:343:142:223:127:416:370:65:193:121:224:163:112:73:321:126:360:150:148:91:83:350:272:168:345:331:68:171:386:202:197:27:60:304:380:371:225:207:164:273:145:44:216:436:74:358:99:494:205:221:62:361:233:341:196:363:237:206:175:276:76:317:326:312:275:281:388:144:174:384:248:179:246:446:336:184:185:378:231:114:299:298:294:39:306:30:26:329:255:253:249:467:415:395:440:78:351:161:433:165:445:84:177:6:180:381:219:198:203:64:210:425:212:122 [0:4622]
tree_sizes=613 481 440 599 553 383 554 555 547 501 489 548 613

Tree=0
num_leaves=6
num_cat=2
split_feature=3 2 2 5 5
split_gain=5.99093 1.22647 1.19413 0.157013 0.146871
threshold=2475.0000000000005 0 1 2661.5000000000005 4556.5000000000009
decision_type=2 5 5 2 2
left_child=2 -2 -1 -4 -5
right_child=1 -3 3 4 -6
leaf_value=-1.892470015257022 -1.892470015257022 -1.8706395837430512 -1.892470015257022 -1.9166430813008133 -1.892470015257022
leaf_count=269 108 1531 79 1654 56
internal_value=0 0.060261 -0.0644231 -0.0762169 -0.0790093
internal_count=3697 1639 2058 1789 1710
cat_boundaries=0 5 9
cat_threshold=4198464 72 0 32 32 151003136 570425345 288 67108864
shrinkage=1


Tree=1
num_leaves=4
num_cat=2
split_feature=4 3 2
split_gain=38.038 1.51346 0.442351
threshold=0 9290.0000000000018 1
decision_type=5 2 5
left_child=-1 2 -2
right_child=1 -3 -4
leaf_value=0.054917710433851345 0 0 -0.043385549759056029
leaf_count=831 104 196 2566
internal_value=0 -0.13311 -0.142676
internal_count=3697 2866 2670
cat_boundaries=0 13 16
cat_threshold=12609592 603997696 33554560 0 32772 1073741824 65536 4096 0 0 0 0 1073741888 16777216 65568 131072
shrinkage=0.3


Tree=2
num_leaves=5
num_cat=0
split_feature=3 5 5 1
split_gain=4.28102 1.13558 0.66429 0.45155
threshold=2475.0000000000005 3622.5000000000005 4560.5000000000009 1.5000000000000002
decision_type=2 2 2 2
left_child=1 -1 -3 -2
right_child=3 2 -4 -5
leaf_value=0 -0 -0.022422137595126023 0 0.017774600677426925
leaf_count=553 210 1416 59 1459
internal_value=0 -0.0528801 -0.0679134 0.0528819
internal_count=3697 2028 1475 1669
shrinkage=0.3


Tree=3
num_leaves=6
num_cat=3
split_feature=4 2 5 5 4
split_gain=31.6292 1.599 0.585922 0.318839 0.277021
threshold=0 1 2124.0000000000005 4462.5000000000009 2
decision_type=5 5 2 2 5
left_child=3 -2 -3 -1 -4
right_child=1 2 4 -5 -6
leaf_value=0.052711510081332957 0 0 0 -0 -0.039890559522716085
leaf_count=890 204 119 100 63 2321
internal_value=0 -0.116366 -0.126306 0.17084 -0.13159
internal_count=3697 2744 2540 953 2421
cat_boundaries=0 13 20 24
cat_threshold=8659000 604505601 2097280 256 4 1077936128 65536 4096 0 0 0 0 1073741888 186646528 65568 1 0 32 0 5 18432 16384 8448 4
shrinkage=0.3


Tree=4
num_leaves=6
num_cat=2
split_feature=3 5 2 5 2
split_gain=4.44163 1.05921 1.03316 0.517916 0.208935
threshold=2475.0000000000005 3574.5000000000005 0 4560.5000000000009 1
decision_type=2 2 5 2 5
left_child=1 -1 -2 4 -3
right_child=2 3 -4 -5 -6
leaf_value=0 -0 0 0.02254837833962706 0 -0.019652900288113905
leaf_count=533 109 117 1536 63 1339
internal_value=0 -0.0402569 0.0651929 -0.0567866 -0.0631063
internal_count=3697 2052 1645 1519 1456
cat_boundaries=0 7 11
cat_threshold=4198464 33554496 1048576 0 32 0 4 2056 1 0 67108864
shrinkage=0.3


Tree=5
num_leaves=4
num_cat=0
split_feature=3 5 5
split_gain=3.10255 1.05659 0.511026
threshold=3085.0000000000005 3622.5000000000005 4560.5000000000009
decision_type=2 2 2
left_child=1 -1 -3
right_child=-2 2 -4
leaf_value=0 0.014704632940288152 -0.019106170081131892 0
leaf_count=704 1313 1616 64
internal_value=0 -0.0413044 -0.0576487
internal_count=3697 2384 1680
shrinkage=0.3


Tree=6
num_leaves=6
num_cat=2
split_feature=5 3 2 2 5
split_gain=2.42582 1.63312 0.630887 0.457312 0.0399722
threshold=3618.5000000000005 3855.0000000000005 0 1 4560.5000000000009
decision_type=2 2 5 5 2
left_child=3 2 -2 -1 -4
right_child=1 -3 4 -5 -6
leaf_value=-0 0 0 -0.020499221136944835 0.015300565824714302 0
leaf_count=124 233 432 1536 1317 55
internal_value=0 -0.0354888 -0.0593476 0.0442047 -0.06672
internal_count=3697 2256 1824 1441 1591
cat_boundaries=0 7 11
cat_threshold=21176320 553648129 0 0 0 0 4 4194368 16777217 16 16
shrinkage=0.3


Tree=7
num_leaves=6
num_cat=2
split_feature=5 2 5 2 1
split_gain=3.02255 0.78858 0.463908 0.29471 0.0117944
threshold=3557.5000000000005 0 4560.5000000000009 1 35.500000000000007
decision_type=2 5 2 5 2
left_child=3 -2 4 -1 -3
right_child=1 2 -4 -5 -6
leaf_value=-0 0 -0.0148227190365974 0 0.018785270534323727 -0
leaf_count=123 459 1752 64 1209 90
internal_value=0 -0.0256676 -0.0414156 0.0590369 -0.0489051
internal_count=3697 2365 1906 1332 1842
cat_boundaries=0 7 11
cat_threshold=34603528 2097315 131104 67108864 0 0 4 5243072 0 0 16
shrinkage=0.3


Tree=8
num_leaves=5
num_cat=3
split_feature=4 2 4 5
split_gain=26.4721 0.986201 0.200169 0.338522
threshold=0 1 2 2206.0000000000005
decision_type=5 5 5 2
left_child=-1 -2 -3 -4
right_child=1 2 3 -5
leaf_value=0.046982512674424895 0 -0 0 -0.036539948467827911
leaf_count=951 224 289 120 2113
internal_value=0 -0.106052 -0.113544 -0.117463
internal_count=3697 2746 2522 2233
cat_boundaries=0 13 20 22
cat_threshold=46161976 637551632 1107296640 256 4 1077936128 65536 4096 0 0 0 0 1073741888 50331648 65570 131361 0 0 0 1 262144 10
shrinkage=0.3


Tree=9
num_leaves=5
num_cat=2
split_feature=5 2 1 2
split_gain=1.33644 0.69373 0.533094 0.456916
threshold=3622.5000000000005 0 5.5000000000000009 1
decision_type=2 5 2 5
left_child=1 -1 3 -2
right_child=2 -3 -4 -5
leaf_value=-0 0 0.015345170983618508 0 -0.012151398691511699
leaf_count=286 206 1185 621 1399
internal_value=0 0.0398203 -0.0149327 -0.0313341
internal_count=3697 1471 2226 1605
cat_boundaries=0 4 11
cat_threshold=71323752 64 1048576 16 16912392 524321 0 67108864 0 0 4
shrinkage=0.3


Tree=10
num_leaves=4
num_cat=2
split_feature=4 2 3
split_gain=23.3547 1.96003 0.686872
threshold=0 1 6735.0000000000009
decision_type=5 5 2
left_child=-1 -2 -3
right_child=1 2 -4
leaf_value=0.044090861449710347 0 -0.036396004737145347 0
leaf_count=762 229 2394 312
internal_value=0 -0.10122 -0.113845
internal_count=3697 2935 2706
cat_boundaries=0 13 20
cat_threshold=2193629200 67126785 33554816 260 4 1077936128 65536 4096 0 0 0 0 1073741888 50335744 536870946 0 1 0 0 5
shrinkage=0.3


Tree=11
num_leaves=5
num_cat=2
split_feature=4 3 2 1
split_gain=24.5257 1.25968 0.820962 0.0601087
threshold=0 9290.0000000000018 1 67.500000000000014
decision_type=5 2 5 2
left_child=-1 2 -2 -4
right_child=1 -3 3 -5
leaf_value=0.04840517839567101 0 0 -0.03213033249217357 -0
leaf_count=805 102 194 2535 61
internal_value=0 -0.0900189 -0.100146 -0.105027
internal_count=3697 2892 2698 2596
cat_boundaries=0 13 20
cat_threshold=33570992 638584320 33554816 256 4 1077936128 65536 4096 0 0 0 0 1073741888 16777216 65536 131072 1 0 0 1
shrinkage=0.3


Tree=12
num_leaves=6
num_cat=3
split_feature=4 2 5 5 4
split_gain=22.8223 1.93905 0.292144 0.195042 0.19622
threshold=0 1 4556.5000000000009 1803.0000000000002 2
decision_type=5 5 2 2 5
left_child=-1 -2 3 -3 -5
right_child=1 2 -4 4 -6
leaf_value=0.044116237997497643 0 0 0 -0 -0.035757686218101874
leaf_count=535 215 70 62 229 2586
internal_value=0 -0.0999601 -0.112253 -0.115461 -0.117015
internal_count=3697 3162 2947 2885 2815
cat_boundaries=0 13 20 24
cat_threshold=8388624 67110400 128 0 4 1073741824 65536 4096 0 0 0 0 1073741888 52428800 539033728 131072 2048 0 0 1 33556640 16384 8192 768
shrinkage=0.3



feature importances:
date_delta=18
location=16
car_like=9
mileage=8
fans_count=4

pandas_categorical:null
