tree
version=v2
num_class=1
num_tree_per_iteration=1
label_index=0
max_feature_idx=7
objective=binary sigmoid:1
feature_names=follow_count fans_count gender location mileage car_like all_post_count date_delta
feature_infos=[0:911] [0:827] 2:1 5:32:4:20:13:15:14:11:7:16:9:37:51:19:38:12:26:39:35:57:27:24:3:48:53:22:33:68:56:23:61:69:72:122:17:77:62:25:6:100:133:64:194:46:107:84:192:98:75:31:91:28:29:162:96:164:87:105:66:193:101:82:71:104:49:108:41:42:67:81:120:59:137:88:34:240:89:121:229:30:176:21:180:247:50:93:99:8:238:156:136:149:131:118:217:125:97:171:43:86:85:44:54:141:145:36:112:58:195:18:63:191:10:103:175:268:1:127:212:210:147:254:185:179:172:168:126:102:78:76:119:55:45:74:60:65:252:165:196:106:153:109:110:166:167:95:170:73:190:83:183:184:140:128:227:218:228:265:230:47:143:114:146:148:111:150:202:233:225:201:219:186:246:243:189:224:216:235:40:70:199:198:237:232:160:262:115:263:116:181:117:154:155:135:158:253:163:169:267:173:132:249:291 [70:290600] 18:1:35:42:414:5:17:28:45:130:236:33:3:0:12:69:58:71:208:134:81:25:390:61:56:2:19:110:16:136:15:24:11:31:23:118:94:47:190:53:77:59:57:7:22:87:72:105:143:50:36:43:52:117:54:101:129:75:46:131:182:40:108:14:316:152:125:93:41:92:32:4:128:133:260:20:51:100:132:137:106:124:160:104:111:153:89:10:292:115:88:120:126:107:80:97:147:98:48:157:240:222:29:123:331:200:270:227:109:170:163:159:194:142:34:261:371:13:79:224:119:343:178:91:85:192:416:99:112:127:21:313:164:175:350:150:189:26:73:237:193:229:196:360:197:276:272:380:223:60:370:65:171:6:312:184:83:207:82:216:218:234:221:62:378:148:341:384:494:202:273:249:44:296:275:363:76:144:145:446:68:205:436:74:326:168:321:329:233:174:121:122:235:27:304:388:474:241:248:386:433:8:381:299:330:336:317:415:467:345:348:401:306:78:398:294:351:483:445:361:411:440:425:367:84:185:179:177:198:30:206:534:210:55:63:64:219:90 [0:2391] [0:4626]
tree_sizes=508 412 522 415 610 760 470 639 567 565 629 619 575 581 540 507 572 589 677 570 621 494 635 704 661 570 660 507 746 630 705 588 697 632 705 618 724 529 699 655 655 541 685 787 521 504 578 583 480 742 652 522 804 521 715 713 936 659 614 617 640 512 810 737 438 771 719 690 830 612 737 359 623 685 659 458 800 745 712 685 620 528 656 756 512 627 667 766 790 558 734 608 383 714 405 459 559 729 768 781 533 633 702 648 559 632 575 690 606 445 798 556 597 650 606 703 846 508 740 787 581 644 665 658 772 590 691 885 696 595 585 502 722 683 912 629 710 416 781 641 628 686 524 635 634 726 499 819 763 462 643 497 722 804 793 499 728 800 715 824 678 525 1008 503 932 697 574 656 742 638 702 740 817 536 675 622 696 441 779 678 718 778 695 703 611 585 583 639 779 596 719 753 643 585 647 648 568 575 775 789 683 580 590 856 594 598 655 530 773 517 734 792 687 591 532 568 529 623 683 723 853 623 746 748 737 640 606

Tree=0
num_leaves=4
num_cat=2
split_feature=5 3 7
split_gain=39.6305 2.48037 0.471156
threshold=0 1 2318.0000000000005
decision_type=5 5 2
left_child=-1 -2 -3
right_child=1 2 -4
leaf_value=-1.8532083839972637 -1.8995368459473243 -1.9004017910958988 -1.9459880987301166
leaf_count=597 112 127 2119
internal_value=0 -0.137697 -0.1478
internal_count=2955 2358 2246
cat_boundaries=0 13 17
cat_threshold=2160066592 603981312 8576 0 4 1077936128 65536 4096 0 0 0 0 1073741888 159383552 538968064 0 1
shrinkage=1


Tree=1
num_leaves=3
num_cat=1
split_feature=5 4
split_gain=37.6329 0.552189
threshold=0 6775.0000000000009
decision_type=5 2
left_child=-1 -2
right_child=1 -3
leaf_value=0.050951059694713835 -0.036914715014693157 0
leaf_count=616 2091 248
internal_value=0 -0.117879
internal_count=2955 2339
cat_boundaries=0 13
cat_threshold=12582960 234884608 8320 0 260 1073741824 65536 4096 0 0 0 0 1073741888
shrinkage=0.3


Tree=2
num_leaves=5
num_cat=1
split_feature=5 7 7 7
split_gain=30.3063 0.513628 0.38618 0.383113
threshold=0 4437.5000000000009 2902.5000000000005 4548.0000000000009
decision_type=5 2 2 2
left_child=1 -1 -2 -4
right_child=2 -3 3 -5
leaf_value=0.04439770791634208 -0 -0 -0.036499187868320584 0
leaf_count=647 306 63 1875 64
internal_value=0 0.143492 -0.114654 -0.119551
internal_count=2955 710 2245 1939
cat_boundaries=0 13
cat_threshold=12587060 67423745 160 0 260 1073741824 65536 4096 0 0 0 0 1073741888
shrinkage=0.3


Tree=3
num_leaves=3
num_cat=2
split_feature=5 3
split_gain=32.0993 1.12816
threshold=0 1
decision_type=5 5
left_child=-1 -2
right_child=1 -3
leaf_value=0.04585961922147453 0 -0.035752805470803645
leaf_count=676 125 2154
internal_value=0 -0.112897
internal_count=2955 2279
cat_boundaries=0 13 15
cat_threshold=2160066720 606094850 384 0 4 1077936128 65536 4096 0 0 0 0 1073741888 155189256 536870912
shrinkage=0.3


Tree=4
num_leaves=6
num_cat=2
split_feature=5 7 3 1 1
split_gain=28.0527 1.61193 0.787014 0.332652 0.00106563
threshold=0 2753.0000000000005 1 1.0000000180025095e-35 14.500000000000002
decision_type=5 2 5 2 2
left_child=3 4 -3 -1 -2
right_child=1 2 -4 -5 -6
leaf_value=-0 0.00035691784525193458 0 -0.034761702287161002 0.045276638667557462 -0
leaf_count=98 90 122 1854 645 146
internal_value=0 -0.101741 -0.112039 0.14679 0
internal_count=2955 2212 1976 743 236
cat_boundaries=0 13 15
cat_threshold=2151682228 603982848 8352 0 32772 1077936128 65536 4096 0 0 0 0 1073741888 150994952 538968192
shrinkage=0.3


Tree=5
num_leaves=9
num_cat=2
split_feature=4 3 1 7 7 3 7 7
split_gain=9.04556 1.91289 0.683715 0.235811 0.171158 0.123723 0.0573744 0.00465813
threshold=2545.0000000000005 0 1.5000000000000002 2665.0000000000005 4543.5000000000009 1 3625.0000000000005 4335.5000000000009
decision_type=2 5 2 2 2 5 2 2
left_child=1 6 -2 -3 -5 -4 -1 -8
right_child=2 3 5 4 -6 -7 7 -9
leaf_value=0.0040574161145740624 -0 0 -0 -0.022719550775364392 0 0.027996342603695778 -0.00074568362005982328 0
leaf_count=69 153 77 116 1250 68 1035 103 84
internal_value=0 -0.0544479 0.0872753 -0.0711477 -0.0741233 0.092413 0.0100572 -0
internal_count=2955 1651 1304 1395 1318 1151 256 187
cat_boundaries=0 4 7
cat_threshold=159580160 35717121 32 67108864 36928 1073741896 16
shrinkage=0.3


Tree=6
num_leaves=4
num_cat=1
split_feature=5 4 4
split_gain=25.9432 0.717737 0.0844122
threshold=0 12570.000000000002 315.00000000000006
decision_type=5 2 2
left_child=-1 2 -2
right_child=1 -3 -4
leaf_value=0.044901549463517675 -0 0 -0.028989509034757385
leaf_count=757 97 84 2017
internal_value=0 -0.0903071 -0.0956783
internal_count=2955 2198 2114
cat_boundaries=0 13
cat_threshold=12910604 606078464 8320 0 4 1077936128 65536 4096 0 0 0 0 1073741888
shrinkage=0.3


Tree=7
num_leaves=7
num_cat=1
split_feature=4 3 1 7 0 1
split_gain=9.68775 1.72995 0.859421 0.760957 0.466042 2.83347e-05
threshold=2415.0000000000005 0 1.5000000000000002 3313.0000000000005 80.500000000000014 3.5000000000000004
decision_type=2 5 2 2 2 2
left_child=1 -1 -2 5 -4 -3
right_child=2 3 4 -5 -6 -7
leaf_value=0.0024595826347581992 -0 -0 0.029048617129472466 -0.024283749262968935 -0 5.8009334131981774e-05
leaf_count=127 197 87 1091 1233 85 135
internal_value=0 -0.0594019 0.0871022 -0.0735083 0.0934982 0
internal_count=2955 1582 1373 1455 1176 222
cat_boundaries=0 4
cat_threshold=4194304 36241408 32 67108864
shrinkage=0.3


Tree=8
num_leaves=5
num_cat=2
split_feature=5 3 4 0
split_gain=21.7966 1.61067 0.14251 0.0350537
threshold=0 1 6775.0000000000009 1.5000000000000002
decision_type=5 5 2 2
left_child=-1 3 -3 -2
right_child=1 2 -4 -5
leaf_value=0.039627186198700454 -0 -0.030461383636306835 -0 0.0020831229596600161
leaf_count=743 143 1652 207 210
internal_value=0 -0.0872299 -0.0984807 0.0015114
internal_count=2955 2212 1859 353
cat_boundaries=0 13 20
cat_threshold=281088180 100713984 128 256 4 1077936128 65536 4096 0 0 0 0 1073741888 151605256 572522496 32 0 0 0 1
shrinkage=0.3


Tree=9
num_leaves=5
num_cat=2
split_feature=5 7 3 7
split_gain=17.7333 1.42779 0.388768 0.346182
threshold=0 2723.5000000000005 1 4478.5000000000009
decision_type=5 2 5 2
left_child=-1 -2 -3 -4
right_child=1 2 3 -5
leaf_value=0.036452503944257836 0.0005508721955005089 0 -0.028116797129710155 0
leaf_count=711 232 141 1716 155
internal_value=0 -0.0764496 -0.0874176 -0.0899532
internal_count=2955 2244 2012 1871
cat_boundaries=0 13 17
cat_threshold=2151682232 771769344 65664 0 4 1073741824 65536 4096 0 0 0 0 1073741888 16785408 536936448 256 2048
shrinkage=0.3


Tree=10
num_leaves=7
num_cat=2
split_feature=4 3 3 6 1 4
split_gain=7.54267 1.26531 0.525761 0.328615 0.0868537 0.00692817
threshold=2035.0000000000002 0 1 54.500000000000007 18.500000000000004 1275.0000000000002
decision_type=2 5 5 2 2 2
left_child=1 5 -2 -4 -3 -1
right_child=2 4 3 -5 -6 -7
leaf_value=0.0021093490995177503 -0 -0.018816309907228591 0.026901716006942949 -0 0 -0
leaf_count=144 102 1156 1310 102 75 66
internal_value=0 -0.0476182 0.0825954 0.0860728 -0.0609307 0.00623943
internal_count=2955 1441 1514 1412 1231 210
cat_boundaries=0 4 6
cat_threshold=164102144 572588033 32 67108864 2160590912 8
shrinkage=0.3


Tree=11
num_leaves=7
num_cat=2
split_feature=4 7 3 3 1 1
split_gain=6.49496 1.78513 0.699076 0.432094 0.0517144 0.0345859
threshold=3405.0000000000005 3635.5000000000005 0 1 20.500000000000004 1.5000000000000002
decision_type=2 2 5 5 2 2
left_child=1 4 -2 -3 5 -1
right_child=2 3 -4 -5 -6 -7
leaf_value=-0 -0 0 0.022343594319033801 -0.021770300866670252 -0 0.0039488474870609204
leaf_count=74 103 103 867 1289 86 433
internal_value=0 -0.0511295 0.0687064 -0.0690781 0.00790965 0.0113237
internal_count=2955 1985 970 1392 593 507
cat_boundaries=0 2 6
cat_threshold=80 2621512 37748736 524320 32 67108864
shrinkage=0.3


Tree=12
num_leaves=5
num_cat=2
split_feature=5 3 4 4
split_gain=21.4708 2.09872 0.0868804 0.00916312
threshold=0 1 8245.0000000000018 2545.0000000000005
decision_type=5 5 2 2
left_child=-1 3 -3 -2
right_child=1 2 -4 -5
leaf_value=0.037525738723374662 -0 -0.032289421472323027 -0 0.0017567155039120066
leaf_count=728 131 1847 153 96
internal_value=0 -0.092448 -0.105101 0.00460457
internal_count=2955 2227 2000 227
cat_boundaries=0 13 20
cat_threshold=8388616 69518857 1073750176 256 4 1077936128 65536 4096 0 0 0 0 1073741888 419495944 539033600 0 2048 0 0 1
shrinkage=0.3


Tree=13
num_leaves=6
num_cat=2
split_feature=7 4 3 3 6
split_gain=5.3549 1.53008 0.708428 0.485 0.133536
threshold=3635.5000000000005 2545.0000000000005 0 1 13.500000000000002
decision_type=2 2 5 5 2
left_child=3 2 -2 -1 -3
right_child=1 4 -4 -5 -6
leaf_value=-0 0.00010235872585244972 0.0054064865606888914 -0.017460454153272822 0.026095416980610339 -0
leaf_count=220 106 500 1118 929 82
internal_value=0 -0.0292834 -0.0505838 0.0829832 0.0124909
internal_count=2955 1806 1224 1149 582
cat_boundaries=0 4 6
cat_threshold=20976128 2621440 0 67108864 32808 16777290
shrinkage=0.3


Tree=14
num_leaves=5
num_cat=2
split_feature=5 7 1 5
split_gain=18.1818 0.519868 0.501588 0.0272083
threshold=0 2206.0000000000005 1.0000000180025095e-35 1
decision_type=5 2 2 5
left_child=2 -2 -1 -4
right_child=1 -3 3 -5
leaf_value=-0 0 -0.028686775333327263 0 0.034343265345568627
leaf_count=153 116 2007 106 573
internal_value=0 -0.0910647 0.109103 0.1141
internal_count=2955 2123 832 679
cat_boundaries=0 13 16
cat_threshold=2160066608 639903240 33554848 256 260 1077936128 65536 4096 0 0 0 0 1073741888 0 570687488 160
shrinkage=0.3


Tree=15
num_leaves=4
num_cat=2
split_feature=5 3 7
split_gain=18.1971 2.01714 0.755781
threshold=0 1 2902.5000000000005
decision_type=5 5 2
left_child=-1 -2 -3
right_child=1 2 -4
leaf_value=0.039477704301930663 0.0022667908653519657 0 -0.027693799094942691
leaf_count=778 227 280 1670
internal_value=0 -0.0706589 -0.0852876
internal_count=2955 2177 1950
cat_boundaries=0 13 17
cat_threshold=2428764176 774112258 128 0 4 1073741824 65536 4096 0 0 0 0 1073741888 134287368 572522496 131328 16
shrinkage=0.3


Tree=16
num_leaves=5
num_cat=2
split_feature=5 3 4 0
split_gain=18.2385 1.92224 0.51033 0.0318794
threshold=0 1 7015.0000000000009 1.5000000000000002
decision_type=5 5 2 2
left_child=-1 3 -3 -2
right_child=1 2 -4 -5
leaf_value=0.039202377877217719 -0 -0.02730024180344889 0 0.0028252668045347655
leaf_count=908 99 1645 179 124
internal_value=0 -0.0717666 -0.0859241 0.00669074
internal_count=2955 2047 1824 223
cat_boundaries=0 13 17
cat_threshold=2160853044 67151361 1073742240 256 32772 1073741824 65536 4096 0 0 0 0 1073741888 151060488 572588032 32 16
shrinkage=0.3


Tree=17
num_leaves=5
num_cat=2
split_feature=5 7 3 1
split_gain=16.7796 1.98626 1.3411 0.000691848
threshold=0 2723.5000000000005 1 2.5000000000000004
decision_type=5 2 5 2
left_child=-1 -2 3 -3
right_child=1 2 -4 -5
leaf_value=0.033638387532226942 0.0014624617410180138 -0 -0.030666670027593174 0.00029007254815381948
leaf_count=600 256 102 1890 107
internal_value=0 -0.0804455 -0.0943634 0.000128912
internal_count=2955 2355 2099 209
cat_boundaries=0 13 20
cat_threshold=262176 69469184 33554560 0 4 1073741824 65536 4096 0 0 0 0 1073741888 172101632 539033792 0 0 0 0 4
shrinkage=0.3


Tree=18
num_leaves=8
num_cat=0
split_feature=4 6 1 6 4 6 4
split_gain=7.01948 0.792332 0.490928 0.359235 0.178404 0.0173796 0.00059846
threshold=2475.0000000000005 4.5000000000000009 1.5000000000000002 56.500000000000007 565.00000000000011 18.500000000000004 535.00000000000011
decision_type=2 2 2 2 2 2 2
left_child=1 4 -2 -4 6 -3 -1
right_child=2 5 3 -5 -6 -7 -8
leaf_value=-6.7068285488600617e-06 -0 0.0014335332170100823 0.024645856294975513 -0 -0.018592278368996951 -0 0.00026689543021901071
leaf_count=163 196 212 1026 98 1057 75 128
internal_value=0 -0.0501837 0.0746808 0.0790958 -0.0592921 0.000309021 0
internal_count=2955 1635 1320 1124 1348 287 291
shrinkage=0.3


Tree=19
num_leaves=5
num_cat=2
split_feature=5 3 7 7
split_gain=12.2207 0.852287 0.12581 0.00130509
threshold=0 1 2810.5000000000005 3570.5000000000005
decision_type=5 5 2 2
left_child=-1 3 -3 -2
right_child=1 2 -4 -5
leaf_value=0.029602985316427181 0.00039499938006883566 -0 -0.022771231804745017 -0
leaf_count=716 94 216 1777 152
internal_value=0 -0.0655755 -0.0732334 0
internal_count=2955 2239 1993 246
cat_boundaries=0 13 17
cat_threshold=33558672 774130691 384 268435456 4 1077936128 65536 4096 0 268435456 0 0 1073741888 34111496 536936448 288 16
shrinkage=0.3


Tree=20
num_leaves=6
num_cat=3
split_feature=5 4 3 1 3
split_gain=11.2124 1.2024 0.59449 0.0757281 0.0750589
threshold=0 4220.0000000000009 1 1.0000000180025095e-35 2
decision_type=5 2 5 2 5
left_child=3 2 -2 -1 -3
right_child=1 4 -4 -5 -6
leaf_value=0 0 -0 -0.021141522522935035 0.032744102443986782 0.003073756301042264
leaf_count=113 108 102 1625 665 342
internal_value=0 -0.0524967 -0.0655666 0.106678 0.00313616
internal_count=2955 2177 1733 778 444
cat_boundaries=0 13 20 22
cat_threshold=2148270112 603983360 33554592 256 32772 1073741824 65536 4096 0 0 0 0 1073741888 155320320 0 32 16 0 0 5 48 1
shrinkage=0.3


Tree=21
num_leaves=4
num_cat=1
split_feature=5 7 1
split_gain=13.4921 1.05275 0.120601
threshold=0 2206.0000000000005 1.0000000180025095e-35
decision_type=5 2 2
left_child=2 -2 -1
right_child=1 -3 -4
leaf_value=-0 4.6404041369641502e-05 -0.02410653119203875 0.030967061408104953
leaf_count=83 126 2113 633
internal_value=0 -0.0716841 0.100801
internal_count=2955 2239 716
cat_boundaries=0 13
cat_threshold=2152334356 604277760 8576 0 33540 4194304 65536 4096 0 0 0 0 1073741888
shrinkage=0.3


Tree=22
num_leaves=8
num_cat=0
split_feature=4 6 6 4 6 7 0
split_gain=4.21063 0.915434 0.363583 0.264878 0.0818258 0.0605832 0.007227
threshold=3095.0000000000005 4.5000000000000009 54.500000000000007 315.00000000000006 26.500000000000004 4020.5000000000005 45.500000000000007
decision_type=2 2 2 2 2 2 2
left_child=1 3 6 -1 5 -3 -2
right_child=2 4 -4 -5 -6 -7 -8
leaf_value=0 0.017408837290915042 0.0041667771588495212 -0 -0.017321196190742436 -0 -0 0
leaf_count=102 878 239 97 1383 83 75 98
internal_value=0 -0.0433124 0.0533986 -0.0547498 0.00269543 0.010631 0.0575229
internal_count=2955 1882 1073 1485 397 314 976
shrinkage=0.3


Tree=23
num_leaves=8
num_cat=2
split_feature=4 3 3 1 6 1 4
split_gain=4.66945 1.23936 0.722677 0.140507 0.124983 0.0891826 0.0636672
threshold=2475.0000000000005 0 1 1.0000000180025095e-35 54.500000000000007 1.5000000000000002 275.00000000000006
decision_type=2 5 5 2 2 2 2
left_child=1 5 -2 -4 -5 -1 -3
right_child=2 6 3 4 -6 -7 -8
leaf_value=-0 -0 0 -0 0.021970931453813836 -0 0.0040433009767857526 -0.016559569153428051
leaf_count=154 100 71 84 1062 91 187 1206
internal_value=0 -0.0382838 0.0635608 0.0696196 0.0718214 0.0078691 -0.0536956
internal_count=2955 1618 1337 1237 1153 341 1277
cat_boundaries=0 4 9
cat_threshold=423862792 34144256 32 67108864 67113024 536870976 256 16 32
shrinkage=0.3


Tree=24
num_leaves=7
num_cat=2
split_feature=4 3 3 0 4 0
split_gain=4.31879 1.27418 0.769461 0.290463 0.01576 0.0021136
threshold=2035.0000000000002 0 1 79.500000000000014 1275.0000000000002 13.500000000000002
decision_type=2 5 5 2 2 2
left_child=1 4 5 -4 -1 -2
right_child=2 -3 3 -5 -6 -7
leaf_value=0.0023721901720161667 -0.00052438701724745029 -0.018348766054273942 0.018692648523276824 -0 -0 0
leaf_count=149 148 1214 1234 77 65 68
internal_value=0 -0.0475651 0.0504982 0.0586625 0.0063506 -0.000513372
internal_count=2955 1428 1527 1311 214 216
cat_boundaries=0 4 9
cat_threshold=164245504 2162688 32 67108880 71303744 1075904584 8240 0 32
shrinkage=0.3


Tree=25
num_leaves=5
num_cat=2
split_feature=5 3 4 4
split_gain=11.7014 1.60297 0.610099 0.00991994
threshold=0 1 8245.0000000000018 1385.0000000000002
decision_type=5 5 2 2
left_child=-1 3 -3 -2
right_child=1 2 -4 -5
leaf_value=0.03179544020969672 -0 -0.022932661058214256 0 0.0023610856413218231
leaf_count=605 120 1843 170 217
internal_value=0 -0.0559445 -0.0703688 0.0068634
internal_count=2955 2350 2013 337
cat_boundaries=0 13 20
cat_threshold=8388624 637822466 128 4194304 4 4194304 65536 4096 0 0 0 0 1073741888 465715208 536936448 32 2065 0 0 2
shrinkage=0.3


Tree=26
num_leaves=6
num_cat=3
split_feature=5 3 4 1 3
split_gain=10.0737 1.61336 0.428979 0.133865 0.0545693
threshold=0 1 435.00000000000006 1.5000000000000002 2
decision_type=5 5 2 2 5
left_child=-1 3 -3 -2 -5
right_child=1 2 -4 4 -6
leaf_value=0.027740609904542673 -6.3243461584034847e-05 0 -0.022843483193750076 -0 0.0050396250518064643
leaf_count=766 150 73 1650 100 216
internal_value=0 -0.0568563 -0.0718922 0.00614269 0.0145596
internal_count=2955 2189 1723 466 316
cat_boundaries=0 13 20 22
cat_threshold=2189955084 67111946 1073750016 16384 32772 4194304 65536 4096 0 0 0 0 1073741888 209797256 589381634 288 16 0 0 2 81920 16777216
shrinkage=0.3


Tree=27
num_leaves=4
num_cat=2
split_feature=5 3 4
split_gain=14.9328 0.658142 0.00375747
threshold=0 1 2545.0000000000005
decision_type=5 5 2
left_child=-1 2 -2
right_child=1 -3 -4
leaf_value=0.032564227890011004 -0 -0.023727017779605532 0.00066942896401990396
leaf_count=698 120 2035 102
internal_value=0 -0.0732512 0
internal_count=2955 2257 222
cat_boundaries=0 13 16
cat_threshold=268439576 69231619 384 4194304 4 1073741824 65536 4096 0 0 0 0 1073741888 318963712 1612709888 134218032
shrinkage=0.3


Tree=28
num_leaves=8
num_cat=2
split_feature=5 7 7 3 1 0 1
split_gain=9.6614 1.2691 0.565995 0.363358 0.152936 0.0326441 0.00436358
threshold=0 2983.5000000000005 4385.5000000000009 1 51.500000000000007 10.500000000000002 2.5000000000000004
decision_type=5 2 2 5 2 2 2
left_child=-1 5 3 -3 -5 -2 -4
right_child=1 2 6 4 -6 -7 -8
leaf_value=0.027114684104096894 0.0022579697605825005 0 -0 -0.023792722449082735 0 -0 0.0007234794012390425
leaf_count=793 155 103 279 1336 65 151 73
internal_value=0 -0.0559293 -0.068617 -0.0742584 -0.0769907 0.00365511 0
internal_count=2955 2162 1856 1504 1401 306 352
cat_boundaries=0 13 15
cat_threshold=2148356244 67405313 33554560 268435456 772 0 65536 4096 0 0 0 0 1073741888 134234184 33554432
shrinkage=0.3


Tree=29
num_leaves=6
num_cat=1
split_feature=5 7 7 4 4
split_gain=9.48128 1.09931 0.589784 0.0554026 0.00592504
threshold=0 2933.5000000000005 4360.5000000000009 2415.0000000000005 315.00000000000006
decision_type=5 2 2 2 2
left_child=-1 -2 -3 4 -4
right_child=1 2 3 -5 -6
leaf_value=0.029161245219919221 0.0010516658094842212 -0.020269281036181992 0 0.0023830166270370472 -0.0012840862681996821
leaf_count=712 311 1506 90 71 265
internal_value=0 -0.0489412 -0.0611443 0 -0.00323438
internal_count=2955 2243 1932 426 355
cat_boundaries=0 13
cat_threshold=262280 604243456 416 0 292 0 65536 4096 0 0 0 0 1073741888
shrinkage=0.3


Tree=30
num_leaves=7
num_cat=3
split_feature=5 3 1 5 1 4
split_gain=7.49596 1.0034 0.204538 0.17133 0.0875611 0.045765
threshold=0 1 67.500000000000014 2 1.0000000180025095e-35 435.00000000000006
decision_type=5 5 2 5 2 2
left_child=-1 4 3 -3 -2 -5
right_child=1 2 -4 5 -6 -7
leaf_value=0.028544598367547962 -0 0 0 0 0.0035755633079028468 -0.016871612278044242
leaf_count=743 93 109 77 64 361 1508
internal_value=0 -0.0368425 -0.0501764 -0.0531711 0.00536081 -0.054981
internal_count=2955 2212 1758 1681 454 1572
cat_boundaries=0 13 20 24
cat_threshold=269029384 637820931 384 0 32772 1077936128 65536 4096 0 268435456 0 0 1073741888 147921024 33554432 272 2064 0 0 1 4 2097664 32 4194304
shrinkage=0.3


Tree=31
num_leaves=5
num_cat=4
split_feature=5 3 5 3
split_gain=8.86709 1.44529 0.0424065 0.0334227
threshold=0 1 2 3
decision_type=5 5 5 5
left_child=3 -2 -3 -1
right_child=1 2 -4 -5
leaf_value=0 0.0021471569086438649 0 -0.01947551069456329 0.028211124349685847
leaf_count=105 346 134 1521 849
internal_value=0 -0.0486432 -0.0636073 0.0925068
internal_count=2955 2001 1655 954
cat_boundaries=0 13 17 23 25
cat_threshold=307053588 637552137 33554464 4194304 5 1073741824 65536 4096 0 0 0 0 1073741888 419495944 589299849 256 16 2147483808 2 0 0 0 4194304 67665920 2686984
shrinkage=0.3


Tree=32
num_leaves=7
num_cat=3
split_feature=5 3 1 1 5 1
split_gain=11.3186 0.789041 0.142984 0.0654388 0.0695127 0.0346759
threshold=0 1 1.0000000180025095e-35 67.500000000000014 2 2.5000000000000004
decision_type=5 5 2 2 5 2
left_child=2 5 -1 4 -3 -2
right_child=1 3 -4 -5 -6 -7
leaf_value=-0 -5.9650897346361957e-05 0 0.029080738321965879 0 -0.02218940042369193 0.0020205989016736565
leaf_count=129 146 119 547 85 1735 194
internal_value=0 -0.0639929 0.0941826 -0.0717284 -0.0733591 0
internal_count=2955 2279 676 1939 1854 340
cat_boundaries=0 13 16 17
cat_threshold=33559568 134252034 1073815968 4096 5 1073741824 65536 4096 0 0 0 0 1073741888 197132936 539033600 2305 786432
shrinkage=0.3


Tree=33
num_leaves=6
num_cat=2
split_feature=5 3 4 4 4
split_gain=10.5074 1.4397 0.157332 0.0448347 0.00102334
threshold=0 1 605.00000000000011 2805.0000000000005 1055.0000000000002
decision_type=5 5 2 2 2
left_child=-1 3 -3 4 -2
right_child=1 2 -4 -5 -6
leaf_value=0.031669622800886921 0 0 -0.020056284327367176 0.0031412856157957115 -0.00034945811401115309
leaf_count=834 99 217 1556 119 130
internal_value=0 -0.0494755 -0.064161 0.00691747 -0
internal_count=2955 2121 1773 348 229
cat_boundaries=0 13 17
cat_threshold=2152267798 69518595 384 4210688 261 0 65536 4096 0 0 0 0 1073741888 159629320 570425344 256 16
shrinkage=0.3


Tree=34
num_leaves=7
num_cat=2
split_feature=5 7 3 1 4 4
split_gain=8.3408 0.790597 0.373592 0.160168 0.00284896 0.000614916
threshold=0 2723.5000000000005 1 1.0000000180025095e-35 1125.0000000000002 7015.0000000000009
decision_type=5 2 5 2 2 2
left_child=3 5 4 -1 -3 -2
right_child=1 2 -4 -5 -6 -7
leaf_value=-0 -0 -0 -0.019434951063447989 0.02586210639609968 0.00058035413438660324 0.0002711507777227555
leaf_count=84 174 92 1840 493 195 77
internal_value=0 -0.0521842 -0.0609983 0.0836325 0 0
internal_count=2955 2378 2127 577 287 251
cat_boundaries=0 13 17
cat_threshold=0 100673024 1073742208 4194304 32804 1077936128 65536 4096 0 268435456 0 0 1073741888 152080384 536871040 32 2048
shrinkage=0.3


Tree=35
num_leaves=6
num_cat=2
split_feature=5 3 1 7 1
split_gain=8.7539 1.30594 0.794671 0.495948 0.0428464
threshold=0 1 1.0000000180025095e-35 1972.5000000000002 2.5000000000000004
decision_type=5 5 2 2 2
left_child=2 4 -1 -3 -2
right_child=1 3 -4 -5 -6
leaf_value=-0 -0 0 0.029638903664942901 -0.020197809327759813 0.0029025926154356159
leaf_count=185 126 75 661 1712 196
internal_value=0 -0.0483749 0.0918578 -0.0620722 0.00600674
internal_count=2955 2109 846 1787 322
cat_boundaries=0 13 16
cat_threshold=273488896 69500938 384 268451840 36 0 65536 4096 0 0 0 0 1073741888 63049736 536952833 304
shrinkage=0.3


Tree=36
num_leaves=8
num_cat=1
split_feature=3 4 1 1 4 4 4
split_gain=2.73443 0.769205 0.176797 0.026166 0.0528848 0.038258 1.71854e-05
threshold=0 2035.0000000000002 18.500000000000004 2.5000000000000004 595.00000000000011 1675.0000000000002 275.00000000000006
decision_type=5 2 2 2 2 2 2
left_child=2 3 -1 4 6 -5 -2
right_child=1 -3 -4 5 -6 -7 -8
leaf_value=-0.0087938164285261012 -0 0.019291579578943608 0 0.002117421410070069 -0.0030319206717944976 -0 4.5305111131069876e-05
leaf_count=816 62 1007 203 305 377 67 118
internal_value=0 0.0539327 -0.0246913 -0 -0.00574247 0.000491697 0
internal_count=2955 1936 1019 929 557 372 180
cat_boundaries=0 7
cat_threshold=2215645920 2097736 135528725 2356 32 4 4
shrinkage=0.3


Tree=37
num_leaves=4
num_cat=2
split_feature=5 3 1
split_gain=7.74614 1.08846 0.131249
threshold=0 1 2.5000000000000004
decision_type=5 5 2
left_child=-1 2 -2
right_child=1 -3 -4
leaf_value=0.024296248682461614 -0.00050638587354203009 -0.018438466657439655 0.0040512896874827465
leaf_count=807 111 1836 201
internal_value=0 -0.0499031 0.00361227
internal_count=2955 2148 312
cat_boundaries=0 13 16
cat_threshold=12585098 134482441 33563040 4199168 5 1077936128 65536 4096 0 0 0 0 1073741888 188768256 35651616 32
shrinkage=0.3


Tree=38
num_leaves=7
num_cat=2
split_feature=5 3 7 7 7 7
split_gain=8.3261 0.915499 0.242141 0.0994663 0.0898016 0.000851061
threshold=0 1 4467.5000000000009 1972.5000000000002 3378.0000000000005 4217.5000000000009
decision_type=5 5 2 2 2 2
left_child=-1 4 3 -3 -2 -6
right_child=1 2 -4 -5 5 -7
leaf_value=0.025312364125745033 0.0032941452712767542 0 0 -0.01973372064618972 -0.00044984222762094184 0
leaf_count=742 107 62 165 1664 133 82
internal_value=0 -0.0514788 -0.0613802 -0.0646558 0.00160867 -0.00105414
internal_count=2955 2213 1891 1726 322 215
cat_boundaries=0 13 16
cat_threshold=2193623208 2124800 1073815712 0 4 1073741824 65536 0 0 0 0 0 1073741888 419520512 2179072 1
shrinkage=0.3


Tree=39
num_leaves=8
num_cat=0
split_feature=4 6 7 7 4 0 6
split_gain=2.59961 0.758512 0.613953 0.247896 0.0470211 0.00086749 0.00299824
threshold=2035.0000000000002 13.500000000000002 3570.5000000000005 4556.5000000000009 1605.0000000000002 5.5000000000000009 59.500000000000007
decision_type=2 2 2 2 2 2 2
left_child=2 -2 4 -4 -1 -3 -7
right_child=1 5 3 -5 -6 6 -8
leaf_value=0.0027021341332245825 0.018687628364448539 0 -0.012003907438709585 0 -0 -0.00066859902773112065 0
leaf_count=246 1103 63 1049 62 76 280 76
internal_value=0 0.0532957 -0.0234897 -0.0359519 0.00442395 -0 -0.00104969
internal_count=2955 1522 1433 1111 322 419 356
shrinkage=0.3


Tree=40
num_leaves=7
num_cat=2
split_feature=7 3 3 0 1 4
split_gain=2.97966 1.25232 0.77245 0.269178 0.174955 0.108628
threshold=3635.5000000000005 0 1 80.500000000000014 32.500000000000007 345.00000000000006
decision_type=2 5 5 2 2 2
left_child=2 -2 -1 -4 5 -3
right_child=1 4 3 -5 -6 -7
leaf_value=-0.00025005921763964335 0.0029623958004398126 0 0.018384560754147985 -0 0 -0.015937315297305406
leaf_count=210 360 88 892 62 81 1262
internal_value=0 -0.032004 0.0489645 0.0577 -0.0488484 -0.0516938
internal_count=2955 1791 1164 954 1431 1350
cat_boundaries=0 7 10
cat_threshold=55709696 554172481 32 67108864 0 0 1 84971584 570949768 256
shrinkage=0.3


Tree=41
num_leaves=4
num_cat=2
split_feature=5 3 1
split_gain=8.27334 1.31428 0.152223
threshold=0 1 1.0000000180025095e-35
decision_type=5 5 2
left_child=-1 2 -2
right_child=1 -3 -4
leaf_value=0.025781923745420449 -0.00049442262336766359 -0.019095919997516447 0.0044466678984865383
leaf_count=811 102 1667 375
internal_value=0 -0.0496534 0.00515842
internal_count=2955 2144 477
cat_boundaries=0 13 20
cat_threshold=8669366 606601984 32 16384 33285 4194304 65536 0 0 268435456 0 0 1073741888 478752776 555810880 288 0 32 0 4
shrinkage=0.3


Tree=42
num_leaves=8
num_cat=2
split_feature=7 3 3 1 0 7 1
split_gain=3.03554 0.7659 0.698352 0.451278 0.335098 0.173133 0.0109592
threshold=3635.5000000000005 0 1 29.500000000000004 36.500000000000007 4543.5000000000009 1.0000000180025095e-35
decision_type=2 5 5 2 2 2 2
left_child=2 6 -1 5 -4 -3 -2
right_child=1 3 4 -5 -6 -7 -8
leaf_value=-0 -0 -0.015386020102963338 0.019076448477905773 0 -0 0 0.0017852692032646249
leaf_count=217 114 1258 787 104 148 74 253
internal_value=0 -0.030521 0.051338 -0.0425631 0.0589888 -0.049074 0.00451509
internal_count=2955 1803 1152 1436 935 1332 367
cat_boundaries=0 3 7
cat_threshold=55250952 1126170627 32 5816384 16777352 0 16
shrinkage=0.3


Tree=43
num_leaves=9
num_cat=1
split_feature=3 1 6 7 7 4 4 4
split_gain=2.62968 1.82505 0.144553 0.0647457 0.0641316 0.109818 0.00843726 0.014371
threshold=0 1.0000000180025095e-35 56.500000000000007 2572.0000000000005 4335.5000000000009 675.00000000000011 2215.0000000000005 1675.0000000000002
decision_type=5 2 2 2 2 2 2 2
left_child=3 -2 6 -1 5 -5 7 -3
right_child=1 2 -4 4 -6 -7 -8 -9
leaf_value=0 -0.00297318513272995 0.0012098019136462196 -0 0 0 -0.0096878022253182542 0.021435407592053569 -0.00042454670331880493
leaf_count=72 401 540 70 71 204 577 855 165
internal_value=0 0.0501255 0.0674845 -0.0264332 -0.02832 -0.0299866 0.0689152 0
internal_count=2955 2031 1630 924 852 648 1560 705
cat_boundaries=0 7
cat_threshold=612373088 1611202634 143656977 2836 32 4 4
shrinkage=0.3


Tree=44
num_leaves=6
num_cat=0
split_feature=1 0 1 0 1
split_gain=1.45809 1.01543 0.224049 0.151771 0.0230526
threshold=1.0000000180025095e-35 30.500000000000004 36.500000000000007 1.5000000000000002 97.500000000000014
decision_type=2 2 2 2 2
left_child=3 2 -2 -1 -3
right_child=1 4 -4 -5 -6
leaf_value=-0.0060969013965509918 0.017328541900352046 -0.0020085639817703318 -0 0 0
leaf_count=547 1946 212 96 67 87
internal_value=0 0.04405 0.0553193 -0.0147718 -0.0038214
internal_count=2955 2341 2042 614 299
shrinkage=0.3


Tree=45
num_leaves=6
num_cat=0
split_feature=1 6 4 7 4
split_gain=2.61187 0.341579 0.313643 0.0478869 0.0443218
threshold=2.5000000000000004 33.500000000000007 4220.0000000000009 3625.0000000000005 595.00000000000011
decision_type=2 2 2 2 2
left_child=2 4 3 -1 -2
right_child=1 -3 -4 -5 -6
leaf_value=0 -0 -0 0 -0.0095821277302448257 0.017423558570664188
leaf_count=170 64 202 89 983 1447
internal_value=0 0.0534838 -0.0236801 -0.0307012 0.0574914
internal_count=2955 1713 1242 1153 1511
shrinkage=0.3


Tree=46
num_leaves=6
num_cat=2
split_feature=3 1 6 1 3
split_gain=2.12172 0.600282 0.296829 0.173824 0.215177
threshold=0 1.0000000180025095e-35 50.500000000000007 75.500000000000014 1
decision_type=5 2 2 2 5
left_child=1 -1 -3 4 -2
right_child=3 2 -4 -5 -6
leaf_value=-5.1615757704050049e-05 0 0.015672367319722717 -0 0 -0.01079913938629954
leaf_count=221 489 879 62 68 1236
internal_value=0 0.0398292 0.0485837 -0.028061 -0.0316829
internal_count=2955 1162 941 1793 1725
cat_boundaries=0 4 7
cat_threshold=161198720 1663123489 134226208 67110913 67110944 2 17
shrinkage=0.3


Tree=47
num_leaves=7
num_cat=0
split_feature=7 4 0 7 4 7
split_gain=3.64672 0.815687 0.367416 0.232132 0.0520509 0.000411793
threshold=3648.5000000000005 3605.0000000000005 80.500000000000014 4552.5000000000009 7255.0000000000009 3903.5000000000005
decision_type=2 2 2 2 2 2
left_child=2 3 -1 -2 5 -3
right_child=1 4 -4 -5 -6 -7
leaf_value=0.017753614891409638 -0.014931561644633117 0 -0 0 -0 0.0027116933739789882
leaf_count=1111 1347 64 83 70 110 170
internal_value=0 -0.0344934 0.0552144 -0.0467915 0.00357293 0.00896651
internal_count=2955 1761 1194 1417 344 234
shrinkage=0.3


Tree=48
num_leaves=4
num_cat=1
split_feature=5 4 4
split_gain=6.34316 0.621277 0.173364
threshold=0 6170.0000000000009 345.00000000000006
decision_type=5 2 2
left_child=-1 2 -2
right_child=1 -3 -4
leaf_value=0.022900623648094184 0 0 -0.015897715280450905
leaf_count=815 93 296 1751
internal_value=0 -0.0423019 -0.0509032
internal_count=2955 2140 1844
cat_boundaries=0 13
cat_threshold=302909600 674004993 1073741952 524544 20 4194304 65536 4096 0 0 0 0 1073741888
shrinkage=0.3


Tree=49
num_leaves=8
num_cat=3
split_feature=5 3 3 7 1 7 1
split_gain=6.35217 1.26237 0.537959 0.248689 0.137465 0.137426 0.0672826
threshold=0 1 2 4543.5000000000009 62.500000000000007 2206.0000000000005 1.0000000180025095e-35
decision_type=5 5 5 2 2 2 2
left_child=2 6 -1 4 5 -3 -2
right_child=1 3 -4 -5 -6 -7 -8
leaf_value=-0 -0 0 0.02278994696299997 0 0 -0.020090816267922453 0.0033053254615392305
leaf_count=120 63 80 578 65 105 1684 260
internal_value=0 -0.0476868 0.0706183 -0.0608371 -0.0638384 -0.0654492 0.00575044
internal_count=2955 2257 698 1934 1869 1764 323
cat_boundaries=0 13 20 22
cat_threshold=2181234694 67166465 288 272629760 516 0 0 4096 0 0 0 0 1073741888 478810112 1660944386 256 2048 0 0 5 68173840 8
shrinkage=0.3


Tree=50
num_leaves=7
num_cat=2
split_feature=3 1 6 7 3 7
split_gain=2.40293 1.57659 0.441179 0.0763714 0.0283356 0.00048757
threshold=0 1.0000000180025095e-35 51.500000000000007 3334.5000000000005 1 4355.5000000000009
decision_type=5 2 2 2 5 2
left_child=3 5 -3 -1 -5 -2
right_child=1 2 -4 4 -6 -7
leaf_value=0 -0.0020795034517636654 0.021597515526717855 -0 0 -0.0074949348681652966 -0
leaf_count=204 253 1652 94 107 398 247
internal_value=0 0.0532145 0.0682096 -0.0215705 -0.0242589 -0.0068008
internal_count=2955 2246 1746 709 505 500
cat_boundaries=0 7 9
cat_threshold=2852663368 1109918282 143917072 532 32 20 4 34082816 1073741826
shrinkage=0.3


Tree=51
num_leaves=6
num_cat=0
split_feature=7 7 6 7 1
split_gain=2.85769 1.05133 0.275826 0.125622 0.0531178
threshold=3635.5000000000005 4335.5000000000009 32.500000000000007 4495.5000000000009 20.500000000000004
decision_type=2 2 2 2 2
left_child=2 4 -1 -3 -2
right_child=1 3 -4 -5 -6
leaf_value=0.015304049051345348 -0.01459331460018401 0.0043735475022438561 -0 -0 0
leaf_count=981 1098 398 182 159 137
internal_value=0 -0.0319601 0.0471954 0.00708132 -0.0475088
internal_count=2955 1792 1163 557 1235
shrinkage=0.3


Tree=52
num_leaves=9
num_cat=1
split_feature=5 7 7 1 4 1 4 4
split_gain=6.3864 1.11705 0.580027 0.345799 0.0153156 0.00744411 0.00422596 0.000839776
threshold=0 2540.5000000000005 4405.5000000000009 66.500000000000014 1965.0000000000002 43.500000000000007 11005.000000000002 375.00000000000006
decision_type=5 2 2 2 2 2 2 2
left_child=-1 5 3 6 7 -2 -3 -4
right_child=1 2 4 -5 -6 -7 -8 -9
leaf_value=0.02070607602627839 0.001466631597701753 -0.021252518378489179 0 0 0.0013560536978868554 -0 -0 -0.00031621230445660816
leaf_count=575 141 1714 67 82 63 74 74 165
internal_value=0 -0.0499145 -0.0615904 -0.0672735 0 0.00373273 -0.0704087 -0
internal_count=2955 2380 2165 1870 295 215 1788 232
cat_boundaries=0 13
cat_threshold=8390672 136323867 384 4195072 21 4194304 0 0 0 0 0 0 1073741888
shrinkage=0.3


Tree=53
num_leaves=6
num_cat=0
split_feature=7 4 4 6 7
split_gain=2.44874 1.11652 0.188191 0.110557 0.0686834
threshold=3696.5000000000005 3835.0000000000005 315.00000000000006 46.500000000000007 3868.5000000000005
decision_type=2 2 2 2 2
left_child=3 2 -2 -1 -3
right_child=1 4 -4 -5 -6
leaf_value=0.013869021506920896 0 -0 -0.01449833031483911 -0 0.0039575535740451724
leaf_count=1123 120 68 1294 113 237
internal_value=0 -0.0286649 -0.0456945 0.044525 0.00918791
internal_count=2955 1719 1414 1236 305
shrinkage=0.3


Tree=54
num_leaves=9
num_cat=0
split_feature=7 7 6 0 4 7 6 7
split_gain=1.98248 0.597973 0.338637 0.248082 0.166856 0.0515025 0.0227759 0.00465243
threshold=3635.5000000000005 4355.5000000000009 50.500000000000007 51.500000000000007 9335.0000000000018 4492.5000000000009 1.0000000180025095e-35 4552.5000000000009
decision_type=2 2 2 2 2 2 2 2
left_child=2 4 3 6 -2 -3 -1 -7
right_child=1 5 -4 -5 -6 7 -8 -9
leaf_value=0 -0.012763118321689219 0.0025247190276553024 -0 -0 0 -0.00074644392425850725 0.013969255289747382 0
leaf_count=219 1215 355 114 67 74 104 741 66
internal_value=0 -0.0292519 0.0369773 0.0421616 -0.0399123 0.00205141 0.0456521 -0
internal_count=2955 1814 1141 1027 1289 525 960 170
shrinkage=0.3


Tree=55
num_leaves=8
num_cat=1
split_feature=5 4 1 4 1 0 0
split_gain=5.82927 0.618319 0.217313 0.104364 0.0848723 0.0321814 0.00304649
threshold=0 4220.0000000000009 35.500000000000007 315.00000000000006 1.0000000180025095e-35 30.500000000000004 6.5000000000000009
decision_type=5 2 2 2 2 2 2
left_child=4 2 3 -2 -1 6 -3
right_child=1 5 -4 -5 -6 -7 -8
leaf_value=-0 0 -0 0 -0.015371619581018571 0.023728198013753039 -0 0.0020335222602670157
leaf_count=145 71 174 68 1521 651 135 190
internal_value=0 -0.037234 -0.0471166 -0.0498808 0.0769617 0 0.00639459
internal_count=2955 2159 1660 1592 796 499 364
cat_boundaries=0 13
cat_threshold=2424313916 671108105 8192 0 277 0 0 4096 0 0 0 0 1073741888
shrinkage=0.3


Tree=56
num_leaves=12
num_cat=0
split_feature=7 7 6 4 6 4 0 7 7 4 0
split_gain=1.25146 0.337179 0.182101 0.163961 0.131851 0.100912 0.0965268 0.0065809 0.000421303 0.000356981 1.13033e-05
threshold=3570.5000000000005 4355.5000000000009 1.0000000180025095e-35 3865.0000000000005 51.500000000000007 1445.0000000000002 53.500000000000007 4401.5000000000009 4548.0000000000009 6775.0000000000009 2.5000000000000004
decision_type=2 2 2 2 2 2 2 2 2 2 2
left_child=2 3 10 -2 6 7 -4 -3 -9 -5 -1
right_child=1 5 4 9 -6 -7 -8 8 -10 -11 -12
leaf_value=0 -0.0092108065092609999 0 0.012485823175300274 0.00020478609276375687 -0 0.0034256529284919582 -0 -0.0010841223022035257 0 -0 -3.6823001844943499e-05
leaf_count=127 1006 62 726 183 102 179 65 226 62 150 67
internal_value=0 -0.0173711 0.0344193 -0.0265628 0.0377403 0.00121169 0.0399956 -0.00194932 -0.00352396 0 -0
internal_count=2955 1868 1087 1339 893 529 791 350 288 333 194
shrinkage=0.3


Tree=57
num_leaves=8
num_cat=0
split_feature=4 4 6 0 6 6 4
split_gain=1.12331 0.5048 0.605271 0.0813507 0.0591865 0.0539384 0.00706233
threshold=4220.0000000000009 555.00000000000011 4.5000000000000009 38.500000000000007 34.500000000000007 12.500000000000002 245.00000000000003
decision_type=2 2 2 2 2 2 2
left_child=1 6 -3 4 -2 -4 -1
right_child=3 2 5 -5 -6 -7 -8
leaf_value=-0 0.0092716124672563138 -0.012863306016418561 0.0025259582232909504 -0 -0 -0 0.00131690951264535
leaf_count=84 519 1416 279 151 66 237 203
internal_value=0 -0.022698 -0.0327364 0.0274904 0.0295552 0.000978728 0.00314548
internal_count=2955 2219 1932 736 585 516 287
shrinkage=0.3


Tree=58
num_leaves=6
num_cat=1
split_feature=5 4 1 1 4
split_gain=8.34585 0.972176 0.144343 0.011544 0.00979958
threshold=0 6125.0000000000009 1.0000000180025095e-35 7.5000000000000009 12570.000000000002
decision_type=5 2 2 2 2
left_child=2 -2 -1 -3 -5
right_child=1 3 -4 4 -6
leaf_value=-0 -0.02099539080812762 -0 0.023611895509153009 0.0015846536519168932 -0
leaf_count=162 1900 76 565 164 88
internal_value=0 -0.0597713 0.0760313 0 0.00385372
internal_count=2955 2228 727 328 252
cat_boundaries=0 13
cat_threshold=8672416 603979784 33554688 272630016 16777732 4194304 65536 0 0 0 0 0 1073741888
shrinkage=0.3


Tree=59
num_leaves=6
num_cat=2
split_feature=5 7 7 5 4
split_gain=6.60597 0.329449 0.16909 0.332421 0.00149862
threshold=0 4478.5000000000009 2810.5000000000005 1 6025.0000000000009
decision_type=5 2 2 5 2
left_child=-1 2 4 -4 -2
right_child=1 -3 3 -5 -6
leaf_value=0.018169761959511394 -0.00026822097439986044 0 0 -0.020917179381880518 0.0003247139528564724
leaf_count=529 186 181 125 1829 105
internal_value=0 -0.060494 -0.0643639 -0.0669985 0
internal_count=2955 2426 2245 1954 291
cat_boundaries=0 13 16
cat_threshold=4195344 203689481 32 0 5 1073741824 0 0 0 0 0 0 1073741888 22528 37781520 8192
shrinkage=0.3


Tree=60
num_leaves=8
num_cat=0
split_feature=7 1 6 0 7 0 7
split_gain=1.75245 0.418908 0.406889 0.183739 0.161451 0.109774 0.00647589
threshold=3602.0000000000005 20.500000000000004 53.500000000000007 56.500000000000007 4552.5000000000009 1.0000000180025095e-35 4064.5000000000005
decision_type=2 2 2 2 2 2 2
left_child=2 4 3 -1 5 -2 -3
right_child=1 6 -4 -5 -6 -7 -8
leaf_value=0.014430926216506226 0 -0 -0 -0 0 -0.011051130933434039 0.0010322880880239233
leaf_count=935 721 99 85 62 71 905 77
internal_value=0 -0.0218232 0.0399183 0.0455973 -0.0309832 -0.0339182 0.00178916
internal_count=2955 1873 1082 997 1697 1626 176
shrinkage=0.3


Tree=61
num_leaves=4
num_cat=2
split_feature=5 3 1
split_gain=5.92367 1.33256 0.0979569
threshold=0 1 2.5000000000000004
decision_type=5 5 2
left_child=-1 2 -2
right_child=1 -3 -4
leaf_value=0.021637797302092789 -0 -0.017245506094127255 0.0040549340378266668
leaf_count=633 198 1855 269
internal_value=0 -0.0422725 0.00730641
internal_count=2955 2322 467
cat_boundaries=0 13 17
cat_threshold=2147485752 134245632 1073750048 4194560 4 0 65536 0 0 0 0 0 1073741888 156828168 570949634 134226176 16
shrinkage=0.3


Tree=62
num_leaves=10
num_cat=2
split_feature=3 7 4 1 3 1 4 4 0
split_gain=2.34409 0.323917 0.385499 0.202691 0.257957 0.114057 0.0443331 0.0355053 0.00244038
threshold=0 4385.5000000000009 565.00000000000011 62.500000000000007 1 1.0000000180025095e-35 9565.0000000000018 1735.0000000000002 41.500000000000007
decision_type=5 2 2 2 5 2 2 2 2
left_child=5 2 -2 4 -4 -1 -6 -3 -7
right_child=1 7 3 -5 6 8 -8 -9 -10
leaf_value=-0 0 -0 0 0 -0.013870212227663641 0.014756432259313293 0 0.0020655998864048991 0
leaf_count=233 70 192 131 98 1149 859 66 62 95
internal_value=0 -0.0250114 -0.0318867 -0.0381849 -0.0413822 0.0463879 -0.0449055 0 0.0487915
internal_count=2955 1768 1514 1444 1346 1187 1215 254 954
cat_boundaries=0 7 10
cat_threshold=198400656 587792385 289 67108865 0 0 3 0 1073741922 16
shrinkage=0.3


Tree=63
num_leaves=9
num_cat=0
split_feature=1 6 4 4 7 7 1 1
split_gain=0.81387 0.509486 0.141153 0.271509 0.162811 0.0086863 0.000632656 0.00190052
threshold=2.5000000000000004 29.500000000000004 565.00000000000011 4220.0000000000009 4426.5000000000009 4408.5000000000009 94.500000000000014 43.500000000000007
decision_type=2 2 2 2 2 2 2 2
left_child=2 -2 5 4 -4 -1 7 -3
right_child=1 6 3 -5 -6 -7 -8 -9
leaf_value=0.0011334676687251982 0.014347412513284061 0 -0.0081500948531963383 0.00041036438550334835 0 -0 0 -0.00055077027710540363
leaf_count=107 1489 132 759 85 131 123 62 67
internal_value=0 0.0409207 -0.00458921 -0.0138397 -0.0229736 0.00164565 -0 -0.000908032
internal_count=2955 1750 1205 975 890 230 261 199
shrinkage=0.3


Tree=64
num_leaves=3
num_cat=2
split_feature=5 3
split_gain=7.06267 0.784536
threshold=0 1
decision_type=5 5
left_child=-1 -2
right_child=1 -3
leaf_value=0.020572873053658233 0 -0.019317706116460786
leaf_count=837 238 1880
internal_value=0 -0.056374
internal_count=2955 2118
cat_boundaries=0 13 17
cat_threshold=302010426 100704770 131072 4194304 32772 1077936128 65536 4096 0 0 0 0 1073741888 134221832 587202624 2336 16
shrinkage=0.3


Tree=65
num_leaves=9
num_cat=1
split_feature=3 6 6 7 4 4 7 7
split_gain=2.16109 0.371202 0.224917 0.0462211 0.0317608 0.074279 0.0700871 0.000531621
threshold=0 1.0000000180025095e-35 56.500000000000007 2692.5000000000005 2905.0000000000005 555.00000000000011 4422.5000000000009 3789.5000000000005
decision_type=5 2 2 2 2 2 2 2
left_child=3 4 -3 -1 5 -2 -7 -6
right_child=1 2 -4 -5 7 6 -8 -9
leaf_value=0 0 0.014103292004597872 -0 -0.0098663563331158576 -0 -0.004496610245200431 0 0.00062982981597824639
leaf_count=98 123 1156 64 901 64 399 63 87
internal_value=0 0.0373274 0.0440197 -0.0313926 -0 -0.00606669 -0.0115321 0.00191427
internal_count=2955 1956 1220 999 736 585 462 151
cat_boundaries=0 7
cat_threshold=2755662064 1092632712 1310996 564 0 4 6
shrinkage=0.3


Tree=66
num_leaves=8
num_cat=3
split_feature=3 1 7 3 3 4 7
split_gain=1.37926 0.596975 0.0912657 0.0785197 0.0559607 0.0543641 0.0255066
threshold=0 1.5000000000000002 3208.5000000000005 1 2 555.00000000000011 4335.5000000000009
decision_type=5 2 2 5 5 2 2
left_child=2 3 -1 -2 -3 -5 -4
right_child=1 4 6 5 -6 -7 -8
leaf_value=0 0.00035368957516789337 -0 -0.0077953633310254931 0 0.012873594458967316 -0.0039359865376105271 0
leaf_count=172 128 127 413 136 1378 467 134
internal_value=0 0.0322711 -0.0221831 -0.000968126 0.0421243 -0.00990522 -0.0251819
internal_count=2955 2236 719 731 1505 603 547
cat_boundaries=0 7 9 11
cat_threshold=2751639624 1074331786 8593 516 32 20 4 1654784 1 16384 553648192
shrinkage=0.3


Tree=67
num_leaves=8
num_cat=2
split_feature=7 3 3 7 0 4 0
split_gain=2.4395 0.437117 0.387627 0.188973 0.0494239 0.0119445 0.000185442
threshold=3625.0000000000005 0 1 4543.5000000000009 11.500000000000002 1595.0000000000002 2.5000000000000004
decision_type=2 5 5 2 2 2 2
left_child=1 6 5 4 -4 -2 -1
right_child=2 -3 3 -5 -6 -7 -8
leaf_value=0 -0 0.014842807045541665 -0.012350492441105603 0 0 0.0011858599189673818 -0.00014795854595883875
leaf_count=66 206 928 1151 67 186 197 154
internal_value=0 0.0437218 -0.02942 -0.0365441 -0.0399541 0 -0
internal_count=2955 1148 1807 1404 1337 403 220
cat_boundaries=0 3 6
cat_threshold=5242912 536870978 256 37879848 1610612739 32
shrinkage=0.3


Tree=68
num_leaves=10
num_cat=1
split_feature=3 1 6 4 1 4 6 4 1
split_gain=1.57014 0.496664 0.30605 0.195414 0.221633 0.0182437 0.00381613 0.000996261 0.00825247
threshold=0 1.0000000180025095e-35 32.500000000000007 4220.0000000000009 18.500000000000004 565.00000000000011 1.0000000180025095e-35 7555.0000000000009 14.500000000000002
decision_type=5 2 2 2 2 2 2 2 2
left_child=3 6 -3 4 5 -1 -2 8 -5
right_child=1 2 -4 7 -6 -7 -8 -9 -10
leaf_value=0 -0.00067081073744781493 0.01384921079396261 -0 0.0010494390966403154 0 -0.010437612753423411 0 -0 -0
leaf_count=124 298 1214 142 91 99 693 74 149 71
internal_value=0 0.0337031 0.0418008 -0.0245476 -0.029789 -0.0342559 -0 0 0.00114127
internal_count=2955 1728 1356 1227 916 817 372 311 162
cat_boundaries=0 7
cat_threshold=2751595256 1610612841 1050773 2852 32 20 4
shrinkage=0.3


Tree=69
num_leaves=6
num_cat=1
split_feature=5 4 4 4 1
split_gain=3.88612 0.562104 0.0757752 0.0148283 0.0158014
threshold=0 5805.0000000000009 315.00000000000006 17345.000000000004 8.5000000000000018
decision_type=5 2 2 2 2
left_child=-1 2 -2 4 -3
right_child=1 3 -4 -5 -6
leaf_value=0.016923411086773577 0 -0 -0.013861152450696869 -0 0.0018897567047766949
leaf_count=594 84 112 1869 82 214
internal_value=0 -0.0361739 -0.0451167 0 0.00434413
internal_count=2955 2361 1953 408 326
cat_boundaries=0 13
cat_threshold=4391952 38298114 1073741856 16896 16777476 1073741824 0 4096 0 0 0 0 1073741888
shrinkage=0.3


Tree=70
num_leaves=8
num_cat=2
split_feature=5 4 7 7 1 1 5
split_gain=4.4506 0.182279 0.0785541 0.00834079 0.00696098 0.00773491 0.00619134
threshold=0 4220.0000000000009 2723.5000000000005 4087.0000000000005 28.500000000000004 75.500000000000014 1
decision_type=5 2 2 2 2 2 5
left_child=6 2 -2 4 -3 -6 -1
right_child=1 3 -4 -5 5 -7 -8
leaf_value=-0 0 0 -0.014487026770535479 0.00082173317643755722 -0.0014379018835097904 0 0.01716267987944204
leaf_count=116 138 258 1538 97 103 64 641
internal_value=0 -0.0426433 -0.0469352 0 -0.00183598 -0.00355306 0.0564349
internal_count=2955 2198 1676 522 425 167 757
cat_boundaries=0 13 14
cat_threshold=269226160 67374600 1073741824 0 260 1073741824 0 0 0 0 0 0 1073741888 262144
shrinkage=0.3


Tree=71
num_leaves=2
num_cat=1
split_feature=5
split_gain=5.0119
threshold=0
decision_type=5
left_child=-1
right_child=-2
leaf_value=0.017663812022498167 -0.013965925741215171
leaf_count=621 2334
internal_value=0
internal_count=2955
cat_boundaries=0 13
cat_threshold=33636368 67109130 8224 20480 16777748 4194304 65536 4096 0 0 0 0 1073741888
shrinkage=0.3


Tree=72
num_leaves=6
num_cat=2
split_feature=5 5 0 6 1
split_gain=5.43628 0.889602 0.441637 0.36042 0.0134901
threshold=0 1 61.500000000000007 34.500000000000007 6.5000000000000009
decision_type=5 5 2 2 2
left_child=-1 4 3 -3 -2
right_child=1 2 -4 -5 -6
leaf_value=-0.013732501321575035 -0.0012605653227044517 0.024028465173859578 -0 -0 0
leaf_count=943 245 1463 79 98 127
internal_value=0 0.0640944 0.0725814 0.0770259 -0
internal_count=2955 2012 1640 1561 372
cat_boundaries=0 5 15
cat_threshold=18253863 85229576 1619134752 539000864 322 2151678088 140519440 0 272634368 33280 1077936128 0 0 0 268435456
shrinkage=0.3


Tree=73
num_leaves=7
num_cat=3
split_feature=5 3 4 4 4 3
split_gain=3.84035 1.1195 0.296458 0.175766 0.078237 0.00870527
threshold=0 1 315.00000000000006 9335.0000000000018 4665.0000000000009 2
decision_type=5 5 2 2 2 5
left_child=-1 4 -3 -4 5 -2
right_child=1 2 3 -5 -6 -7
leaf_value=0.016061316556314646 -0.00099752833527088735 0 -0.017907835217286117 0 0.0034254681617355877 0
leaf_count=662 388 64 1379 114 180 168
internal_value=0 -0.0386599 -0.0535713 -0.0573724 0.0050894 -0
internal_count=2955 2293 1557 1493 736 556
cat_boundaries=0 13 17 19
cat_threshold=46792764 2097162 1073741952 4096 12 0 0 0 0 0 0 0 1073741888 198297608 2162697 10496 16 135317512 65545
shrinkage=0.3


Tree=74
num_leaves=8
num_cat=0
split_feature=7 7 0 1 1 7 1
split_gain=0.873439 0.966678 0.359443 0.144327 0.00422187 0.00380149 0.00244049
threshold=3618.5000000000005 4335.5000000000009 10.500000000000002 20.500000000000004 63.500000000000007 4505.5000000000009 30.500000000000004
decision_type=2 2 2 2 2 2 2
left_child=2 3 -1 -2 6 -3 -4
right_child=1 5 4 -5 -6 -7 -8
leaf_value=0.010071671241581535 -0.011923520420424145 0.0034414662319743644 0 0 0 -0 -0.00088898573108002054
leaf_count=662 1110 427 232 138 117 153 116
internal_value=0 -0.0183923 0.0253461 -0.0371348 -0 0.0111675 -0.00231299
internal_count=2955 1828 1127 1248 465 580 348
shrinkage=0.3


Tree=75
num_leaves=3
num_cat=2
split_feature=5 3
split_gain=4.33306 1.12716
threshold=0 1
decision_type=5 5
left_child=-1 -2
right_child=1 -3
leaf_value=0.018864916927074503 0.0021176397231534136 -0.015039354746843966
leaf_count=713 554 1688
internal_value=0 -0.034872
internal_count=2955 2242
cat_boundaries=0 13 20
cat_threshold=12619912 203481090 1073742112 0 32828 1077936128 65536 4096 0 0 0 0 1073741888 163623064 33554560 288 0 32 0 4
shrinkage=0.3


Tree=76
num_leaves=10
num_cat=0
split_feature=7 4 7 0 0 7 7 4 6
split_gain=1.10566 0.592819 0.300453 0.261968 0.0240416 0.00589121 0.00399464 0.00191924 0.000168428
threshold=3334.5000000000005 4665.0000000000009 4335.5000000000009 27.500000000000004 33.500000000000007 4411.5000000000009 4556.5000000000009 1345.0000000000002 21.500000000000004
decision_type=2 2 2 2 2 2 2 2 2
left_child=3 2 -2 -1 -3 -4 7 -7 -5
right_child=1 4 5 8 -6 6 -8 -9 -10
leaf_value=0.010363399961901084 -0.011578996659881012 0.0022299097799266306 0.00083674133505986874 -0.0001419896883166515 -0 -0.0008379296040511335 0 0 0
leaf_count=612 1256 316 190 63 62 199 66 70 121
internal_value=0 -0.0203079 -0.0329058 0.0291534 0.00493507 0 -0 -0.00228689 -0
internal_count=2955 2159 1781 796 378 525 335 269 184
shrinkage=0.3


Tree=77
num_leaves=7
num_cat=2
split_feature=5 3 4 0 0 4
split_gain=4.25891 0.882928 0.0687954 0.0437497 0.00563563 0.0003592
threshold=0 1 4705.0000000000009 1.5000000000000002 8.5000000000000018 7255.0000000000009
decision_type=5 5 2 2 2 2
left_child=-1 3 -3 -2 -5 -4
right_child=1 2 5 4 -6 -7
leaf_value=0.018195160542417481 -0 -0.015366608469101008 6.8221679979852877e-06 0.0027145660548276878 -0 -0.00020459664572299125
leaf_count=658 209 1399 164 157 147 221
internal_value=0 -0.0362055 -0.048529 0.0039637 0.00853648 -0
internal_count=2955 2297 1784 513 304 385
cat_boundaries=0 13 20
cat_threshold=12845184 104866305 1073741824 272650752 44 1073741824 65536 0 0 268435456 0 0 1073741888 420110856 573112320 8208 0 32 0 4
shrinkage=0.3


Tree=78
num_leaves=8
num_cat=1
split_feature=3 1 6 0 1 6 1
split_gain=1.30607 0.647908 0.547386 0.28997 0.0806184 0.00194672 0.00544854
threshold=0 1.5000000000000002 14.500000000000002 30.500000000000004 58.500000000000007 40.500000000000007 15.500000000000002
decision_type=5 2 2 2 2 2 2
left_child=4 -2 3 -3 -1 6 -4
right_child=1 2 5 -5 -6 -7 -8
leaf_value=-0.0081532147007393058 -0.00087953766733136606 0.01547224508356399 0 -0 0 0 -0.00093334962596589542
leaf_count=875 650 967 64 71 63 115 150
internal_value=0 0.0285721 0.0398292 0.0479372 -0.0248834 -0 -0.00158854
internal_count=2955 2017 1367 1038 938 329 214
cat_boundaries=0 7
cat_threshold=3019938408 1073741960 143663365 260 32 0 4
shrinkage=0.3


Tree=79
num_leaves=7
num_cat=3
split_feature=5 3 1 3 1 1
split_gain=4.24333 1.02001 0.421044 0.312846 0.0684724 0.0667497
threshold=0 1 37.500000000000007 2 74.500000000000014 2.5000000000000004
decision_type=5 5 2 5 2 2
left_child=2 5 3 -1 -3 -2
right_child=1 4 -4 -5 -6 -7
leaf_value=-0 -0 -0.017121888290942161 -0 0.018780414164137418 0 0.0030157147113272164
leaf_count=113 189 1450 65 767 68 303
internal_value=0 -0.0427281 0.0541323 0.0594722 -0.0554676 0.00381948
internal_count=2955 2010 945 880 1518 492
cat_boundaries=0 13 17 20
cat_threshold=2420379678 827416 1073872896 289952256 12 4194304 65536 0 0 0 0 0 1073741888 134470152 1107378184 8240 16 22544 0 32
shrinkage=0.3


Tree=80
num_leaves=7
num_cat=1
split_feature=3 1 1 4 1 6
split_gain=1.61588 0.430908 0.19144 0.209516 0.175163 0.0710472
threshold=0 68.500000000000014 63.500000000000007 605.00000000000011 1.0000000180025095e-35 32.500000000000007
decision_type=5 2 2 2 2 2
left_child=1 4 3 -2 -1 -6
right_child=2 -3 -4 -5 5 -7
leaf_value=-0 0 -0 0 -0.0095385471094534217 0.014044284457355149 -0
leaf_count=323 159 80 73 1257 997 66
internal_value=0 0.0361347 -0.0228225 -0.0275168 0.0428716 0.0457086
internal_count=2955 1466 1489 1416 1386 1063
cat_boundaries=0 7
cat_threshold=450568376 587219107 2336 67108881 0 0 1
shrinkage=0.3


Tree=81
num_leaves=5
num_cat=2
split_feature=5 7 7 2
split_gain=4.06172 0.911384 0.212259 0.154484
threshold=0 2076.0000000000005 4467.5000000000009 1
decision_type=5 2 2 1
left_child=-1 -2 3 -3
right_child=1 2 -4 -5
leaf_value=0.01612636091485194 0.0012025834241710649 -0.016910654724578356 0 0
leaf_count=475 103 2110 205 62
internal_value=0 -0.0413836 -0.0521647 -0.0547229
internal_count=2955 2480 2377 2172
cat_boundaries=0 13 14
cat_threshold=16440 67109385 128 256 524 1073741824 0 0 0 0 0 0 1073741888 4
shrinkage=0.3


Tree=82
num_leaves=6
num_cat=2
split_feature=5 3 1 1 7
split_gain=4.55873 0.816506 0.704117 0.0381955 0.000604493
threshold=0 1 74.500000000000014 2.5000000000000004 4478.5000000000009
decision_type=5 5 2 2 2
left_child=-1 3 4 -2 -3
right_child=1 2 -4 -5 -6
leaf_value=0.01909694886600934 -0 -0.017071163253625506 0.00010151767383005738 0.0023793538017752983 -0
leaf_count=880 141 1516 70 218 130
internal_value=0 -0.0366844 -0.0481497 0.00353525 -0.0565912
internal_count=2955 2075 1716 359 1646
cat_boundaries=0 13 20
cat_threshold=34341912 638330376 256 0 268 0 65536 4096 0 268435456 0 0 1073741888 117514760 572522504 0 67110928 0 0 1
shrinkage=0.3


Tree=83
num_leaves=8
num_cat=5
split_feature=5 3 5 3 5 7 6
split_gain=3.07246 2.07902 0.723102 0.414395 0.126304 0.0623708 0.0325189
threshold=0 1 2 3 4 3059.5000000000005 30.500000000000004
decision_type=5 5 5 5 5 2 2
left_child=3 4 -3 -1 -2 -6 -4
right_child=1 2 6 -5 5 -7 -8
leaf_value=0 0 -0 0.022017661817923407 -0.013512902723892717 0 -0.0061398008049499435 0
leaf_count=115 105 209 1213 674 88 414 137
internal_value=0 0.0438351 0.0647809 -0.0384813 -0.0128276 -0.0180497 0.0716686
internal_count=2955 2166 1559 789 607 502 1350
cat_boundaries=0 7 14 17 19 22
cat_threshold=51413005 18091018 545400832 536887328 16810067 0 65536 2453672032 524392 1319185 2836 32 0 4 2416459778 8192 1073741824 21010560 524288 917506 8192 1073741824
shrinkage=0.3


Tree=84
num_leaves=5
num_cat=1
split_feature=3 1 6 1
split_gain=1.24877 0.272941 0.0223209 0.00260978
threshold=0 1.0000000180025095e-35 30.500000000000004 53.500000000000007
decision_type=5 2 2 2
left_child=1 -1 -3 -2
right_child=3 2 -4 -5
leaf_value=-0 -0.006978700019240649 0.01072460099683562 -0 -0
leaf_count=256 1593 889 103 114
internal_value=0 0.0295906 0.0351036 -0.0227416
internal_count=2955 1248 992 1707
cat_boundaries=0 7
cat_threshold=509336080 1076445185 134218032 67108865 0 0 1
shrinkage=0.3


Tree=85
num_leaves=6
num_cat=3
split_feature=5 3 4 3 4
split_gain=4.21713 1.42071 0.25718 0.153443 0.0197056
threshold=0 1 595.00000000000011 2 815.00000000000011
decision_type=5 5 2 5 2
left_child=3 4 -3 -1 -2
right_child=1 2 -4 -5 -6
leaf_value=-0 -0 0 -0.019460787050759817 0.015970191521506159 0.0025925750865382845
leaf_count=110 88 177 1596 580 404
internal_value=0 -0.0462075 -0.0614806 0.0507962 0.00692409
internal_count=2955 2265 1773 690 492
cat_boundaries=0 13 20 21
cat_threshold=272826370 67921920 1073807392 4210688 33540 4194304 0 0 0 0 0 0 1073741888 25411656 1661468672 10273 16 0 0 2 1097744
shrinkage=0.3


Tree=86
num_leaves=7
num_cat=3
split_feature=5 3 1 0 1 3
split_gain=4.78036 1.04894 0.280214 0.165568 0.0101324 0.0112659
threshold=0 1 75.500000000000014 10.500000000000002 2.5000000000000004 2
decision_type=5 5 2 2 2 5
left_child=3 4 -3 -1 -2 -6
right_child=1 2 -4 -5 5 -7
leaf_value=0.016274388680383254 -0 -0.019945159101553783 0 -0 -0 0.0017181398056496369
leaf_count=313 171 2020 78 98 106 169
internal_value=0 -0.0520227 -0.0631161 0.0510814 0.00222582 0.00426843
internal_count=2955 2544 2098 411 446 275
cat_boundaries=0 13 17 19
cat_threshold=8650884 49664 0 0 32780 0 0 0 0 0 0 0 1073741888 54734976 536936448 8240 67108864 69760 536870912
shrinkage=0.3


Tree=87
num_leaves=8
num_cat=2
split_feature=5 3 7 7 7 1 7
split_gain=3.78731 0.934268 0.27687 0.291809 0.179222 0.0817559 0.000355096
threshold=0 1 4379.5000000000009 2723.5000000000005 4401.5000000000009 3.5000000000000004 4416.5000000000009
decision_type=5 5 2 2 2 2 2
left_child=4 5 3 -3 -1 -2 -4
right_child=1 2 6 -5 -6 -7 -8
leaf_value=0.016319328686215665 -0 0 0.00020661096330904332 -0.018006331735820294 -0 0.00329137411772704 -0
leaf_count=363 209 235 62 1553 65 217 251
internal_value=0 -0.0406238 -0.0522269 -0.0562836 0.0514717 0.00367459 0
internal_count=2955 2527 2101 1788 428 426 313
cat_boundaries=0 13 20
cat_threshold=2156527760 2097408 0 268435968 45 4194304 65536 0 0 268435456 0 0 1073741888 222958208 536870912 8224 17 32 0 1
shrinkage=0.3


Tree=88
num_leaves=9
num_cat=3
split_feature=3 4 6 3 1 4 3 7
split_gain=1.35184 0.489072 0.267394 0.182805 0.0923752 0.0702736 0.0164453 0.0148077
threshold=0 2035.0000000000002 56.500000000000007 1 29.500000000000004 555.00000000000011 2 4408.5000000000009
decision_type=5 2 2 5 2 2 5 2
left_child=4 3 6 7 -1 -5 -3 -2
right_child=1 2 -4 5 -6 -7 -8 -9
leaf_value=-0.006964797899901066 0.0026445982696372446 -0 -0 0 0 -0.004905540235058483 0.014049663266731998 -0
leaf_count=599 256 121 86 146 85 620 957 85
internal_value=0 0.0338948 0.0428443 -0 -0.0201778 -0.0130883 0.046477 0.00750944
internal_count=2955 2271 1164 1107 684 766 1078 341
cat_boundaries=0 7 11 14
cat_threshold=738247168 1074266186 8651028 16779796 0 20 5 8917024 33619969 32 67108864 25694208 2162688 32
shrinkage=0.3


Tree=89
num_leaves=6
num_cat=2
split_feature=3 1 6 0 3
split_gain=1.34384 0.338916 0.0169853 0.00946742 0.000695626
threshold=0 1.5000000000000002 54.500000000000007 1.0000000180025095e-35 1
decision_type=5 2 2 2 5
left_child=3 -2 -3 -1 -5
right_child=1 2 -4 4 -6
leaf_value=0 -0 0.013058959895564411 -0 -0 -0.0053610879968910095
leaf_count=276 666 1232 79 124 578
internal_value=0 0.0370777 0.0431089 -0.0170602 -0.0178082
internal_count=2955 1977 1311 978 702
cat_boundaries=0 7 8
cat_threshold=563296 1610612970 1048848 2852 32 16 4 34816
shrinkage=0.3


Tree=90
num_leaves=8
num_cat=3
split_feature=5 7 3 3 7 1 1
split_gain=4.0136 0.679579 0.738425 0.31079 0.0908006 0.0150746 0.00630112
threshold=0 4478.5000000000009 1 2 4447.5000000000009 77.500000000000014 2.5000000000000004
decision_type=5 2 5 5 2 2 2
left_child=3 2 6 -1 -5 -4 -2
right_child=1 -3 5 4 -6 -7 -8
leaf_value=-0 -0 0.00022306160366248858 -0.0182588315931351 0.017175250651173691 -0 -0 0.00085984855140147285
leaf_count=116 131 158 1725 444 71 77 233
internal_value=0 -0.043664 -0.0519308 0.0510078 0.0553571 -0.0597784 0
internal_count=2955 2324 2166 631 515 1802 364
cat_boundaries=0 13 17 19
cat_threshold=9099408 172238337 0 16384 13 0 0 0 0 0 0 0 1073741888 100688392 1644232768 0 16 1090176 524352
shrinkage=0.3


Tree=91
num_leaves=6
num_cat=2
split_feature=5 7 7 7 5
split_gain=4.38103 0.481779 0.221919 0.218013 0.0124686
threshold=0 1972.5000000000002 4355.5000000000009 4486.5000000000009 1
decision_type=5 2 2 2 5
left_child=3 -2 4 -1 -3
right_child=1 2 -4 -5 -6
leaf_value=0.015915217231659215 0 0 0 -0 -0.017387302970099799
leaf_count=504 85 108 375 62 1821
internal_value=0 -0.0491124 -0.0547999 0.049692 -0.0577853
internal_count=2955 2389 2304 566 1929
cat_boundaries=0 13 19
cat_threshold=268439604 4472840 1073807360 268435456 29 0 65536 0 0 0 0 0 1073741888 8388608 2130432 0 20992 0 4194304
shrinkage=0.3


Tree=92
num_leaves=3
num_cat=1
split_feature=3 6
split_gain=2.7598 0.0822635
threshold=0 51.500000000000007
decision_type=5 2
left_child=-1 -2
right_child=1 -3
leaf_value=-0.0096498762025164931 0.014183876389234679 -0
leaf_count=1103 1778 74
internal_value=0 0.0456366
internal_count=2955 1852
cat_boundaries=0 7
cat_threshold=554179184 536871018 9707796 2084 0 16 4
shrinkage=0.3


Tree=93
num_leaves=8
num_cat=2
split_feature=3 4 7 4 4 7 3
split_gain=1.65741 0.334247 0.121268 0.0977612 0.0898771 0.0682987 0.0336278
threshold=0 4220.0000000000009 2636.5000000000005 555.00000000000011 7455.0000000000009 4411.5000000000009 1
decision_type=5 2 2 2 2 2 5
left_child=5 2 -2 -4 -3 -1 -5
right_child=1 4 3 6 -6 -7 -8
leaf_value=0.012407544909342072 0 0.003141139622582037 0 0 -0.00077573318348970197 -0 -0.010203469900541641
leaf_count=926 82 237 190 104 199 112 1105
internal_value=0 -0.0201995 -0.0288697 -0.0313869 0 0.0396759 -0.0334427
internal_count=2955 1917 1481 1399 436 1038 1209
cat_boundaries=0 7 10
cat_threshold=194742912 571015171 8225 67108864 0 0 1 0 1073742048 256
shrinkage=0.3


Tree=94
num_leaves=3
num_cat=1
split_feature=5 4
split_gain=4.2445 0.0189857
threshold=0 8500.0000000000018
decision_type=5 2
left_child=1 -1
right_child=-2 -3
leaf_value=0.01527511518033791 -0.014282098900655337 0
leaf_count=594 2284 77
internal_value=0 0.0496168
internal_count=2955 671
cat_boundaries=0 13
cat_threshold=4528128 69207040 8320 544768 13 1073741824 0 0 0 0 0 0 1073741888
shrinkage=0.3


Tree=95
num_leaves=4
num_cat=1
split_feature=3 1 1
split_gain=1.9543 0.140759 3.04588e-05
threshold=0 17.500000000000004 68.500000000000014
decision_type=5 2 2
left_child=1 -1 -3
right_child=-2 2 -4
leaf_value=-0.0085718672063615376 0.012182925278013479 5.9657527572738786e-05 -0
leaf_count=1012 1642 230 71
internal_value=0 -0.0245755 0
internal_count=2955 1313 301
cat_boundaries=0 7
cat_threshold=2790287472 1126170666 143917316 260 32 4 4
shrinkage=0.3


Tree=96
num_leaves=6
num_cat=1
split_feature=3 0 7 7 7
split_gain=1.72831 0.475328 0.254026 0.16361 0.109069
threshold=0 26.500000000000004 4505.5000000000009 4450.5000000000009 3392.5000000000005
decision_type=5 2 2 2 2
left_child=3 2 -2 4 -1
right_child=1 -3 -4 -5 -6
leaf_value=0 0.014684029638210434 -0 -0 0 -0.0089689105259058086
leaf_count=297 1603 210 102 89 654
internal_value=0 0.0386545 0.0457505 -0.0226145 -0.0268971
internal_count=2955 1915 1705 1040 951
cat_boundaries=0 7
cat_threshold=2698537560 1076363400 1057029 4640 32 4 4
shrinkage=0.3


Tree=97
num_leaves=8
num_cat=1
split_feature=5 7 7 0 0 6 6
split_gain=3.7177 0.222236 0.0473191 0.334386 0.00434082 0.000286067 0.000214229
threshold=0 2723.5000000000005 4355.5000000000009 1.0000000180025095e-35 29.500000000000004 5.5000000000000009 22.500000000000004
decision_type=5 2 2 2 2 2 2
left_child=4 5 3 -3 -1 -2 -7
right_child=1 2 -4 -5 -6 6 -8
leaf_value=0.016690566648475482 -0 0 0 -0.013957045673131638 0 0.0002443929027828009 -0
leaf_count=770 63 416 305 1154 62 77 108
internal_value=0 -0.0359573 -0.0401561 -0.0413888 0.0545908 0 0.000610556
internal_count=2955 2123 1875 1570 832 248 185
cat_boundaries=0 13
cat_threshold=268566686 70008841 131360 16896 297 0 0 4096 0 268435456 0 0 1073741888
shrinkage=0.3


Tree=98
num_leaves=9
num_cat=1
split_feature=3 4 7 7 4 7 4 7
split_gain=1.11386 0.233955 0.169826 0.0818416 0.0447818 0.00660847 0.00582212 2.07435e-05
threshold=0 4220.0000000000009 4235.5000000000009 2723.5000000000005 1875.0000000000002 4385.5000000000009 7555.0000000000009 4492.5000000000009
decision_type=5 2 2 2 2 2 2 2
left_child=2 3 4 -2 -1 -5 -3 -4
right_child=1 6 7 5 -6 -7 -8 -9
leaf_value=-0 0 0.0008217212915070342 -4.9556144009226301e-05 -0.0099701105564102954 0.0091458690134999035 -0 -0 0
leaf_count=267 103 265 214 1031 538 258 205 74
internal_value=0 -0.0250066 0.0248101 -0.0309619 0.0291676 -0.0327227 0 -0
internal_count=2955 1862 1093 1392 805 1289 470 288
cat_boundaries=0 7
cat_threshold=194727952 1661486177 48 67110913 0 0 1
shrinkage=0.3


Tree=99
num_leaves=8
num_cat=2
split_feature=5 5 1 4 0 0 0
split_gain=2.7188 0.356667 0.301401 0.153267 0.0454793 0.00961362 0.000512338
threshold=0 1 1.0000000180025095e-35 5945.0000000000009 1.0000000180025095e-35 40.500000000000007 22.500000000000004
decision_type=5 5 2 2 2 2 2
left_child=3 4 -3 -1 -2 -4 -6
right_child=1 2 5 -5 6 -7 -8
leaf_value=-0.011329770770710224 0.0010100675859648343 -0 0.016108851878717887 0 -0.0020855402837436708 0 0
leaf_count=662 157 338 1248 121 241 126 62
internal_value=0 0.0429847 0.0486999 -0.0343432 -0 0.0531743 -0.00685942
internal_count=2955 2172 1712 783 460 1374 303
cat_boundaries=0 6 16
cat_threshold=62920707 152341522 276826400 538972672 32834 4194304 245892 541065216 131072 16416 16777476 0 65536 4096 0 268435456
shrinkage=0.3


Tree=100
num_leaves=4
num_cat=3
split_feature=5 3 5
split_gain=3.40079 1.33081 0.298888
threshold=0 1 2
decision_type=5 5 5
left_child=-1 -2 -3
right_child=1 2 -4
leaf_value=-0.0095475514208108146 -0.0013624937469528533 -0 0.02151723818415292
leaf_count=672 349 241 1693
internal_value=0 0.0558647 0.0682639
internal_count=2955 2283 1934
cat_boundaries=0 10 17 23
cat_threshold=17891461 590397442 1887570176 538968096 16810052 0 65536 0 16 268435456 2357329928 36175882 134226048 548 0 0 4 42483712 139198744 0 0 0 1
shrinkage=0.3


Tree=101
num_leaves=6
num_cat=2
split_feature=5 3 7 1 1
split_gain=4.49374 0.562154 0.23589 0.225998 0.00345612
threshold=0 1 1896.0000000000002 1.0000000180025095e-35 7.5000000000000009
decision_type=5 5 2 2 2
left_child=3 4 -3 -1 -2
right_child=1 2 -4 -5 -6
leaf_value=-0 -0 0 -0.014666410198960882 0.019645517446989804 0.00064174303901860829
leaf_count=95 268 65 1837 545 145
internal_value=0 -0.0372077 -0.0454093 0.0623375 9.96494e-05
internal_count=2955 2315 1902 640 413
cat_boundaries=0 13 17
cat_threshold=2415921200 203524609 1073872896 524544 268 1077936128 0 4096 0 0 0 0 1073741888 167976 536870912 0 16
shrinkage=0.3


Tree=102
num_leaves=7
num_cat=4
split_feature=5 3 5 3 0 0
split_gain=3.16189 0.71728 0.37968 0.257959 0.00256377 0.000138155
threshold=0 1 2 3 1.0000000180025095e-35 1.0000000180025095e-35
decision_type=5 5 5 5 2 2
left_child=3 5 4 -1 -3 -2
right_child=1 2 -4 -5 -6 -7
leaf_value=0 0 0 0.019305135177704043 -0.011037603407361908 -0.00054900736795065292 -0.00012785943084662579
leaf_count=147 63 65 1596 784 148 152
internal_value=0 0.0520472 0.0597052 -0.0318201 -0 -0
internal_count=2955 2024 1809 931 213 215
cat_boundaries=0 9 13 19 20
cat_threshold=2437382155 756023312 1619011584 6308384 66 0 0 4096 16 4194944 1107296266 8576 2048 16512 4227329 128 0 16777476 1073741824 16777888
shrinkage=0.3


Tree=103
num_leaves=6
num_cat=4
split_feature=5 3 5 3 0
split_gain=3.0715 0.759262 0.749581 0.142328 0.00774263
threshold=0 1 2 3 1.0000000180025095e-35
decision_type=5 5 5 5 2
left_child=3 4 -3 -1 -2
right_child=1 2 -4 -5 -6
leaf_value=0 0 -0.0001041364205045582 0.017802907305197655 -0.013272182667322734 -0.0010439468123815427
leaf_count=102 133 221 1399 768 332
internal_value=0 0.0409804 0.05103 -0.0417461 -0.00144744
internal_count=2955 2085 1620 870 465
cat_boundaries=0 9 15 19 21
cat_threshold=2442461195 120586256 8398848 807420448 33587520 0 65536 0 16 68157544 40 2048 2064 0 16 38309888 2049 1073872928 4096 5316736 2
shrinkage=0.3


Tree=104
num_leaves=6
num_cat=2
split_feature=3 7 1 1 3
split_gain=1.84177 0.11795 0.0627905 0.0482707 0.0274346
threshold=0 2253.5000000000005 39.500000000000007 79.500000000000014 1
decision_type=5 2 2 2 5
left_child=1 -1 4 -2 -3
right_child=3 2 -4 -5 -6
leaf_value=0 0.011686163938261804 0 0 -0 -0.0091323645900684026
leaf_count=84 1549 116 98 62 1046
internal_value=0 -0.0254456 -0.0284456 0.03767 -0.0299103
internal_count=2955 1344 1260 1611 1162
cat_boundaries=0 7 11
cat_threshold=2253449840 1075839042 9447444 532 32 0 4 16384 2 0 16
shrinkage=0.3


Tree=105
num_leaves=7
num_cat=2
split_feature=3 6 3 7 1 1
split_gain=1.73284 0.240195 0.128503 0.0961947 0.0168448 0.00553072
threshold=0 32.500000000000007 1 4509.5000000000009 1.5000000000000002 41.500000000000007
decision_type=5 2 5 2 2 2
left_child=3 2 -2 -1 -4 -6
right_child=1 -3 4 -5 5 -7
leaf_value=-0.0091897487302934292 -0 -0 0 0 0.012407108187920183 0
leaf_count=939 136 133 584 63 1027 73
internal_value=0 0.0332886 0.0375463 -0.0282686 0.0394254 0.041019
internal_count=2955 1953 1820 1002 1684 1100
cat_boundaries=0 6 10
cat_threshold=604024928 539558082 135274885 2052 0 20 2433220608 1073741824 0 16
shrinkage=0.3


Tree=106
num_leaves=5
num_cat=2
split_feature=5 3 7 7
split_gain=5.16917 1.09928 0.0324124 0.00944384
threshold=0 1 2723.5000000000005 4006.5000000000005
decision_type=5 5 2 2
left_child=-1 3 -3 -2
right_child=1 2 -4 -5
leaf_value=0.014496585983275434 0.0013108610141953512 -0 -0.021191554073448027 -0
leaf_count=688 142 217 1827 81
internal_value=0 -0.0584522 -0.0686308 0.00253443
internal_count=2955 2267 2044 223
cat_boundaries=0 13 17
cat_threshold=2147500186 134217986 288 268455940 525 1073741824 65536 4096 0 0 0 0 1073741888 323092480 16777250 48 16
shrinkage=0.3


Tree=107
num_leaves=8
num_cat=3
split_feature=3 1 0 1 3 3 4
split_gain=1.09692 0.378876 0.387481 0.205648 0.0330773 0.00795641 0.0123519
threshold=0 1.0000000180025095e-35 31.500000000000004 19.500000000000004 1 2 1675.0000000000002
decision_type=5 2 2 2 5 5 2
left_child=3 5 4 -1 -3 -2 -7
right_child=1 2 -4 -5 -6 6 -8
leaf_value=-0.008954577270844 0 -0 -0 0 0.011862149790891974 -0.0015558827127307587 0
leaf_count=780 105 128 175 178 1249 248 92
internal_value=0 0.024726 0.0325306 -0.0246125 0.0389543 -0 -0.00320334
internal_count=2955 1997 1552 958 1377 445 340
cat_boundaries=0 7 9 10
cat_threshold=881881664 1761607755 143655168 532 32 20 4 50855936 524320 16842784
shrinkage=0.3


Tree=108
num_leaves=5
num_cat=4
split_feature=5 3 5 3
split_gain=2.09268 1.074 0.298748 0.109976
threshold=0 1 2 3
decision_type=5 5 5 5
left_child=3 -2 -3 -1
right_child=1 2 -4 -5
leaf_value=0 -0.002099930855237216 -0 0.015934863896452614 -0.010576570357275586
leaf_count=106 339 208 1646 656
internal_value=0 0.0351057 0.0488959 -0.0328626
internal_count=2955 2193 1854 762
cat_boundaries=0 9 16 26 28
cat_threshold=2199525409 152078344 545269760 538968096 33092 4194304 0 0 16 67833856 2097344 262416 67109380 0 0 4 0 536872208 256 4194304 8 1073741824 0 0 0 268435456 16793728 16777281
shrinkage=0.3


Tree=109
num_leaves=4
num_cat=1
split_feature=3 6 1
split_gain=1.07231 0.20804 0.117387
threshold=0 26.500000000000004 1.0000000180025095e-35
decision_type=5 2 2
left_child=1 2 -1
right_child=-2 -3 -4
leaf_value=-0 -0.0073637396107759405 -0 0.0095619795633168983
leaf_count=212 1873 107 763
internal_value=0 0.0242729 0.0292957
internal_count=2955 1082 975
cat_boundaries=0 7
cat_threshold=198388360 1663255169 32 67108865 0 0 2
shrinkage=0.3


Tree=110
num_leaves=10
num_cat=0
split_feature=7 7 0 1 1 1 4 0 4
split_gain=0.474169 0.966806 0.186579 0.169875 0.138396 0.049543 0.0322876 0.0224728 0.0589559
threshold=3291.5000000000005 4335.5000000000009 1.0000000180025095e-35 54.500000000000007 36.500000000000007 1.0000000180025095e-35 1345.0000000000002 27.500000000000004 905.00000000000011
decision_type=2 2 2 2 2 2 2 2 2
left_child=4 2 5 7 -1 -2 -3 8 -4
right_child=1 6 3 -5 -6 -7 -8 -9 -10
leaf_value=0.0062804691147049551 -0.0013359509621521839 -0 0 0 -0 0.0020096578138593373 0.0042167298338114173 0 -0.012940582183251764
leaf_count=586 225 345 96 62 186 286 224 82 863
internal_value=0 -0.0164407 -0.0351919 -0.0389234 0.016175 0 0.0122548 -0.0416118 -0.0421346
internal_count=2955 2183 1614 1103 772 511 569 1041 959
shrinkage=0.3


Tree=111
num_leaves=5
num_cat=3
split_feature=5 3 3 7
split_gain=3.1545 0.957742 0.204854 0.00465638
threshold=0 1 2 3924.5000000000005
decision_type=5 5 5 2
left_child=2 3 -1 -2
right_child=1 -3 -4 -5
leaf_value=-0 0.0014948552064928196 -0.015476547862146292 0.014421809340692536 -0
leaf_count=126 274 1666 679 210
internal_value=0 -0.0390727 0.0447865 0.00422827
internal_count=2955 2150 805 484
cat_boundaries=0 13 15 17
cat_threshold=2185631872 135021336 1107427328 289406976 12 0 0 4096 0 0 0 0 1073741888 38420496 587202601 1048592 9
shrinkage=0.3


Tree=112
num_leaves=5
num_cat=3
split_feature=5 3 5 1
split_gain=2.99797 0.919273 0.0329833 0.0325999
threshold=0 1 2 1.0000000180025095e-35
decision_type=5 5 5 2
left_child=-1 3 -3 -2
right_child=1 2 -4 -5
leaf_value=0.014581584566386169 -0 0 -0.014126983788477283 0.0025380702284595936
leaf_count=601 114 123 1672 445
internal_value=0 -0.0326042 -0.0460754 0.00539324
internal_count=2955 2354 1795 559
cat_boundaries=0 13 20 27
cat_threshold=281150484 67174403 8320 273154560 261 0 0 4096 0 0 0 0 1073741888 84656136 538968138 134218032 0 0 0 4 2048 536871168 0 16384 64 0 65536
shrinkage=0.3


Tree=113
num_leaves=7
num_cat=1
split_feature=5 7 4 6 4 4
split_gain=2.95417 1.18659 0.204773 0.0590546 0.0467553 0.0428029
threshold=0 2832.5000000000005 315.00000000000006 32.500000000000007 7555.0000000000009 11400.000000000002
decision_type=5 2 2 2 2 2
left_child=4 3 -3 -2 -1 -4
right_child=1 2 5 -5 -6 -7
leaf_value=0.013639131498425992 0.0034190985156677214 0 -0.016659476058450456 -0 -0 0
leaf_count=673 207 83 1744 97 65 86
internal_value=0 -0.037223 -0.0523754 0.00723908 0.0439989 -0.0546946
internal_count=2955 2217 1913 304 738 1830
cat_boundaries=0 13
cat_threshold=38078642 6555657 0 528384 13 0 0 0 0 0 0 0 1073741888
shrinkage=0.3


Tree=114
num_leaves=6
num_cat=1
split_feature=5 7 7 7 7
split_gain=3.3043 0.424527 0.246396 0.068992 0.000799775
threshold=0 2723.5000000000005 4456.5000000000009 4471.5000000000009 1839.5000000000002
decision_type=5 2 2 2 2
left_child=3 4 -3 -1 -2
right_child=1 2 -4 -5 -6
leaf_value=0.015231866269261539 -0 -0.013987191942943979 0 -0 0.00030618918152698393
leaf_count=846 65 1605 169 75 195
internal_value=0 -0.0362606 -0.0432039 0.0491993 0
internal_count=2955 2034 1774 921 260
cat_boundaries=0 13
cat_threshold=46520326 34390280 1073741984 4211200 41 1073741824 0 0 0 0 0 0 1073741888
shrinkage=0.3


Tree=115
num_leaves=7
num_cat=3
split_feature=5 3 1 1 1 3
split_gain=3.52226 0.843137 0.0891963 0.0400262 0.0268785 0.000830013
threshold=0 1 84.000000000000014 12.500000000000002 34.500000000000007 2
decision_type=5 5 2 2 2 5
left_child=4 3 -3 5 -1 -2
right_child=1 2 -4 -5 -6 -7
leaf_value=0.013619137261506585 -0.00031072763143903144 -0.016994555114622036 0 0.0022318468845260275 -0 0
leaf_count=652 253 1655 68 144 65 118
internal_value=0 -0.0443126 -0.0548785 0.001597 0.0441997 -0
internal_count=2955 2238 1723 515 717 371
cat_boundaries=0 13 18 20
cat_threshold=2151831680 169919240 1107304480 541440 16810012 0 0 0 0 0 0 0 1073741888 411080728 16777219 2304 16 32 34840 16777217
shrinkage=0.3


Tree=116
num_leaves=11
num_cat=0
split_feature=4 7 0 7 4 6 6 4 1 0
split_gain=0.522831 0.146618 0.101272 0.0451017 0.179788 0.0435428 0.0368541 0.0108784 0.00195082 0.000116842
threshold=3405.0000000000005 2753.0000000000005 79.500000000000014 4335.5000000000009 555.00000000000011 10.500000000000002 50.500000000000007 1445.0000000000002 1.5000000000000002 8.5000000000000018
decision_type=2 2 2 2 2 2 2 2 2 2
left_child=1 9 6 4 -3 -6 8 -5 -2 -1
right_child=2 3 -4 7 5 -7 -8 -9 -10 -11
leaf_value=0.0001182313722987471 0 0 -0 -0.00063895915407707492 -0.0081411988127058736 0 -0 0.00093882276150639903 0.007074165274765426 -0
leaf_count=74 87 93 80 363 1090 149 62 145 740 72
internal_value=0 -0.0145976 0.0194865 -0.0195777 -0.021299 -0.0259312 0.0223998 0 0.0234294 0
internal_count=2955 1986 969 1840 1332 1239 889 508 827 146
shrinkage=0.3


Tree=117
num_leaves=4
num_cat=3
split_feature=5 3 3
split_gain=3.16154 0.794133 0.179121
threshold=0 1 2
decision_type=5 5 5
left_child=2 -2 -1
right_child=1 -3 -4
leaf_value=-0 0.00099407291357622956 -0.01431988845053498 0.014977705637441725
leaf_count=118 335 1723 779
internal_value=0 -0.0364697 0.0470805
internal_count=2955 2058 897
cat_boundaries=0 13 16 19
cat_threshold=4525224 606118416 1073741984 528896 33053 0 65536 0 0 0 0 0 1073741888 146866824 589824000 32 17024 1074266240 16
shrinkage=0.3


Tree=118
num_leaves=8
num_cat=3
split_feature=5 3 1 5 7 7 7
split_gain=2.6107 0.564417 0.0821339 0.0434402 0.108252 0.0211672 0.0166133
threshold=0 1 1.0000000180025095e-35 2 4456.5000000000009 2318.0000000000005 3157.5000000000005
decision_type=5 5 2 5 2 2 2
left_child=2 6 -1 -3 5 -5 -2
right_child=1 3 -4 4 -6 -7 -8
leaf_value=-0 0.0014067225414113205 0 0.011817890899459385 -0 0 -0.01523066569658414 -0
leaf_count=102 105 123 257 135 185 1674 374
internal_value=0 -0.0388328 0.0374128 -0.0468971 -0.0479341 -0.0500184 0
internal_count=2955 2596 359 2117 1994 1809 479
cat_boundaries=0 13 17 20
cat_threshold=34816 2097160 1073807488 512 16777224 4194304 0 0 0 0 0 0 1073741888 457851016 536887304 2081 16 8409216 256 32
shrinkage=0.3


Tree=119
num_leaves=9
num_cat=2
split_feature=3 1 7 1 7 3 7 7
split_gain=0.748662 0.583464 0.267456 0.0857289 0.150355 0.0123784 0.00921006 6.84347e-05
threshold=0 2.5000000000000004 4355.5000000000009 75.500000000000014 2753.0000000000005 1 3848.5000000000005 2397.0000000000005
decision_type=5 2 2 2 2 5 2 2
left_child=1 6 3 4 7 -6 -1 -2
right_child=2 -3 -4 -5 5 -7 -8 -9
leaf_value=0 -0 0.011325153829170475 0.00036586260329453201 0 0 -0.0084965205826243225 -0.0013841246042426518 9.0352539460682388e-05
leaf_count=96 95 601 342 76 128 1264 276 77
internal_value=0 0.026096 -0.0136854 -0.0221891 -0.0243678 -0.0279952 -0.0030179 0
internal_count=2955 973 1982 1640 1564 1392 372 172
cat_boundaries=0 7 9
cat_threshold=517660672 1109475394 134225969 67108881 0 0 3 8 1
shrinkage=0.3


Tree=120
num_leaves=7
num_cat=0
split_feature=1 6 7 7 4 7
split_gain=0.547047 0.424168 0.110665 0.0413122 0.00622751 0.00492678
threshold=1.0000000180025095e-35 29.500000000000004 2206.0000000000005 4040.5000000000005 315.00000000000006 2361.0000000000005
decision_type=2 2 2 2 2 2
left_child=3 2 -2 -1 -5 -3
right_child=1 5 -4 4 -6 -7
leaf_value=0 -0 0 0.011713946733083394 0 -0.002808974401611057 -0.00076265723516097232
leaf_count=68 93 85 1962 68 495 184
internal_value=0 0.0302785 0.0372629 -0.00507536 -0.00889225 -0
internal_count=2955 2324 2055 631 563 269
shrinkage=0.3


Tree=121
num_leaves=6
num_cat=3
split_feature=5 5 6 5 4
split_gain=2.1962 0.627422 0.0666223 0.0913788 0.0443859
threshold=0 1 53.500000000000007 2 4985.0000000000009
decision_type=5 5 2 5 2
left_child=-1 4 3 -3 -2
right_child=1 2 -4 -5 -6
leaf_value=-0.010539386194404057 -0.002284998240508217 -0 -0 0.014305711176652795 0
leaf_count=809 372 244 82 1348 100
internal_value=0 0.0348764 0.044615 0.0461391 -0.000977783
internal_count=2955 2146 1674 1592 472
cat_boundaries=0 8 13 18
cat_threshold=25827361 557058048 1887570208 6328320 32833 4194304 65536 4096 2181038088 100672787 8192 1073758240 16777218 130 138444800 0 512 28
shrinkage=0.3


Tree=122
num_leaves=7
num_cat=1
split_feature=3 7 7 7 6 7
split_gain=0.987408 0.420528 0.180716 0.114291 0.0255126 0.000357317
threshold=0 3943.5000000000005 4355.5000000000009 4363.5000000000009 54.500000000000007 4459.5000000000009
decision_type=5 2 2 2 2 2
left_child=3 4 -3 -1 -2 -5
right_child=1 2 -4 5 -6 -7
leaf_value=-0.0054343568596256714 0.012348986143389593 -0.0039498808412421829 0.002284172225912194 0.00020689427586421491 -0 -0
leaf_count=785 1058 526 327 97 71 91
internal_value=0 0.0325834 -0 -0.0134433 0.040631 0
internal_count=2955 1982 853 973 1129 188
cat_boundaries=0 7
cat_threshold=2148702312 1073758720 9445540 2100 32 20 6
shrinkage=0.3


Tree=123
num_leaves=6
num_cat=2
split_feature=5 5 0 1 1
split_gain=2.62841 0.84462 0.0777529 0.0297709 1.27923e-06
threshold=0 1 61.500000000000007 4.5000000000000009 27.500000000000004
decision_type=5 5 2 2 2
left_child=-1 3 -3 -2 -5
right_child=1 2 -4 4 -6
leaf_value=-0.0097684471469348111 -0.001955034466728824 0.016694973801158825 -0 1.2304893318345985e-05 -0
leaf_count=693 298 1668 76 144 76
internal_value=0 0.0434981 0.0540012 -0.00182801 0
internal_count=2955 2262 1744 518 220
cat_boundaries=0 10 16
cat_threshold=2198407201 588300544 268435488 4212240 33554498 0 65536 4096 16 16 276861058 134219792 8528256 538972192 256 4194305
shrinkage=0.3


Tree=124
num_leaves=8
num_cat=4
split_feature=5 3 5 3 4 4 4
split_gain=3.08436 1.06536 0.53646 0.425306 0.122775 0.0107844 0.00821624
threshold=0 1 2 3 11700.000000000002 855.00000000000011 4805.0000000000009
decision_type=5 5 5 5 2 2 2
left_child=3 5 -3 -1 -4 -2 -7
right_child=1 2 4 -5 -6 6 -8
leaf_value=0 0 -0 0.019012106075647604 -0.014018556602025041 -0 -0.0020982818549381689 0
leaf_count=101 76 208 1385 793 69 246 77
internal_value=0 0.0423997 0.0550713 -0.0403629 0.0611709 -0.00480058 -0.00614235
internal_count=2955 2061 1662 894 1454 399 323
cat_boundaries=0 6 13 20 22
cat_threshold=50462723 87329802 268576896 540672 33587555 1073741824 541069384 1627914433 1048592 2048 32 16 4 2147565704 134234112 8388864 4144 0 0 65536 16814080 17301632
shrinkage=0.3


Tree=125
num_leaves=6
num_cat=2
split_feature=3 4 3 6 6
split_gain=1.25091 0.313889 0.111197 0.0310962 0.00212898
threshold=0 7255.0000000000009 1 33.500000000000007 10.500000000000002
decision_type=5 2 5 2 2
left_child=-1 2 -2 -4 -3
right_child=1 4 3 -5 -6
leaf_value=-0.0091226451424510826 -0 0 0.0098234621017391274 -0 -0.00050153150230733564
leaf_count=1002 225 115 1411 75 127
internal_value=0 0.0221881 0.0294748 0.031707 -0
internal_count=2955 1953 1711 1486 242
cat_boundaries=0 7 11
cat_threshold=2919946768 1073742026 135276693 512 32 20 4 1048648 2097152 256 304
shrinkage=0.3


Tree=126
num_leaves=7
num_cat=2
split_feature=5 5 6 4 4 1
split_gain=2.35457 0.615033 0.232822 0.0280152 0.0551342 0.0163213
threshold=0 1 53.500000000000007 755.00000000000011 4035.0000000000005 53.500000000000007
decision_type=5 5 2 2 2 2
left_child=5 3 -3 -2 -5 -1
right_child=1 2 -4 4 -6 -7
leaf_value=-0.01195473116195785 0 0.014120495013828229 -0 -0.0031447693428442182 0 0
leaf_count=830 116 1442 69 315 116 67
internal_value=0 0.0337268 0.0435207 -0.00119416 -0.00610328 -0.0388908
internal_count=2955 2058 1511 547 431 897
cat_boundaries=0 9 16
cat_threshold=2445557793 156273672 8521984 270565376 322 0 0 4096 16 624650 570687505 805306400 541065776 524296 0 65536
shrinkage=0.3


Tree=127
num_leaves=11
num_cat=0
split_feature=0 4 1 4 6 1 0 4 6 4
split_gain=0.48604 0.432858 0.391882 0.183294 0.0857327 0.0378767 0.0386867 0.0190797 0.0148787 0.0130226
threshold=1.0000000180025095e-35 4985.0000000000009 1.0000000180025095e-35 855.00000000000011 10.500000000000002 16.500000000000004 39.500000000000007 345.00000000000006 19.500000000000004 2035.0000000000002
decision_type=2 2 2 2 2 2 2 2 2 2
left_child=2 3 7 -2 -5 -3 -7 -1 -6 -9
right_child=1 5 -4 4 8 6 -8 9 -10 -11
leaf_value=0 0 -0 0.0086150052960631534 -0.0099684097320206482 0.0010796711077721989 0.0031883415580715863 -0 -0.002064302664910261 -0.00077177283638495283 0
leaf_count=71 211 214 444 949 136 194 135 343 185 73
internal_value=0 -0.0153241 0.0178537 -0.0270925 -0.0309818 0.00360797 0.00782859 -0.00227774 0 -0.00548226
internal_count=2955 2024 931 1481 1270 543 329 487 321 416
shrinkage=0.3


Tree=128
num_leaves=7
num_cat=2
split_feature=5 5 7 1 7 4
split_gain=2.76895 0.596311 0.109978 0.0281877 0.0277152 0.00293094
threshold=0 1 4401.5000000000009 17.500000000000004 4217.5000000000009 1195.0000000000002
decision_type=5 5 2 2 2 2
left_child=-1 3 -3 4 5 -2
right_child=1 2 -4 -5 -6 -7
leaf_value=-0.0094739465337855006 0 0.016910302979939045 -0 0 0 -0.0026372999210165079
leaf_count=982 62 1405 120 84 147 155
internal_value=0 0.0464096 0.0543722 -0 -0.00601653 -0.0085372
internal_count=2955 1973 1525 448 364 217
cat_boundaries=0 7 17
cat_threshold=2173966375 557875211 276957216 2118656 66 0 65536 37765256 101736464 1073741824 544 264 1073741824 0 4096 0 268435456
shrinkage=0.3


Tree=129
num_leaves=5
num_cat=4
split_feature=5 5 3 3
split_gain=2.95639 1.00597 0.644564 0.0398816
threshold=0 1 2 3
decision_type=5 5 5 5
left_child=-1 3 -3 -2
right_child=1 2 -4 -5
leaf_value=-0.012863307729914326 0 -0 0.017750975121898133 -0.002516421485041775
leaf_count=802 106 210 1340 497
internal_value=0 0.0383812 0.0517411 -0.00448286
internal_count=2955 2153 1550 603
cat_boundaries=0 9 15 22 24
cat_threshold=26562701 54788376 545261952 0 32832 0 65536 4096 16 2453833760 605028352 268574720 543179824 258 1073741824 138543624 1073807560 2048 2064 0 0 4 1163456 192
shrinkage=0.3


Tree=130
num_leaves=5
num_cat=4
split_feature=5 3 5 3
split_gain=3.05769 0.691252 0.537537 0.440169
threshold=0 1 2 3
decision_type=5 5 5 5
left_child=3 -2 -3 -1
right_child=1 2 -4 -5
leaf_value=0 -0 -0 0.018915113300629682 -0.012196964057115952
leaf_count=101 357 212 1570 715
internal_value=0 0.0491906 0.0571769 -0.0329779
internal_count=2955 2139 1782 816
cat_boundaries=0 9 16 26 27
cat_threshold=290592805 555746312 545269792 2097680 33088 4194304 0 0 16 4240 1090519170 135266352 2080 0 0 4 8421376 139461136 384 1073741856 8 1073741824 0 0 0 268435456 17864704
shrinkage=0.3


Tree=131
num_leaves=5
num_cat=1
split_feature=3 0 4 0
split_gain=0.863758 0.183759 0.175527 0.0402742
threshold=0 41.500000000000007 555.00000000000011 53.500000000000007
decision_type=5 2 2 2
left_child=1 -1 -2 -4
right_child=2 -3 3 -5
leaf_value=0.0074915904980453786 0 -0 -0.0086493946409228212 0
leaf_count=969 189 75 1626 96
internal_value=0 0.0198088 -0.0236915 -0.0278543
internal_count=2955 1044 1911 1722
cat_boundaries=0 4
cat_threshold=180408856 556483713 134226225 67115008
shrinkage=0.3


Tree=132
num_leaves=7
num_cat=4
split_feature=5 3 4 3 5 4
split_gain=2.28589 0.655237 0.311318 0.121973 0.0598821 0.0115261
threshold=0 1 6775.0000000000009 2 3 1605.0000000000002
decision_type=5 5 2 5 5 2
left_child=3 5 4 -1 -3 -2
right_child=1 2 -4 -5 -6 -7
leaf_value=-0 0.0012938471486782059 0 0 0.011645178939066725 -0.015145338717634491 -0
leaf_count=109 137 120 251 572 1525 241
internal_value=0 -0.0350629 -0.0447155 0.0363401 -0.0497825 0.00176777
internal_count=2955 2274 1896 681 1645 378
cat_boundaries=0 13 17 20 26
cat_threshold=458778 706758144 33562624 524288 8 4194304 0 0 0 0 0 0 1073741888 214446144 33554528 256 67108864 526976 33554472 16 2147483652 272 131072 512 16777216 1073741824
shrinkage=0.3


Tree=133
num_leaves=8
num_cat=0
split_feature=0 1 1 6 4 4 4
split_gain=0.281331 0.302992 0.178812 0.135693 0.066515 0.0108287 0.0103399
threshold=1.0000000180025095e-35 1.0000000180025095e-35 19.500000000000004 13.500000000000002 1205.0000000000002 315.00000000000006 1675.0000000000002
decision_type=2 2 2 2 2 2 2
left_child=1 5 4 -4 -2 -1 -7
right_child=2 -3 3 -5 -6 6 -8
leaf_value=0 0 0.006323363102301663 0.0035332307121242069 -0.0018205638565502512 -0.0069904792438620312 -0.0020486171453057938 0
leaf_count=68 342 416 190 351 1170 320 98
internal_value=0 0.00854332 -0.0152514 0 -0.0212464 -0.00430702 -0.00572419
internal_count=2955 902 2053 541 1512 486 418
shrinkage=0.3


Tree=134
num_leaves=11
num_cat=2
split_feature=3 7 7 4 4 3 6 4 7 7
split_gain=1.42904 1.19748 0.271325 0.157709 0.132776 0.0919813 0.00882543 0.0227356 0.0307393 0.00391524
threshold=0 4370.5000000000009 2464.5000000000005 565.00000000000011 2285.0000000000005 1 4.5000000000000009 555.00000000000011 4259.5000000000009 4505.5000000000009
decision_type=5 2 2 2 2 5 2 2 2 2
left_child=4 2 -2 -4 6 -5 7 -1 -9 -3
right_child=1 9 3 5 -6 -7 -8 8 -10 -11
leaf_value=0 0 0.0030431753610811346 0 0 0.0086111200451030202 -0.016174576159789875 0.00023062484443034205 -0.0027100660577959188 0 -0
leaf_count=71 163 228 86 105 403 1426 85 189 95 104
internal_value=0 -0.0310216 -0.0472891 -0.0510116 0.0247577 -0.0528981 -0 -0.00329497 -0.0063769 0.0098361
internal_count=2955 2112 1780 1617 843 1531 440 355 284 332
cat_boundaries=0 7 10
cat_threshold=461596808 587285058 134219777 67110913 0 0 1 512 32 256
shrinkage=0.3


Tree=135
num_leaves=7
num_cat=1
split_feature=3 7 4 6 7 4
split_gain=1.42959 0.559871 0.160756 0.10431 0.0591802 0.00926683
threshold=0 4385.5000000000009 555.00000000000011 13.500000000000002 2206.0000000000005 1805.0000000000002
decision_type=5 2 2 2 2 2
left_child=3 2 -2 -1 -4 -3
right_child=1 5 4 -5 -6 -7
leaf_value=0.0082346103121627521 0 -0 0 -0 -0.013190846975131419 0.0011435340047896985
leaf_count=833 85 202 108 164 1493 70
internal_value=0 -0.0313087 -0.0404993 0.0244416 -0.0428052 0.00146195
internal_count=2955 1958 1686 997 1601 272
cat_boundaries=0 7
cat_threshold=248109592 1 49 67108864 0 0 1
shrinkage=0.3


Tree=136
num_leaves=7
num_cat=2
split_feature=5 3 1 4 4 0
split_gain=2.90283 0.59811 0.243381 0.0930594 0.0901439 0.00703037
threshold=0 1 1.0000000180025095e-35 9335.0000000000018 345.00000000000006 1.0000000180025095e-35
decision_type=5 5 2 2 2 2
left_child=2 5 -1 4 -3 -2
right_child=1 3 -4 -5 -6 -7
leaf_value=-0 0.00091808216197870039 0 0.013574491090348292 0 -0.015353310259701727 -0
leaf_count=215 98 70 599 139 1548 286
internal_value=0 -0.0394015 0.0410591 -0.0478487 -0.0499938 8.22983e-05
internal_count=2955 2141 814 1757 1618 384
cat_boundaries=0 13 18
cat_threshold=277008400 203435016 1073873152 20992 288 4194304 65536 0 0 0 0 0 1073741888 85467208 1073741888 10240 67110912 32
shrinkage=0.3


Tree=137
num_leaves=3
num_cat=1
split_feature=5 1
split_gain=2.78125 0.132408
threshold=0 42.500000000000007
decision_type=5 2
left_child=1 -1
right_child=-2 -3
leaf_value=0.014199542990949618 -0.010074336984473862 -0
leaf_count=784 2101 70
internal_value=0 0.0447854
internal_count=2955 854
cat_boundaries=0 13
cat_threshold=268981394 606357257 128 285753600 32780 1073741824 0 0 0 0 0 0 1073741888
shrinkage=0.3


Tree=138
num_leaves=10
num_cat=0
split_feature=7 7 0 4 1 4 0 6 4
split_gain=0.558619 0.334682 0.136093 0.113379 0.0755256 0.0263121 0.0082391 0.00916569 0.00181722
threshold=3378.0000000000005 4355.5000000000009 10.500000000000002 755.00000000000011 2.5000000000000004 1235.0000000000002 68.500000000000014 8.5000000000000018 315.00000000000006
decision_type=2 2 2 2 2 2 2 2 2
left_child=2 3 4 -2 -1 8 7 -4 -3
right_child=1 5 6 -5 -6 -7 -8 -9 -10
leaf_value=-0 0 0 0 -0.010724621879797532 0.005389825481238667 0.0017639234887483486 0 -0.0014255592123507412 -0.00046504462939523245
leaf_count=112 212 106 85 1403 374 204 76 203 180
internal_value=0 -0.0267631 0.00721586 -0.0335859 0.0149824 0 -0 -0.00324343 -0
internal_count=2955 2105 850 1615 486 490 364 288 286
shrinkage=0.3


Tree=139
num_leaves=6
num_cat=3
split_feature=5 3 5 7 7
split_gain=2.52527 0.997583 0.424853 0.0402782 0.00445363
threshold=0 1 2 4447.5000000000009 3068.5000000000005
decision_type=5 5 5 2 2
left_child=3 4 -3 -1 -2
right_child=1 2 -4 -5 -6
leaf_value=-0.012595549121595584 0 -0 0.016048966811654776 0 -0.001995407697254638
leaf_count=760 79 246 1422 99 349
internal_value=0 0.0345435 0.0480311 -0.0407215 -0.00608581
internal_count=2955 2096 1668 859 428
cat_boundaries=0 7 12 16
cat_threshold=54790147 255893760 1904347136 538988544 16810080 1073741824 65536 72351888 1073758282 1058832 2048 32 276922496 536872968 8192 32
shrinkage=0.3


Tree=140
num_leaves=6
num_cat=1
split_feature=5 7 7 7 7
split_gain=2.46795 0.306004 0.095963 0.0407584 0.0130022
threshold=0 4355.5000000000009 1896.0000000000002 2614.0000000000005 4505.5000000000009
decision_type=5 2 2 2 2
left_child=3 2 -2 -1 -3
right_child=1 4 -4 -5 -6
leaf_value=-0 0 0.0012350044434821443 -0.013570221779228462 0.011000035736308264 -4.9026632778694773e-05
leaf_count=66 68 294 1781 620 126
internal_value=0 -0.0386304 -0.0438096 0.0352802 0
internal_count=2955 2269 1849 686 420
cat_boundaries=0 13
cat_threshold=409600 704661249 1073750272 16384 516 1077936128 65536 0 0 0 0 0 1073741888
shrinkage=0.3


Tree=141
num_leaves=7
num_cat=2
split_feature=5 3 1 6 1 1
split_gain=3.21414 0.811565 0.328503 0.0338438 0.030606 0.00436574
threshold=0 1 63.500000000000007 17.500000000000004 1.5000000000000002 1.0000000180025095e-35
decision_type=5 5 2 2 2 2
left_child=5 3 -3 4 -2 -1
right_child=1 2 -4 -5 -6 -7
leaf_value=0 -0 -0.017862522676384645 0 -0 0.0027960864663033173 0.011812523008537388
leaf_count=156 94 1872 110 67 188 468
internal_value=0 -0.0456757 -0.0553559 0.00148914 0.0068047 0.0385573
internal_count=2955 2331 1982 349 282 624
cat_boundaries=0 13 16
cat_threshold=268435480 606076954 160 268435456 521 1077936128 0 4096 0 0 0 0 1073741888 33652872 537018402 288
shrinkage=0.3


Tree=142
num_leaves=5
num_cat=1
split_feature=5 7 7 0
split_gain=3.20823 0.254212 0.165991 0.152638
threshold=0 1972.5000000000002 4431.5000000000009 34.500000000000007
decision_type=5 2 2 2
left_child=-1 -2 3 -3
right_child=1 2 -4 -5
leaf_value=0.011980125804132815 0 -0.015729507908697614 0 0
leaf_count=741 82 1791 167 174
internal_value=0 -0.0443741 -0.0480697 -0.050245
internal_count=2955 2214 2132 1965
cat_boundaries=0 13
cat_threshold=42602650 201588744 1107296512 4098 524 0 0 0 0 0 0 0 1073741888
shrinkage=0.3


Tree=143
num_leaves=6
num_cat=3
split_feature=5 3 1 5 1
split_gain=2.36019 1.18539 0.287113 0.283281 0.0953542
threshold=0 1 55.500000000000007 2 62.500000000000007
decision_type=5 5 2 5 2
left_child=4 -2 3 -3 -1
right_child=1 2 -4 -5 -6
leaf_value=-0.012710456758911351 -0.0026251547616675673 -0 -0 0.016638987085140118 0
leaf_count=750 483 119 95 1437 71
internal_value=0 0.032391 0.0485016 0.052565 -0.0402408
internal_count=2955 2134 1651 1556 821
cat_boundaries=0 8 15 20
cat_threshold=2445871287 688686080 268437504 539492352 2 1077936128 0 4096 71975120 1074282632 135266337 0 0 0 4 0 0 1082138624 4195328 33088
shrinkage=0.3


Tree=144
num_leaves=6
num_cat=3
split_feature=5 3 3 1 7
split_gain=2.39226 0.598663 0.491232 0.223348 0.0185329
threshold=0 1 2 67.500000000000014 4411.5000000000009
decision_type=5 5 5 2 2
left_child=2 4 -1 -3 -2
right_child=1 3 -4 -5 -6
leaf_value=-0 0.0017297611287091941 -0.012548791965971176 0.015600580695112536 0 -0
leaf_count=107 474 1305 912 66 91
internal_value=0 -0.0265623 0.0456935 -0.0379283 0.00302231
internal_count=2955 1936 1019 1371 565
cat_boundaries=0 13 20 23
cat_threshold=2449801252 610330377 131456 0 12 1073741824 0 4096 0 0 0 0 1073741888 17825840 1610612904 288 16 0 0 1 1048576 2621448 16
shrinkage=0.3


Tree=145
num_leaves=8
num_cat=3
split_feature=3 6 4 3 7 3 7
split_gain=0.872643 0.171614 0.0692349 0.0445255 0.0149101 0.00769745 0.0301107
threshold=0 53.500000000000007 1655.0000000000002 1 2636.5000000000005 2 3611.0000000000005
decision_type=5 2 2 5 2 5 2
left_child=4 2 5 -4 -1 6 -2
right_child=1 -3 3 -5 -6 -7 -8
leaf_value=0 0 -0 -0 0.0092938670105566085 -0.0061873462625211669 0.00059309831000515275 -0.0020307070571452548
leaf_count=85 74 89 106 1055 788 493 265
internal_value=0 0.0239003 0.0278117 0.0300989 -0.0197917 -0 -0.00243649
internal_count=2955 2082 1993 1161 873 832 339
cat_boundaries=0 6 8 11
cat_threshold=743641152 1075904681 143919361 2308 32 16 16779264 536870976 549040 33554434 16
shrinkage=0.3


Tree=146
num_leaves=5
num_cat=2
split_feature=3 0 3 4
split_gain=1.43539 0.297855 0.112083 0.0497057
threshold=0 30.500000000000004 1 245.00000000000003
decision_type=5 2 5 2
left_child=-1 2 -2 -4
right_child=1 -3 3 -5
leaf_value=-0.008911003299824298 -0 -0 -0 0.010833213696964184
leaf_count=829 120 216 63 1727
internal_value=0 0.0270105 0.0330363 0.0348471
internal_count=2955 2126 1910 1790
cat_boundaries=0 6 8
cat_threshold=918610496 36192386 1319056 565 32 20 526336 16777216
shrinkage=0.3


Tree=147
num_leaves=9
num_cat=3
split_feature=5 3 7 1 3 1 7 1
split_gain=2.45032 1.22343 0.261319 0.247807 0.166811 0.146805 0.0619913 0.0534594
threshold=0 1 4391.5000000000009 42.500000000000007 2 2.5000000000000004 2076.0000000000005 66.500000000000014
decision_type=5 5 2 2 5 2 2 2
left_child=3 5 6 4 -1 -2 -3 -8
right_child=1 2 -4 -5 -6 -7 7 -9
leaf_value=-0 -4.29396162871905e-05 0 0 -0 0.012760520868305961 0.004685586714623111 -0.017799096357450219 0
leaf_count=101 210 71 226 66 617 294 1293 77
internal_value=0 -0.0383585 -0.0537331 0.0354435 0.0400292 0.0072191 -0.0575624 -0.0584802
internal_count=2955 2171 1667 784 718 504 1441 1370
cat_boundaries=0 13 20 23
cat_threshold=2148401198 8209 160 16777216 32772 0 65536 0 0 0 0 0 1073741888 5394568 50397194 305 17 32 0 4 67135488 34078720 16
shrinkage=0.3


Tree=148
num_leaves=8
num_cat=5
split_feature=5 5 3 6 3 3 6
split_gain=2.36523 0.85813 0.363934 0.218444 0.216812 0.0621996 0.0264568
threshold=0 1 2 28.500000000000004 3 4 7.5000000000000009
decision_type=5 5 5 2 5 5 2
left_child=4 5 -3 -4 -1 -2 -7
right_child=1 2 3 -5 -6 6 -8
leaf_value=0 0 -0 0.017146739051544072 -0 -0.011882291185092011 -0.0033883625007270308 0
leaf_count=113 105 223 1221 172 670 360 91
internal_value=0 0.0368981 0.0488499 0.0536817 -0.0355886 -0.00336755 -0.00948033
internal_count=2955 2172 1616 1393 783 556 451
cat_boundaries=0 9 15 19 21 23
cat_threshold=63639559 88080664 1073750400 33280 16777216 0 65536 0 16 49184 540043266 813694976 6308144 33126 4194304 67637760 540768 16 2064 16790144 17301504 1116800 524289
shrinkage=0.3


Tree=149
num_leaves=4
num_cat=1
split_feature=5 1 1
split_gain=2.40392 0.376993 0.148746
threshold=0 52.500000000000007 29.500000000000004
decision_type=5 2 2
left_child=2 -2 -1
right_child=1 -3 -4
leaf_value=0.0094895763879964019 -0.014982667657315088 0 -0
leaf_count=630 2078 152 95
internal_value=0 -0.044675 0.0280057
internal_count=2955 2230 725
cat_boundaries=0 13
cat_threshold=268470318 67691008 128 16896 12 0 65536 0 0 0 0 0 1073741888
shrinkage=0.3


Tree=150
num_leaves=8
num_cat=0
split_feature=4 6 0 4 1 1 1
split_gain=0.646828 0.400463 0.194103 0.076936 0.028277 0.0177968 0.0160537
threshold=1875.0000000000002 14.500000000000002 30.500000000000004 555.00000000000011 2.5000000000000004 90.500000000000014 17.500000000000004
decision_type=2 2 2 2 2 2 2
left_child=3 2 4 -1 -2 6 -3
right_child=1 5 -4 -5 -6 -7 -8
leaf_value=0 0 0 -0 -0.0074562874150810718 0.0094601688359855062 0 -0.0022409452334159175
leaf_count=275 384 100 89 1073 733 75 226
internal_value=0 0.0153003 0.0263171 -0.022569 0.0304336 -0.00340541 -0.00587477
internal_count=2955 1607 1206 1348 1117 401 326
shrinkage=0.3


Tree=151
num_leaves=4
num_cat=3
split_feature=5 3 3
split_gain=2.64259 0.50012 0.310917
threshold=0 1 2
decision_type=5 5 5
left_child=2 -2 -1
right_child=1 -3 -4
leaf_value=-0 0 -0.014241948732832551 0.012372106407884638
leaf_count=109 240 1883 723
internal_value=0 -0.0405822 0.0360161
internal_count=2955 2123 832
cat_boundaries=0 13 20 23
cat_threshold=42245248 105409793 384 273154048 777 1073741824 0 0 0 0 0 0 1073741888 51380352 540672 0 67108880 0 0 4 4235392 524288 8192
shrinkage=0.3


Tree=152
num_leaves=8
num_cat=3
split_feature=5 2 1 1 5 1 0
split_gain=2.55767 0.504178 0.49731 0.18129 0.0622717 0.0162234 0.00841992
threshold=0 1 29.500000000000004 1.0000000180025095e-35 2 31.500000000000004 93.500000000000014
decision_type=5 1 2 2 5 2 2
left_child=3 2 4 -1 -2 -5 -4
right_child=1 -3 6 5 -6 -7 -8
leaf_value=-0 0 0 0.00099412841511963197 0.012294246127304821 -0.015802649893514362 0 -0
leaf_count=176 107 76 215 422 1813 81 65
internal_value=0 -0.0387073 -0.0456607 0.0367867 -0.052042 0.0403617 0
internal_count=2955 2276 2200 679 1920 503 280
cat_boundaries=0 13 14 19
cat_threshold=302647344 539517442 1073741824 768 17 0 65536 4096 0 0 0 0 1073741888 4 8388608 32784 131328 4096 8
shrinkage=0.3


Tree=153
num_leaves=8
num_cat=2
