tree
version=v2
num_class=1
num_tree_per_iteration=1
label_index=0
max_feature_idx=13
objective=binary sigmoid:1
feature_names=follow_count fans_count gender location level properties mileage car_like excellent_post_count all_post_count regis_year regis_month regis_day date_delta
feature_infos=[0:911] [0:827] 2:1 5:32:4:20:13:15:14:11:7:16:9:37:51:19:38:12:26:39:35:57:27:24:3:48:53:22:33:68:56:23:61:69:72:122:17:77:62:25:6:100:133:64:194:46:107:84:192:98:75:31:91:28:29:162:96:164:87:105:66:193:101:82:71:104:49:108:41:42:67:81:120:59:137:88:34:240:89:121:229:30:176:21:180:247:50:93:99:8:238:156:136:149:131:118:217:125:97:171:43:86:85:44:54:141:145:36:112:58:195:18:63:191:10:103:175:268:1:127:212:210:147:254:185:179:172:168:126:102:78:76:119:55:45:74:60:65:252:165:196:106:153:109:110:166:167:95:170:73:190:83:183:184:140:128:227:218:228:265:230:47:143:114:146:148:111:150:202:233:225:201:219:186:246:243:189:224:216:235:40:70:199:198:237:232:160:262:115:263:116:181:117:154:155:135:158:253:163:169:267:173:132:249:291 1:2:3:4:5 1:2:5 [70:290600] 18:1:35:42:414:5:17:28:45:130:236:33:3:0:12:69:58:71:208:134:81:25:390:61:56:2:19:110:16:136:15:24:11:31:23:118:94:47:190:53:77:59:57:7:22:87:72:105:143:50:36:43:52:117:54:101:129:75:46:131:182:40:108:14:316:152:125:93:41:92:32:4:128:133:260:20:51:100:132:137:106:124:160:104:111:153:89:10:292:115:88:120:126:107:80:97:147:98:48:157:240:222:29:123:331:200:270:227:109:170:163:159:194:142:34:261:371:13:79:224:119:343:178:91:85:192:416:99:112:127:21:313:164:175:350:150:189:26:73:237:193:229:196:360:197:276:272:380:223:60:370:65:171:6:312:184:83:207:82:216:218:234:221:62:378:148:341:384:494:202:273:249:44:296:275:363:76:144:145:446:68:205:436:74:326:168:321:329:233:174:121:122:235:27:304:388:474:241:248:386:433:8:381:299:330:336:317:415:467:345:348:401:306:78:398:294:351:483:445:361:411:440:425:367:84:185:179:177:198:30:206:534:210:55:63:64:219:90 [0:124] [0:2391] [2005:2018] [1:12] [1:12] [0:4626]
tree_sizes=586 543 550 477 540 541 541 547 545 542 484 551 546 464 572 502 556 483 547 485 550 539 512 550 547 542 544 485 550 549 571 548 548 558 480 528 482 547 548 549 558 555 497 546 426 543 480 542 558 549 549 485 541 563 420 565 484 555 498 547 552 515 546 549 543 548 479 477 485 546 467 463 480 549 547 483 461 479 484 487 466 549 480 551 543 549 485 540 484 551 546 487 462 479 547 548 461 539 567 535 508 545 482 543 464 553 552 562 546 431 551 540 538 564 480 551 552 550 540 508 565

Tree=0
num_leaves=5
num_cat=1
split_feature=7 10 13 6
split_gain=0.57429 0.019744 0.0111948 0.00109495
threshold=0 2010.5000000000002 4566.5000000000009 12215.000000000002
decision_type=5 2 2 2
left_child=-1 -2 3 -3
right_child=1 2 -4 -5
leaf_value=-1.8995095810821567 -1.9004017910958988 -1.9014676254222629 -1.9004017910958988 -1.9004017910958988
leaf_count=744 82 2667 55 91
internal_value=0 -0.00290382 -0.00299178 -0.00304017
internal_count=3639 2895 2813 2758
cat_boundaries=0 13
cat_threshold=2160066608 603997696 73856 0 4 1077936128 65536 4096 0 0 0 0 1073741888
shrinkage=1


Tree=1
num_leaves=5
num_cat=1
split_feature=7 10 13 1
split_gain=0.513279 0.0277335 0.0228586 0.00970008
threshold=0 2010.5000000000002 4566.5000000000009 1.0000000180025095e-35
decision_type=5 2 2 2
left_child=3 -2 -3 -1
right_child=1 2 -4 -5
leaf_value=-0 0 -0.00097034054701770282 0 0.00094189181560484835
leaf_count=60 82 2781 60 656
internal_value=0 -0.00252345 -0.00266307 0.00264273
internal_count=3639 2923 2841 716
cat_boundaries=0 13
cat_threshold=12583088 67126785 8320 0 4 1073741824 65536 4096 0 0 0 0 1073741888
shrinkage=0.35


Tree=2
num_leaves=5
num_cat=1
split_feature=7 13 13 1
split_gain=0.441244 0.0148502 0.0148103 0.00689575
threshold=0 4560.5000000000009 2318.0000000000005 1.0000000180025095e-35
decision_type=5 2 2 2
left_child=3 2 -2 -1
right_child=1 -3 -4 -5
leaf_value=-0 0 0 -0.00088602802179496413 0.00085941061587029358
leaf_count=80 162 61 2565 771
internal_value=0 -0.00237318 -0.00245382 0.00241762
internal_count=3639 2788 2727 851
cat_boundaries=0 13
cat_threshold=2160067764 637797889 65920 256 4 1073741824 65536 4096 0 0 0 0 1073741888
shrinkage=0.35


Tree=3
num_leaves=5
num_cat=1
split_feature=6 10 1 2
split_gain=0.0464772 0.0145246 0.0090945 0.00718118
threshold=2545.0000000000005 2013.5000000000002 1.5000000000000002 0
decision_type=2 2 2 1
left_child=1 -1 -2 -3
right_child=2 3 -4 -5
leaf_value=0 -0 -0.00035370313134323937 0.0003483218306284913 0
leaf_count=176 207 1813 1387 56
internal_value=0 -0.00067547 0.000867799 -0.000913405
internal_count=3639 2045 1594 1869
cat_boundaries=0 1
cat_threshold=4
shrinkage=0.35


Tree=4
num_leaves=5
num_cat=1
split_feature=7 13 13 6
split_gain=0.547643 0.0356016 0.00791136 0.00310205
threshold=0 1972.5000000000002 4573.0000000000009 21520.000000000004
decision_type=5 2 2 2
left_child=-1 -2 3 -3
right_child=1 2 -4 -5
leaf_value=0.0009566025471462829 0 -0.00098948890105419931 0 0
leaf_count=773 103 2678 43 42
internal_value=0 -0.002603 -0.00277576 -0.00281266
internal_count=3639 2866 2763 2720
cat_boundaries=0 13
cat_threshold=4194480 603981313 416 256 4 1077936128 65536 4096 0 0 0 0 1073741888
shrinkage=0.35


Tree=5
num_leaves=5
num_cat=1
split_feature=7 6 13 13
split_gain=0.479118 0.0283189 0.0135605 0.00926589
threshold=0 9335.0000000000018 4566.5000000000009 1972.5000000000002
decision_type=5 2 2 2
left_child=-1 2 3 -2
right_child=1 -3 -4 -5
leaf_value=0.0008969750103692397 0 0 0 -0.00094122098767725453
leaf_count=761 79 180 57 2562
internal_value=0 -0.00242808 -0.00257616 -0.0026438
internal_count=3639 2878 2698 2641
cat_boundaries=0 13
cat_threshold=2160066608 604243457 384 0 4 1073741824 65536 4096 0 0 0 0 1073741888
shrinkage=0.35


Tree=6
num_leaves=5
num_cat=1
split_feature=7 13 13 6
split_gain=0.554729 0.0206937 0.012491 0.00976472
threshold=0 2108.5000000000005 4573.0000000000009 12975.000000000002
decision_type=5 2 2 2
left_child=-1 -2 3 -3
right_child=1 2 -4 -5
leaf_value=0.00096908704464607719 0 -0.00098296504028483767 0 0
leaf_count=723 124 2669 44 79
internal_value=0 -0.00260087 -0.0027032 -0.00276267
internal_count=3639 2916 2792 2748
cat_boundaries=0 13
cat_threshold=12582960 604259840 128 256 4 1077936128 65536 4096 0 0 0 0 1073741888
shrinkage=0.35


Tree=7
num_leaves=5
num_cat=1
split_feature=7 13 13 13
split_gain=0.472208 0.0309038 0.0112132 0.0058849
threshold=0 2723.5000000000005 4560.5000000000009 4483.5000000000009
decision_type=5 2 2 2
left_child=3 -2 -3 -1
right_child=1 2 -4 -5
leaf_value=0.00092465394437776154 0 -0.00089688340650281276 0 -0
leaf_count=768 298 2466 60 47
internal_value=0 -0.00233759 -0.00250485 0.00261178
internal_count=3639 2824 2526 815
cat_boundaries=0 13
cat_threshold=2160070704 235144704 33554816 0 4 1077936128 65536 4096 0 0 0 0 1073741888
shrinkage=0.35


Tree=8
num_leaves=5
num_cat=1
split_feature=7 13 13 6
split_gain=0.500384 0.0369656 0.01156 0.00512351
threshold=0 2206.0000000000005 4566.5000000000009 12975.000000000002
decision_type=5 2 2 2
left_child=-1 -2 3 -3
right_child=1 2 -4 -5
leaf_value=0.00090523379578798615 0 -0.00097291743195062762 0 0
leaf_count=814 138 2564 53 70
internal_value=0 -0.0025152 -0.00270025 -0.00275545
internal_count=3639 2825 2687 2634
cat_boundaries=0 13
cat_threshold=12583088 604030465 33620352 256 4 1077936128 65536 4096 0 0 0 0 1073741888
shrinkage=0.35


Tree=9
num_leaves=5
num_cat=1
split_feature=7 13 6 13
split_gain=0.396008 0.0304958 0.0186599 0.0118802
threshold=0 2723.5000000000005 11400.000000000002 4566.5000000000009
decision_type=5 2 2 2
left_child=-1 -2 3 -3
right_child=1 2 -4 -5
leaf_value=0.00082073880284235629 0 -0.00088520537548986286 0 0
leaf_count=777 288 2437 86 51
internal_value=0 -0.0021916 -0.0023667 -0.00246723
internal_count=3639 2862 2574 2488
cat_boundaries=0 13
cat_threshold=2160066736 604259329 65664 0 4 1073741824 65536 4096 0 0 0 0 1073741888
shrinkage=0.35


Tree=10
num_leaves=4
num_cat=1
split_feature=7 10 6
split_gain=0.481629 0.0234752 0.018578
threshold=0 2011.5000000000002 11400.000000000002
decision_type=5 2 2
left_child=-1 -2 -3
right_child=1 2 -4
leaf_value=0.00090797896747649501 0 -0.0009192614507371762 0
leaf_count=765 156 2630 88
internal_value=0 -0.00240825 -0.00253268
internal_count=3639 2874 2718
cat_boundaries=0 13
cat_threshold=2155872304 738461185 33562752 256 4 4194304 65536 4096 0 0 0 0 1073741888
shrinkage=0.35


Tree=11
num_leaves=5
num_cat=1
split_feature=7 10 6 1
split_gain=0.541066 0.0432769 0.00365699 0.00131994
threshold=0 2011.5000000000002 12215.000000000002 1.0000000180025095e-35
decision_type=5 2 2 2
left_child=3 -2 -3 -1
right_child=1 2 -4 -5
leaf_value=-0 0 -0.0010130978737920963 0 0.00092338368895986285
leaf_count=94 148 2596 80 721
internal_value=0 -0.00267427 -0.00287778 0.00263065
internal_count=3639 2824 2676 815
cat_boundaries=0 13
cat_threshold=12587056 603981313 33628288 256 4 1077936128 65536 4096 0 0 0 0 1073741888
shrinkage=0.35


Tree=12
num_leaves=5
num_cat=1
split_feature=7 13 6 13
split_gain=0.518107 0.0257422 0.0137794 0.00935674
threshold=0 4566.5000000000009 11400.000000000002 2318.0000000000005
decision_type=5 2 2 2
left_child=-1 2 3 -2
right_child=1 -3 -4 -5
leaf_value=0.00093799757658255068 0 0 0 -0.00096322898982850291
leaf_count=777 141 54 119 2548
internal_value=0 -0.00250917 -0.0026397 -0.00270703
internal_count=3639 2862 2808 2689
cat_boundaries=0 13
cat_threshold=12582964 637535745 65664 256 4 1077936128 65536 4096 0 0 0 0 1073741888
shrinkage=0.35


Tree=13
num_leaves=5
num_cat=0
split_feature=6 13 1 13
split_gain=0.0325351 0.0120505 0.00728689 0.00528588
threshold=2545.0000000000005 3303.5000000000005 1.5000000000000002 4566.5000000000009
decision_type=2 2 2 2
left_child=1 -1 -2 -3
right_child=2 3 -4 -5
leaf_value=0 -0 -0.00031059031940960436 0.00029299513828301687 0
leaf_count=327 199 1686 1374 53
internal_value=0 -0.000579567 0.000714608 -0.000806105
internal_count=3639 2066 1573 1739
shrinkage=0.35


Tree=14
num_leaves=5
num_cat=2
split_feature=7 3 13 13
split_gain=0.437085 0.0609827 0.0169625 0.00706892
threshold=0 1 2318.0000000000005 4566.5000000000009
decision_type=5 5 2 2
left_child=-1 -2 -3 -4
right_child=1 2 3 -5
leaf_value=0.00072724230577314618 0 0 -0.0010652662600058678 0
leaf_count=670 218 163 2543 45
internal_value=0 -0.00265364 -0.00293768 -0.00301312
internal_count=3639 2969 2751 2588
cat_boundaries=0 13 21
cat_threshold=2151679024 67372544 128 256 4 1077936128 65536 4096 0 0 0 0 1073741888 150994952 538968064 131328 1 0 0 1 65536
shrinkage=0.35


Tree=15
num_leaves=5
num_cat=1
split_feature=6 13 3 1
split_gain=0.0383949 0.0175312 0.0139063 0.00957055
threshold=2545.0000000000005 3635.5000000000005 0 1.0000000180025095e-35
decision_type=2 2 5 2
left_child=1 -1 -2 -4
right_child=2 -3 3 -5
leaf_value=0 -0 -0.00025528904533445485 -0 0.00043384818466838884
leaf_count=561 113 1470 101 1394
internal_value=0 -0.000274461 0.000961289 0.0011341
internal_count=3639 2031 1608 1495
cat_boundaries=0 7
cat_threshold=64 524360 0 0 32 0 4
shrinkage=0.35


Tree=16
num_leaves=5
num_cat=2
split_feature=7 6 3 13
split_gain=0.527841 0.0361928 0.0213932 0.00937417
threshold=0 9335.0000000000018 1 4566.5000000000009
decision_type=5 2 5 2
left_child=-1 2 -2 -4
right_child=1 -3 3 -5
leaf_value=0.0010154674242550811 0 0 -0.00093050689775791228 0
leaf_count=895 115 166 2415 48
internal_value=0 -0.00230638 -0.00250285 -0.00261154
internal_count=3639 2744 2578 2463
cat_boundaries=0 13 15
cat_threshold=2160067636 637830657 33554816 256 4 1077936128 65536 4096 0 0 0 0 1073741888 150994952 536870912
shrinkage=0.35


Tree=17
num_leaves=4
num_cat=1
split_feature=7 13 6
split_gain=0.56137 0.0291774 0.00888812
threshold=0 2206.0000000000005 20305.000000000004
decision_type=5 2 2
left_child=-1 -2 -3
right_child=1 2 -4
leaf_value=0.00094659259991527957 0 -0.0010072506783670623 0
leaf_count=707 152 2738 42
internal_value=0 -0.00269934 -0.00283733
internal_count=3639 2932 2780
cat_boundaries=0 13
cat_threshold=12583988 67110400 33554560 0 4 1077936128 65536 4096 0 0 0 0 1073741888
shrinkage=0.35


Tree=18
num_leaves=5
num_cat=2
split_feature=7 13 6 3
split_gain=0.504522 0.0442866 0.0188497 0.0161517
threshold=0 2206.0000000000005 12975.000000000002 1
decision_type=5 2 2 5
left_child=-1 -2 3 -3
right_child=1 2 -4 -5
leaf_value=0.00096372826014942442 0 0 0 -0.00096559128757390882
leaf_count=807 139 109 65 2519
internal_value=0 -0.00235511 -0.00258862 -0.00268169
internal_count=3639 2832 2693 2628
cat_boundaries=0 13 17
cat_threshold=12583988 738231808 384 0 4 1077936128 65536 4096 0 0 0 0 1073741888 184549376 65536 0 1
shrinkage=0.35


Tree=19
num_leaves=4
num_cat=1
split_feature=7 13 13
split_gain=0.467582 0.0253768 0.0124072
threshold=0 2076.0000000000005 4566.5000000000009
decision_type=5 2 2
left_child=-1 -2 -3
right_child=1 2 -4
leaf_value=0.00087897558630594004 0 -0.00091552626588019357 0
leaf_count=809 107 2672 51
internal_value=0 -0.00241992 -0.00255331
internal_count=3639 2830 2723
cat_boundaries=0 13
cat_threshold=2160067760 235161089 384 256 4 1073741824 65536 4096 0 0 0 0 1073741888
shrinkage=0.35


Tree=20
num_leaves=5
num_cat=1
split_feature=7 13 6 13
split_gain=0.471983 0.0335013 0.0159324 0.0108132
threshold=0 2933.5000000000005 11400.000000000002 4566.5000000000009
decision_type=5 2 2 2
left_child=-1 -2 3 -3
right_child=1 2 -4 -5
leaf_value=0.00094809711934750189 0 -0.00089369767520573935 0 0
leaf_count=811 378 2337 60 53
internal_value=0 -0.00222378 -0.00241314 -0.00249762
internal_count=3639 2828 2450 2390
cat_boundaries=0 13
cat_threshold=2160066736 603997696 33562752 256 4 1077936128 65536 4096 0 0 0 0 1073741888
shrinkage=0.35


Tree=21
num_leaves=5
num_cat=2
split_feature=7 6 13 2
split_gain=0.439088 0.0444699 0.00295704 0.0021976
threshold=0 9335.0000000000018 2206.0000000000005 1
decision_type=5 2 2 1
left_child=-1 2 -2 -4
right_child=1 -3 3 -5
leaf_value=0.00083567761193044257 0 0 -0.00092714567325503808 0
leaf_count=752 119 179 2522 67
internal_value=0 -0.00239157 -0.00262289 -0.00263794
internal_count=3639 2887 2708 2589
cat_boundaries=0 13 14
cat_threshold=2151679028 603980800 33554560 256 4 1077936128 65536 4096 0 0 0 0 1073741888 4
shrinkage=0.35


Tree=22
num_leaves=5
num_cat=2
split_feature=6 3 1 3
split_gain=0.047189 0.020221 0.0147593 0.010978
threshold=2475.0000000000005 0 1.5000000000000002 1
decision_type=2 5 2 5
left_child=1 -1 -2 -4
right_child=2 -3 3 -5
leaf_value=0 -0 -0.00041510086443348883 -0 0.00035310097159567557
leaf_count=229 204 1813 123 1270
internal_value=0 -0.000938234 0.000589128 0.000855416
internal_count=3639 2042 1597 1393
cat_boundaries=0 4 9
cat_threshold=163643392 539033600 288 67108864 8945664 64 256 0 32
shrinkage=0.35


Tree=23
num_leaves=5
num_cat=1
split_feature=7 13 1 13
split_gain=0.527548 0.0324435 0.010814 0.00745688
threshold=0 2318.0000000000005 1.0000000180025095e-35 4560.5000000000009
decision_type=5 2 2 2
left_child=2 -2 -1 -3
right_child=1 3 -4 -5
leaf_value=-0 0 -0.00094935783394533321 0.00097109229365497762 0
leaf_count=84 160 2575 761 59
internal_value=0 -0.00251281 0.00272217 -0.0026763
internal_count=3639 2794 845 2634
cat_boundaries=0 13
cat_threshold=12584112 740296192 33563008 256 4 1077936128 65536 4096 0 0 0 0 1073741888
shrinkage=0.35


Tree=24
num_leaves=5
num_cat=2
split_feature=7 3 6 13
split_gain=0.544925 0.0253219 0.0187994 0.0054772
threshold=0 1 9335.0000000000018 4566.5000000000009
decision_type=5 5 2 2
left_child=-1 -2 3 -3
right_child=1 2 -4 -5
leaf_value=0.00090106648219265685 0 -0.0010408255445570145 0 0
leaf_count=696 105 2607 184 47
internal_value=0 -0.00274636 -0.00286417 -0.00294958
internal_count=3639 2943 2838 2654
cat_boundaries=0 13 15
cat_threshold=4195376 604243456 384 256 4 1073741824 65536 4096 0 0 0 0 1073741888 285212680 536870912
shrinkage=0.35


Tree=25
num_leaves=5
num_cat=1
split_feature=7 6 13 13
split_gain=0.490381 0.021715 0.0044473 0.00385687
threshold=0 9335.0000000000018 4401.5000000000009 4566.5000000000009
decision_type=5 2 2 2
left_child=2 3 -1 -2
right_child=1 -3 -4 -5
leaf_value=0.00093005161665004829 -0.0008915329084195399 0 -0 0
leaf_count=710 2646 175 52 56
internal_value=0 -0.002412 0.00263447 -0.0025273
internal_count=3639 2877 762 2702
cat_boundaries=0 13
cat_threshold=2160066608 604259840 65664 256 4 1077936128 65536 4096 0 0 0 0 1073741888
shrinkage=0.35


Tree=26
num_leaves=5
num_cat=1
split_feature=7 10 13 6
split_gain=0.428741 0.0304237 0.0110726 0.00653035
threshold=0 2010.5000000000002 4566.5000000000009 11905.000000000002
decision_type=5 2 2 2
left_child=-1 -2 3 -3
right_child=1 2 -4 -5
leaf_value=0.00086963398227233972 0 -0.00087389175152541049 0 0
leaf_count=745 88 2656 52 98
internal_value=0 -0.00223195 -0.00240307 -0.00246231
internal_count=3639 2894 2806 2754
cat_boundaries=0 13
cat_threshold=2160066612 69207552 65664 0 4 1077936128 65536 4096 0 0 0 0 1073741888
shrinkage=0.35


Tree=27
num_leaves=4
num_cat=1
split_feature=7 10 6
split_gain=0.503535 0.0264799 0.01726
threshold=0 2011.5000000000002 13975.000000000002
decision_type=5 2 2
left_child=-1 -2 -3
right_child=1 2 -4
leaf_value=0.00087690978100255044 0 -0.00098753517650462938 0
leaf_count=685 170 2723 61
internal_value=0 -0.0026111 -0.00274077
internal_count=3639 2954 2784
cat_boundaries=0 13
cat_threshold=2147483696 67111937 33554816 256 4 1077936128 65536 4096 0 0 0 0 1073741888
shrinkage=0.35


Tree=28
num_leaves=5
num_cat=1
split_feature=7 13 6 13
split_gain=0.476852 0.0126494 0.0119085 0.00348939
threshold=0 4560.5000000000009 11700.000000000002 2318.0000000000005
decision_type=5 2 2 2
left_child=-1 2 3 -2
right_child=1 -3 -4 -5
leaf_value=0.00082515561764437547 0 0 0 -0.00096356746588305948
leaf_count=812 142 59 122 2504
internal_value=0 -0.00261553 -0.00267842 -0.00273598
internal_count=3639 2827 2768 2646
cat_boundaries=0 13
cat_threshold=12583092 637797889 33620096 256 4 1073741824 65536 4096 0 0 0 0 1073741888
shrinkage=0.35


Tree=29
num_leaves=5
num_cat=2
split_feature=7 13 3 13
split_gain=0.491099 0.0258992 0.0196754 0.00615681
threshold=0 2076.0000000000005 1 4566.5000000000009
decision_type=5 2 5 2
left_child=-1 -2 -3 -4
right_child=1 2 3 -5
leaf_value=0.00092168476047389011 0 0 -0.00093880925536898874 0
leaf_count=792 114 119 2561 53
internal_value=0 -0.00241703 -0.00255324 -0.00265146
internal_count=3639 2847 2733 2614
cat_boundaries=0 13 15
cat_threshold=12583088 604243456 416 0 4 1077936128 65536 4096 0 0 0 0 1073741888 402653192 538968064
shrinkage=0.35


Tree=30
num_leaves=5
num_cat=2
split_feature=7 10 3 6
split_gain=0.440613 0.0310685 0.0254794 0.000718018
threshold=0 2011.5000000000002 1 12975.000000000002
decision_type=5 2 5 2
left_child=-1 -2 -3 -4
right_child=1 2 3 -5
leaf_value=0.00093364506876000473 0 0 -0.00084629458700955981 0
leaf_count=920 138 114 2414 53
internal_value=0 -0.00208605 -0.00227205 -0.00241331
internal_count=3639 2719 2581 2467
cat_boundaries=0 13 20
cat_threshold=2151679156 772064769 33554816 0 32772 1077936128 65536 4096 0 0 0 0 1073741888 142606336 538968064 0 16 0 0 1
shrinkage=0.35


Tree=31
num_leaves=5
num_cat=1
split_feature=7 13 10 6
split_gain=0.486225 0.0174843 0.0124775 0.00149811
threshold=0 4560.5000000000009 2010.5000000000002 20695.000000000004
decision_type=5 2 2 2
left_child=-1 2 -2 -4
right_child=1 -3 3 -5
leaf_value=0.00093549228089313612 0 0 -0.00088054129863480459 0
leaf_count=910 73 57 2555 44
internal_value=0 -0.00234669 -0.00244224 -0.00250793
internal_count=3639 2729 2672 2599
cat_boundaries=0 13
cat_threshold=2160067764 637814273 33554592 0 4 1077936128 65536 4096 0 0 0 0 1073741888
shrinkage=0.35


Tree=32
num_leaves=5
num_cat=1
split_feature=7 10 6 13
split_gain=0.469083 0.0189532 0.0111608 0.00716968
threshold=0 2010.5000000000002 12975.000000000002 4560.5000000000009
decision_type=5 2 2 2
left_child=-1 -2 3 -3
right_child=1 2 -4 -5
leaf_value=0.00088999375210488721 0 -0.00090671108439986799 0 0
leaf_count=832 78 2602 68 59
internal_value=0 -0.00239519 -0.00249661 -0.00255421
internal_count=3639 2807 2729 2661
cat_boundaries=0 13
cat_threshold=2151679024 772048384 33620352 0 4 1077936128 65536 4096 0 0 0 0 1073741888
shrinkage=0.35


Tree=33
num_leaves=5
num_cat=2
split_feature=7 3 1 13
split_gain=0.568738 0.0314338 0.00985764 0.00840846
threshold=0 1 1.0000000180025095e-35 4566.5000000000009
decision_type=5 5 2 2
left_child=2 -2 -1 -3
right_child=1 3 -4 -5
leaf_value=-0 0 -0.0008866139044997009 0.001089860210659154 0
leaf_count=73 270 2560 687 49
internal_value=0 -0.00231803 0.00307116 -0.0024889
internal_count=3639 2879 760 2609
cat_boundaries=0 13 20
cat_threshold=2160067632 67388929 384 0 4 1077936128 65536 4096 0 0 0 0 1073741888 151060488 2162688 256 1 0 0 1
shrinkage=0.35


Tree=34
num_leaves=5
num_cat=1
split_feature=6 13 1 2
split_gain=0.0325872 0.0169624 0.0116005 0.00731195
threshold=2475.0000000000005 3042.0000000000005 1.5000000000000002 0
decision_type=2 2 2 1
left_child=1 -1 -2 -3
right_child=2 3 -4 -5
leaf_value=0 -0 -0.00035208848391126216 0.00030717319209198955 0
leaf_count=185 207 1779 1412 56
internal_value=0 -0.000616495 0.000683963 -0.000906407
internal_count=3639 2020 1619 1835
cat_boundaries=0 1
cat_threshold=4
shrinkage=0.35


Tree=35
num_leaves=5
num_cat=2
split_feature=7 13 2 6
split_gain=0.494122 0.0315477 0.00317044 0.00452621
threshold=0 2318.0000000000005 1 12215.000000000002
decision_type=5 2 1 2
left_child=-1 -2 3 -3
right_child=1 2 -4 -5
leaf_value=0.00087911589043439915 0 -0.00096303274078069975 0 0
leaf_count=709 178 2607 74 71
internal_value=0 -0.00255784 -0.0027144 -0.0027298
internal_count=3639 2930 2752 2678
cat_boundaries=0 13 14
cat_threshold=12583968 603981312 384 0 4 1077936128 65536 4096 0 0 0 0 1073741888 4
shrinkage=0.35


Tree=36
num_leaves=4
num_cat=1
split_feature=7 13 13
split_gain=0.474027 0.046594 0.0111595
threshold=0 2318.0000000000005 4566.5000000000009
decision_type=5 2 2
left_child=-1 -2 -3
right_child=1 2 -4
leaf_value=0.00087038303222885009 0 -0.00096817341614785458 0
leaf_count=763 178 2644 54
internal_value=0 -0.00247901 -0.00271313
internal_count=3639 2876 2698
cat_boundaries=0 13
cat_threshold=2151678000 203703809 384 0 4 1077936128 65536 4096 0 0 0 0 1073741888
shrinkage=0.35


Tree=37
num_leaves=5
num_cat=1
split_feature=7 13 13 1
split_gain=0.464119 0.0317947 0.013797 0.013623
threshold=0 2206.0000000000005 4560.5000000000009 1.0000000180025095e-35
decision_type=5 2 2 2
left_child=3 -2 -3 -1
right_child=1 2 -4 -5
leaf_value=-0 0 -0.00091790840082685017 0 0.00090905210127258649
leaf_count=89 128 2550 57 815
internal_value=0 -0.002385 -0.00255318 0.00252695
internal_count=3639 2735 2607 904
cat_boundaries=0 13
cat_threshold=12584112 772064769 33563008 256 4 1077936128 65536 4096 0 0 0 0 1073741888
shrinkage=0.35


Tree=38
num_leaves=5
num_cat=1
split_feature=7 13 13 6
split_gain=0.53122 0.0266986 0.0165554 0.00606852
threshold=0 2318.0000000000005 4566.5000000000009 12975.000000000002
decision_type=5 2 2 2
left_child=-1 -2 3 -3
right_child=1 2 -4 -5
leaf_value=0.00094591548748266824 0 -0.00097781724037197988 0 0
leaf_count=775 177 2564 54 69
internal_value=0 -0.00255254 -0.0026861 -0.00276514
internal_count=3639 2864 2687 2633
cat_boundaries=0 13
cat_threshold=2160067636 67110401 33620352 256 4 1077936128 65536 4096 0 0 0 0 1073741888
shrinkage=0.35


Tree=39
num_leaves=5
num_cat=1
split_feature=7 13 13 6
split_gain=0.509409 0.0250706 0.0107022 0.00094457
threshold=0 2076.0000000000005 4566.5000000000009 20695.000000000004
decision_type=5 2 2 2
left_child=-1 -2 3 -3
right_child=1 2 -4 -5
leaf_value=0.0009365044865911078 0 -0.00092952439889611009 0 0
leaf_count=774 93 2673 54 45
internal_value=0 -0.00246852 -0.00259787 -0.00265099
internal_count=3639 2865 2772 2718
cat_boundaries=0 13
cat_threshold=2160066608 738477568 33554560 256 4 1073741824 65536 4096 0 0 0 0 1073741888
shrinkage=0.35


Tree=40
num_leaves=5
num_cat=2
split_feature=7 13 13 7
split_gain=0.445262 0.0307591 0.0126182 0.000212696
threshold=0 2933.5000000000005 4560.5000000000009 1
decision_type=5 2 2 5
left_child=3 -2 -3 -1
right_child=1 2 -4 -5
leaf_value=-0 0 -0.00088306535258776979 0 0.00088295516610922256
leaf_count=108 371 2391 58 711
internal_value=0 -0.00228686 -0.00245702 0.0025209
internal_count=3639 2820 2449 819
cat_boundaries=0 13 16
cat_threshold=12582960 772015617 33562752 256 4 1077936128 65536 4096 0 0 0 0 1073741888 4194304 167772161 8192
shrinkage=0.35


Tree=41
num_leaves=5
num_cat=1
split_feature=7 13 6 13
split_gain=0.456458 0.0298193 0.0131533 0.00216394
threshold=0 2206.0000000000005 12975.000000000002 4566.5000000000009
decision_type=5 2 2 2
left_child=-1 -2 3 -3
right_child=1 2 -4 -5
leaf_value=0.00089415719122074846 0 -0.00089425995869677692 0 0
leaf_count=848 145 2530 65 51
internal_value=0 -0.00231286 -0.00247555 -0.00254382
internal_count=3639 2791 2646 2581
cat_boundaries=0 13
cat_threshold=2160067764 738199041 33620096 256 32772 1077936128 65536 4096 0 0 0 0 1073741888
shrinkage=0.35


Tree=42
num_leaves=5
num_cat=1
split_feature=6 13 1 3
split_gain=0.0271059 0.0206321 0.0168683 0.00685442
threshold=2475.0000000000005 3635.5000000000005 1.5000000000000002 0
decision_type=2 2 2 5
left_child=1 -1 -2 -4
right_child=2 -3 3 -5
leaf_value=0 -0 -0.00029525424735599051 -0 0.00037528369216581405
leaf_count=544 211 1471 104 1309
internal_value=0 -0.000417139 0.00072898 0.000985449
internal_count=3639 2015 1624 1413
cat_boundaries=0 5
cat_threshold=4160 65608 0 16 32
shrinkage=0.35


Tree=43
num_leaves=5
num_cat=1
split_feature=7 13 6 13
split_gain=0.481299 0.0197088 0.0122902 0.00816681
threshold=0 2636.5000000000005 12975.000000000002 4566.5000000000009
decision_type=5 2 2 2
left_child=-1 -2 3 -3
right_child=1 2 -4 -5
leaf_value=0.00089613572916887225 0 -0.00092715988586472781 0 0
leaf_count=746 249 2535 59 50
internal_value=0 -0.00244236 -0.00254639 -0.00260851
internal_count=3639 2893 2644 2585
cat_boundaries=0 13
cat_threshold=2160067760 67110401 8576 256 4 1073741824 65536 4096 0 0 0 0 1073741888
shrinkage=0.35


Tree=44
num_leaves=3
num_cat=1
split_feature=7 6
split_gain=0.426191 0.012635
threshold=0 9335.0000000000018
decision_type=5 2
left_child=-1 -2
right_child=1 -3
leaf_value=0.0008916013814671928 -0.00077744410483105992 0
leaf_count=848 2611 180
internal_value=0 -0.00214505
internal_count=3639 2791
cat_boundaries=0 13
cat_threshold=2160067632 606356993 33620352 256 4 1077936128 65536 4096 0 0 0 0 1073741888
shrinkage=0.35


Tree=45
num_leaves=5
num_cat=1
split_feature=7 6 13 13
split_gain=0.539339 0.0191057 0.017953 0.0124613
threshold=0 11700.000000000002 2318.0000000000005 4560.5000000000009
decision_type=5 2 2 2
left_child=-1 2 -2 -4
right_child=1 -3 3 -5
leaf_value=0.0010083650834292594 0 0 -0.00092798787651685976 0
leaf_count=803 143 117 2509 67
internal_value=0 -0.00239489 -0.00249725 -0.0025894
internal_count=3639 2836 2719 2576
cat_boundaries=0 13
cat_threshold=12583988 604259841 65664 256 4 1077936128 65536 4096 0 0 0 0 1073741888
shrinkage=0.35


Tree=46
num_leaves=5
num_cat=1
split_feature=13 6 2 13
split_gain=0.0530194 0.0371933 0.00770835 0.00113891
threshold=3648.5000000000005 3605.0000000000005 0 1270.5000000000002
decision_type=2 2 1 2
left_child=3 2 -2 -1
right_child=1 -3 -4 -5
leaf_value=-0 -0.00046777754458382476 0 0 0.00031163249148635959
leaf_count=43 1662 441 55 1438
internal_value=0 -0.000785211 -0.00125911 0.000873506
internal_count=3639 2158 1717 1481
cat_boundaries=0 1
cat_threshold=4
shrinkage=0.35


Tree=47
num_leaves=5
num_cat=1
split_feature=7 13 13 6
split_gain=0.390226 0.0359008 0.0164065 0.0100371
threshold=0 2933.5000000000005 4566.5000000000009 11400.000000000002
decision_type=5 2 2 2
left_child=-1 -2 3 -3
right_child=1 2 -4 -5
leaf_value=0.00084956993854726941 0 -0.00084953994500284948 0 0
leaf_count=683 404 2417 58 77
internal_value=0 -0.00206478 -0.00228094 -0.00237268
internal_count=3639 2956 2552 2494
cat_boundaries=0 13
cat_threshold=4194352 604243457 128 256 4 1073741824 65536 4096 0 0 0 0 1073741888
shrinkage=0.35


Tree=48
num_leaves=5
num_cat=2
split_feature=7 10 3 1
split_gain=0.396557 0.0294746 0.013747 0.0128189
threshold=0 2012.5000000000002 1 1.0000000180025095e-35
decision_type=5 2 5 2
left_child=3 -2 -3 -1
right_child=1 2 -4 -5
leaf_value=-0 0 0 -0.00076844888914227752 0.00092396663781482203
leaf_count=95 231 117 2444 752
internal_value=0 -0.00192186 -0.00211263 0.00257473
internal_count=3639 2792 2561 847
cat_boundaries=0 13 17
cat_threshold=2160066736 740607489 128 256 4 1077936128 65536 4096 0 0 0 0 1073741888 285212680 536870912 0 16
shrinkage=0.35


Tree=49
num_leaves=5
num_cat=1
split_feature=7 6 13 1
split_gain=0.439814 0.0382267 0.00925556 0.000550794
threshold=0 6775.0000000000009 4566.5000000000009 1.0000000180025095e-35
decision_type=5 2 2 2
left_child=3 2 -2 -1
right_child=1 -3 -4 -5
leaf_value=-0 -0.0009142045801129059 0 0 0.00084860151205878962
leaf_count=69 2461 300 56 753
internal_value=0 -0.00236237 -0.00256538 0.00242073
internal_count=3639 2817 2517 822
cat_boundaries=0 13
cat_threshold=2160067636 604014081 65920 0 4 1077936128 65536 4096 0 0 0 0 1073741888
shrinkage=0.35


Tree=50
num_leaves=5
num_cat=1
split_feature=7 6 1 10
split_gain=0.503497 0.0240333 0.0114518 0.00947616
threshold=0 9335.0000000000018 1.0000000180025095e-35 2010.5000000000002
decision_type=5 2 2 2
left_child=2 3 -1 -2
right_child=1 -3 -4 -5
leaf_value=-0 0 0 0.00097007980618951477 -0.00089916897740478883
leaf_count=61 55 180 704 2639
internal_value=0 -0.00239234 0.00271625 -0.00252052
internal_count=3639 2874 765 2694
cat_boundaries=0 13
cat_threshold=2160066736 603981312 8320 256 4 1077936128 65536 4096 0 0 0 0 1073741888
shrinkage=0.35


Tree=51
num_leaves=4
num_cat=1
split_feature=7 13 13
split_gain=0.482114 0.0254204 0.000882408
threshold=0 2206.0000000000005 4566.5000000000009
decision_type=5 2 2
left_child=-1 -2 -3
right_child=1 2 -4
leaf_value=0.00094393794973603347 0 -0.00085449824319760873 0
leaf_count=879 144 2563 53
internal_value=0 -0.00229605 -0.00243654
internal_count=3639 2760 2616
cat_boundaries=0 13
cat_threshold=4194484 639911425 8576 256 4 1077936128 65536 4096 0 0 0 0 1073741888
shrinkage=0.35


Tree=52
num_leaves=5
num_cat=1
split_feature=7 10 13 6
split_gain=0.467861 0.023614 0.0100192 0.00438373
threshold=0 2010.5000000000002 4566.5000000000009 20695.000000000004
decision_type=5 2 2 2
left_child=-1 -2 3 -3
right_child=1 2 -4 -5
leaf_value=0.00086689282016767755 0 -0.00092787167245634997 0 0
leaf_count=766 87 2691 55 40
internal_value=0 -0.00245664 -0.00257924 -0.00262936
internal_count=3639 2873 2786 2731
cat_boundaries=0 13
cat_threshold=12583092 67372545 384 256 4 1077936128 65536 4096 0 0 0 0 1073741888
shrinkage=0.35


Tree=53
num_leaves=5
num_cat=2
split_feature=7 3 6 13
split_gain=0.445933 0.0377029 0.0214229 0.0132355
threshold=0 1 9335.0000000000018 4566.5000000000009
decision_type=5 5 2 2
left_child=-1 -2 3 -3
right_child=1 2 -4 -5
leaf_value=0.00095285818085943659 0 -0.00086335604198232465 0 0
leaf_count=792 208 2431 167 41
internal_value=0 -0.00204858 -0.00227568 -0.00239589
internal_count=3639 2847 2639 2472
cat_boundaries=0 13 20
cat_threshold=2160066612 603981313 384 256 4 1077936128 65536 4096 0 0 0 0 1073741888 159383560 538968064 256 0 0 0 1
shrinkage=0.35


Tree=54
num_leaves=3
num_cat=1
split_feature=7 6
split_gain=0.537626 0.0134152
threshold=0 9335.0000000000018
decision_type=5 2
left_child=-1 -2
right_child=1 -3
leaf_value=0.0010159648206209458 -0.00085154179143781658 0
leaf_count=943 2515 181
internal_value=0 -0.00235907
internal_count=3639 2696
cat_boundaries=0 13
cat_threshold=2160328740 604243457 384 0 4 1073741824 65536 4096 0 0 0 0 1073741888
shrinkage=0.35


Tree=55
num_leaves=5
num_cat=2
split_feature=7 3 13 13
split_gain=0.438002 0.0369198 0.0145002 0.00609398
threshold=0 1 2206.0000000000005 4566.5000000000009
decision_type=5 5 2 2
left_child=-1 -2 -3 -4
right_child=1 2 3 -5
leaf_value=0.00089283643064476251 0 0 -0.00088500700260845495 0
leaf_count=811 230 132 2421 45
internal_value=0 -0.00221134 -0.00241925 -0.00249693
internal_count=3639 2828 2598 2466
cat_boundaries=0 13 20
cat_threshold=2160066612 637535745 8320 256 4 1073741824 65536 4096 0 0 0 0 1073741888 159383560 539033600 32 0 0 0 1
shrinkage=0.35


Tree=56
num_leaves=4
num_cat=1
split_feature=7 13 13
split_gain=0.525316 0.0240188 0.0135476
threshold=0 2723.5000000000005 4566.5000000000009
decision_type=5 2 2
left_child=-1 -2 -3
right_child=1 2 -4
leaf_value=0.00096131836164067245 0 -0.0009331747979254353 0
leaf_count=760 276 2553 50
internal_value=0 -0.00247473 -0.00259922
internal_count=3639 2879 2603
cat_boundaries=0 13
cat_threshold=2160066608 637797888 128 256 4 1077936128 65536 4096 0 0 0 0 1073741888
shrinkage=0.35


Tree=57
num_leaves=5
num_cat=2
split_feature=7 3 13 13
split_gain=0.438891 0.0545967 0.0211289 0.0115082
threshold=0 1 2318.0000000000005 4416.5000000000009
decision_type=5 5 2 2
left_child=3 -2 -3 -1
right_child=1 2 -4 -5
leaf_value=0.00079292741766017795 0 0 -0.001024049565514412 -0
leaf_count=713 205 150 2521 50
internal_value=0 -0.00256553 -0.00282919 0.00219748
internal_count=3639 2876 2671 763
cat_boundaries=0 13 17
cat_threshold=12582960 637535744 8352 256 4 1077936128 65536 4096 0 0 0 0 1073741888 150994952 536936448 256 17
shrinkage=0.35


Tree=58
num_leaves=4
num_cat=2
split_feature=7 3 10
split_gain=0.492387 0.0277629 0.0129911
threshold=0 1 2010.5000000000002
decision_type=5 5 2
left_child=-1 -2 -3
right_child=1 2 -4
leaf_value=0.00093352186746201106 0 0 -0.00091039484192224831
leaf_count=744 249 73 2573
internal_value=0 -0.00238701 -0.00253453
internal_count=3639 2895 2646
cat_boundaries=0 13 17
cat_threshold=12584112 603981312 33554560 256 4 1077936128 65536 4096 0 0 0 0 1073741888 411107336 536936448 0 17
shrinkage=0.35


Tree=59
num_leaves=5
num_cat=1
split_feature=7 13 1 13
split_gain=0.480967 0.0154701 0.00532488 0.00744138
threshold=0 4566.5000000000009 74.500000000000014 1972.5000000000002
decision_type=5 2 2 2
left_child=-1 2 3 -2
right_child=1 -3 -4 -5
leaf_value=0.00088001725368506024 0 0 0 -0.00092133707451143743
leaf_count=821 74 54 102 2588
internal_value=0 -0.00248778 -0.00256801 -0.00259515
internal_count=3639 2818 2764 2662
cat_boundaries=0 13
cat_threshold=2160067632 740607489 128 256 4 1073741824 65536 4096 0 0 0 0 1073741888
shrinkage=0.35


Tree=60
num_leaves=5
num_cat=1
split_feature=7 13 6 13
split_gain=0.460468 0.0214641 0.00510661 0.00286748
threshold=0 2318.0000000000005 12975.000000000002 4560.5000000000009
decision_type=5 2 2 2
left_child=-1 -2 3 -3
right_child=1 2 -4 -5
leaf_value=0.00089994470307067879 0 -0.00086732103141881102 0 0
leaf_count=917 159 2443 62 58
internal_value=0 -0.00231711 -0.00243549 -0.00246278
internal_count=3639 2722 2563 2501
cat_boundaries=0 13
cat_threshold=2160067764 637797889 33563008 256 4 1077936128 65536 4096 0 0 0 0 1073741888
shrinkage=0.35


Tree=61
num_leaves=5
num_cat=2
split_feature=6 3 3 13
split_gain=0.0684921 0.0158678 0.0130449 0.00711484
threshold=2545.0000000000005 0 1 4566.5000000000009
decision_type=2 5 5 2
left_child=1 -1 -2 -3
right_child=2 3 -4 -5
leaf_value=0 -0 -0.0003543217597646602 0.00045581460291788421 0
leaf_count=228 104 1764 1494 49
internal_value=0 -0.000652843 0.00116464 -0.000916046
internal_count=3639 2041 1598 1813
cat_boundaries=0 4 9
cat_threshold=134414336 36241408 32 67108864 8388672 2097224 0 0 32
shrinkage=0.35


Tree=62
num_leaves=5
num_cat=1
split_feature=7 10 13 6
split_gain=0.428199 0.0309958 0.0219789 0.00644509
threshold=0 2010.5000000000002 4560.5000000000009 12570.000000000002
decision_type=5 2 2 2
left_child=-1 -2 3 -3
right_child=1 2 -4 -5
leaf_value=0.000809215654443267 0 -0.00094826831368181408 0 0
leaf_count=764 83 2647 61 84
internal_value=0 -0.00240649 -0.00256902 -0.00267796
internal_count=3639 2875 2792 2731
cat_boundaries=0 13
cat_threshold=12583984 606356993 33554560 256 4 1073741824 65536 4096 0 0 0 0 1073741888
shrinkage=0.35


Tree=63
num_leaves=5
num_cat=1
split_feature=7 13 10 6
split_gain=0.360055 0.00939782 0.0089518 0.00379384
threshold=0 4560.5000000000009 2010.5000000000002 12975.000000000002
decision_type=5 2 2 2
left_child=-1 2 -2 -4
right_child=1 -3 3 -5
leaf_value=0.00084430432604545923 0 0 -0.00071139874173974387 0
leaf_count=866 75 59 2561 78
internal_value=0 -0.00188476 -0.00194902 -0.00200796
internal_count=3639 2773 2714 2639
cat_boundaries=0 13
cat_threshold=13107380 235161089 33554816 256 4 1077936128 65536 4096 0 0 0 0 1073741888
shrinkage=0.35


Tree=64
num_leaves=5
num_cat=1
split_feature=7 13 6 13
split_gain=0.452519 0.0283229 0.00971534 0.00238922
threshold=0 2206.0000000000005 11905.000000000002 4573.0000000000009
decision_type=5 2 2 2
left_child=-1 -2 3 -3
right_child=1 2 -4 -5
leaf_value=0.00089226869949954064 0 -0.00088071483831470042 0 0
leaf_count=700 155 2655 86 43
internal_value=0 -0.00229681 -0.00245264 -0.00250382
internal_count=3639 2939 2784 2698
cat_boundaries=0 13
cat_threshold=12583984 603981312 384 0 4 1077936128 65536 4096 0 0 0 0 1073741888
shrinkage=0.35


Tree=65
num_leaves=5
num_cat=1
split_feature=7 13 6 13
split_gain=0.422044 0.0314055 0.0115602 0.0101201
threshold=0 2723.5000000000005 11400.000000000002 4560.5000000000009
decision_type=5 2 2 2
left_child=-1 -2 3 -3
right_child=1 2 -4 -5
leaf_value=0.0008716162816325379 0 -0.00086919723136405145 0 0
leaf_count=810 275 2417 75 62
internal_value=0 -0.00218637 -0.00236685 -0.0024297
internal_count=3639 2829 2554 2479
cat_boundaries=0 13
cat_threshold=2151678000 606340609 8576 256 32772 1077936128 65536 4096 0 0 0 0 1073741888
shrinkage=0.35


Tree=66
num_leaves=5
num_cat=1
split_feature=6 13 1 2
split_gain=0.0554232 0.0136584 0.0114852 0.00556964
threshold=2545.0000000000005 3042.0000000000005 1.5000000000000002 0
decision_type=2 2 2 1
left_child=1 -1 -2 -3
right_child=2 3 -4 -5
leaf_value=0 -0 -0.00036047477956912215 0.00038050330445821637 0
leaf_count=187 212 1783 1400 57
internal_value=0 -0.00074833 0.000939252 -0.000956905
internal_count=3639 2027 1612 1840
cat_boundaries=0 1
cat_threshold=4
shrinkage=0.35


Tree=67
num_leaves=4
num_cat=1
split_feature=7 6 13
split_gain=0.497278 0.0336883 0.00612971
threshold=0 4945.0000000000009 4566.5000000000009
decision_type=5 2 2
left_child=-1 2 -2
right_child=1 -3 -4
leaf_value=0.00095108966065935796 -0.00089932747096413965 0 0
leaf_count=688 2407 491 53
internal_value=0 -0.00235721 -0.00253814
internal_count=3639 2951 2460
cat_boundaries=0 13
cat_threshold=4194352 604243456 384 0 4 4194304 65536 4096 0 0 0 0 1073741888
shrinkage=0.35


Tree=68
num_leaves=4
num_cat=1
split_feature=7 6 13
split_gain=0.411173 0.0294297 0.00156823
threshold=0 9335.0000000000018 4560.5000000000009
decision_type=5 2 2
left_child=-1 2 -2
right_child=1 -3 -4
leaf_value=0.00084536324447965594 -0.00083378846472540206 0 0
leaf_count=725 2662 192 60
internal_value=0 -0.00220554 -0.00237349
internal_count=3639 2914 2722
cat_boundaries=0 13
cat_threshold=4195504 201590273 33620352 0 4 1073741824 65536 4096 0 0 0 0 1073741888
shrinkage=0.35


Tree=69
num_leaves=5
num_cat=1
split_feature=7 6 10 13
split_gain=0.414102 0.0162615 0.0119325 0.00825766
threshold=0 12975.000000000002 2010.5000000000002 4566.5000000000009
decision_type=5 2 2 2
left_child=-1 2 -2 -4
right_child=1 -3 3 -5
leaf_value=0.00084123131562980431 0 0 -0.00085364214436981563 0
leaf_count=766 73 81 2670 49
internal_value=0 -0.00223536 -0.00232864 -0.00239446
internal_count=3639 2873 2792 2719
cat_boundaries=0 13
cat_threshold=13108272 604030465 33554560 0 4 1077936128 65536 4096 0 0 0 0 1073741888
shrinkage=0.35


Tree=70
num_leaves=5
num_cat=0
split_feature=6 10 1 9
split_gain=0.0344765 0.011714 0.00772866 0.00697061
threshold=2545.0000000000005 2014.5000000000002 1.0000000180025095e-35 54.500000000000007
decision_type=2 2 2 2
left_child=1 -1 -2 -4
right_child=2 -3 3 -5
leaf_value=0 -0 -0.00024436372740069007 0.00036681159802231844 -0
leaf_count=343 114 1678 1376 128
internal_value=0 -0.000427033 0.000845548 0.000957311
internal_count=3639 2021 1618 1504
shrinkage=0.35


Tree=71
num_leaves=5
num_cat=0
split_feature=1 13 13 9
split_gain=0.0104712 0.0102467 0.00547954 0.00125882
threshold=3.5000000000000004 3625.0000000000005 4560.5000000000009 62.500000000000007
decision_type=2 2 2 2
left_child=1 -1 -3 -2
right_child=3 2 -4 -5
leaf_value=0 0.0001776435591674689 -0.00023670357193619952 0 -0
leaf_count=322 1768 1387 59 103
internal_value=0 -0.000218224 -0.000560864 0.000474117
internal_count=3639 1768 1446 1871
shrinkage=0.35


Tree=72
num_leaves=4
num_cat=1
split_feature=7 10 6
split_gain=0.44087 0.0383439 0.00993968
threshold=0 2013.5000000000002 12975.000000000002
decision_type=5 2 2
left_child=-1 -2 -3
right_child=1 2 -4
leaf_value=0.00098390092757337229 0 -0.00076996718726270532 0
leaf_count=662 405 2520 52
internal_value=0 -0.00189186 -0.00214027
internal_count=3639 2977 2572
cat_boundaries=0 13
cat_threshold=12583056 637535745 128 0 4 1073741824 65536 4096 0 0 0 0 1073741888
shrinkage=0.35


Tree=73
num_leaves=5
num_cat=1
split_feature=7 13 13 6
split_gain=0.364639 0.0298745 0.0162091 0.00920548
threshold=0 2318.0000000000005 4560.5000000000009 12975.000000000002
decision_type=5 2 2 2
left_child=-1 -2 3 -3
right_child=1 2 -4 -5
leaf_value=0.00077471503531536536 0 -0.00085934228348238364 0 0
leaf_count=744 173 2592 67 63
internal_value=0 -0.00214158 -0.00231656 -0.00240588
internal_count=3639 2895 2722 2655
cat_boundaries=0 13
cat_threshold=12582964 603983360 384 16777472 4 1077936128 65536 4096 0 0 0 0 1073741888
shrinkage=0.35


Tree=74
num_leaves=5
num_cat=1
split_feature=7 13 13 13
split_gain=0.426379 0.0180219 0.0137394 0.00314055
threshold=0 4566.5000000000009 2206.0000000000005 4471.5000000000009
decision_type=5 2 2 2
left_child=3 2 -2 -1
right_child=1 -3 -4 -5
leaf_value=0.00089371967670478006 0 0 -0.00082013881049700955 -0
leaf_count=844 132 54 2566 43
internal_value=0 -0.00215898 -0.00226541 0.00253657
internal_count=3639 2752 2698 887
cat_boundaries=0 13
cat_threshold=12587060 772048385 33620096 0 4 1077936128 65536 4096 0 0 0 0 1073741888
shrinkage=0.35


Tree=75
num_leaves=5
num_cat=2
split_feature=13 1 3 2
split_gain=0.0126436 0.00974021 0.00973029 0.00735941
threshold=3635.5000000000005 12.500000000000002 0 1
decision_type=2 2 5 1
left_child=2 3 -1 -2
right_child=1 -3 -4 -5
leaf_value=-0 -0.00023812320145228925 0 0.00026308631547839243 0
leaf_count=223 1824 335 1203 54
internal_value=0 -0.00013392 0.000557991 -0.000520911
internal_count=3639 2213 1426 1878
cat_boundaries=0 2 3
cat_threshold=1605696 18874442 4
shrinkage=0.35


Tree=76
num_leaves=5
num_cat=0
split_feature=6 1 13 13
split_gain=0.0419923 0.018171 0.0132304 0.00712543
threshold=2545.0000000000005 2.5000000000000004 3635.5000000000005 4566.5000000000009
decision_type=2 2 2 2
left_child=2 -2 -1 -4
right_child=1 -3 3 -5
leaf_value=0 -0 0.00038624632074956593 -0.00032832169320614289 0
leaf_count=549 304 1286 1438 62
internal_value=0 0.00086239 -0.000590849 -0.000833203
internal_count=3639 1590 2049 1500
shrinkage=0.35


Tree=77
num_leaves=5
num_cat=1
split_feature=6 13 1 2
split_gain=0.0417348 0.0121325 0.00934153 0.00710798
threshold=2545.0000000000005 2665.0000000000005 1.5000000000000002 0
decision_type=2 2 2 1
left_child=1 -1 -2 -3
right_child=2 3 -4 -5
leaf_value=0 -0 -0.000325561787888376 0.00034388214749984025 0
leaf_count=105 208 1887 1384 55
internal_value=0 -0.000603753 0.000849455 -0.000824747
internal_count=3639 2047 1592 1942
cat_boundaries=0 1
cat_threshold=4
shrinkage=0.35


Tree=78
num_leaves=4
num_cat=1
split_feature=7 10 6
split_gain=0.417526 0.0329697 0.00969629
threshold=0 2013.5000000000002 11400.000000000002
decision_type=5 2 2
left_child=-1 -2 -3
right_child=1 2 -4
leaf_value=0.00085501596459440575 0 -0.00085830322355845662 0
leaf_count=662 407 2492 78
internal_value=0 -0.00221275 -0.00240013
internal_count=3639 2977 2570
cat_boundaries=0 13
cat_threshold=2160066704 67110400 65920 0 4 1077936128 65536 4096 0 0 0 0 1073741888
shrinkage=0.35


Tree=79
num_leaves=4
num_cat=1
split_feature=7 13 13
split_gain=0.395642 0.031757 0.00981336
threshold=0 2206.0000000000005 4560.5000000000009
decision_type=5 2 2
left_child=-1 -2 -3
right_child=1 2 -4
leaf_value=0.00078046821993192714 0 -0.00088562875817145223 0
leaf_count=732 142 2702 63
internal_value=0 -0.00230604 -0.0024793
internal_count=3639 2907 2765
cat_boundaries=0 13
cat_threshold=12582932 738493952 33554560 256 4 1077936128 65536 4096 0 0 0 0 1073741888
shrinkage=0.35


Tree=80
num_leaves=5
num_cat=0
split_feature=6 13 1 9
split_gain=0.041533 0.0167303 0.00809657 0.00838754
threshold=2475.0000000000005 3618.5000000000005 1.0000000180025095e-35 51.500000000000007
decision_type=2 2 2 2
left_child=1 -1 -2 -4
right_child=2 -3 3 -5
leaf_value=0 -0 -0.00028399387932786211 0.00039730777202162925 -0
leaf_count=512 105 1503 1388 131
internal_value=0 -0.000471528 0.000926613 0.00103426
internal_count=3639 2015 1624 1519
shrinkage=0.35


Tree=81
num_leaves=5
num_cat=3
split_feature=7 3 6 2
split_gain=0.429699 0.0385931 0.026372 9.068e-05
threshold=0 1 9335.0000000000018 2
decision_type=5 5 2 1
left_child=-1 -2 3 -3
right_child=1 2 -4 -5
leaf_value=0.00090997750499178728 0 -0.00086615007556815611 0 0
leaf_count=711 226 2454 176 72
internal_value=0 -0.0021035 -0.00233027 -0.00247399
internal_count=3639 2928 2702 2526
cat_boundaries=0 13 20 21
cat_threshold=4194352 603997697 33554816 256 4 1073741824 65536 4096 0 0 0 0 1073741888 150994952 539033600 0 17 0 0 1 4
shrinkage=0.35


Tree=82
num_leaves=4
num_cat=1
split_feature=7 10 1
split_gain=0.431187 0.0327045 0.00377353
threshold=0 2010.5000000000002 67.500000000000014
decision_type=5 2 2
left_child=-1 -2 -3
right_child=1 2 -4
leaf_value=0.00090404812382421332 0 -0.00082099823469191529 0
leaf_count=684 82 2761 112
internal_value=0 -0.00213325 -0.00232437
internal_count=3639 2955 2873
cat_boundaries=0 13
cat_threshold=4194352 603981312 384 0 4 1077936128 65536 4096 0 0 0 0 1073741888
shrinkage=0.35


Tree=83
num_leaves=5
num_cat=1
split_feature=7 13 6 13
split_gain=0.376483 0.0357587 0.0151073 0.00747929
threshold=0 2723.5000000000005 12570.000000000002 4566.5000000000009
decision_type=5 2 2 2
left_child=-1 -2 3 -3
right_child=1 2 -4 -5
leaf_value=0.00084302579374097189 0 -0.00082222529421509065 0 0
leaf_count=766 295 2476 52 50
internal_value=0 -0.00199918 -0.00222052 -0.00230733
internal_count=3639 2873 2578 2526
cat_boundaries=0 13
cat_threshold=2160066608 604014081 33554816 256 4 1077936128 65536 4096 0 0 0 0 1073741888
shrinkage=0.35


Tree=84
num_leaves=5
num_cat=1
split_feature=7 13 13 1
split_gain=0.39246 0.0311052 0.0127691 0.00702567
threshold=0 2206.0000000000005 4566.5000000000009 1.0000000180025095e-35
decision_type=5 2 2 2
left_child=3 -2 -3 -1
right_child=1 2 -4 -5
leaf_value=-0 0 -0.00083835305709325234 0 0.00084333891939455258
leaf_count=71 155 2687 57 669
internal_value=0 -0.00214321 -0.00232488 0.00237031
internal_count=3639 2899 2744 740
cat_boundaries=0 13
cat_threshold=12583988 67388929 384 0 4 1077936128 65536 4096 0 0 0 0 1073741888
shrinkage=0.35


Tree=85
num_leaves=5
num_cat=1
split_feature=7 13 13 6
split_gain=0.397438 0.0168185 0.00984307 0.00884536
threshold=0 2723.5000000000005 4560.5000000000009 12570.000000000002
decision_type=5 2 2 2
left_child=-1 -2 3 -3
right_child=1 2 -4 -5
leaf_value=0.00085979509993666724 0 -0.00080102526309863329 0 0
leaf_count=828 291 2404 61 55
internal_value=0 -0.00207561 -0.00217963 -0.0022377
internal_count=3639 2811 2520 2459
cat_boundaries=0 13
cat_threshold=2160066608 604261889 33628288 0 4 1077936128 65536 4096 0 0 0 0 1073741888
shrinkage=0.35


Tree=86
num_leaves=4
num_cat=1
split_feature=7 10 6
split_gain=0.444528 0.0228763 0.00421863
threshold=0 2010.5000000000002 20695.000000000004
decision_type=5 2 2
left_child=-1 -2 -3
right_child=1 2 -4
leaf_value=0.00085044919183274725 0 -0.00088321114920980712 0
leaf_count=791 87 2721 40
internal_value=0 -0.00237898 -0.00250152
internal_count=3639 2848 2761
cat_boundaries=0 13
cat_threshold=12584116 100943361 33554560 0 4 1077936128 65536 4096 0 0 0 0 1073741888
shrinkage=0.35


Tree=87
num_leaves=5
num_cat=1
split_feature=7 6 13 13
split_gain=0.44689 0.0374869 0.00685935 0.00385138
threshold=0 9335.0000000000018 1839.5000000000002 4566.5000000000009
decision_type=5 2 2 2
left_child=-1 2 -2 -4
right_child=1 -3 3 -5
leaf_value=0.0008583036098641449 0 0 -0.00091744425982584964 0
leaf_count=691 59 191 2649 49
internal_value=0 -0.00236897 -0.00256728 -0.00260194
internal_count=3639 2948 2757 2698
cat_boundaries=0 13
cat_threshold=12583984 69207553 128 0 4 1077936128 65536 4096 0 0 0 0 1073741888
shrinkage=0.35


Tree=88
num_leaves=4
num_cat=1
split_feature=7 6 10
split_gain=0.380533 0.0200682 0.00562845
threshold=0 9335.0000000000018 2010.5000000000002
decision_type=5 2 2
left_child=-1 2 -2
right_child=1 -3 -4
leaf_value=0.00080261426057907665 0 0 -0.00080685630284368676
leaf_count=831 60 184 2564
internal_value=0 -0.0021544 -0.00227318
internal_count=3639 2808 2624
cat_boundaries=0 13
cat_threshold=2160066740 604243457 65696 0 4 1073741824 65536 4096 0 0 0 0 1073741888
shrinkage=0.35


Tree=89
num_leaves=5
num_cat=1
split_feature=7 6 13 1
split_gain=0.346977 0.0294112 0.00540322 0.00121642
threshold=0 6775.0000000000009 4560.5000000000009 1.0000000180025095e-35
decision_type=5 2 2 2
left_child=3 2 -2 -1
right_child=1 -3 -4 -5
leaf_value=-0 -0.0007654920522095881 0 0 0.00079753436700901782
leaf_count=93 2487 331 61 667
internal_value=0 -0.00196796 -0.00215461 0.00227078
internal_count=3639 2879 2548 760
cat_boundaries=0 13
cat_threshold=12583984 606094848 33620352 256 4 1077936128 65536 4096 0 0 0 0 1073741888
shrinkage=0.35


Tree=90
num_leaves=5
num_cat=1
split_feature=7 13 6 10
split_gain=0.423617 0.0160838 0.0163566 0.00553997
threshold=0 4566.5000000000009 11400.000000000002 2010.5000000000002
decision_type=5 2 2 2
left_child=-1 2 3 -2
right_child=1 -3 -4 -5
leaf_value=0.00085087930174017052 0 0 0 -0.00086471015398303529
leaf_count=726 76 51 129 2657
internal_value=0 -0.00226084 -0.00235204 -0.00244105
internal_count=3639 2913 2862 2733
cat_boundaries=0 13
cat_threshold=12584112 67372545 33620096 0 4 1077936128 65536 4096 0 0 0 0 1073741888
shrinkage=0.35


Tree=91
num_leaves=4
num_cat=1
split_feature=7 10 13
split_gain=0.411048 0.0288879 0.0005033
threshold=0 2010.5000000000002 4566.5000000000009
decision_type=5 2 2
left_child=-1 -2 -3
right_child=1 2 -4
leaf_value=0.00083916470862826923 0 -0.00083658484316422141 0
leaf_count=827 75 2683 54
internal_value=0 -0.00222393 -0.00238732
internal_count=3639 2812 2737
cat_boundaries=0 13
cat_threshold=12583988 604276225 33620352 256 4 1073741824 65536 4096 0 0 0 0 1073741888
shrinkage=0.35


Tree=92
num_leaves=5
num_cat=0
split_feature=6 1 13 9
split_gain=0.0419239 0.0166268 0.0114993 0.00789377
threshold=2475.0000000000005 1.5000000000000002 3558.5000000000005 54.500000000000007
decision_type=2 2 2 2
left_child=2 -2 -1 -3
right_child=1 3 -4 -5
leaf_value=0 -0 0.00043965942139197455 -0.00023550149911139522 -0
leaf_count=501 215 1296 1516 111
internal_value=0 0.000968591 -0.000391207 0.00117125
internal_count=3639 1622 2017 1407
shrinkage=0.35


Tree=93
num_leaves=5
num_cat=1
split_feature=6 13 13 2
split_gain=0.0330568 0.0277275 0.00834663 0.00272162
threshold=3405.0000000000005 3625.0000000000005 4566.5000000000009 0
decision_type=2 2 2 1
left_child=1 -1 3 -3
right_child=-2 2 -4 -5
leaf_value=0 0.00026131500366104486 -0.00040119526084657082 0 0
leaf_count=721 1184 1617 63 54
internal_value=0 -0.000550565 -0.00101263 -0.00111485
internal_count=3639 2455 1734 1671
cat_boundaries=0 1
cat_threshold=4
shrinkage=0.35


Tree=94
num_leaves=5
num_cat=1
split_feature=7 13 13 6
split_gain=0.427556 0.0442157 0.00578027 0.0033013
threshold=0 2206.0000000000005 4566.5000000000009 12215.000000000002
decision_type=5 2 2 2
left_child=-1 -2 3 -3
right_child=1 2 -4 -5
leaf_value=0.00082460359385296044 0 -0.00092350228724065247 0 0
leaf_count=769 140 2595 54 81
internal_value=0 -0.00236026 -0.002593 -0.00262198
internal_count=3639 2870 2730 2676
cat_boundaries=0 13
cat_threshold=2160066608 603981313 33563008 0 4 1073741824 65536 4096 0 0 0 0 1073741888
shrinkage=0.35


Tree=95
num_leaves=5
num_cat=1
split_feature=7 13 6 13
split_gain=0.408815 0.0250769 0.00923404 0.00832196
threshold=0 2206.0000000000005 12570.000000000002 4560.5000000000009
decision_type=5 2 2 2
left_child=-1 -2 3 -3
right_child=1 2 -4 -5
leaf_value=0.00090485982829080719 0 -0.00078809451547512659 0 0
leaf_count=832 147 2527 77 56
internal_value=0 -0.00198939 -0.00214766 -0.00220301
internal_count=3639 2807 2660 2583
cat_boundaries=0 13
cat_threshold=12582964 637552129 33563008 0 4 1077936128 65536 4096 0 0 0 0 1073741888
shrinkage=0.35


Tree=96
num_leaves=5
num_cat=0
split_feature=6 1 13 13
split_gain=0.0333693 0.0191461 0.0121548 0.0038344
threshold=2545.0000000000005 1.5000000000000002 3635.5000000000005 4573.0000000000009
decision_type=2 2 2 2
left_child=2 -2 -1 -4
right_child=1 -3 3 -5
leaf_value=0 -0 0.00038838955030272477 -0.00026030360898859786 0
leaf_count=550 207 1370 1463 49
internal_value=0 0.000855687 -0.000369339 -0.00067319
internal_count=3639 1577 2062 1512
shrinkage=0.35


Tree=97
num_leaves=5
num_cat=1
split_feature=7 13 13 6
split_gain=0.390233 0.0186983 0.0176915 0.0102345
threshold=0 2318.0000000000005 4566.5000000000009 11905.000000000002
decision_type=5 2 2 2
left_child=-1 -2 3 -3
right_child=1 2 -4 -5
leaf_value=0.00080398152364354871 0 -0.00086394282250941206 0 0
leaf_count=728 170 2599 49 93
internal_value=0 -0.00220805 -0.0023164 -0.00241365
internal_count=3639 2911 2741 2692
cat_boundaries=0 13
cat_threshold=4194484 100942848 384 0 4 1077936128 65536 4096 0 0 0 0 1073741888
shrinkage=0.35


Tree=98
num_leaves=5
num_cat=2
split_feature=7 3 13 13
split_gain=0.421608 0.0352546 0.0120475 0.00861389
threshold=0 1 2206.0000000000005 4483.5000000000009
decision_type=5 5 2 2
left_child=3 -2 -3 -1
right_child=1 2 -4 -5
leaf_value=0.00087651693584960054 0 0 -0.00086887998420577138 -0
leaf_count=804 108 136 2547 44
internal_value=0 -0.00221967 -0.00241757 0.00245825
internal_count=3639 2791 2683 848
cat_boundaries=0 13 20
cat_threshold=2151682100 637535745 384 256 4 1077936128 65536 4096 0 0 0 0 1073741888 150994944 536870912 131072 0 0 0 1
shrinkage=0.35


Tree=99
num_leaves=5
num_cat=2
split_feature=7 6 13 2
split_gain=0.330837 0.0265177 0.00705466 0.00123506
threshold=0 4945.0000000000009 4560.5000000000009 1
decision_type=5 2 2 1
left_child=-1 2 3 -2
right_child=1 -3 -4 -5
leaf_value=0.00075144136608954219 -0.00077570332152062543 0 0 0
leaf_count=768 2250 484 66 71
internal_value=0 -0.00199953 -0.00216672 -0.00220882
internal_count=3639 2871 2387 2321
cat_boundaries=0 13 14
cat_threshold=2160066608 604243457 8576 256 4 1073741824 65536 4096 0 0 0 0 1073741888 4
shrinkage=0.35


Tree=100
num_leaves=5
num_cat=2
split_feature=6 1 3 3
split_gain=0.0563866 0.0205861 0.0164149 0.013245
threshold=2475.0000000000005 1.5000000000000002 0 1
decision_type=2 2 5 5
left_child=2 -2 -1 -3
right_child=1 3 -4 -5
leaf_value=0 -0 -0 -0.00027353834248248132 0.00051513572941992648
leaf_count=324 220 116 1664 1315
internal_value=0 0.00113319 -0.000428337 0.00134948
internal_count=3639 1651 1988 1431
cat_boundaries=0 4 9
cat_threshold=12779520 573112321 32 67108880 32832 72 0 16 32
shrinkage=0.35


Tree=101
num_leaves=5
num_cat=1
split_feature=7 6 1 13
split_gain=0.412488 0.0294213 0.0168578 0.0133277
threshold=0 9335.0000000000018 1.0000000180025095e-35 4566.5000000000009
decision_type=5 2 2 2
left_child=2 3 -1 -2
right_child=1 -3 -4 -5
leaf_value=-0 -0.00079730096344217546 0 0.00093310056082488086 0
leaf_count=61 2702 173 648 55
internal_value=0 -0.00201862 0.00258124 -0.00220058
internal_count=3639 2930 709 2757
cat_boundaries=0 13
cat_threshold=12582960 67143169 384 256 4 1077936128 65536 4096 0 0 0 0 1073741888
shrinkage=0.35


Tree=102
num_leaves=4
num_cat=1
split_feature=7 13 13
split_gain=0.35082 0.029162 0.0143298
threshold=0 2723.5000000000005 4560.5000000000009
decision_type=5 2 2
left_child=-1 -2 -3
right_child=1 2 -4
leaf_value=0.00079985831447123093 0 -0.00078593284378252587 0
leaf_count=775 291 2512 61
internal_value=0 -0.00197656 -0.00216087
internal_count=3639 2864 2573
cat_boundaries=0 13
cat_threshold=12582964 235146752 65920 0 4 1077936128 65536 4096 0 0 0 0 1073741888
shrinkage=0.35


Tree=103
num_leaves=5
num_cat=1
split_feature=7 6 13 13
split_gain=0.406572 0.0215189 0.0158951 0.010855
threshold=0 12570.000000000002 2206.0000000000005 4560.5000000000009
decision_type=5 2 2 2
left_child=-1 2 -2 -4
right_child=1 -3 3 -5
leaf_value=0.00088665783083108915 0 0 -0.00081506465028974523 0
leaf_count=837 120 77 2545 60
internal_value=0 -0.00204066 -0.00217392 -0.00226722
internal_count=3639 2802 2725 2605
cat_boundaries=0 13
cat_threshold=12583092 637847040 65664 0 4 1077936128 65536 4096 0 0 0 0 1073741888
shrinkage=0.35


Tree=104
num_leaves=5
num_cat=0
split_feature=6 13 1 13
split_gain=0.0277758 0.0129251 0.00843873 0.00619459
threshold=2415.0000000000005 3635.5000000000005 1.5000000000000002 4566.5000000000009
decision_type=2 2 2 2
left_child=1 -1 -2 -3
right_child=2 3 -4 -5
leaf_value=0 -0 -0.00027007354194560516 0.00032191670200487036 0
leaf_count=529 225 1405 1428 52
internal_value=0 -0.000311697 0.000791053 -0.00065877
internal_count=3639 1986 1653 1457
shrinkage=0.35


Tree=105
num_leaves=5
num_cat=2
split_feature=7 6 3 10
split_gain=0.416903 0.0188378 0.00617862 0.000578568
threshold=0 9335.0000000000018 1 2010.5000000000002
decision_type=5 2 5 2
left_child=-1 2 -2 -4
right_child=1 -3 3 -5
leaf_value=0.00092129484514535595 0 0 0 -0.00075035310520482471
leaf_count=767 118 168 53 2533
internal_value=0 -0.00198101 -0.00210175 -0.00213964
internal_count=3639 2872 2704 2586
cat_boundaries=0 13 15
cat_threshold=2160067632 637797888 128 0 4 1077936128 65536 4096 0 0 0 0 1073741888 142606344 536870912
shrinkage=0.35


Tree=106
num_leaves=5
num_cat=1
split_feature=7 6 1 10
split_gain=0.503446 0.015878 0.00476204 0.000300593
threshold=0 11905.000000000002 1.0000000180025095e-35 2010.5000000000002
decision_type=5 2 2 2
left_child=2 3 -1 -2
right_child=1 -3 -4 -5
leaf_value=-0 0 0 0.00095991507961076458 -0.00086686289181551448
leaf_count=89 69 107 782 2592
internal_value=0 -0.0023892 0.00271879 -0.00247492
internal_count=3639 2768 871 2661
cat_boundaries=0 13
cat_threshold=2160066736 738477569 33620352 0 4 1077936128 65536 4096 0 0 0 0 1073741888
shrinkage=0.35


Tree=107
num_leaves=5
num_cat=2
split_feature=7 3 13 13
split_gain=0.459874 0.0338513 0.0162234 0.00576
threshold=0 1 2206.0000000000005 4566.5000000000009
decision_type=5 5 2 2
left_child=-1 -2 -3 -4
right_child=1 2 3 -5
leaf_value=0.0009100379188923596 0 0 -0.00090373651423464373 0
leaf_count=738 226 138 2483 54
internal_value=0 -0.00228177 -0.00246773 -0.00255277
internal_count=3639 2901 2675 2537
cat_boundaries=0 13 20
cat_threshold=12582960 738477568 33554560 0 4 1073741824 65536 4096 0 0 0 0 1073741888 134283272 538968064 32 1 0 0 1
shrinkage=0.35


Tree=108
num_leaves=5
num_cat=1
split_feature=7 6 13 10
split_gain=0.400827 0.0287964 0.0153367 0.0128923
threshold=0 9335.0000000000018 4560.5000000000009 2010.5000000000002
decision_type=5 2 2 2
left_child=-1 2 3 -2
right_child=1 -3 -4 -5
leaf_value=0.00089843367630837033 0 0 0 -0.00080811100524505952
leaf_count=833 63 173 59 2511
internal_value=0 -0.00196076 -0.00214386 -0.00223499
internal_count=3639 2806 2633 2574
cat_boundaries=0 13
cat_threshold=2160066736 639649280 65920 0 4 1077936128 65536 4096 0 0 0 0 1073741888
shrinkage=0.35


Tree=109
num_leaves=3
num_cat=1
split_feature=7 6
split_gain=0.406426 0.00518704
threshold=0 12215.000000000002
decision_type=5 2
left_child=-1 -2
right_child=1 -3
leaf_value=0.00089236833797301128 -0.00071866038234902428 0
leaf_count=814 2726 99
internal_value=0 -0.00201945
internal_count=3639 2825
cat_boundaries=0 13
cat_threshold=2160067632 235144705 384 256 16777220 1077936128 65536 4096 0 0 0 0 1073741888
shrinkage=0.35


Tree=110
num_leaves=5
num_cat=1
split_feature=7 13 6 13
split_gain=0.436785 0.0270334 0.0168181 0.0130547
threshold=0 2206.0000000000005 11400.000000000002 4573.0000000000009
decision_type=5 2 2 2
left_child=-1 -2 3 -3
right_child=1 2 -4 -5
leaf_value=0.00089871535558323226 0 -0.00087553293909760268 0 0
leaf_count=800 140 2567 90 42
internal_value=0 -0.00218485 -0.00234089 -0.00243267
internal_count=3639 2839 2699 2609
cat_boundaries=0 13
cat_threshold=2160067760 604030464 33554560 256 4 1077936128 65536 4096 0 0 0 0 1073741888
shrinkage=0.35


Tree=111
num_leaves=5
num_cat=2
split_feature=7 6 2 10
split_gain=0.388211 0.0124908 0.00459423 0.00408428
threshold=0 9335.0000000000018 1 2010.5000000000002
decision_type=5 2 1 2
left_child=-1 2 3 -2
right_child=1 -3 -4 -5
leaf_value=0.00083917310781608334 0 0 0 -0.00077548516975588862
leaf_count=844 47 174 73 2501
internal_value=0 -0.00208649 -0.00216384 -0.00219145
internal_count=3639 2795 2621 2548
cat_boundaries=0 13 14
cat_threshold=2160067632 740591104 33620352 256 4 1073741824 65536 4096 0 0 0 0 1073741888 4
shrinkage=0.35


Tree=112
num_leaves=5
num_cat=2
split_feature=7 13 6 2
split_gain=0.422399 0.0373644 0.00284415 0.000295773
threshold=0 2723.5000000000005 16605.000000000004 1
decision_type=5 2 2 1
left_child=-1 -2 3 -3
right_child=1 2 -4 -5
leaf_value=0.00088109748907839926 0 -0.00083671654149771054 0 0
leaf_count=784 290 2450 42 73
internal_value=0 -0.00215755 -0.00237311 -0.00238877
internal_count=3639 2855 2565 2523
cat_boundaries=0 13 14
cat_threshold=12583988 67372545 33628288 256 4 1077936128 65536 4096 0 0 0 0 1073741888 4
shrinkage=0.35


Tree=113
num_leaves=5
num_cat=2
split_feature=7 3 6 1
split_gain=0.413575 0.028965 0.00478234 0.00441031
threshold=0 1 9335.0000000000018 1.0000000180025095e-35
decision_type=5 5 2 2
left_child=3 -2 -3 -1
right_child=1 2 -4 -5
leaf_value=-0 0 -0.00079626996236729301 0 0.00089858808686818991
leaf_count=90 116 2497 157 779
internal_value=0 -0.00207182 -0.0022465 0.00254388
internal_count=3639 2770 2654 869
cat_boundaries=0 13 20
cat_threshold=2151679152 774129153 384 256 4 1077936128 65536 4096 0 0 0 0 1073741888 285212672 538968064 0 1 0 0 1
shrinkage=0.35


Tree=114
num_leaves=5
num_cat=1
split_feature=13 6 13 2
split_gain=0.0349986 0.0335667 0.00977869 0.00356566
threshold=3635.5000000000005 3605.0000000000005 4566.5000000000009 0
decision_type=2 2 2 1
left_child=-1 2 3 -2
right_child=1 -3 -4 -5
leaf_value=0.00028098533775912355 -0.00042699135500673196 0 0 0
leaf_count=1421 1640 458 60 60
internal_value=0 -0.000516282 -0.00106795 -0.00118121
internal_count=3639 2218 1760 1700
cat_boundaries=0 1
cat_threshold=4
shrinkage=0.35


Tree=115
num_leaves=5
num_cat=1
split_feature=7 13 1 6
split_gain=0.428396 0.031871 0.0137414 0.00823674
threshold=0 2318.0000000000005 1.0000000180025095e-35 11400.000000000002
decision_type=5 2 2 2
left_child=2 -2 -1 -3
right_child=1 3 -4 -5
leaf_value=-0 0 -0.00080793936806531524 0.00094125171055598541 0
leaf_count=64 161 2585 749 80
internal_value=0 -0.00206929 0.00262084 -0.00226133
internal_count=3639 2826 813 2665
cat_boundaries=0 13
cat_threshold=12583088 604030465 33628288 256 4 1077936128 65536 4096 0 0 0 0 1073741888
shrinkage=0.35


Tree=116
num_leaves=5
num_cat=1
split_feature=7 6 1 13
split_gain=0.409404 0.0226772 0.00660209 0.00190478
threshold=0 9335.0000000000018 1.0000000180025095e-35 4560.5000000000009
decision_type=5 2 2 2
left_child=2 3 -1 -2
right_child=1 -3 -4 -5
leaf_value=-0 -0.00079063941099408836 0 0.00088351447845759642 0
leaf_count=78 2587 179 735 60
internal_value=0 -0.00211168 0.00248903 -0.0022478
internal_count=3639 2826 813 2647
cat_boundaries=0 13
cat_threshold=2160067632 639895041 33554816 0 4 1077936128 65536 4096 0 0 0 0 1073741888
shrinkage=0.35


Tree=117
num_leaves=5
num_cat=1
split_feature=7 13 13 6
split_gain=0.48803 0.0104946 0.00677386 0.00657196
threshold=0 2108.5000000000005 4566.5000000000009 11400.000000000002
decision_type=5 2 2 2
left_child=-1 -2 3 -3
right_child=1 2 -4 -5
leaf_value=0.00094002196590832455 0 -0.00086534833280671756 0 0
leaf_count=784 130 2574 52 99
internal_value=0 -0.00234231 -0.00240079 -0.00243732
internal_count=3639 2855 2725 2673
cat_boundaries=0 13
cat_threshold=12584112 606078464 33554560 256 4 1077936128 65536 4096 0 0 0 0 1073741888
shrinkage=0.35


Tree=118
num_leaves=5
num_cat=2
split_feature=7 10 1 2
split_gain=0.409414 0.0245954 0.0132618 0.00145567
threshold=0 2012.5000000000002 1.0000000180025095e-35 1
decision_type=5 2 2 1
left_child=2 -2 -1 -3
right_child=1 3 -4 -5
leaf_value=-0 0 -0.00079726750161422135 0.00089231008626670255 0
leaf_count=89 248 2526 705 71
internal_value=0 -0.00212269 0.00247968 -0.00226937
internal_count=3639 2845 794 2597
cat_boundaries=0 13 14
cat_threshold=12582960 637535745 33620128 256 4 1077936128 65536 4096 0 0 0 0 1073741888 4
shrinkage=0.35


Tree=119
num_leaves=5
num_cat=1
split_feature=6 3 13 1
split_gain=0.0548543 0.0203346 0.0139916 0.0123858
threshold=2415.0000000000005 0 3635.5000000000005 1.0000000180025095e-35
decision_type=2 5 2 2
left_child=2 -2 -1 -3
right_child=1 3 -4 -5
leaf_value=0 -0 -0 -0.00024168119722839751 0.00051547126645524576
leaf_count=529 104 109 1452 1445
internal_value=0 0.00114699 -0.000334926 0.00135829
internal_count=3639 1658 1981 1554
cat_boundaries=0 7
cat_threshold=2147487744 8 256 16 32 0 4
shrinkage=0.35


Tree=120
num_leaves=5
num_cat=2
split_feature=7 3 6 1
split_gain=0.353384 0.0269807 0.0190137 0.00891038
threshold=0 1 9335.0000000000018 1.0000000180025095e-35
decision_type=5 5 2 2
left_child=3 -2 -3 -1
right_child=1 2 -4 -5
leaf_value=-0 0 -0.00074984682177646359 0 0.00086062059104054917
leaf_count=58 106 2600 192 683
internal_value=0 -0.00184117 -0.00202283 0.00241032
internal_count=3639 2898 2792 741
cat_boundaries=0 13 20
cat_threshold=12582960 604243456 65920 256 4 1077936128 65536 4096 0 0 0 0 1073741888 134217728 536936448 0 1 0 0 1
shrinkage=0.35



feature importances:
date_delta=153
car_like=100
mileage=92
fans_count=38
regis_year=30
location=28
gender=15
all_post_count=4

pandas_categorical:null
